tree
version=v4
num_class=1
num_tree_per_iteration=1
label_index=0
max_feature_idx=13
objective=cross_entropy
feature_names=adm_past_year agegroup_rm an110mdc_ra count_proc drg11_type_m flag_emergency indstat_flag pat_remoteness cc_acute_myocardial_function cc_chronic_heart_failure cc_congestive_heart_failure cc_diabetes_complications cc_ischaemic_heart_disease cc_renal_disease
feature_infos=[0:270] -1:7:6:3:5:2:4:8:0:1:9 -1:6:5:8:14:1:4:11:3:21:9:23:2:13:10:7:18:19:12:20:16:22:15:0:17 [0:50] -1:1:0 -1:1:0 -1:0:1 -1:0:1:2:3 -1:0:1 -1:0 -1:0:1 -1:0:1 -1:0:1 -1:0:1
tree_sizes=3305 3375 3397 3391 3421 3382 3403 3396 3408 3449 3391 3417 3414 3426 3410 3433 3442 3470 3421 3491 3457 3449 3447 3372 3463 3415 3437 3418 3459 3414 3384 3437 3287 3457 3445 3420 3453 3459 3423 3147 3488 3415 3177 3414 3355 3488 3429 3450 3471 3498 3362 3452 3318 3191 3475 3426 3460 3364 3368 3261 3321 3290 3324 3240 3198 3483 3281 3299 3503 3312 3498 3349 3319 3134 3267 3406 3468 3243 3356 3044 3460 3307 3455 3465 3307 3478 3218 3196 3256 3435 3479 3476 3227 3433 2343 3244 3167 2545 2259 3431 3258 3498 3449 2975 3374 3179 3423 2441 3468 3480 3348 3464 3164 3429 2458 3410 3274 3521 3162 3297 2444 3108 3423 3090 2309 3311 3020 2630 3495 3468 2118 3109 3213 3488 3227 2098 3345 3518 3477 3052 2791 3091 2728 1989 3325 2841 3498 2015 2726 3504 3505 2920 3379 2586 2327 3509 3460 2971 3517 2947 3421 3521 3480 3386 3462 3412 3090 1988 3520 2339 2464 2426 3461 3406 3459 3321 2952 3462 2362 2725 3299 2621 2517 3373 3482 2323 2580 2955 2089 2396 3404 3253 3252 3341 3166 3235 3451 3487 3490 3483 3061 3089 2960 3489 3415

Tree=0
num_leaves=32
num_cat=24
split_feature=10 2 2 8 0 4 0 1 4 0 0 4 5 0 1 5 13 2 13 2 5 0 5 5 12 0 13 8 13 6 4
split_gain=166870 49397.9 46966.6 19857.9 19460.5 15101.3 7289.22 4540.58 4279.46 4091.93 3616.77 2645.04 2355.77 1901.21 1871.38 1299.13 1294.07 1201.86 895.451 844.452 820.506 652.278 634.712 512.207 503.456 451.62 353.094 335.314 245.666 240.539 213.819
threshold=0 1 2 3 2.5000000000000004 4 1.5000000000000002 5 6 6.5000000000000009 2.5000000000000004 7 8 1.0000000180025095e-35 9 10 11 12 13 14 15 4.5000000000000009 16 17 18 2.5000000000000004 19 20 21 22 23
decision_type=1 9 9 1 2 1 2 1 1 2 2 1 1 2 1 1 1 9 1 9 1 2 1 1 1 2 1 1 1 1 1
left_child=2 4 3 6 11 15 14 16 9 -6 17 13 -8 -2 -1 -5 19 26 24 -4 -13 30 -10 -23 -9 -7 -3 -18 -19 -20 -12
right_child=1 10 7 5 8 25 12 18 22 -11 21 20 -14 -15 -16 -17 27 28 29 -21 -22 23 -24 -25 -26 -27 -28 -29 -30 -31 -32
leaf_value=-5.3040476501749581 -4.3459667193672153 -5.0007910095326293 -5.4052576292042627 -3.7909220141079558 -3.1894668031583104 -5.0518661466145192 -4.9789856612632937 -5.5521014221729494 -3.8610273832792457 -2.0788322650365063 -4.79346531680652 -4.4985299974748258 -5.2936889788698753 -3.9292226449599932 -5.4692939265416962 -5.0270166565324397 -5.3570833889426241 -5.2718957990334676 -5.4575703455387039 -5.49414219181251 -5.116028193883313 -4.4851506355434196 -4.7906703580568131 -5.008194226679219 -5.4469632373264227 -4.5836262340323453 -4.7536858406727456 -4.7754815811569618 -5.0927490626142893 -5.2964196719571826 -5.0934233257238732
leaf_weight=2536.2289582239464 197.14134486019611 216.53892166912556 1219.8541667582467 164.38688627723604 149.90184682421386 290.31117287930101 884.86289833858609 32551.470182069577 20.630973077379167 42.600581012666225 152.55806882213801 84.224547915160656 325.31352773308754 246.15306074265391 945.3540395591408 8.9663278218358737 784.33478814456612 327.75927255209535 468.58955296501517 8218.9780835704878 28.902726208791137 131.35880736168474 11.403653553687034 21.834902540780604 461.91321684978902 22.17166602704674 78.895265744999051 10.039761434309183 99.871421395801008 115.44252309203148 28.149217908270657
leaf_count=602495 46832 51440 289783 39051 35610 68965 210204 7732779 4901 10120 36241 20008 77280 58475 224574 2130 186323 77861 111316 1952463 6866 31205 2709 5187 109730 5267 18742 2385 23725 27424 6687
internal_value=-5.46193 -4.52646 -5.49701 -5.21246 -3.92724 -4.60339 -5.275 -5.53067 -3.12178 -2.94368 -4.9882 -4.2247 -5.06358 -4.11456 -5.34848 -3.85486 -5.4723 -5.10942 -5.54843 -5.48263 -4.65629 -4.7115 -4.19196 -4.5597 -5.55063 -5.01864 -4.95206 -5.34973 -5.23536 -5.42572 -4.84019
internal_weight=0 1837.92 49008.2 5177.6 780.959 485.836 4691.76 43830.6 224.537 192.502 1056.97 556.422 1210.18 443.294 3481.58 173.353 10233.2 723.065 33597.4 9438.83 113.127 333.901 32.0346 153.194 33013.4 312.483 295.434 794.375 427.631 584.032 180.707
internal_count=12078778 436609 11642169 1229966 185521 115413 1114553 10412203 53340 45730 251088 132181 287484 105307 827069 41181 2430954 171768 7981249 2242246 26874 79320 7610 36392 7842509 74232 70182 188708 101586 138740 42928
cat_boundaries=0 1 2 3 4 5 6 7 8 9 10 11 12 13 14 15 16 17 18 19 20 21 22 23 24
cat_threshold=1 32 32 1 2 896 2 2 2 992 2 1 3088 1 1040 2 2 2 1 1 1 1 1 2
is_linear=0
shrinkage=1


Tree=1
num_leaves=32
num_cat=23
split_feature=2 10 1 1 5 0 11 8 2 5 8 8 0 0 0 12 13 7 0 13 10 3 8 1 0 6 5 8 4 12 0
split_gain=44453.3 16629.5 4365.01 2436.89 1723.78 990.773 872.313 637.242 633.767 607.219 514.279 460.452 431.891 407.277 405.72 371.61 341.012 242.631 223.202 191.246 171.029 148.885 141.308 129.796 101.723 90.9847 75.0978 58.3161 37.3766 23.4279 15.7922
threshold=0 1 2 3 4 1.5000000000000002 5 6 7 8 9 10 6.5000000000000009 1.0000000180025095e-35 1.0000000180025095e-35 11 12 13 1.0000000180025095e-35 14 15 1.5000000000000002 16 17 1.0000000180025095e-35 18 19 20 21 22 1.0000000180025095e-35
decision_type=9 1 1 1 1 2 1 1 9 1 1 1 2 2 2 1 1 1 2 1 1 2 1 1 2 1 1 1 1 1 2
left_child=3 2 5 4 7 11 15 12 14 -7 13 -2 -1 20 26 -4 -8 -9 22 -16 -5 25 -6 -15 29 -12 -3 -20 -26 -10 -23
right_child=1 8 6 10 18 9 16 17 24 -11 21 -13 -14 23 19 -17 -18 -19 27 -21 -22 30 -24 -25 28 -27 -28 -29 -30 -31 -32
leaf_value=0.20159843012248935 -0.033360454985060066 0.20524770760773753 -0.090322885486726082 -0.022997852576806782 0.013396245105340758 0.067498235423824979 -0.035267747831046574 0.37148870651680055 0.060512621024092619 -0.021579903161829141 0.28210559084577524 0.30339500612778642 0.12970436739874824 0.12680044777949948 0.29419962447227777 0.0082936918135717644 0.082058197208216013 0.23749087095019297 0.10426745814606507 0.39273234102518573 0.20917014846719528 0.10931137193294611 0.31171482688641855 0.042096263754183239 0.19360405713424828 0.56529638062533993 0.014965579692075494 0.2071181297289138 0.11434038343586198 0.1471414147249181 0.19817195451091574
leaf_weight=5999.591794016771 6784.9904351099394 266.40439662523568 28980.202831208706 724.58555405633524 428.34676268370822 2116.4152540545911 1159.3288777663838 245.89923225063831 109.90536668710411 1198.6573395179585 53.853693152777851 40.847175670787692 970.78433141391724 426.16982010565698 594.67330935224891 387.2150979959406 315.05466338433325 1218.9730220362544 845.3802779824473 294.55583126563579 33.182664593681693 52.331686615012586 16.489611404947937 368.85087470058352 350.90447790501639 14.37307164352387 22.492230011615902 58.974047213792801 71.635836333967745 43.603833430446684 32.371200641617179
leaf_count=739228 1631250 40913 7521029 173391 84594 501784 298604 17494 20874 289629 2688 8291 34748 58615 80149 90550 71066 92845 130629 34886 2822 7257 2560 56740 50252 673 3742 7530 12104 8168 3673
internal_value=0 -0.0536068 -0.0665248 0.167874 0.187208 -0.00955285 -0.0852267 0.204186 0.247891 0.0352895 0.0565271 -0.0313452 0.191586 0.0396265 0.29092 -0.0890226 -0.0101969 0.264141 0.0824483 0.326838 -0.0128312 0.231825 0.0244546 0.0896263 0.152195 0.341764 0.190433 0.110974 0.180166 0.0851193 0.143272
internal_weight=0 42736.9 40982.7 11490.2 9784.44 10140.9 30841.8 8435.25 1754.18 3315.07 1705.72 6825.84 6970.38 1552.79 1178.13 29367.4 1474.38 1464.87 1349.19 889.229 757.768 152.93 444.836 795.021 576.05 68.2268 288.897 904.354 422.54 153.509 84.7029
internal_count=12078778 10663291 10412203 1415487 1109628 2430954 7981249 884315 251088 791413 305859 1639541 773976 291568 159690 7611579 369670 110339 225313 115035 176213 14291 87154 115355 91398 3361 44655 138159 62356 29042 10930
cat_boundaries=0 1 2 3 4 5 6 7 8 9 10 11 12 13 14 15 16 17 18 19 20 21 22 23
cat_threshold=32 1 896 992 2 1 1 8392280 2 1 1 1 1 12 1 1 1 17 1 2 1 2 1
is_linear=0
shrinkage=0.1


Tree=2
num_leaves=32
num_cat=22
split_feature=2 10 1 1 5 12 0 13 11 2 1 12 0 13 4 0 0 10 10 0 8 8 2 2 3 13 0 8 8 0 3
split_gain=32785.6 6887.2 5101.23 2979.03 1165.7 915.503 756.915 694.065 651.469 477.682 471.946 263.129 233.193 218.275 171.346 170.031 144.344 138.37 128.019 111.398 98.3115 84.1421 80.9646 62.5347 62.0247 41.9313 31.0169 29.9336 29.5551 23.5458 13.1042
threshold=0 1 2 3 4 5 1.0000000180025095e-35 6 7 8 9 10 1.0000000180025095e-35 11 12 6.5000000000000009 1.5000000000000002 13 14 1.0000000180025095e-35 15 16 17 18 1.5000000000000002 19 1.5000000000000002 20 21 31.500000000000004 10.500000000000002
decision_type=9 1 1 1 1 1 2 1 1 9 1 1 2 1 1 2 2 1 1 2 1 1 9 9 2 1 2 1 1 2 2
left_child=2 3 9 7 5 6 -4 10 11 17 -2 -5 20 -10 19 -7 -9 21 25 28 -6 -1 -21 -14 -20 -11 27 -16 -3 -19 -28
right_child=1 14 4 8 12 15 -8 16 13 18 -12 -13 23 -15 26 -17 -18 29 24 22 -22 -23 -24 -25 -26 -27 30 -29 -30 -31 -32
leaf_value=-0.012727455855492915 -0.00060866953064012521 0.10260473334728254 0.086712712932226835 -0.090952003774310577 -0.0065006948588440597 0.18881516640587406 0.14271481364236843 0.032533816366021102 -0.040520281498857121 -0.095209246608029624 -0.049151012097078652 -0.0025165937051672945 0.085368445427923142 0.054776544446484332 0.028736197978841468 0.12429191308441044 0.11905621218090839 0.13258864004281595 0.67093878929615824 0.21310465497985254 0.19632948030956332 0.13880133624128696 0.13700177015868062 0.017984268509119935 0.063173860769003345 0.21071485377289184 0.11936213962142708 0.29852868394249954 0.31977817990271218 -0.065818065268193601 -0.018995280228402696
leaf_weight=729.19646278163418 3591.2025422961451 259.7259170524776 3990.9346028752625 24662.785499569727 594.66925676562823 3007.7351088905707 6105.8760862445924 434.55704014608636 1042.4723044061102 1068.9204467963427 4535.8769348454662 341.10043465299532 1084.7200704058632 312.37137979827821 119.77857190510258 472.58029165677726 346.60610717441887 93.658968870993704 3.1082112211734048 520.1649678722024 24.897271253401414 38.584757190197706 464.4575469205156 181.6694932107348 3.6522232070565224 4.4992017024196675 105.77884626202285 4.2586501371115437 6.4213490281254044 6.3894205112010232 7.3191516427323213
leaf_count=156650 885657 39934 615312 7000909 125440 288370 591102 94569 278120 303578 1125269 79119 150279 65073 18972 17239 70359 3284 283 49834 2911 2849 53488 43238 361 1022 12962 679 983 69 864
internal_value=0 -0.0602601 0.106285 -0.0691679 0.12551 0.135825 0.120579 -0.0190871 -0.0860534 -0.046187 -0.0277623 -0.0897456 0.0519227 -0.0185487 0.15047 0.180054 0.0709242 0.00919583 -0.0903584 0.165246 0.00165003 -0.00511239 0.180762 0.076518 0.342603 -0.093927 0.0725336 0.0379992 0.107844 0.119918 0.110408
internal_weight=0 36754.9 17411.1 35267 15463.1 13577.1 10096.8 8908.24 26358.7 1948.01 8127.08 25003.9 1885.96 1354.84 1487.91 3480.32 781.163 867.83 1080.18 1250.77 619.567 767.781 984.623 1266.39 6.76043 1073.42 237.135 124.037 266.147 100.048 113.098
internal_count=12078778 9776791 2301987 9599075 1833891 1512023 1206414 2175854 7423221 468096 2010926 7080028 321868 343193 177716 305609 164928 162852 305244 144239 128351 159499 103322 193517 644 304600 33477 19651 40917 3353 13826
cat_boundaries=0 1 2 3 4 5 6 7 8 9 10 11 12 13 14 15 16 17 18 19 20 21 22
cat_threshold=48 1 15 896 2 1 1 1 32 768 1 1 2 1 1 1 1 10488904 32 1 1 1
is_linear=0
shrinkage=0.1


Tree=3
num_leaves=32
num_cat=23
split_feature=2 10 1 1 1 11 12 0 8 2 1 13 0 12 2 12 0 10 0 4 10 8 0 0 13 2 5 11 13 0 0
split_gain=25508.8 5481.69 3455.22 2892.01 824.465 645.563 644.527 556.315 653.887 441.968 405.373 346.39 391.142 258.164 234.406 208.959 179.694 122.673 117.999 93.0217 85.6079 69.5225 56.7112 33.6029 33.5396 32.7417 23.7816 19.8971 15.3667 12.5788 11.7181
threshold=0 1 2 3 4 5 6 1.5000000000000002 7 8 9 10 6.5000000000000009 11 12 13 3.5000000000000004 14 2.5000000000000004 15 16 17 1.0000000180025095e-35 9.5000000000000018 18 19 20 21 22 1.0000000180025095e-35 37.500000000000007
decision_type=9 1 1 1 1 1 1 2 1 9 1 1 2 1 9 1 2 1 2 1 1 1 2 2 1 9 1 1 1 2 2
left_child=2 3 9 6 11 13 10 8 -6 18 -2 14 -13 -5 -4 -7 -8 -9 21 22 24 -1 28 -22 -11 -24 -20 30 -3 -29 -21
right_child=1 19 4 5 7 15 16 17 -10 20 -12 12 -14 -15 -16 -17 -18 -19 26 27 23 -23 25 -25 -26 -27 -28 29 -30 -31 -32
leaf_value=-0.020397608889366595 -0.0023521092965931045 0.072054740284686405 0.11710664441824639 -0.090032177930488122 0.032497023729333621 -0.03145717148238017 0.039023632483207837 0.12656975645367963 0.12828162242707836 -0.09466670753835231 -0.048433412486034562 0.17247098497114977 0.06046243650357716 -0.0022709101413118543 0.072722586306362941 0.092166267047886233 0.15623335500316962 0.083487379795662814 0.088521560853640741 0.037152552295658565 0.11926313728051724 0.11374958204966423 0.15124449038285759 0.60997885214789838 0.15202056880025019 0.10104203297064836 -0.0081294752527181213 0.026665725267167942 0.12222738351987408 0.11515497528151881 0.53735139018873945
leaf_weight=628.91885060630739 3500.8465578616597 210.12060264591128 6408.920286252629 22532.491155580617 3584.3747030585073 1176.4448383916169 884.93109613656998 1605.3309168748092 889.5922342161648 972.4679948608391 4208.4990438288078 1811.8856211863458 376.56260729534552 340.25053073465824 1633.9318668940105 154.70923393219709 153.48619808326475 1123.4450134532526 175.48845019703731 158.75591606460512 8.1444167215377075 41.161803678609431 756.33725317567587 1.6839925460517395 5.5428444221615782 415.03796534938738 29.778190962504596 20.413337385747582 86.041486086323857 75.39975877571851 0.46973810438066621
leaf_count=139411 847148 31003 516264 7000909 611704 308091 215033 218718 60249 303578 1079747 114555 9645 79119 274496 35102 33926 28260 16054 22038 569 2755 60401 75 1022 42921 4632 3070 9914 8329 40
internal_value=0 -0.0578461 0.0855649 -0.0669536 0.099409 -0.0847518 -0.0175914 0.0731455 0.0515426 -0.0438147 -0.0275736 0.117809 0.153198 -0.0887267 0.108326 -0.0170894 0.0563481 0.108833 0.00807155 0.116039 -0.0894124 -0.0121572 0.125726 0.203342 -0.0932686 0.135611 0.0745003 0.0602951 0.086631 0.096302 0.0386282
internal_weight=0 34674.2 19297.2 32951.7 17434 24203.9 8747.76 7202.74 4473.97 1863.19 7709.35 10231.3 2188.45 22872.7 8042.85 1331.15 1038.42 2728.78 875.347 1722.58 987.839 670.081 1467.54 9.82841 978.011 1171.38 205.267 255.039 296.162 95.8131 159.226
internal_count=12078778 9776791 2301987 9599075 1833891 7423221 2175854 918931 671953 468096 1926895 914960 124200 7080028 790760 343193 248959 246978 162852 177716 305244 142166 144239 644 304600 103322 20686 33477 40917 11399 22078
cat_boundaries=0 1 2 3 4 5 6 7 8 9 10 11 12 13 14 15 16 17 18 19 20 21 22 23
cat_threshold=48 1 15 896 896 1 1 1 32 768 1 1 32 1 1 2 1 1 1 10489416 2 1 1
is_linear=0
shrinkage=0.1


Tree=4
num_leaves=32
num_cat=21
split_feature=2 1 1 10 10 11 5 0 7 3 2 1 5 1 8 0 0 3 5 10 10 0 13 0 3 4 13 5 11 3 3
split_gain=20248.2 4616.36 2447.92 1612.93 1066.2 637.337 596.222 584.282 441.319 633.098 408.116 278.989 274.973 220.873 213.653 205.874 132.964 90.8404 132.413 68.9078 67.4783 63.8999 62.2906 46.9075 46.5612 30.6313 28.411 20.7528 19.1303 14.238 14.2071
threshold=0 1 2 3 4 5 6 1.5000000000000002 7 1.0000000180025095e-35 8 9 10 11 12 2.5000000000000004 1.0000000180025095e-35 1.0000000180025095e-35 13 14 15 3.5000000000000004 16 6.5000000000000009 2.5000000000000004 17 18 19 20 1.5000000000000002 3.5000000000000004
decision_type=9 1 1 1 1 1 1 2 1 2 9 1 1 1 1 2 2 2 1 1 1 2 1 2 2 1 1 1 1 2 2
left_child=2 3 10 7 5 11 8 13 9 -4 17 -3 -9 -2 -10 -7 19 21 -19 -8 26 -1 25 27 -18 -5 -12 -6 -25 -24 -22
right_child=1 4 6 22 23 15 16 12 14 -11 20 -13 -14 -15 -16 -17 24 18 -20 -21 30 -23 29 28 -26 -27 -28 -29 -30 -31 -32
leaf_value=-0.030592885667498328 -0.013906882321179327 -0.069441679030539993 0.044670795165306865 0.086848260829557045 0.078810713929929443 -0.04497229379536874 -0.013858641643207834 0.043066618182979473 0.099897316217861354 0.094067555761766092 -0.094079625638123499 -0.095301928394545918 -0.020130295235072353 -0.05368830118298238 0.14669678957617641 0.038018270534250123 0.033318597544309984 0.097397615052596517 -0.036835785058152638 0.11962305501068921 0.1927149028542878 0.067143718068598299 0.10002722555637696 0.21014006965674492 0.069074049784101837 0.035696933644747623 0.11670316291416578 0.0099970338443868476 0.11131526311954559 0.13374571735396776 -0.10140899658725605
leaf_weight=483.77793493587524 2656.9841792276129 6276.2727209343575 4219.2953487588093 859.8299213051796 249.83029138855636 848.21647716825828 625.28671076148748 1868.7175165726803 4810.166451422032 6738.2612272873521 885.14469737838954 14667.151648832252 1090.1273147151805 2986.8798846174031 1223.653842038475 461.57198220258579 883.45950213819742 206.55069518415257 114.07119086757302 41.224300133064389 10.148252320475875 77.627667755819857 193.4695434817113 33.646479426883161 619.64281077100895 135.52425219770521 6.4411652088165274 53.14907508995384 46.880416330881417 355.05441824533045 1.9593563424423326
leaf_count=105807 657476 2098102 459423 83261 22680 228299 123970 422822 461598 538061 303578 4981926 280627 814929 52941 114894 113584 25245 24157 4381 480 7643 14168 1911 79933 18404 1022 6020 2594 28678 164
internal_value=0 -0.0553918 0.0704512 0.000679332 -0.080514 -0.0833987 0.0808963 -0.0162103 0.0872419 0.0749785 -0.0414528 -0.0876309 0.019783 -0.03508 0.109207 -0.0157263 0.0315737 0.0070936 0.0496399 -0.00560268 -0.0883944 -0.0170785 0.0947949 0.0847695 0.0480585 0.0798837 -0.0925568 0.0667393 0.152607 0.121853 0.145117
internal_weight=0 32783.3 20946.7 10146.6 22636.7 22253.2 19161 8602.71 16991.4 10957.6 1785.72 20943.4 2958.84 5643.86 6033.82 1309.79 2169.61 882.027 320.622 666.511 903.693 561.406 1543.88 383.506 1503.1 995.354 891.586 302.979 80.5269 548.524 12.1076
internal_count=12078778 9776791 2301987 2320365 7456426 7423221 1833891 2175854 1512023 997484 468096 7080028 703449 1472405 514539 343193 321868 162852 49402 128351 305244 113450 144511 33205 193517 101665 304600 28700 4505 42846 644
cat_boundaries=0 1 2 3 4 5 6 7 8 9 10 11 12 13 14 15 16 17 18 19 20 21
cat_threshold=48 896 15 1 1 1 2 1 32 96 2 768 1 2 1 1 1 2 1 2 1
is_linear=0
shrinkage=0.1


Tree=5
num_leaves=32
num_cat=24
split_feature=2 1 1 10 13 1 12 1 2 10 2 10 7 13 0 10 0 13 0 12 0 10 0 8 0 10 13 13 8 5 3
split_gain=16297.1 4357.42 1791.32 1710.67 728.694 552.171 535.227 475.5 555.701 788.073 375.619 319.472 285.187 210.033 188.548 412.265 161.429 101.306 100.363 80.0536 75.7604 56.9284 41.5937 35.1471 33.0778 27.2327 25.8812 24.896 24.8477 19.6058 9.25772
threshold=0 1 2 3 4 5 6 7 8 9 10 11 12 13 6.5000000000000009 14 5.5000000000000009 15 153.50000000000003 16 1.0000000180025095e-35 17 1.0000000180025095e-35 18 1.0000000180025095e-35 19 20 21 22 23 3.5000000000000004
decision_type=9 1 1 1 1 1 1 1 9 1 9 1 1 1 2 1 2 1 2 1 2 1 2 1 2 1 1 1 1 1 2
left_child=2 3 10 4 5 -2 11 14 12 -10 20 13 -9 -3 17 -16 24 -4 -18 -6 23 27 28 -1 -8 -22 -24 -12 -5 -13 -23
right_child=1 6 7 22 19 -7 16 8 9 -11 21 29 -14 -15 15 -17 18 -19 -20 -21 25 30 26 -25 -26 -27 -28 -29 -30 -31 -32
leaf_value=-0.032335384619879171 -0.00093024562223180309 -0.091384888105901799 0.086915769999750786 0.042912843647647608 0.037248763472987043 -0.048791364715038615 -0.038260388354257498 0.1037645801963667 -0.016144785869236674 0.12439169508341 -0.093443913360074599 0.079864311671907495 0.058823262749141597 -0.0023334042854224412 0.22997539312794171 0.0013474644006815049 0.21429694165236884 0.11657435122849749 3.0133576554251436 0.099317349589654894 0.021357091508831309 0.14319480394609604 0.073366557416123232 0.074735859706904703 0.052178096149987835 0.079717019365842717 0.10018424097435619 0.092990149821853607 0.18106480586617571 -0.030916150395756993 -0.10127386600023203
leaf_weight=394.88701851060614 3602.738810678944 16528.675659414381 4700.5824071904644 391.51946628605947 769.54218283994123 7320.2700515883043 62.716961187543347 1700.8512701089494 1934.1163102386054 502.72865264443681 806.09106399212033 116.22352040139958 9703.4011633279733 269.16587077942677 92.9816272277385 519.72059871535748 51.367825034307316 1525.4315266129561 0.1284204563125958 284.66183948516846 357.06159270228818 12.160390731878577 947.4667565994896 33.238574833609164 113.86589915538207 103.02976287901402 580.2637429041788 7.2269528484903267 13.466617775615303 18.521511575672776 1.7751441840082396
leaf_count=98041 885657 6110953 363456 47631 163350 2273232 14884 123062 385779 35452 303578 8711 838597 70245 10118 5643 7997 71784 16 52366 60672 480 78244 1928 23448 2211 36806 1022 1309 1942 164
internal_value=0 -0.0529155 0.0589654 -0.0112927 -0.0253881 -0.0330508 -0.0866276 0.0671187 0.0563283 0.0127958 -0.0391409 -0.0887277 0.0656109 -0.0899579 0.0888436 0.0360433 0.065489 0.0941824 0.221277 0.0540089 0.00618371 -0.0872982 0.0759993 -0.0240226 0.020057 0.0344258 0.0835525 -0.0917873 0.0475067 0.0646369 0.112054
internal_weight=0 31070.6 22395.3 13909.9 11977.2 10923 17160.7 20679.8 13841.1 2436.84 1715.47 16932.6 11404.3 16797.8 6838.72 612.702 228.079 6226.01 51.4962 1054.2 888.217 827.254 1932.72 428.126 176.583 460.091 1527.73 813.318 404.986 134.745 13.9355
internal_count=12078778 9776791 2301987 3538595 3374605 3158889 6238196 1833891 1382890 421231 468096 6191851 961659 6181198 451001 15761 46345 435240 8013 215716 162852 305244 163990 99969 38332 62883 115050 304600 48940 10653 644
cat_boundaries=0 1 2 3 4 5 6 7 8 9 10 11 12 13 14 15 16 17 18 19 20 21 22 23 24
cat_threshold=48 960 15 1 1 768 1 768 32 1 32 1 12 1 1 1 1 1 1 1 1 1 1 2
is_linear=0
shrinkage=0.1


Tree=6
num_leaves=32
num_cat=24
split_feature=2 1 1 10 0 12 1 2 5 1 10 7 5 0 13 11 8 0 0 3 5 6 10 7 2 8 7 13 0 5 0
split_gain=13239.1 4126.73 1344.25 1320.13 702.028 472.552 367.369 344.815 331.422 313.872 285.96 272.477 258.488 213.271 206.615 196.029 156.401 100.088 79.0296 63.6091 89.716 54.6051 52.6465 46.6356 36.0588 36.1262 26.553 21.9793 18.3061 13.6315 6.13056
threshold=0 1 2 3 1.5000000000000002 4 5 6 7 8 9 10 11 1.0000000180025095e-35 12 13 14 3.5000000000000004 1.5000000000000002 1.0000000180025095e-35 15 16 17 18 19 20 21 22 1.0000000180025095e-35 23 9.5000000000000018
decision_type=9 1 1 1 2 1 1 9 1 1 1 1 1 2 1 1 1 2 2 2 1 1 1 1 9 1 1 1 2 1 2
left_child=2 3 7 4 9 10 11 19 -6 -2 14 13 15 -4 -3 -8 -13 28 -14 23 -21 -19 27 -1 26 -26 -5 -9 -7 -12 -24
right_child=1 5 6 24 8 17 12 22 -10 -11 29 16 18 -15 -16 -17 -18 21 -20 20 -22 -23 30 -25 25 -27 -28 -29 -30 -31 -32
leaf_value=0.05537773672513098 -0.01312314426635983 -0.09052788423122976 -0.016487566349473737 0.053126563323793743 0.033247959988163468 -0.039910329097043326 0.061272957152924003 -0.092671782709765713 -0.025593799637795425 -0.055920711793332578 0.066361080229134645 0.046621141097288238 0.0083403871986755824 0.038183723725811518 -0.0019800937268863316 0.088290817699199553 0.11896787992487695 0.073594630378018375 0.050439151498011037 0.07468725909851473 -0.034796294374915597 0.23268421842793266 0.055247679260262576 -0.02672768687092951 0.069516874105994553 0.17288631064129661 0.0043496244360463603 0.073770880240551381 0.031059320981027323 -0.027562344977864785 0.19809723847095495
leaf_weight=71.526359647279605 2631.969187118113 15081.068109000567 1370.8113717809319 402.11435690801591 2454.9106188684236 59.489515071269125 12210.064027131069 739.62377625331283 1568.9976256722584 5020.2229634404648 122.46963511034846 1364.3508386570029 993.94636014243588 1488.1359120619018 268.20230742380954 3442.614097106969 382.61230389517732 54.849169592838734 808.73786645825021 231.97324729105458 110.49950880464166 35.564127857331187 12.671603094786407 478.66268426831812 1469.7149769724347 34.605543905869126 168.25801244471222 8.01990425493568 93.423241565935314 17.683524866122752 3.937933378852903
leaf_count=10997 657242 6106493 200756 38200 596793 14712 926100 305626 464500 1653238 8326 158950 151947 142902 70152 165358 15753 8003 78777 25245 24157 4245 716 102453 106023 2429 16615 1051 19044 1898 77
internal_value=0 -0.0504852 0.0498559 -0.0104411 -0.0235096 -0.0854558 0.0563867 -0.0369161 0.0103044 -0.0412907 -0.0876823 0.0310551 0.0630494 0.0119281 -0.0889807 0.0672152 0.0621107 0.0527655 0.0272271 0.00546649 0.0393622 0.136173 -0.085851 -0.015533 0.0630563 0.07142 0.0390604 -0.0908864 0.00344913 0.0545105 0.0891157
internal_weight=0 29483.5 23718.2 13750.8 11676.1 15732.7 22061.3 1656.92 4023.91 7652.19 15489.4 4605.91 17455.4 2858.95 15349.3 15652.7 1746.96 243.326 1802.68 892.662 342.473 90.4133 764.253 550.189 2074.69 1504.32 570.372 747.644 152.913 140.153 16.6095
internal_count=12078778 9767913 2310865 3535040 3371773 6232873 1840543 470322 1061293 2310480 6186869 518361 1322182 343658 6176645 1091458 174703 46004 230724 162852 49402 12248 307470 113450 163267 108452 54815 306677 33756 10224 793
cat_boundaries=0 1 2 3 4 5 6 7 8 9 10 11 12 13 14 15 16 17 18 19 20 21 22 23 24
cat_threshold=49 960 15 1 1 48 32 2 768 1 1 2 1 1 1 2 1 1 12 5251334 1 9 1 2
is_linear=0
shrinkage=0.1


Tree=7
num_leaves=32
num_cat=23
split_feature=2 1 1 10 12 12 1 1 2 10 7 13 5 10 2 13 0 0 0 0 6 4 2 1 3 3 10 0 5 13 3
split_gain=10833.8 3894 1054.39 1038.09 656.69 433.152 432.594 342.54 267.267 263.604 211.88 202.435 179.358 179.238 172.694 145.434 126.198 68.9861 58.7087 36.4334 30.5005 28.2519 30.1803 28.2505 22.3793 12.4623 12.36 11.1557 10.0636 4.86582 4.4716
threshold=0 1 2 3 4 5 6 7 8 9 10 11 12 13 14 15 1.0000000180025095e-35 2.5000000000000004 1.5000000000000002 12.500000000000002 16 17 18 19 1.0000000180025095e-35 1.5000000000000002 20 1.0000000180025095e-35 21 22 3.5000000000000004
decision_type=9 1 1 1 1 1 1 1 9 1 1 1 1 1 9 1 2 2 2 2 1 1 9 1 2 2 1 2 1 1 2
left_child=2 3 14 4 6 9 -2 12 10 11 -9 -3 15 -10 19 -4 -6 25 -14 23 -19 22 -5 -1 -21 -7 29 -23 -11 -16 -28
right_child=1 5 7 21 16 17 -8 8 13 28 -12 -13 18 -15 26 -17 -18 20 -20 24 -22 27 -24 -25 -26 -27 30 -29 -30 -31 -32
leaf_value=0.049340135079984519 -0.0020732792999640661 -0.089589866520759565 0.051924918986205361 0.072801605072710135 0.0012114826020696041 0.032693326445389796 -0.045693746768563109 0.01683179168718147 -0.044730898039657546 0.055825454478424109 0.061568016619165555 -0.0017857800822085584 0.007441610522437957 0.09400168736436959 -0.095755134934048802 0.075134700104129037 0.065230231306753178 0.057801748582495385 0.043197060203322278 0.22494614427732867 0.15907564663386653 -0.0097391238500326958 0.045014300859124015 -0.024510226808637025 0.017142142644367243 -0.030114605599104366 0.1250556784875618 0.035492668387410983 -0.025522441099778598 0.031389831874750009 -0.10101548408440104
leaf_weight=51.92470309487544 3490.7909643896855 13781.701517977985 13265.16365175182 825.16514947963879 468.46131377667189 51.799690197221935 6555.7460420103744 2768.6467012465 739.56594687327743 130.54907810455188 1730.9718140666373 267.67612417088822 1002.1348725135904 106.5423858310096 582.11953179002739 3389.6250447104685 898.50756758637726 74.767527419608086 847.63785988744348 10.476680675521495 49.377277850173414 73.578439958859235 1095.83157782536 333.88518381514587 10.255636376328765 80.978489597328007 3.4922189419157794 210.58642825717106 17.212740713730454 3.025581639725714 1.1674071154557166
leaf_count=10115 846910 6106493 964585 47428 121819 11716 2205486 306760 184889 8326 145248 70152 151947 6364 263892 126873 197558 10903 78777 696 5021 9813 86693 69338 736 18364 123 19333 1898 387 135
internal_value=0 -0.0479888 0.0426553 -0.00959426 -0.0217369 -0.0841326 -0.0305848 0.0468743 0.0244395 -0.0865196 0.0341399 -0.087917 0.0533388 -0.0269432 -0.0578011 0.0566486 0.043291 0.044493 0.0238261 -0.00682005 0.0980824 0.0532103 0.0575637 -0.0139274 0.122152 -0.00561185 -0.092242 0.0237809 0.0463493 -0.0950977 0.0684166
internal_weight=0 28072.7 24846.6 13618.7 11413.5 14454.1 10046.5 23850.3 5345.73 14197.1 4499.62 14049.4 18504.6 846.108 996.347 16654.8 1366.97 256.923 1849.77 406.542 124.145 2205.16 1921 385.81 20.7323 132.778 589.805 284.165 147.762 585.145 4.65963
internal_count=12078778 9767913 2310865 3535040 3371773 6232873 3052396 1965443 643261 6186869 452008 6176645 1322182 191253 345422 1091458 319377 46004 230724 80885 15924 163267 134121 79453 1432 30080 264537 29146 10224 264279 258
cat_boundaries=0 1 2 3 4 5 6 7 8 9 10 11 12 13 14 15 16 17 18 19 20 21 22 23
cat_threshold=49 960 7 1 1 1 768 960 32 1 1 1 2 1 32 1 1 2 7240 1 1 2 1
is_linear=0
shrinkage=0.1


Tree=8
num_leaves=32
num_cat=24
split_feature=2 1 1 0 5 2 4 0 10 11 12 1 8 2 11 12 10 13 12 10 0 8 0 0 8 13 7 3 8 0 2
split_gain=9025.31 2889.63 1389.74 644.281 502.297 392.75 318.646 299.103 836.549 278.694 248.694 213.581 202.23 182.777 157.281 107.895 103.163 102.454 82.5439 63.2363 53.2068 43.3621 37.8517 34.0976 31.6178 30.3667 29.7924 17.0841 16.6695 9.37049 1.99174
threshold=0 1 2 1.5000000000000002 3 4 5 1.0000000180025095e-35 6 7 8 9 10 11 12 13 14 15 16 17 1.0000000180025095e-35 18 1.0000000180025095e-35 1.5000000000000002 19 20 21 1.0000000180025095e-35 22 13.500000000000002 23
decision_type=9 1 1 2 1 9 1 2 1 1 1 1 1 9 1 1 1 1 1 1 2 1 2 2 1 1 1 2 1 2 9
left_child=2 3 5 6 7 20 12 8 -4 11 14 -5 -2 21 16 -9 -3 -15 -8 25 26 -6 30 -16 -11 -7 -1 -22 -24 -21 -12
right_child=1 10 4 9 13 19 18 15 -10 24 22 -13 -14 17 23 -17 -18 -19 -20 29 27 -23 28 -25 -26 -27 -28 -29 -30 -31 -32
leaf_value=-0.038345405327497611 -0.019282774441908158 -0.090178666302299759 0.011641373493994363 0.030488444331704435 0.016693532853272405 -0.091978302494330227 -0.067342184145330455 0.046139348003840848 0.088989163427853082 0.06291382277417458 0.0025774475633940095 -0.019856916288695684 0.19340150664857733 -0.038989862905351808 -0.05482103364361627 0.064644438371476251 0.033180749635797202 0.035622472848901326 -0.011321928393190487 0.028667143967145061 0.0078609855249020984 0.071994298988018374 0.045820140161403164 0.0044512500354894815 0.21489865747462794 -0.016465208456969159 0.020214118494359161 0.045301454853880763 0.35622423259649949 0.16082739911544006 -0.057920394093109867
leaf_weight=304.94438751135021 4310.0300271240994 11428.463427224196 6609.5748403731268 1502.6320010945201 1989.1289366765413 1105.8520948789082 2350.317475871183 10868.797386087943 1773.4693273985758 877.42218405357562 14.318021096754819 1892.6819540360011 45.175519580487162 1113.7968205513898 191.23006377415732 4437.04001058219 68.196354920044541 220.467740384629 296.16772880544886 22.0295461001806 253.77629942074418 152.67370786331594 150.42785941483453 197.08095778827555 13.904628658201544 55.948377259541303 115.50794516992755 234.48010288877413 1.7502128230407823 7.0920162908732882 34.822926470544189
leaf_count=74967 1225385 5567950 849063 259722 235672 538132 803034 800569 83736 140039 3814 539176 6090 349366 69293 208134 5251 41841 71781 1085 37319 11078 24052 56433 1309 14420 25002 25564 275 147 9079
internal_value=0 -0.0514201 0.0319018 -0.015 0.037965 -0.0463521 -0.0337063 0.0431879 0.0280046 0.0155195 -0.0853951 0.00245527 -0.0170767 0.00248098 -0.0873327 0.0515038 -0.0894469 -0.0264629 -0.061073 -0.0839884 0.0033499 0.0205396 0.0247498 -0.0247383 0.0652848 -0.0883418 -0.022689 0.0258414 0.0493901 0.0608523 -0.0515554
internal_weight=0 23374.6 29264.6 11288.3 27164.9 2099.63 7001.69 23688.9 8383.04 4286.64 12086.3 3395.31 4355.21 3476.07 11885 15305.8 11496.7 1334.26 2646.49 1190.92 908.709 2141.8 201.319 388.311 891.327 1161.8 420.452 488.256 152.178 29.1216 49.1409
internal_count=12078778 8782683 3296095 3046536 2579459 716636 2106290 1941502 932799 940246 5736147 798898 1231475 637957 5698927 1008703 5573201 391207 874815 553784 162852 246750 37220 125726 141348 552552 99969 62883 24327 1232 12893
cat_boundaries=0 1 2 3 4 5 6 7 8 9 10 11 12 13 14 15 16 17 18 19 20 21 22 23 24
cat_threshold=3121 960 15 2 32 2 1 1 1 768 1 33 1 1 1 1 1 1 1 1 1 1 1 4160
is_linear=0
shrinkage=0.1


Tree=9
num_leaves=32
num_cat=22
split_feature=2 1 1 12 5 2 10 13 2 0 11 10 8 1 0 10 0 10 4 10 0 0 0 13 7 2 5 0 12 0 3
split_gain=7524.87 2743.45 1108.23 590.115 444.835 398.969 741.968 406.173 363.569 322.152 241.202 139.036 116.807 115.133 111.504 86.3581 80.5002 57.5914 45.9074 43.8542 42.9714 42.3693 36.4068 30.2234 25.3926 23.431 16.5048 13.3829 12.8047 9.76593 6.20118
threshold=0 1 2 3 4 5 6 7 8 1.0000000180025095e-35 9 10 11 12 1.0000000180025095e-35 13 3.5000000000000004 14 15 16 1.0000000180025095e-35 2.5000000000000004 2.5000000000000004 17 18 19 20 28.500000000000004 21 5.5000000000000009 1.5000000000000002
decision_type=9 1 1 1 1 9 1 1 9 2 1 1 1 1 2 1 2 1 1 1 2 2 2 1 1 9 1 2 1 2 2
left_child=2 3 8 4 9 12 7 -7 20 -2 11 13 14 -3 -4 -6 18 23 -5 -14 24 -8 28 -10 -1 -24 -22 -18 -12 -13 -19
right_child=1 10 5 16 15 6 21 -9 17 -11 22 29 19 -15 -16 -17 27 30 -20 -21 26 -23 25 -25 -26 -27 -28 -29 -30 -31 -32
leaf_value=-0.035998477181371613 -0.035236774984888829 -0.072391609825760581 0.024369005374806758 0.038570594243784895 -0.057392475822904382 -0.018259856451953955 0.051707029308222789 0.061004173181135601 -0.091170581916481475 0.011371446519842896 -0.04615874691002559 0.017733991830835703 0.050384412948795289 -0.095939890749946133 0.041888369451058345 0.024477376471926892 0.080050210574455188 0.091272809903220439 -0.0015431411221130348 0.076879723285345147 0.030486064737334825 0.08082431276586037 0.038122726683692737 -0.015075970835936037 0.018003365937178339 -0.033853153309137997 -0.01951330672343685 -0.023558109344126221 0.025928037525238069 0.091473758015666665 0.00083250990287693299
leaf_weight=293.60257102176547 2542.362028478412 3532.2328887055628 5253.2805110625923 981.69096421962604 3088.4486255869269 4540.1208566045389 1207.0059568402357 753.82625845447183 1009.0420712151099 3558.9394905245863 225.27904490637593 59.603370546363294 2958.0247622625902 7029.347771998262 11777.82219602121 134.45012265490368 407.49503473425284 17.250331801362339 402.17527397652157 791.95379254221916 421.8237033043988 852.86293018888682 147.46611989988014 55.043139458633959 117.82126801996492 55.863804624881595 78.27123366529122 12.860394308343528 27.667150430148467 25.706110548228025 13.526006219908593
leaf_count=74967 796691 1830734 543380 176603 1101665 1091432 70562 128707 538132 819689 84165 5234 112564 3763222 577534 13131 44584 460 92628 19157 48494 36123 32488 14420 25002 13769 14389 1545 5554 981 772
internal_value=0 -0.0489083 0.0277662 -0.0137826 -0.0239245 0.0328913 0.0128232 -0.00697313 -0.0439077 -0.00804982 -0.0840698 -0.0871967 0.0399832 -0.0882237 0.0364845 -0.0539771 0.0385545 -0.0825796 0.0269129 0.0559799 0.00293472 0.0637627 -0.0129481 -0.0872343 -0.0209711 0.0185577 0.0226605 0.0768804 -0.0382739 0.0399538 0.0515249
internal_weight=0 22231.6 30141.3 11128.4 9324.2 28134.9 7353.82 5293.95 2006.38 6101.3 11103.2 10646.9 20781.1 10561.6 17031.1 3222.9 1804.22 1094.86 1383.87 3749.98 911.519 2059.87 456.276 1064.09 411.424 203.33 500.095 420.355 252.946 85.3095 30.7763
internal_count=12078778 8782683 3296095 3046536 2731176 2579459 1326824 1220139 716636 1616380 5736147 5600171 1252635 5593956 1120914 1114796 315360 553784 269231 131721 162852 106685 135976 552552 99969 46257 62883 46129 89719 6215 1232
cat_boundaries=0 1 2 3 4 5 6 7 8 9 10 11 12 13 14 15 16 17 18 19 20 21 22
cat_threshold=3121 960 15 1 2 32 1 1 32 1 1 1 48 1 1 2 1 1 1 10224460 2 1
is_linear=0
shrinkage=0.1


Tree=10
num_leaves=32
num_cat=24
split_feature=1 2 2 0 1 5 10 5 13 12 11 2 10 2 11 7 3 1 10 6 0 12 13 5 8 1 3 12 3 0 0
split_gain=6293 2219.61 1795.92 612.645 328.727 315.254 260.799 243.653 215.322 169.989 160.381 257.381 113.096 104.421 103.431 89.7137 116.344 82.7071 78.036 74.4712 71.8533 65.8063 60.7095 57.7683 56.4386 45.4423 42.3775 27.4463 26.9996 29.8456 8.87473
threshold=0 1 2 1.5000000000000002 3 4 5 6 7 8 9 10 11 12 13 14 1.0000000180025095e-35 15 16 17 4.5000000000000009 18 19 20 21 22 1.5000000000000002 23 1.0000000180025095e-35 12.500000000000002 3.5000000000000004
decision_type=1 9 9 2 1 1 1 1 1 1 1 9 1 9 1 1 2 1 1 1 2 1 1 1 1 1 2 1 2 2 2
left_child=1 5 15 4 18 10 8 14 21 -6 11 -1 -12 25 -5 16 20 -9 -3 -10 -2 -4 -15 -18 27 -7 -26 -17 29 -8 -30
right_child=2 3 6 7 9 13 28 17 19 -11 12 -13 -14 22 -16 24 23 -19 -20 -21 -22 -23 -24 -25 26 -27 -28 -29 30 -31 -32
leaf_value=0.036448620172925925 -0.039477427507424515 -0.016687072006072081 -0.091304198775270851 0.013232314377068052 -0.059544984192905985 0.039596810017971579 0.083755364251850983 0.016293548223086998 -0.029946395507562857 0.0027941522931558623 0.066871266073363786 0.0092721451363773789 0.037798171238946382 -0.034356737759844942 0.056053766554165899 0.016547414256431883 0.043998289856789274 -0.03906843878056733 0.030910842888545082 0.1010081360762821 0.048783773277272346 0.031229743603679163 0.027199341712500727 -0.023526679749400266 0.12857485516067385 0.0061931033386536209 0.029698683844658538 0.085534980646235936 -0.0063495109035328016 0.32603541773863937 0.052807142638866315
leaf_weight=14151.752092689043 767.99985816993285 2021.5161446754355 9374.4856290690368 2389.5011886255816 4538.7157695450587 521.56226396607235 27.35430571436882 351.98588135885075 120.53021422284655 484.07249145559035 2170.3429276263341 4654.5639248181833 3489.0503057809547 913.02998689666856 738.36322009889409 641.45400074729696 493.5892076191958 1120.6157047039596 415.18797398591414 67.88344713835977 104.82718741381541 44.034178981324658 194.31862742314115 170.44559734326322 100.54545219335705 1796.2195864208043 76.194683944922872 63.365733407437801 47.202977010514587 6.2453035796061149 54.802925485186279
leaf_count=772772 80053 102120 688990 249096 264631 43519 1374 21932 11658 31843 182606 480345 81269 60445 68648 59053 34196 70719 42251 8409 7133 4932 24244 20223 1815 196446 4088 4371 3493 160 1908
internal_value=0 0.0147024 -0.0674276 -0.0211327 -0.0388504 0.0301995 -0.0865811 0.00754996 -0.0886139 -0.0534307 0.0341883 0.0297468 0.0489475 0.00179581 0.0233407 0.00977061 -0.00484706 -0.0259903 -0.00854185 0.0172351 -0.0288772 -0.0907313 -0.023344 0.0266659 0.0350228 0.0138476 0.0859482 0.0227496 0.0510417 0.128789 0.0254325
internal_weight=0 39950.8 12161 12060 7459.49 27890.8 9742.54 4600.47 9606.93 5022.79 24465.7 18806.3 5659.39 3425.13 3127.86 2418.42 1536.86 1472.6 2436.7 188.414 872.827 9418.52 1107.35 664.035 881.56 2317.78 176.74 704.82 135.606 33.5996 102.006
internal_count=3624742 2692886 931856 851240 440845 1841646 720924 410395 713989 296474 1516992 1253117 263875 324654 317744 210932 141605 92651 144371 20067 87186 693922 84689 54419 69327 239965 5903 63424 6935 1534 5401
cat_boundaries=0 1 2 3 4 5 6 7 8 9 10 11 12 13 14 15 16 17 18 19 20 21 22 23 24
cat_threshold=992 69168 163873 768 2 1 2 1 1 1 66592 1 1056 1 1 768 1 1 1 1 2 1 768 1
is_linear=0
shrinkage=0.1


Tree=11
num_leaves=32
num_cat=22
split_feature=1 2 2 12 1 10 5 8 13 0 10 10 0 2 0 7 3 12 0 0 6 5 8 8 8 3 10 3 0 12 2
split_gain=5449.2 1764 1692.02 520.165 398.858 240.296 232.758 217.062 203.623 143.317 472.391 126.176 113.375 86.948 69.3789 68.7919 94.5193 66.8461 65.1897 59.2153 56.5049 46.0721 40.4971 39.9304 27.7352 27.3696 23.611 20.4701 23.65 19.5976 5.66853
threshold=0 1 2 3 4 5 6 7 8 1.0000000180025095e-35 9 10 1.0000000180025095e-35 11 1.0000000180025095e-35 12 1.0000000180025095e-35 13 1.5000000000000002 4.5000000000000009 14 15 16 17 18 1.5000000000000002 19 1.5000000000000002 37.500000000000007 20 21
decision_type=1 9 9 1 1 1 1 1 1 2 1 1 2 9 2 1 2 1 2 2 1 1 1 1 1 2 1 2 2 1 9
left_child=1 6 15 4 12 8 9 -6 17 10 -1 -11 -3 24 26 16 19 -4 -15 -2 -10 -18 -16 29 -8 -25 -5 28 -7 -17 -29
right_child=2 3 5 14 7 27 13 -9 20 11 -12 -13 -14 18 22 23 21 -19 -20 -21 -22 -23 -24 25 -26 -27 -28 30 -30 -31 -32
leaf_value=0.0059468550262718918 -0.036863976223174527 -0.025425289626376982 -0.090457346552632295 -0.013231808016459165 -0.045192737084705198 0.097313246734865036 0.010819294870487271 0.28915430264900949 -0.02909263814824178 0.043628806019742922 0.060545285113321225 0.026359747880051229 0.013778158449968653 -0.039643402955756836 0.039438847419762509 0.014480680444819764 0.038263547798081637 0.034675667457801561 0.0051989295748852415 0.041967404405678171 0.081697298069080201 -0.022138404429418654 0.18606263097266995 0.1029253714793817 0.053884843885338422 0.02592674819528611 0.042076803704380744 0.038351784411819141 -0.10927253990674846 0.070718184809786686 -0.014886783366713197
leaf_weight=6670.4830003004754 737.0687903452199 1168.0458924367558 8571.670103026554 398.12192374560982 6358.4622893207707 67.173554570414126 2003.8883887877455 19.476779398741201 119.11599074094556 8162.6275398577563 2078.4472868456505 8783.9653967930935 2002.1369703616947 696.21115114632994 1255.8020088868216 652.49037747085094 512.73437162349001 42.904283496085554 606.70663491042797 109.43503662152216 75.032612940762192 167.5446011335589 19.1240052387584 112.31767001561821 161.60479005728848 78.378256351454183 95.746612874791026 20.633113008923829 6.0397841036319724 68.467781019862741 48.500381083227694
leaf_count=591380 79621 53691 683096 22025 390914 2830 217887 1833 11666 693473 88621 191685 204537 49335 119020 61069 37634 4905 47620 7132 8412 20259 1766 1815 10154 4089 10156 1274 109 4401 2722
internal_value=0 0.0130185 -0.0652505 -0.0204813 -0.029727 -0.0853734 0.0260205 -0.0441026 -0.0875517 0.0293116 0.0189176 0.0346777 -0.000664158 0.00171339 0.0293118 0.00866436 -0.0043394 -0.0898341 -0.0186196 -0.0266727 0.0137243 0.0233873 0.0416382 0.0302531 0.0139687 0.071278 -0.00250909 0.043421 0.0802708 0.0198214 0.0043966
internal_weight=0 40480.9 11389.5 11316.9 9548.12 8951.07 29163.9 6377.94 8808.72 25695.5 8748.93 16946.6 3170.18 3468.41 1768.79 2438.44 1526.78 8614.57 1302.92 846.504 194.149 680.279 1274.93 911.654 2165.49 190.696 493.869 142.347 73.2133 720.958 69.1335
internal_count=3625131 2694097 931034 803942 650975 715014 1890155 392747 708079 1565159 680001 885158 258228 324996 152967 216020 144646 688001 96955 86753 20078 57893 120786 71374 228041 5904 32181 6935 2939 65470 3996
cat_boundaries=0 1 2 3 4 5 6 7 8 9 10 11 12 13 14 15 16 17 18 19 20 21 22
cat_threshold=992 331312 163873 1 768 1 2 1 1 1 1 262176 1 1 1 2 1 1 1 1 1 10225536
is_linear=0
shrinkage=0.1


Tree=12
num_leaves=32
num_cat=21
split_feature=1 2 2 1 0 2 10 0 4 11 8 5 7 3 1 12 10 13 0 0 12 0 8 10 1 13 3 0 0 5 0
split_gain=4832.18 1858.47 704.645 646.734 256.611 248.389 525.885 350.639 248.152 183.762 118.035 117.276 96.5418 160.913 90.0152 80.3626 73.2831 51.1209 31.4338 27.4587 21.0191 18.4145 17.1922 16.7166 13.4481 14.5375 9.84909 7.05543 12.9922 4.41097 4.32069
threshold=0 1 2 3 1.5000000000000002 4 5 2.5000000000000004 6 7 8 9 10 1.0000000180025095e-35 11 12 13 14 1.0000000180025095e-35 1.5000000000000002 15 153.50000000000003 16 17 18 19 3.5000000000000004 13.500000000000002 41.500000000000007 20 12.500000000000002
decision_type=1 9 9 1 2 9 1 2 1 1 1 1 1 2 1 1 1 1 2 2 1 2 1 1 1 1 2 2 2 1 2
left_child=2 5 18 8 10 12 7 -7 9 -3 -5 -6 13 -2 -14 -10 17 20 22 -8 -4 -19 23 -1 30 -26 -24 29 -29 -18 -20
right_child=1 3 16 4 11 6 19 -9 15 -11 -12 -13 14 -15 -16 -17 27 21 24 -21 -22 -23 26 -25 25 -27 -28 28 -30 -31 -32
leaf_value=-0.030678072205909346 0.071763516112443568 -0.00095172400673099774 -0.094371877262548073 -0.067212671018677547 0.0026838358699488312 -0.021991921273891674 0.032639184525715133 0.030400035609390242 -0.042215559600172772 0.051283854455758816 0.32224427766098285 -0.049879295708112815 0.0102126407698135 0.025388252301677062 0.027474104617052089 0.010772242991829276 0.014941385752425632 -0.018526650577640674 -0.047096755192247104 0.052966826938131518 0.073417530685885024 0.67421159889552273 0.07184473946170393 0.065142945489890719 0.027727231424529344 -0.032919066308015263 -0.038373766540914428 0.16481477985108217 -0.058310445458245978 -0.10187765181717275 0.10595161354751043
leaf_weight=366.01929682819173 1216.216183597222 4214.1012867679819 6117.0092914042762 3543.5236164865782 1006.3991501063574 4792.4173498959281 1157.0297546456568 1741.6467446456663 1754.5448412038386 801.5817887049634 7.7991527148988089 734.09072548721451 3783.0465725003742 1944.3381488057785 15829.443995216396 342.01459012832493 38.05435820762068 82.968979998724535 40.637445925734937 1561.1043891552836 7.4750703899189821 0.38550929282791813 30.037888972088695 19.159544158261269 438.93566037295386 43.437403572257608 11.104783089598639 8.0347001133486611 3.8650206290185443 3.5322915115393689 1.9322795215994109
leaf_count=26367 61388 333883 538747 261385 78512 490383 68670 200278 98543 67971 632 53729 317577 89568 779398 30090 1818 7578 4391 65927 921 25 1068 1147 40409 2249 866 155 68 296 215
internal_value=0 0.00845421 -0.0797376 -0.0243964 -0.0508451 0.0211816 0.00734198 -0.00802691 -0.00467371 0.00739631 -0.0663574 -0.0194858 0.0267987 0.0430976 0.0241514 -0.0335716 -0.0919574 -0.0931084 0.000814201 0.0443139 -0.0941671 -0.0153228 -0.0193486 -0.0259117 0.0172045 0.0218138 0.0420958 0.0244472 0.0923439 0.005019 -0.0325123
internal_weight=0 44429.3 7212.59 12404.1 5291.81 32025.2 9252.2 6534.06 7112.24 5015.68 3551.32 1740.49 22773 3160.55 19612.5 2096.56 6261.33 6207.84 951.264 2718.13 6124.48 83.3545 426.322 385.179 524.943 482.373 41.1427 53.4864 11.8997 41.5866 42.5697
internal_count=3624254 2997934 626320 924745 394258 2073189 825258 690661 530487 401854 262017 132241 1247931 150956 1096975 128633 549608 547271 76712 134597 539668 7603 29448 27514 47264 42658 1934 2337 223 2114 4606
cat_boundaries=0 1 2 3 4 5 6 7 8 9 10 11 12 13 14 15 16 17 18 19 20 21
cat_threshold=15 331313 163873 896 32 1 2 1 1 2 12 48 1 1 1 1 1 1 2 1 2
is_linear=0
shrinkage=0.1


Tree=13
num_leaves=32
num_cat=19
split_feature=1 2 2 1 0 0 1 2 0 5 5 7 8 0 10 10 10 13 8 10 0 0 3 0 0 12 13 6 0 0 0
split_gain=4237.59 1500.22 676.035 573.162 242.982 231.619 230.82 358.895 357.483 130.484 104.861 94.4741 82.6896 74.5325 198.825 71.2674 69.9705 51.0117 47.4269 26.989 24.8423 22.9936 21.6766 20.4232 20.2552 18.5079 12.9127 12.223 5.11167 8.13265 4.46774
threshold=0 1 2 3 1.5000000000000002 1.0000000180025095e-35 4 5 1.5000000000000002 6 7 8 9 6.5000000000000009 10 11 12 13 14 15 18.500000000000004 24.500000000000004 1.0000000180025095e-35 13.500000000000002 6.5000000000000009 16 17 18 11.500000000000002 41.500000000000007 6.5000000000000009
decision_type=1 9 9 1 2 2 1 9 2 1 1 1 1 2 1 1 1 1 1 1 2 2 2 2 2 1 1 1 2 2 2
left_child=2 6 19 5 12 15 13 11 -9 -7 -6 -8 -5 18 -15 -3 17 25 -2 20 22 -22 -1 -19 27 -4 -26 -21 30 -30 -18
right_child=1 3 16 4 10 9 7 8 -10 -11 -12 -13 -14 14 -16 -17 28 23 -20 24 21 -23 -24 -25 26 -27 -28 -29 29 -31 -32
leaf_value=-0.022602451909435564 0.029929497992440626 -0.034266529979314155 -0.093770174713255147 -0.065025019852263763 0.0030021076423806022 0.019745701988022807 0.013998733121440454 -0.031373614760394138 0.017887951620262743 -0.017920454495878192 -0.047424260485756584 0.03003294850312653 0.21843903202722059 0.086920930552063944 -0.023654725611900882 0.021323950762565557 0.019118922034033883 -0.043354293969907025 0.050123005968570049 0.047752418387189827 0.27849575775711372 0.033864457509098923 0.011769453004640124 0.070994065959525662 0.023604292020844301 0.055275313730015513 -0.077030625612210746 0.13280556315814243 0.11733879588420595 -0.055215571057123936 -0.06586139943532146
leaf_weight=496.46419502957724 9132.8434859581757 2259.0904830074869 5550.6066287291469 3324.4089721977944 1003.270389845944 3285.2086958307773 9173.9645894663408 3171.6390364046674 2750.7642098845681 1277.3141180572566 700.18326712108683 6206.8782586166635 10.322894760640336 213.02634204691276 687.11380659230053 256.83485931018367 32.832195369526744 61.296467675361782 1332.7879971815273 66.386485107708722 5.5302999210543957 12.587561789900063 291.03654753416777 20.960505255963653 45.431376225315034 8.3439368479885143 17.724636701866984 22.665217595174909 10.569619819521902 3.6831559091806403 7.6229829601943484
leaf_count=33829 527399 110761 537045 260085 78174 327311 612868 289268 235862 75954 53166 344108 1059 17767 7142 29961 1868 4758 35633 2412 534 1302 31340 1693 325 1124 134 647 193 68 206
internal_value=0 0.00744086 -0.0780296 -0.0226002 -0.0483557 -0.004226 0.0185863 0.0124324 -0.0084789 0.00920077 -0.017725 0.0204846 -0.0641475 0.0300997 0.00251401 -0.0285917 -0.0911382 -0.0923897 0.0325011 5.96044e-05 -0.00723609 0.108536 -0.00989963 -0.0142163 0.0386788 -0.0935465 -0.00463874 0.0693999 0.0212495 0.0727479 0.00310605
internal_weight=0 44785.7 6653.74 12116.6 5038.19 7078.45 32669 21303.2 5922.4 4562.52 1703.45 15380.8 3334.73 11365.8 900.14 2515.93 5695.92 5641.21 10465.6 957.826 805.619 18.1179 787.501 82.257 152.208 5558.95 63.156 89.0517 54.708 14.2528 40.4552
internal_count=3623996 3006518 617478 936471 392484 543987 2070047 1482106 525130 403265 131340 956976 261144 587941 24909 140722 546955 544620 563032 70523 67005 1836 65169 6451 3518 538169 459 3059 2335 261 2074
cat_boundaries=0 1 2 3 4 5 6 7 8 9 10 11 12 13 14 15 16 17 18 19
cat_threshold=15 331313 163873 896 768 32 2 2 1 1 1 1 1 1 1 1 1 1 1
is_linear=0
shrinkage=0.1


Tree=14
num_leaves=32
num_cat=22
split_feature=1 2 2 1 0 12 2 10 0 5 7 6 11 10 8 13 10 0 0 0 12 6 8 10 5 3 3 2 11 3 3
split_gain=3732.61 1211.01 656.858 507.235 220.151 212.319 217.951 384.694 196.834 127.257 126.074 92.1986 72.1531 67.0646 60.4147 49.3719 39.0992 293.129 183.975 25.8228 16.588 15.2562 14.1288 11.2972 11.042 17.5305 7.76917 4.28648 5.13238 2.80619 1.90869
threshold=0 1 2 3 1.5000000000000002 4 5 6 1.5000000000000002 7 8 9 10 11 12 13 14 4.5000000000000009 2.5000000000000004 1.0000000180025095e-35 15 16 17 18 19 1.0000000180025095e-35 3.5000000000000004 20 21 1.0000000180025095e-35 1.5000000000000002
decision_type=1 9 9 1 2 1 9 1 2 1 1 1 1 1 1 1 1 2 2 2 1 1 1 1 1 2 2 9 1 2 2
left_child=2 5 19 8 14 6 10 -8 9 -3 -2 -6 -10 15 -5 20 17 -7 -18 22 -4 -17 23 -1 25 -21 -24 28 -15 -26 -29
right_child=1 3 13 4 11 16 7 -9 12 -11 -12 -13 -14 27 -16 21 18 -19 -20 24 -22 -23 26 -25 29 -27 -28 30 -30 -31 -32
leaf_value=-0.028668011309835179 0.039312944365159364 -0.0066677130167237253 -0.093142383735324338 -0.062554568218614451 -0.024730858178748566 0.027159484255366764 -0.015820554868462337 0.035640626354868185 0.0075873389780593773 -0.045681964509932449 0.014350010504487641 0.052191785361055801 0.045474457316671456 0.055952622266110669 0.1543148212144117 -0.045922499312851743 0.043897171525628241 0.10755129356614331 0.0024411765495954596 0.0034222367576804678 0.041713802949959557 0.04449943499439149 0.061066576198469717 0.045752823731399751 0.036765572348606751 0.042900580968074233 -0.03687839656286318 -0.011698769442368643 -0.017326096106219276 -0.026078154741122669 -0.10183077519106334
leaf_weight=355.82417169597466 2364.1792384968139 2821.6830480038188 5060.3120893435553 3107.1613667629426 1510.8587986177299 4328.7702529644594 5627.3587802576367 1958.0924939257093 2392.1477737280075 1188.084904414136 14162.070769511163 173.73486903333105 636.37771551706828 32.842355061322451 12.898687627865 55.04168889275752 2070.6793627170846 506.64630641276017 2216.2330682585016 254.63243276998401 9.1376694282516819 28.229235318489373 31.938597116619349 21.638185861054808 7.901047440012916 201.482930116239 10.849762238794936 4.388235074002294 13.481300078798084 70.566044660285115 5.0571889993734658
leaf_count=20709 108875 174264 537563 258518 115484 342355 583196 94943 236975 65811 808476 14917 62989 1257 1253 4139 66987 37859 33391 23453 1184 2740 1068 1147 800 12849 864 228 444 9633 406
internal_value=0 0.0066351 -0.0762761 -0.0208111 -0.0458338 0.0164189 0.0115075 -0.00253313 -0.00368873 -0.0182275 0.0179427 -0.0167977 0.0155485 -0.0902909 -0.061658 -0.0916448 0.0294185 0.0355828 0.0224654 0.00031601 -0.0928993 -0.015269 -0.0182284 -0.0244018 0.0149002 0.0208613 0.0362309 0.0186075 0.0284789 -0.0197503 -0.0291233
internal_weight=0 45077 6163.32 11842.9 4804.65 33234 24111.7 7585.45 7038.29 4009.77 16526.3 1684.59 3028.53 5208.49 3120.06 5152.72 9122.33 4835.42 4286.91 954.833 5069.45 83.2709 420.251 377.462 534.582 456.115 42.7884 55.7691 46.3237 78.4671 9.44542
internal_count=3624777 3006293 618484 930211 390172 2076082 1595490 678139 540039 240075 917351 130401 299964 547961 259771 545626 480592 380214 100378 70523 538747 6879 23788 21856 46735 36302 1932 2335 1701 10433 634
cat_boundaries=0 1 2 3 4 5 6 7 8 9 10 11 12 13 14 15 16 17 18 19 20 21 22
cat_threshold=15 331313 163873 896 1 32 1 2 12 1 1 1 1 1 1 1 1 1 1 2 8916818 1
is_linear=0
shrinkage=0.1


Tree=15
num_leaves=32
num_cat=21
split_feature=1 2 2 0 5 5 1 11 2 11 1 10 1 2 13 5 10 4 0 2 0 3 5 8 0 0 0 13 0 0 0
split_gain=3286.85 991.134 632.663 411.158 243.012 213.3 157.244 137.191 146.445 110.19 93.6588 86.6715 82.5824 76.4553 65.2587 54.9631 47.9029 27.1115 25.7953 22.6555 19.9848 17.3684 26.997 24.587 16.7001 13.3041 12.1668 11.6811 13.1598 11.3805 8.13962
threshold=0 1 2 1.0000000180025095e-35 3 4 5 6 7 8 9 10 11 12 13 14 15 16 14.500000000000002 17 2.5000000000000004 1.0000000180025095e-35 18 19 3.5000000000000004 16.500000000000004 143.50000000000003 20 13.500000000000002 11.500000000000002 5.5000000000000009
decision_type=1 9 9 2 1 1 1 1 9 1 1 1 1 9 1 1 1 1 2 9 2 2 1 1 2 2 2 1 2 2 2
left_child=2 5 20 6 9 7 15 8 -2 -5 18 -9 -6 -12 16 -3 24 -8 -7 29 21 23 -23 -1 -4 -18 -21 28 -22 -16 -29
right_child=1 3 14 4 12 10 17 11 -10 -11 13 -13 -14 -15 19 -17 25 -19 -20 26 27 22 -24 -25 -26 -27 -28 30 -30 -31 -32
leaf_value=-0.028503574989255522 0.018120969993004929 -0.01637311422847619 -0.094143761940881587 0.00025198338611412077 0.0025480860868548859 0.010014918540261259 -0.053729139973771045 0.042842391928204472 8.4937002369376793e-05 0.038690070094363704 -0.0059554090603252527 0.020184206192292272 -0.0428380018072895 -0.045439861203437924 0.018498951663991368 -0.050699376446139581 0.0012382993420959399 -0.077307952749810796 -0.049711933818878562 -0.04952756216050249 0.019730369459529183 0.031922500450465449 -0.036401926304141081 0.076849649943746254 -0.073618315190293659 0.22108586042689984 0.41175712981907503 0.05096279021674939 0.080397003840362247 0.14075068083632403 -0.0550654316745193
leaf_weight=379.51938523049466 17278.590079908608 1569.6674990800675 4191.5858589636628 3531.0973625092302 532.37009181082249 1983.3544411598705 934.50756407447625 2841.9274662925163 6097.1314877506811 945.48335566569585 1189.1806735158898 4158.5194000243209 1683.972431516042 838.35585801722482 18.355271367123354 663.69762843684293 37.158926534932107 1019.8218174565118 75.046448397450149 66.102954440750182 201.28571305028163 184.22911307262257 84.291251182090491 23.524924440309405 437.80409492866602 2.9728007307276121 0.57678360445424814 9.6454043132252973 43.479523782618344 13.013268657494335 29.037681042682379
leaf_count=23822 890870 88617 489236 327930 31554 164929 83346 221759 568997 87368 133233 89450 123396 60993 1593 38757 1852 90960 5373 4542 16698 18211 7310 496 50603 39 38 629 2234 1165 1196
internal_value=0 0.00590536 -0.0744588 -0.020395 -0.00503723 0.0142126 -0.044989 0.0171021 0.0134244 0.00837036 -0.00723417 0.0293826 -0.032118 -0.0224245 -0.0893768 -0.0264555 -0.0912596 -0.065697 0.00779947 -0.00882467 0.000168456 -0.00922783 0.0104748 -0.0223543 -0.0922027 0.0175237 -0.0395988 0.0224367 0.030507 0.0524838 -0.0286279
internal_weight=0 45342.7 5722.58 10880.6 6692.92 34462.1 4187.69 30376.2 23375.7 4476.58 4085.94 7000.45 2216.34 2027.54 4767.57 2233.37 4669.52 1954.33 2058.4 98.0483 955.013 671.565 268.52 403.044 4629.39 40.1317 66.6797 283.448 244.765 31.3685 38.6831
internal_count=3627196 3007532 619664 871928 570248 2135604 301680 1771076 1459867 415298 364528 311209 154950 194226 549068 127374 541730 174306 170302 7338 70596 49839 25521 24318 539839 1891 4580 20757 18932 2758 1825
cat_boundaries=0 1 2 3 4 5 6 7 8 9 10 11 12 13 14 15 16 17 18 19 20 21
cat_threshold=15 331321 163873 2 2 896 1 66592 1 896 1 768 33 1 2 1 2 525850 2 1 1
is_linear=0
shrinkage=0.1


Tree=16
num_leaves=32
num_cat=21
split_feature=1 2 2 12 1 11 1 2 0 0 13 13 0 1 2 10 0 11 2 0 0 2 7 5 1 13 3 0 1 0 0
split_gain=2882.71 807.027 603.724 386.532 311.156 238.446 189.268 233.332 241.143 79.1048 64.4459 54.4649 72.2792 54.4835 50.6173 46.0024 33.141 21.7808 18.0167 17.5868 17.1178 16.4108 13.6354 11.6829 11.102 9.84519 9.57385 8.88296 5.99708 3.51678 2.71718
threshold=0 1 2 3 4 5 6 7 2.5000000000000004 3.5000000000000004 8 9 2.5000000000000004 10 11 12 6.5000000000000009 13 14 3.5000000000000004 1.0000000180025095e-35 15 16 17 18 19 1.0000000180025095e-35 16.500000000000004 20 2.5000000000000004 12.500000000000002
decision_type=1 9 9 1 1 1 1 9 2 2 1 1 2 1 9 1 2 1 9 2 2 9 1 1 1 1 2 2 1 2 2
left_child=2 6 20 4 14 -6 11 9 -9 -8 15 13 -13 -2 -3 19 21 -18 23 -4 22 -5 28 -12 30 -26 -24 -17 -1 -20 -22
right_child=1 3 10 16 5 -7 7 8 -10 -11 18 12 -14 -15 -16 27 17 -19 29 -21 24 -23 26 -25 25 -27 -28 -29 -30 -31 -32
leaf_value=0.046281922981356173 0.030942406054928651 -0.012380083505432318 -0.093536848256733307 0.034357538144670428 -0.046575342035402041 0.011134645422633342 0.0066711864826126737 -0.037693469107230648 0.01889166334037971 0.028783177900779878 0.076237750512728561 0.038975752776350257 0.014992309295352011 0.01359650525934423 0.013169624434234776 0.0011131153940889293 0.097488033803749763 0.029833493236696082 -0.083809020630626924 -0.071700827286440241 -0.047144138907410781 0.012357062820528054 -0.035371040692726494 -0.061596805455572348 0.019795341882563884 -0.03032791106113622 -0.0010809387840506576 0.16803429969119837 -0.025432678421443474 -0.03051600409852212 0.061021232229651272
leaf_weight=40.573406060924754 2090.8147119665518 1614.7299482764211 3810.0919287068537 500.18475180724636 5476.8095935337478 823.6296026132768 7717.2395243304782 2291.7472068255302 1121.7766139802989 2047.0330152874812 31.726336419815198 2690.5177493689116 2357.7425500364043 14038.769373349613 1473.3180954072159 37.201757329050452 94.384790916694328 95.973062933422625 18.033346854150295 408.37389038188849 40.652123535051942 1149.3206158492249 230.14380394062027 7.6279107471927992 464.91248610045295 42.794448907487094 126.00214519258589 3.4869451439008108 11.369051939575 39.514858526177704 2.4631414618343106
leaf_count=1993 104462 131147 488445 45058 418572 67605 582196 203238 96523 68107 2534 128475 64397 839474 126247 1852 9505 6891 1143 50770 3960 111480 10205 663 40566 2108 13798 39 816 2538 215
internal_value=0 0.00523905 -0.0725161 -0.0180252 -0.0262548 -0.0389693 0.0128455 0.00342829 -0.0190423 0.0112953 -0.0883648 0.0187009 0.0277745 0.0158726 -0.000187069 -0.0904023 0.0238708 0.0633785 -0.00792862 -0.091423 -0.000351358 0.0193115 -0.0158776 0.0394878 0.0111452 0.0152697 -0.0226047 0.0154179 0.0290134 -0.040226 -0.0332523
internal_weight=0 45584 5314.97 11228.4 9388.49 6300.44 34355.6 13177.8 3413.52 9764.27 4356.06 21177.8 5048.26 16129.6 3088.05 4259.15 1839.86 190.358 96.9025 4218.47 958.911 1649.51 408.088 39.3542 550.822 507.707 356.146 40.6887 51.9425 57.5482 43.1153
internal_count=3625022 3003377 621645 916505 743571 486177 2086872 950064 299761 650303 547984 1136808 192872 943936 257394 541106 172934 16396 6878 539215 73661 156538 26812 3197 46849 42674 24003 1891 2809 3681 4175
cat_boundaries=0 1 2 3 4 5 6 7 8 9 10 11 12 13 14 15 16 17 18 19 20 21
cat_threshold=15 69177 163873 1 768 1 896 32 1 1 512 1048838 1 1 11011610 8388672 12 2 2 1 12
is_linear=0
shrinkage=0.1


Tree=17
num_leaves=32
num_cat=19
split_feature=1 5 2 2 2 12 0 10 0 1 1 10 13 0 10 10 0 2 0 2 0 7 3 0 1 0 7 0 0 0 5
split_gain=2520.92 727.621 584.256 313.144 272.29 163.778 154.578 343.833 145.367 114.729 107.453 90.6746 63.6159 57.7593 44.184 30.8487 29.8317 19.9863 18.787 15.1335 14.2027 15.3495 15.4579 14.05 11.6104 10.5555 8.9275 7.56684 6.26848 3.65023 3.49978
threshold=0 1 2 3 4 5 1.0000000180025095e-35 6 2.5000000000000004 7 8 9 10 1.0000000180025095e-35 11 12 14.500000000000002 13 3.5000000000000004 14 2.5000000000000004 15 1.0000000180025095e-35 12.500000000000002 16 13.500000000000002 17 39.500000000000007 16.500000000000004 131.50000000000003 18
decision_type=1 1 9 9 9 1 2 1 2 1 1 1 1 2 1 1 2 9 2 9 2 1 2 2 1 2 1 2 2 2 1
left_child=2 3 20 8 13 10 7 -5 9 -2 -6 -8 14 15 18 -3 -15 -10 -4 25 21 22 -1 -7 -23 -14 27 -22 -16 -21 -28
right_child=1 4 12 6 5 23 11 -9 17 -11 -12 -13 19 16 28 -17 -18 -19 -20 29 26 24 -24 -25 -26 -27 30 -29 -30 -31 -32
leaf_value=-0.034545561741479651 -0.060367096498355421 -0.027889731519676903 -0.092892650688368925 -0.0051320819852967783 -0.012905617880442619 0.016006050895871364 0.025005071258486194 0.03659791751666687 0.027624493738695018 -0.014620240112455662 -0.054591691182406303 0.012091569464575389 0.0044252198244422196 0.010420175843370932 0.00091208178934088771 0.043484350756107661 -0.042176439308160264 0.0035639568603874402 -0.069420608077179202 -0.048769181974500801 0.033901601276694927 0.029316929352979079 0.0036345495217324874 -0.061167737995075688 -0.01697507673781205 0.10947209562782548 -0.0042511937313340492 -0.053684306468809562 0.13403236282058215 0.11919173529704839 -0.069968535547258556
leaf_weight=259.3451124423882 663.37102386553306 809.64385802019387 3473.6744145610137 8689.678740985808 796.32882414432243 512.60683558904566 11292.945398029638 2555.0236737993546 643.87033647543285 3089.8932663816959 3164.0157908141846 10486.816005995963 25.513547134352848 2123.9815672283294 37.272871554363519 65.451152665074915 113.60321342083625 756.00661383278202 378.11912666127319 53.702233034186065 203.91327569028363 145.65791793039534 179.39135372638702 24.728470409289002 77.038879939354956 15.303060013800858 68.154522953904234 10.365232401527463 3.9082195404916993 1.3258548057638098 9.197211617138235
leaf_count=15451 68257 104465 488604 718044 39193 41615 895924 96553 62992 246104 257434 212327 2328 177471 1853 4895 7366 71427 50520 3604 14172 11921 19494 3092 5801 1178 4387 480 39 70 1247
internal_value=0 0.00466254 -0.0704462 0.0102918 -0.0235708 -0.0392638 0.0138672 0.00434982 -0.0126237 -0.0229056 -0.0463801 0.0187873 -0.0872865 -0.000766574 -0.0894869 -0.0225514 0.00774982 0.0148533 -0.0905885 -0.00701992 0.000209734 -0.00789391 -0.0185125 0.0124545 0.0132616 0.0351885 0.0185964 0.0283422 0.0135456 -0.0378449 -0.0106839
internal_weight=0 45788 4941.88 38177.6 7610.36 4497.68 33024.5 11244.7 5153.14 3753.26 3960.34 21779.8 3988.82 3112.68 3892.97 875.095 2237.58 1399.88 3851.79 95.8447 953.064 661.433 438.736 537.335 222.697 40.8166 291.63 214.279 41.1811 55.0281 77.3517
internal_count=3628308 3007159 621149 2371628 635531 341334 1922848 814597 448780 314361 296627 1108251 548196 294197 541016 109360 184837 134419 539124 7180 72953 52667 34945 44707 17722 3506 20286 14652 1892 3674 5634
cat_boundaries=0 1 2 3 4 5 6 7 8 9 10 11 12 13 14 15 16 17 18 19
cat_threshold=15 2 163873 6578567 394289 1 1 48 768 1 1 1 1 2097412 11011610 1 9 9 2
is_linear=0
shrinkage=0.1


Tree=18
num_leaves=32
num_cat=22
split_feature=1 5 2 2 12 0 12 7 10 0 2 13 10 2 10 12 0 7 0 8 1 2 7 3 13 3 0 6 0 0 10
split_gain=2200.48 593.439 555.583 253.012 236.102 185.578 138.653 163.91 134.179 114.658 99.0528 63.3531 63.1197 45.8351 42.5238 21.0371 20.3673 18.4545 17.6683 13.446 13.3712 12.2651 11.3345 19.5923 13.7844 9.32148 4.55975 3.75023 3.54121 2.23521 0.00349492
threshold=0 1 2 3 4 1.0000000180025095e-35 5 6 7 2.5000000000000004 8 9 10 11 12 13 1.5000000000000002 14 11.500000000000002 15 16 17 18 1.0000000180025095e-35 19 2.5000000000000004 16.500000000000004 20 2.5000000000000004 4.5000000000000009 21
decision_type=1 1 9 9 1 2 1 1 1 2 9 1 1 9 1 1 2 1 2 1 1 9 1 2 1 2 2 1 2 2 1
left_child=2 3 20 8 5 13 7 -5 9 -2 -7 14 -8 -3 15 -4 19 -10 -18 -6 27 25 24 -24 -22 -13 -16 29 -23 -1 -29
right_child=1 4 11 6 16 10 12 -9 17 -11 -12 21 -14 -15 26 -17 18 -19 -20 -21 22 28 23 -25 -26 -27 -28 30 -30 -31 -32
leaf_value=-0.039072822334492163 -0.028743954329012108 -0.023131369096052311 -0.090021188806811148 0.0019865220132573645 -0.0028116439579637851 -0.0014016153536056796 0.031169041905813391 0.018916812729673056 -0.0060195187323142055 0.010025694002251 -0.033907629009333605 0.011127121646164664 0.014437099514060713 -0.062850774951679941 0.00090869107066074255 0.081967395919493841 0.028590485452143238 0.027779811567488294 -0.026515818585116643 0.036519599044213209 0.039648393415272716 -0.081110577560251598 -0.016938188628946801 0.016167991660113189 -0.059626273518548378 0.11855119753720911 0.11012097961749762 -0.10754351515632365 -0.024068703725205236 0.015406201925653316 -0.10072597955589412
leaf_weight=66.682409314671531 3165.05468527216 401.05117210093886 3508.6866751201451 15191.318665905506 788.24396159383468 1845.2993342110422 4551.7903789221309 9169.3008995665004 203.40589571092278 1005.049835456186 1910.0128809148446 31.216612644726411 4467.4533535200171 1642.4358997505624 37.271904502529651 7.126364753348752 686.36912431032397 808.14385728305206 63.571497237775475 97.69237589975819 136.27377527812496 15.557334338664075 387.63026735163294 331.7447596443817 15.586275066249071 10.897383925737811 4.2598796915262929 0.8285377505235374 36.225536043290049 8.4899948164820653 8.1333345752209389
leaf_count=5522 262724 58234 537805 982128 81291 143627 312484 522885 15663 117544 142087 2514 96776 139502 1852 707 58050 58867 5429 6328 9438 1114 26639 29144 617 990 39 30 2400 867 737
internal_value=0 0.00410765 -0.0683131 0.00909602 -0.0217601 -0.0312252 0.0122856 0.00836764 -0.0114523 -0.0194 -0.0180287 -0.0861084 0.0228813 -0.0554763 -0.0884843 -0.0896726 0.0117915 0.0211984 0.0239192 0.00152542 -0.000115434 -0.0052666 0.00371249 -0.00164813 0.0276392 0.0314551 0.0121105 -0.0359382 -0.0345365 -0.0329199 -0.101356
internal_weight=0 45996.2 4606.61 38561.5 7434.68 5798.8 33379.9 24360.6 5181.65 4170.1 3755.31 3651.24 9019.24 2043.49 3557.34 3515.81 1635.88 1011.55 749.941 885.936 955.369 93.8969 871.235 719.375 151.86 42.114 41.5318 84.1343 51.7829 75.1724 8.96187
internal_count=3624034 3003619 620415 2369071 634548 483450 1914273 1505013 454798 380268 285714 547421 409260 197736 540403 538512 151098 74530 63479 87619 72994 7018 65838 55783 10055 3504 1891 7156 3514 6389 767
cat_boundaries=0 1 2 3 4 5 6 7 8 9 10 11 12 13 14 15 16 17 18 19 20 21 22
cat_threshold=15 2 163873 7627143 1 1 1 1 4588597 1 1 5177377 1 1 2 1 2 11011610 12 1 1 2
is_linear=0
shrinkage=0.1


Tree=19
num_leaves=32
num_cat=18
split_feature=1 2 5 2 2 0 11 0 0 10 11 1 1 0 0 1 6 3 10 2 10 0 5 3 12 3 12 0 3 0 0
split_gain=1921.24 528.354 488.021 207.844 206.277 132.352 119.969 117.66 114.792 79.779 76.9865 67.6822 65.4589 61.9047 51.8514 45.2598 38.7467 38.1183 21.9352 20.3494 18.8337 15.096 12.0161 23.3155 23.2506 6.42412 5.72503 4.21952 3.5307 17.6407 5.03884
threshold=0 1 2 3 4 1.5000000000000002 5 1.0000000180025095e-35 1.0000000180025095e-35 6 7 8 9 2.5000000000000004 3.5000000000000004 10 11 7.5000000000000009 12 13 14 6.5000000000000009 15 1.0000000180025095e-35 16 5.5000000000000009 17 1.5000000000000002 3.5000000000000004 22.500000000000004 1.0000000180025095e-35
decision_type=1 9 1 9 9 2 1 2 2 1 1 1 1 2 2 1 1 2 1 9 1 2 1 2 1 2 1 2 2 2 2
left_child=1 22 3 8 15 11 7 -5 12 -8 -7 -6 -2 20 -10 21 18 -17 -15 -18 26 -4 23 24 -1 -25 -3 -22 30 -30 -24
right_child=2 13 4 6 5 10 9 -9 14 -11 -12 -13 -14 16 -16 17 19 -19 -20 -21 27 -23 28 25 -26 -27 -28 -29 29 -31 -32
leaf_value=-0.012589245292829314 -0.065823323497171876 -0.09195815777779115 0.027394005574598312 -0.000883143374130898 -0.031342979631434495 -0.023293430198195877 0.033851553299954783 0.012981579048158862 -0.007700096683978367 0.013262228879034336 0.031560136513721943 -0.065493249772298104 -0.020104438679855154 -0.070913262388798054 0.01962899752956862 -0.009874430777406594 0.054059139768141196 0.046305315106915157 0.034063839133157296 -0.032962569365522221 -0.020672954706377665 -0.022887819627482313 -0.068788251798458502 0.029247597010203238 0.13717827499202279 -0.018698350865388482 0.011458078951107689 0.086641952524881799 -0.003920791491905086 0.97239758741557092 -0.021110798354537826
leaf_weight=494.61787691677455 401.05479640187696 2783.9223519623629 611.51084455824457 9847.0970480550313 1190.7636851764983 1391.1142507719342 3250.1381028807955 16174.652216922259 2254.1950776136946 4470.4915194637142 313.52705497934949 1280.0543050852139 1473.8116560376948 427.93757079535862 1003.2042012126185 2298.2891526522581 37.693218328815419 127.47289686556906 20.875507792923599 51.958710659819189 15.924626641441138 66.169871767982841 34.847463591606356 298.23949928488582 10.587589011993257 30.834582174895331 5.3633503764867774 4.7587802051566532 25.852914988528941 0.18640345148742099 60.916615304769948
leaf_count=36373 46697 468622 50012 724020 75887 103584 247110 867608 213646 91583 27061 132876 96182 65923 87618 223630 3732 12623 593 6580 1079 2732 1600 23122 539 2263 320 283 2820 29 7537
internal_value=0 -0.0661003 0.00367919 0.00812955 -0.0200839 -0.0345564 0.0109796 0.00773492 -0.0106089 0.0219297 -0.0132045 -0.0494271 -0.0303425 -0.0848488 0.000716637 -0.000499247 -0.0540414 -0.00689379 -0.0660305 0.00597796 -0.0910543 0.0221574 -0.000239571 0.00404152 -0.00945057 0.024755 -0.0917593 0.00401776 -0.0295821 0.00306822 -0.0384601
internal_weight=0 4304.52 46153.5 38874.6 7278.9 4175.46 33742.4 26021.7 5132.27 7720.63 1704.64 2470.82 1874.87 3348.43 3257.4 3103.44 538.465 2425.76 448.813 89.6519 2809.97 677.681 956.083 834.28 505.205 329.074 2789.29 20.6834 121.803 26.0393 95.7641
internal_count=3624284 621415 3002869 2374464 628405 339408 1930321 1591628 444143 338693 130645 208763 142879 547132 301264 288997 76828 236253 66516 10312 470304 52744 74283 62297 36912 25385 468942 1362 11986 2849 9137
cat_boundaries=0 1 2 3 4 5 6 7 8 9 10 11 12 13 14 15 16 17 18
cat_threshold=15 163873 2 7758215 394289 1 1 1 896 48 768 1 1 9970840 1 2 1 1
is_linear=0
shrinkage=0.1


Tree=20
num_leaves=32
num_cat=20
split_feature=1 2 5 12 12 2 10 0 7 2 0 2 0 2 13 10 10 7 1 3 5 3 12 3 8 3 12 0 3 0 0
split_gain=1674.15 502.875 398.242 186.678 172.023 196.416 340.884 161.816 98.056 85.8913 63.4096 48.075 46.44 39.2586 37.1588 35.2724 18.4225 15.2984 14.2005 13.2151 11.4905 16.9328 16.4248 8.76367 8.31565 5.69848 5.45856 3.16535 2.89594 4.89802 4.3229
threshold=0 1 2 3 4 5 6 1.0000000180025095e-35 7 8 2.5000000000000004 9 7.5000000000000009 10 11 12 13 14 15 1.0000000180025095e-35 16 1.0000000180025095e-35 17 2.5000000000000004 18 12.500000000000002 19 1.5000000000000002 3.5000000000000004 1.0000000180025095e-35 22.500000000000004
decision_type=1 9 1 1 1 9 1 2 1 9 2 9 2 9 1 1 1 1 1 2 1 2 1 2 1 2 1 2 2 2 2
left_child=1 20 4 7 5 8 -7 13 -2 -9 16 15 -13 -4 18 -6 26 19 -12 -5 21 22 -1 -16 -19 -23 -3 -18 29 -22 -30
right_child=2 10 3 17 11 6 -8 9 -10 -11 14 12 -14 -15 23 -17 27 24 -20 -21 28 25 -24 -25 -26 -27 -28 -29 30 -31 -32
leaf_value=-0.010564303575254322 0.0039733718246490754 -0.091172731718215813 -0.021123831102145822 0.060376293337304113 0.02097361189960659 -0.016079981472999435 0.024518859126203524 -0.0045360197990609143 0.019440957443957924 -0.037778984947763924 -0.032618713059812482 0.026722997898224989 0.07587450375317939 -0.058651127760351786 -0.0036874252079887983 0.007703356385956827 -0.018839230446718081 -0.0055644118964976218 -0.076876410545110227 0.015652241217988253 -0.067720345289030967 0.022961167466568552 0.10806298045745209 0.078976281700959231 0.029468216453423297 -0.082470403269270826 0.0084666977703337608 0.071478870771086708 -0.0055773989874768892 -0.020123775829624893 0.28697654683875456
leaf_weight=483.67050628992729 10410.607566416613 2540.2453119402635 390.75796434655786 71.040772704407573 4195.4959087250754 8985.8655982386554 2686.4276818525977 2496.7526403114898 6768.6676493550185 1125.012123182998 171.42908761301078 2072.6607514361385 211.87956223869696 1475.9709785653395 51.251529566943645 3832.8022666811012 15.582764070015402 553.4589572630357 271.44078074663412 943.71840435010381 33.73540212737862 332.43428928486537 11.960200472734867 17.105320427101105 77.208636868745089 5.20675184438005 5.5100603324826798 5.1670293132774523 26.305769515456635 60.206217031227425 0.51497185882180829
leaf_count=36154 554210 468492 54798 5062 247219 887678 142055 191468 294244 92885 26316 162059 12431 136638 3664 76756 1072 52399 45449 89572 1634 25078 568 1350 4168 381 318 283 2838 7289 41
internal_value=0 -0.0638284 0.00328094 -0.018449 0.00723995 0.00327761 -0.00673022 -0.0273062 0.0100754 -0.014979 -0.0835147 0.0183251 0.0311452 -0.051223 -0.0516253 0.01462 -0.0901922 0.011095 -0.0622172 0.0186 -0.000112644 0.00406409 -0.00770168 0.016998 -0.00125568 0.0213353 -0.0909571 0.00365142 -0.0289418 -0.0372162 3.97854e-05
internal_weight=0 4031.77 46298.3 7133.92 39164.4 28851.6 11672.3 5488.49 17179.3 3621.76 3077.73 10312.8 2284.54 1866.73 511.227 8028.3 2566.51 1645.43 442.87 1014.76 954.034 833.272 495.631 68.3568 630.668 337.641 2545.76 20.7498 120.762 93.9416 26.8207
internal_count=3624569 620927 3003642 626990 2376652 1878187 1029733 475789 848454 284353 546944 498465 174490 191436 76779 323975 470165 151201 71765 94634 73983 62181 36722 5014 56567 25459 468810 1355 11802 8923 2879
cat_boundaries=0 1 2 3 4 5 6 7 8 9 10 11 12 13 14 15 16 17 18 19 20
cat_threshold=15 163873 2 1 1 8979488 1 1 15080501 6562214 5177377 1 1 1 9 8 2 1 1 1
is_linear=0
shrinkage=0.1


Tree=21
num_leaves=32
num_cat=22
split_feature=1 2 5 2 13 2 0 1 7 0 2 0 11 0 1 6 2 0 10 10 2 0 0 7 13 0 12 13 1 0 6
split_gain=1457.4 476.272 327.384 159.09 156.532 189.657 159.321 111.551 95.249 66.9187 140.55 65.232 50.2769 45.4005 44.0205 34.6147 31.6736 26.5314 19.9475 17.9767 16.8262 14.5534 9.56512 8.46036 7.15053 11.9841 6.1948 5.81551 4.85158 4.54041 2.4578
threshold=0 1 2 3 4 5 3.5000000000000004 6 7 2.5000000000000004 8 2.5000000000000004 9 1.5000000000000002 10 11 12 1.0000000180025095e-35 13 14 15 12.500000000000002 1.0000000180025095e-35 16 17 13.500000000000002 18 19 20 7.5000000000000009 21
decision_type=1 9 1 9 1 9 2 1 1 2 9 2 1 2 1 1 9 2 1 1 9 2 2 1 1 2 1 1 1 2 1
left_child=1 22 4 14 5 6 -2 13 -7 16 -11 19 -9 -5 21 18 -6 -16 -13 26 -17 -4 23 28 25 -24 -3 -25 -1 -26 -21
right_child=2 11 3 7 9 8 -8 12 -10 10 -12 15 -14 -15 17 20 -18 -19 -20 30 -22 -23 24 27 29 -27 -28 -29 -30 -31 -32
leaf_value=0.036632726655585333 -0.021083511023572307 -0.090332336558028192 0.0094414080789446495 -0.029350848692804146 0.035578340046334513 0.0023056227611454702 0.022298968810227717 -0.058961026468971445 0.014738941891015321 -0.0038003241549323117 0.03748889146429156 -0.066870990214428994 -0.004491025471193625 0.0034650066615303354 -0.033709169077647039 0.039734646846670788 0.01620080088362175 -0.0064591006860003942 0.033274950420692451 0.060507615082079684 -0.040505625663121159 -0.034505119905865717 0.0066925214557510514 -0.019396902638876206 0.0046449460639805783 0.058979405556744718 0.022402071831288183 0.15324719294076986 -0.025225012430032029 -0.059793236996505565 -0.017377498388521279
leaf_weight=43.965705341426656 4636.2824484750163 2322.4449187419377 1872.5280098104849 968.78983923466876 2447.3273454046575 16281.735184892779 1035.6264825297985 1394.0805159689626 9915.5805199011229 2490.3090245993808 1222.5559491228778 375.98004058166407 192.90270669746678 746.41281413263641 499.67619030561764 53.046630240103696 1378.6805893768324 1253.8830089867115 21.000327111687511 5.5085620922036469 35.076383145933505 78.515204290160909 470.12190998787992 333.04273423599079 20.113062513526529 48.34247804293409 4.8845731557812533 1.9626207759138186 11.316589818801729 23.962005337700248 15.320104709826412
leaf_count=4545 396935 469099 157093 65971 93121 1023459 95795 158984 540860 46324 78046 65458 15879 51200 63568 5099 106831 109634 593 297 5332 5150 41560 23716 1227 2239 469 175 740 838 1057
internal_value=0 -0.0614952 0.00294985 -0.0169669 0.00649181 0.00342649 -0.0131392 -0.032882 0.00701541 0.0194499 0.00988594 -0.0820816 -0.0520123 -0.0149829 -0.00268468 -0.0489877 0.0287311 -0.0141433 -0.0615733 -0.089268 0.00770841 0.00763376 -6.42502e-05 -0.0120937 0.00828061 0.0115678 -0.0900957 -0.0178526 0.0220458 -0.0303877 0.00322079
internal_weight=0 3786.09 46414.9 7006.79 39408.1 31869.2 5671.91 3302.19 26197.3 7538.87 3712.86 2833.26 1586.98 1715.2 3704.6 485.103 3826.01 1753.56 396.98 2348.16 88.123 1951.04 952.827 390.288 562.539 518.464 2327.33 335.005 55.2823 44.0751 20.8287
internal_count=3631294 622444 3008850 627479 2381371 2057049 492730 292034 1564319 324322 124370 547404 174863 117171 335445 76482 199952 173202 66051 470922 10431 162243 75040 29176 45864 43799 469568 23891 5285 2065 1354
cat_boundaries=0 1 2 3 4 5 6 7 8 9 10 11 12 13 14 15 16 17 18 19 20 21 22
cat_threshold=15 163873 2 461873 1 7367558 896 1 4469413 1 896 1 8454888 1 1 10235032 12 1 1 1 12 2
is_linear=0
shrinkage=0.1


Tree=22
num_leaves=32
num_cat=22
split_feature=1 2 0 5 0 11 2 10 2 6 0 10 0 0 12 6 10 10 8 2 4 2 7 3 0 4 5 8 3 5 3
split_gain=1269.07 728.628 209.516 200.097 129.143 102.027 127.772 209.133 90.0374 87.483 71.881 55.7889 132.359 123.93 53.5929 47.9877 44.3433 42.8441 40.2294 33.525 31.0445 29.7193 26.5136 50.711 32.4808 22.3067 14.924 14.0683 14.9054 7.28282 7.06774
threshold=0 1 2.5000000000000004 2 1.5000000000000002 3 4 5 6 7 12.500000000000002 8 2.5000000000000004 6.5000000000000009 9 10 11 12 13 14 15 16 17 1.0000000180025095e-35 13.500000000000002 18 19 20 1.5000000000000002 21 1.0000000180025095e-35
decision_type=1 9 2 1 2 1 9 1 9 1 2 1 2 2 1 1 1 1 1 9 1 9 1 2 2 1 1 1 2 1 2
left_child=3 22 16 5 8 6 15 -8 20 17 21 13 -13 -7 -10 -1 18 -4 -3 -11 -5 -6 23 24 -2 -12 -25 29 -29 -24 -18
right_child=1 2 9 4 10 11 7 -9 14 19 25 12 -14 -15 -16 -17 30 -19 -20 -21 -22 -23 27 26 -26 -27 -28 28 -30 -31 -32
leaf_value=0.0078159340301180297 -0.030690571785365047 -0.082202639932659416 -0.051381865768172642 0.018509706671955152 -0.024475874642509797 0.019417817472342006 -0.016076283162014468 0.019710780118939203 -0.044213090528824578 -0.04022123226185307 -0.05567834296590516 0.027809327961970248 -0.0053706221734077901 0.076346627030253147 0.0028567697858260088 0.036770660440444608 0.067881416314191076 0.035043126959984058 0.43867189795538269 0.048251642240078919 -0.014644059674637248 0.012714586244039851 0.0086092293145349687 0.016866414068546328 0.058334216148518719 0.0085085801253015989 -0.017654805155338595 0.052943657370976685 0.0020465369727640484 -0.020698276070070784 -0.013100071763331554
leaf_weight=19658.739666465146 792.8528042586986 3158.8611850567977 635.29784183960874 406.89136714115739 228.3222057740204 3359.9104806915857 5899.6595467388397 2257.8871639785357 1830.5104076515418 49.509528747410513 243.93286518193781 2203.3794100726955 2646.1101991645992 431.50513697299175 278.72395701659843 589.55452705721837 14.675817768555133 63.053441932424903 1.483479790855198 170.62244251614902 923.37710812711157 2309.4416709457291 715.3215265510371 598.36844196286984 43.216954699717462 69.588725942070596 158.37759227538481 144.58038911502808 95.573383110109717 96.191415212932043 40.570488788187504
leaf_count=987612 84655 585027 95622 41768 18171 263859 612664 116515 162878 5951 17007 69467 39981 33563 18296 25844 813 1959 173 15218 115695 173450 54557 40547 1991 6207 15124 1815 4086 10713 2925
internal_value=0 -0.0420061 -0.0682089 0.00449346 -0.0119951 0.00729455 0.00440015 -0.0061634 -0.0250405 -0.0262513 0.00374144 0.0168095 0.00970478 0.0258969 -0.0378138 0.00865471 -0.0804055 -0.0435786 -0.0819581 0.0287181 -0.00446966 0.00932222 -0.000941161 -0.00905648 -0.0260888 -0.0414315 0.00964155 0.0113195 0.0326883 0.00513531 0.00841213
internal_weight=0 6778.56 4134.07 43337.5 6290.79 37046.7 28405.8 8157.55 3439.5 918.483 2851.29 8640.91 4849.49 3791.42 2109.23 20248.3 3215.59 698.351 3160.34 220.132 1330.27 2537.76 2644.48 1592.82 836.07 313.522 756.746 1051.67 240.154 811.513 55.2463
internal_count=3624153 921176 707688 2702977 553472 2149505 1742635 729179 338637 118750 214835 406870 109448 297422 181174 1013456 588938 97581 585200 21169 157463 191621 213488 142317 86646 23214 55671 71171 5901 65270 3738
cat_boundaries=0 1 2 3 4 5 6 7 8 9 10 11 12 13 14 15 16 17 18 19 20 21 22
cat_threshold=992 163873 2 1 12129384 1 459297 1 1 1 1 1 1 1 10506498 2 5841538 1 2 2 1 2
is_linear=0
shrinkage=0.1


Tree=23
num_leaves=32
num_cat=25
split_feature=1 2 1 2 11 10 0 8 0 1 7 10 0 13 13 0 2 10 1 8 1 2 0 0 13 7 6 8 6 5 10
split_gain=1109.24 429.128 254.509 339.92 377.899 344.841 64.5153 49.7112 44.7947 35.2579 31.2935 110.089 106.248 29.7833 29.3458 27.0712 23.133 19.2445 15.2136 10.5848 9.09781 7.40355 6.91253 6.8153 7.55476 6.78154 4.05981 3.86036 2.55418 1.69208 0.0032546
threshold=0 1 2 3 4 5 2.5000000000000004 6 22.500000000000004 7 8 9 1.0000000180025095e-35 10 11 155.50000000000003 12 13 14 15 16 17 183.50000000000003 1.0000000180025095e-35 18 19 20 21 22 23 24
decision_type=1 9 1 9 1 1 2 1 2 1 1 1 2 1 1 2 9 1 1 1 1 9 2 2 1 1 1 1 1 1 1
left_child=1 20 8 10 5 -5 17 -6 9 16 12 -12 -4 -11 18 27 -2 19 -8 -3 26 -16 -17 25 -25 -22 29 -10 -19 -1 -28
right_child=2 6 3 4 7 -7 14 -9 15 13 11 -13 -14 -15 21 22 -18 28 -20 -21 23 -23 -24 24 -26 -27 30 -29 -30 -31 -32
leaf_value=-0.018346174936656134 0.044262239052023408 -0.088282606692608678 -0.010792200042449013 -0.032973197896635331 0.013589130664486576 0.023818699871158922 -0.025768455899161609 0.099643974328048057 -0.076230022612348527 0.0071403864937850288 0.018998222218877425 -0.0078975319274551502 0.010248282623843199 0.018330023476138144 0.041650383532077 0.45297109842580918 0.018123974045682337 0.060275421067514712 -0.072495133334065279 0.45313870414627666 0.023233336604514376 -0.017115918577803434 0.050569033869898077 0.014515353477182578 -0.02948952386938717 -0.013164811685884079 -0.10069511523347446 0.020940777590238883 -0.015566364585943805 -0.057392198652528759 -0.10765665839297855
leaf_weight=54.501910308608785 377.64080403489061 1962.2922789519071 3872.2752177489456 8216.0623652045033 2843.4696238009492 1229.1133390213363 154.58001786516979 68.751004396937788 74.772796596167609 9527.0349583136849 5037.2486818294274 2180.709592779167 6312.2154483197955 3170.2476220177487 33.240285219741054 1.2264579879119981 3710.7129116677679 6.1226304951123893 226.85340516071301 0.36115335859358211 52.900359135121107 36.386444407631643 0.6548079284839331 481.64500989939552 42.452581400051713 287.78033018880524 7.3201539223082346 4.3249068628065279 16.162863643374298 13.936518917093052 0.73939734185114492
leaf_count=5190 32071 469329 330988 791834 232806 66524 26637 4109 5464 588886 311279 35324 287244 133589 2489 29 183552 319 45228 40 4986 2526 49 39519 1921 20783 572 68 1158 706 27
internal_value=0 -0.0568881 0.00237885 -0.00318334 -0.0158597 -0.0255828 -0.0790515 0.0156207 0.012189 0.0125541 0.00582202 0.0108574 0.00224621 0.00992639 -0.0452371 -0.0620001 0.0206405 -0.0871338 -0.0561348 -0.088183 0.000698063 0.0144632 0.312908 0.0037501 0.0109509 -0.00721742 -0.0302487 -0.0709169 0.00527011 -0.0262973 -0.101334
internal_weight=0 3377.28 46626.5 29759.8 12357.4 9445.18 2436 2912.22 16866.6 16785.6 17402.4 7217.96 10184.5 12697.3 451.06 80.979 4088.35 1984.94 381.433 1962.65 941.276 69.6267 1.88127 864.778 524.098 340.681 76.498 79.0977 22.2855 68.4384 8.05955
internal_count=3625246 621430 3003816 2060108 1095273 858358 547726 236915 943708 938098 964835 346603 618232 722475 76880 5610 215623 470846 71865 469369 73704 5015 78 67209 41440 25769 6495 5532 1477 5896 599
cat_boundaries=0 1 2 3 4 5 6 7 8 9 10 11 12 13 14 15 16 17 18 19 20 21 22 23 24 25
cat_threshold=15 163872 768 1048608 1 1 1 512 1 1 1 1 8397900 1 8 1 2 11011226 1 12 1 1 2 2 1
is_linear=0
shrinkage=0.1


Tree=24
num_leaves=32
num_cat=20
split_feature=1 2 1 2 0 2 6 13 10 1 0 0 12 6 0 0 2 1 13 10 0 5 3 7 11 1 7 3 3 0 0
split_gain=957.577 396.23 227.151 247.199 179.141 104.864 97.3965 69.6143 66.4715 65.7095 68.6502 53.2457 47.4336 41.7314 33.6922 32.0666 23.6763 25.6964 18.4852 18.0621 15.3802 14.2325 12.5984 12.9461 7.64056 7.20824 4.48396 3.56481 3.82924 2.81702 2.52397
threshold=0 1 2 3 1.5000000000000002 4 5 6 7 8 1.0000000180025095e-35 2.5000000000000004 9 10 6.5000000000000009 3.5000000000000004 11 12 13 14 14.500000000000002 15 1.0000000180025095e-35 16 17 18 19 7.5000000000000009 9.5000000000000018 1.0000000180025095e-35 1.5000000000000002
decision_type=1 9 1 9 2 9 1 1 1 1 2 2 1 1 2 2 9 1 1 1 2 1 2 1 1 1 1 2 2 2 2
left_child=1 21 3 13 8 7 -6 12 -5 14 -11 19 -4 15 -7 -2 20 -18 -15 24 -13 22 23 -1 -3 -24 -9 29 -29 -23 -21
right_child=2 11 5 4 6 9 -8 26 -10 10 -12 16 -14 18 -16 -17 17 -19 -20 30 -22 27 25 -25 -26 -27 -28 28 -30 -31 -32
leaf_value=0.042035095500668446 -0.006438828413292132 -0.08816124749079006 -0.019012086560292747 -0.05719463639846474 -0.020694468336651225 0.013679674665235076 0.041718505274422835 0.027152159344030133 0.030423528452383802 -0.0052370048718852012 0.007703944083356425 -0.076090817627697163 0.010274257100127054 0.031781821601527586 -0.0044310893449301739 0.01471738060096198 0.011728351098936244 -0.07073663156118086 -0.0070523255157973119 -0.012903003630609991 0.013776733194109693 -0.056886884591846293 -0.029113143068202143 -0.01317138967343337 -0.022888049029690882 0.019174810548270596 0.0077062096428992394 0.12970342344667918 -0.012756278962420452 -0.026027089690789817 0.067937038484390089
leaf_weight=37.170231568452436 3886.4582284289645 1732.9051281920401 3194.7361819188227 1875.7483548373566 1116.0773843696225 13790.231532302219 322.21560151537415 441.49034697574098 90.776264604646713 6148.4013741017552 12300.086941865738 216.23467503668508 668.81718271481805 561.9448804454878 1109.874185472494 878.35387238673866 119.830294979678 44.347377140016761 156.76862132758833 14.53237275965512 20.883093288925011 46.123392598005012 26.171553548716474 468.61363729956793 18.120622002985328 352.55995902459836 198.53782274690457 2.606164421187712 6.8357529800850898 82.473137856286485 5.2601062897592774
leaf_count=2549 318134 455380 262972 218709 104796 731056 26196 39764 6340 455687 661127 44721 59276 25872 36241 34282 15350 8763 4650 996 3632 4800 3901 37722 3070 27635 18497 326 870 11522 264
internal_value=0 -0.054436 0.00206989 -0.0123077 -0.0334353 0.00544836 -0.00671231 -0.00886237 -0.0531501 0.00738304 0.00338923 -0.0785969 -0.0139423 0.000847703 0.0123224 -0.00253886 -0.0460694 -0.0133292 0.0233112 -0.086412 -0.0654173 -0.00284903 0.00178374 -0.00854357 -0.0874858 0.0155755 0.0216646 -0.032741 0.0265655 -0.0370955 0.00858128
internal_weight=0 3194.67 46740.5 8888.34 3404.82 37852.2 1438.29 4503.58 1966.52 33348.6 18448.5 2172.11 3863.55 5483.53 14900.1 4764.81 401.295 164.178 718.714 1770.82 237.118 1022.55 884.515 505.784 1751.03 378.732 640.028 138.038 9.44192 128.597 19.7925
internal_count=3625100 621501 3003599 738979 356041 2264620 130992 380509 225049 1884111 1116814 532176 322248 382938 767297 352416 72466 24113 30522 459710 48353 89325 71807 40271 458450 31536 58261 17518 1196 16322 1260
cat_boundaries=0 1 2 3 4 5 6 7 8 9 10 11 12 13 14 15 16 17 18 19 20
cat_threshold=15 230433 48 1966113 5910918 1 1 1 768 1 1 8413506 12 1 1 2 8 1 2 1
is_linear=0
shrinkage=0.1


Tree=25
num_leaves=32
num_cat=24
split_feature=1 2 1 2 0 4 10 12 6 0 10 2 0 7 6 2 3 1 13 12 10 13 1 12 0 0 7 6 5 3 10
split_gain=822.406 372.001 185.854 211.274 162.59 92.1241 168.109 139.947 78.2157 66.2025 58.751 44.4677 40.3402 34.481 33.4143 28.265 27.0243 25.9948 22.2044 16.3502 15.6219 14.3227 7.17441 6.70413 5.46087 6.66821 6.56573 4.06248 2.13187 1.91151 0.00221547
threshold=0 1 2 3 1.5000000000000002 4 5 6 7 2.5000000000000004 8 9 24.500000000000004 10 11 12 1.0000000180025095e-35 13 14 15 16 17 18 19 1.0000000180025095e-35 39.500000000000007 20 21 22 5.5000000000000009 23
decision_type=1 9 1 9 2 1 1 1 1 2 1 9 2 1 1 9 2 1 1 1 1 1 1 1 2 2 1 1 1 2 1
left_child=1 22 3 14 10 11 7 -7 -6 20 -5 18 -13 -8 16 19 -2 -17 -4 -11 23 -16 27 -3 26 -26 -24 29 -22 -1 -29
right_child=2 9 5 4 8 6 13 -9 -10 15 -12 12 -14 -15 21 17 -18 -19 -20 -21 28 -23 24 -25 25 -27 -28 30 -30 -31 -32
leaf_value=-0.019855761331016405 -0.0097459262931141651 -0.086253904607487331 -0.012925112053837277 -0.054796714827744612 -0.018867091110544514 -0.026568592275176679 0.036606198426160426 0.0055608437164985074 0.036412236433531857 -0.06859367386904075 0.026536104069080843 0.0084989828028411915 -0.031344685267979268 0.0038425300904320683 0.027902663319751511 0.014460737552078023 0.0053376297388129552 -0.065219619109137192 0.016568648099455113 0.14634364203255765 -0.10187654163177357 -0.0062723687273091916 -0.016674662009120749 0.038498024846048438 0.01110842262549213 -0.059010443451839811 0.011621953179570153 -0.1006072263871724 0.0097247595457497938 -0.10110380789536133 -0.10655428513565926
leaf_weight=63.034003911307082 2405.6586423678673 1638.7356748819002 1517.8792096409015 1776.9476373912184 1091.3717544117244 3282.7222134555341 915.53716626530513 2309.3937298390083 334.37912090087775 224.74746640736703 93.486989917699248 28945.34645513969 256.35915620310698 509.79020135244355 577.18095518328482 136.51107809157111 2346.3275932251127 47.246286594192497 306.86113277811091 3.5957682102452955 1.8756818803958595 155.7186897455249 222.19390229613055 4.3190798982977858 518.21861355146393 13.926981121301649 119.49514862813521 6.8315816042013457 19.575793003197763 3.0351155721582463 0.68965137982740987
leaf_count=4745 202885 467685 133439 210740 103862 281935 40325 170073 26423 49031 6350 1583830 14219 23164 25896 17167 149616 9996 27346 323 173 4617 17414 267 40849 764 8810 568 1174 211 30
internal_value=0 -0.0518907 0.00183281 -0.0112727 -0.0312462 0.00485991 -0.00548596 -0.0133 -0.00590252 -0.0755709 -0.0507316 0.00720147 0.00814641 0.0251716 0.000765551 -0.0400508 -0.00229831 -0.00833477 -0.00792182 -0.0624731 -0.084819 0.0206415 0.000259805 -0.085926 0.0029055 0.00927332 -0.00692667 -0.0277453 -3.34757e-05 -0.0235882 -0.101153
internal_weight=0 3024.03 46825 8781.07 3296.19 38043.9 7017.44 5592.12 1425.75 2076.61 1870.43 31026.4 29201.7 1425.33 5484.89 412.101 4751.99 183.757 1824.74 228.343 1664.51 732.9 947.425 1643.05 873.835 532.146 341.689 73.5904 21.4515 66.0691 7.52123
internal_count=3623927 619207 3004720 730389 347375 2274331 515497 452008 130285 545816 217090 1758834 1598049 63489 383014 76517 352501 27163 160785 49354 469299 30513 73391 467952 67837 41613 26224 5554 1347 4956 598
cat_boundaries=0 1 2 3 4 5 6 7 8 9 10 11 12 13 14 15 16 17 18 19 20 21 22 23 24
cat_threshold=15 163873 48 1966113 2 1 1 1 1 1187974 1 1 8675650 12 1 1 1 1 2 1 1 1 1 1
is_linear=0
shrinkage=0.1


Tree=26
num_leaves=32
num_cat=21
split_feature=1 2 12 4 10 8 0 0 2 0 2 2 0 1 2 10 0 0 8 10 11 12 5 1 3 3 12 3 4 0 5
split_gain=705.964 349.065 156.686 266.534 185.112 110.353 147.294 98.4701 95.5401 65.4459 35.6206 33.1242 32.1759 25.2234 26.6067 25.1608 136.885 115.631 23.6866 15.128 12.4907 9.80121 6.87485 12.5148 19.2013 9.46656 6.68213 2.58791 3.90414 3.87779 1.9198
threshold=0 1 2 3 4 5 1.0000000180025095e-35 3.5000000000000004 6 2.5000000000000004 7 8 6.5000000000000009 9 10 11 2.5000000000000004 4.5000000000000009 12 13 14 15 16 17 2.5000000000000004 1.0000000180025095e-35 18 3.5000000000000004 19 1.0000000180025095e-35 20
decision_type=1 9 1 1 1 1 2 2 9 2 9 9 2 1 9 1 2 2 1 1 1 1 1 1 2 2 1 2 1 2 1
left_child=1 22 3 5 7 6 -2 -5 -7 19 12 -6 18 14 -11 17 -17 -12 -4 26 -14 -15 23 24 -1 -25 -3 29 -29 -24 -21
right_child=2 9 10 4 11 8 -8 -9 -10 13 15 -13 20 21 -16 16 -18 -19 -20 30 -22 -23 27 25 -26 -27 -28 28 -30 -31 -32
leaf_value=0.09017656714082474 -0.010847774691816667 -0.085027080096296323 0.015715772918071285 -0.036818504332566039 0.037089491655241072 0.015917210620104063 0.005082042638860057 0.006934042722333774 0.089721939889698274 -0.053669603173483162 0.0077394214826441328 -0.0038368906177695481 0.070502424217631851 -0.0653170886049972 0.020366306229323842 0.020693137530784202 -0.014739933841970582 0.053881887399605158 0.075952389111337615 -0.10168921894779277 0.031121649472334891 0.16538954456127633 -0.06131099991701669 -0.0089263574993403861 -0.042225308350030459 0.013531886791080586 0.040387226251459879 0.1053362995222325 -0.009987549379730818 -0.016034293376420979 0.0086674602684525537
leaf_weight=40.267950687441044 8588.7163035636186 1505.2335294378281 2323.7536160328891 3786.9493619835121 487.34020253177732 2450.5956848133355 17905.395034160116 595.25174466887256 180.79142886400223 69.48793088493403 4879.9848782632034 332.57392434612848 163.22236750554293 210.36309748119675 116.48767086648149 2147.1615493521094 2215.0041674096137 611.10125475865789 67.167103397659957 1.713054574560374 158.99916438339278 1.8577102599665511 28.228302671806887 458.58825789159164 15.045795749872921 317.72919902275316 4.2603816629853091 3.3854095280403271 22.09051329060458 57.342212348710746 19.757207807619128
leaf_count=3229 728414 468223 183549 381361 20376 39308 1088122 49399 12895 14715 330623 20563 11134 46690 15059 61512 28533 36431 3749 156 7622 113 1605 35258 1048 22759 294 295 2580 7184 1174
internal_value=0 -0.0493615 0.0016309 -0.00186611 -0.0227159 0.00185787 -8.19985e-05 -0.0308754 0.0213895 -0.0737121 0.011185 0.0208945 0.0213272 -0.0379789 -0.00862352 0.00836216 0.00270107 0.0128746 0.017408 -0.0834876 0.0510701 -0.0604492 0.000721854 0.0038501 0.0458696 0.000261921 -0.0846731 -0.0226407 0.00533745 -0.0309703 -0.000137603
internal_weight=0 2871.84 46894 34327.6 5202.12 29125.5 26494.1 4382.2 2631.39 1929.16 12566.4 819.914 2713.14 398.196 185.976 9853.25 4362.17 5491.09 2390.92 1530.96 322.222 212.221 942.678 831.631 55.3137 776.317 1509.49 111.046 25.4759 85.5705 21.4703
internal_count=3623973 620382 3003591 2340438 471699 1868739 1816536 430760 52203 546424 663153 40939 206054 76577 29774 457099 90045 367054 187298 469847 18756 46803 73958 62294 4277 58017 468517 11664 2875 8789 1330
cat_boundaries=0 1 2 3 4 5 6 7 8 9 10 11 12 13 14 15 16 17 18 19 20 21
cat_threshold=15 163873 1 2 1 1 32 9509469 10748069 8 9531650 1 1 1 1 1 2 1 1 2 1
is_linear=0
shrinkage=0.1


Tree=27
num_leaves=32
num_cat=25
split_feature=1 2 11 4 10 12 0 0 7 0 10 10 10 0 2 10 6 2 10 7 2 5 11 3 1 10 0 2 10 8 10
split_gain=615.752 480.624 109.849 102.02 137.934 129.231 78.9254 63.7511 47.724 86.7232 201.648 82.2981 51.9927 99.4398 56.8547 34.8371 32.7446 54.6658 27.3588 26.8531 29.0196 25.8238 23.7771 20.4633 17.7793 8.3298 7.07989 6.00261 5.20032 4.2894 1.76763
threshold=0 1 2 3 4 5 3.5000000000000004 1.5000000000000002 6 1.0000000180025095e-35 7 8 9 2.5000000000000004 10 11 12 13 14 15 16 17 18 1.0000000180025095e-35 19 20 46.500000000000007 21 22 23 24
decision_type=1 9 1 1 1 1 2 2 1 2 1 1 1 2 9 1 1 9 1 1 9 1 1 2 1 1 2 9 1 1 1
left_child=3 16 7 8 5 6 -5 25 12 10 -10 -11 14 -14 -1 -9 17 23 -19 20 -6 -21 -7 -2 26 -3 -18 29 -29 -4 -26
right_child=1 2 27 4 19 22 -8 15 9 11 -12 -13 13 -15 -16 -17 24 18 -20 21 -22 -23 -24 -25 30 -27 -28 28 -30 -31 -32
leaf_value=0.033419438661566186 -0.01326537767211711 -0.081413940063339074 0.027581718197785543 -0.031490289367277886 0.037960307205043446 -0.0023762437861414992 0.0097224303261242168 -0.050146449137547122 -0.012452779571482756 0.013208332764326659 0.021657735409185142 0.00081488507095614732 0.026653072199554546 -0.021657877984198701 0.0044064376625096149 0.04621593982207256 0.022959990570147797 -0.053107302511937508 0.025512134427920642 -0.0085933521783325469 -0.00036098647116336157 0.04532181802803037 0.019480185103572606 0.0060203094140649132 -0.080023079506843398 -0.0056259909502519509 -0.031568498226300361 0.0029857848009088557 -0.049924265946986131 0.33405280526576758 0.0062633926317798572
leaf_weight=1840.6167328847805 1170.2156413450139 1668.5850285084452 84.705966498528142 3252.4385397337028 788.67097394005395 2270.4829604019178 542.13579026435036 642.53543206196628 7161.2628533695242 11236.750212781248 2286.4005446829833 10241.505958108231 797.76035573892295 914.42222797311842 1084.3535597231239 39.843252497725189 509.22623784115422 378.20917102336534 50.129330544732511 477.83614420006052 272.08280271035619 109.12652945937589 637.49012144980952 1038.3811491688248 24.563855733838864 14.629366553854195 24.979109139647335 84.734296899929177 23.791878309566528 0.45916123548522492 2.6281598820351091
leaf_count=93304 116620 471702 7951 319978 30821 164490 44118 128701 581561 929590 92582 217128 24026 13046 111584 1431 27773 68742 1836 16218 14227 9675 45925 74096 4450 1326 1122 8931 837 41 93
internal_value=0 -0.031881 -0.0641241 0.00287231 -0.0070741 -0.0134466 -0.0256022 -0.0703028 0.00520855 0.00378541 -0.0041978 0.00729875 0.01466 0.000851731 0.022793 -0.04452 -0.00596094 -0.0106482 -0.0429047 0.0188476 0.0282193 0.00140645 0.00241515 -0.00417921 0.0159496 -0.0807552 0.0200352 0.00802786 -0.00788681 0.0261621 -0.0524095
internal_weight=0 5757.62 2559.28 43913.3 8350.26 6702.55 3794.57 2365.59 35563.1 30925.9 9447.66 21478.3 4637.15 1712.18 2924.97 682.379 3198.33 2636.94 428.339 1647.72 1060.75 586.963 2907.97 2208.6 561.397 1683.21 534.205 193.691 108.526 85.1651 27.192
internal_count=3623925 915652 620920 2708273 645452 574511 364096 603160 2062821 1820861 674143 1146718 241960 37072 204888 130132 294732 261294 70578 70941 45048 25893 210415 190716 33438 473028 28895 17760 9768 7992 4543
cat_boundaries=0 1 2 3 4 5 6 7 8 9 10 11 12 13 14 15 16 17 18 19 20 21 22 23 24 25
cat_threshold=992 754737 1 2 1 1 12 1 1 1 3146284 1 1 163873 1 1 8651175 2 1 28 1 3416652 1 1 1
is_linear=0
shrinkage=0.1


Tree=28
num_leaves=32
num_cat=19
split_feature=1 2 1 2 0 0 10 10 6 1 2 11 0 10 0 1 2 10 0 0 12 6 0 5 3 3 0 0 3 11 10
split_gain=529.985 305.713 131.474 188.684 139.23 72.726 192.565 92.4917 48.6752 45.9206 44.1972 41.4617 40.8306 31.0999 29.6108 25.1101 33.8868 22.5371 70.7953 37.5297 16.8613 14.4519 13.6714 12.2522 11.5399 9.9993 10.0827 7.57331 6.62904 6.43385 2.28229
threshold=0 1 2 3 1.0000000180025095e-35 3.5000000000000004 4 5 6 7 8 9 12.500000000000002 10 22.500000000000004 11 12 13 2.5000000000000004 3.5000000000000004 14 15 1.5000000000000002 16 1.5000000000000002 2.5000000000000004 143.50000000000003 52.500000000000007 1.0000000180025095e-35 17 18
decision_type=1 9 1 9 2 2 1 1 1 1 9 1 2 1 2 1 9 1 2 2 1 1 2 1 2 2 2 2 2 1 1
left_child=1 15 9 5 11 7 -7 -4 -6 17 13 -5 20 -11 -12 21 23 19 -19 -2 22 24 -3 -17 -1 28 -27 -23 -14 -22 -18
right_child=2 12 3 4 8 6 -8 -9 -10 10 14 -13 25 -15 -16 16 30 18 -20 -21 29 27 -24 -25 -26 26 -28 -29 -30 -31 -32
leaf_value=-0.01257635311514781 0.017780842227296822 -0.085209567854569152 -0.0080677774528201043 -0.0517678671823565 -0.01484679075352759 0.038051872883584366 -0.013391875484928338 0.017635982965976064 0.02337649957047383 -0.012444146243582888 0.0056376956913468251 -0.0038961093772451522 0.060089236586750631 0.012308915741231247 -0.034377492266748348 0.026575318093049367 -0.071995407707703921 0.022036353870957967 -0.0131042700480968 0.060078335654593522 0.11454656394902603 0.032796460221127303 -0.062400748252513287 -0.041757750728297696 0.014714413796434945 0.089154686804419625 0.59513556497781417 -0.069011556605676691 -0.029071703516050734 -0.03998909709837116 0.029390222882135192
leaf_weight=496.64588735377765 1604.3509521390079 1058.460485313728 7926.8713603310753 1482.2248517693952 2434.5219509476447 1586.8737394175259 1343.81666277349 1700.2078032181598 385.97968711628346 2488.1985715549672 22335.614276355482 206.07394760637544 11.11453761049779 637.65261344518512 186.47108107991517 88.297621152130887 135.34517002230859 1505.5830825939775 925.85782688856125 241.32461038557813 6.0156010605860484 163.61163827314158 349.58268431219039 37.333632491761819 225.2007552163268 7.3178685348830177 0.41623044712468971 7.6482716258615246 33.389268115191953 4.8792996241245419 2.2573645007796577
leaf_count=47367 138487 387980 654937 197230 222960 104820 15990 48664 30204 213857 1213531 17761 1814 45375 11042 7278 37997 51604 15513 22213 367 10337 95433 3708 20489 865 14 414 5893 460 142
