tree
version=v3
num_class=1
num_tree_per_iteration=1
label_index=0
max_feature_idx=8
objective=cross_entropy
feature_names=adm_past_year agegroup_rm an100mdc_ra count_proc drg10_type_m flag_emergency indstat_flag pat_remoteness cc_downs_syndrome
feature_infos=[0:418] 7:6:3:5:2:4:8:0:1:9 6:5:8:14:4:1:3:11:21:9:23:2:13:10:7:18:12:19:20:16:22:15:0:24:17 [0:48] 1:0 1:0 1:0 1:0:2:3 1:0
tree_sizes=1995 1910 1900 2015 1907 2124 2238 1913 2000 2199 1972 1894 1870 1889 1984 1980 1870 2012 1996 1978 1884 1866 1991 1859 1980 1890 1982 2217 1884 1989 2022 2004 1963 2011 2204 1978 1985 2421 2099 2006 1995 1882 1905 1993 1895 2523 1875 1883 1914 2132 2000 2120 1737 1907 1652 2301 1987 2027 1668 2327 2495 1747 1814 1959 2122 2481 1825 2224 1771 1904 2126 2099 2241 2307 2432 2396 2333 2327 1931 1847 2027 2037 2394 2326 2089 2023 2468 1886 2689 1913 2155 2309 1911 2356 2287 2299 2209 2705 2190 3338 1826 3420 3484 3232 3320 1517 3194 3101 3306 3330 2163 2037 3472 3482 3345 2941 1697 3408 3063 3334 2190 2250 1723 3176 2336 2769 3035 3343 1738 3143 2954 3454 3467 3436 3209 3450 2227 3467 3095 3056 3336 2131 3442 2961 3214 1936 3418 3469 3286 1911 2102 3348 3463 3399 1613 2921 1930 2599 2137 3470 3239 1395 1930 2482 3049 2086 1971 1902 3433 3456 3475 3310 3447 2765 3469 2307 3467 3473 3468 3151 2734 3464 2112 3347 2382 1543

Tree=0
num_leaves=18
num_cat=8
split_feature=4 2 2 1 5 3 3 0 3 0 2 2 5 0 0 0 0
split_gain=64531.6 20565.7 7366.27 7253.95 5219.11 3594.19 3588.69 2745.7 2137.97 903.293 620.454 582.152 473.965 416.238 79.6076 41.7882 3.63798e-12
threshold=0 1 2 3 4 2.5000000000000004 3.5000000000000004 1.5000000000000002 4.5000000000000009 2.5000000000000004 5 6 7 1.5000000000000002 1.5000000000000002 3.5000000000000004 3.5000000000000004
decision_type=1 1 1 1 1 2 2 2 2 2 1 1 1 2 2 2 2
left_child=16 2 3 5 7 -2 -6 -4 11 -5 12 14 -10 -13 -3 -12 -1
right_child=1 8 4 9 6 -7 -8 -9 10 -11 15 13 -14 -15 -16 -17 -18
leaf_value=-6.0201588195355011 -4.7003238955165338 -5.9822360135369026 -5.5607281990634645 -5.5725613961835609 -5.8061731468705178 -5.290178350453413 -5.5254654768006422 -5.1255930081839294 -5.7963659304387969 -5.3727069983688631 -5.9154540047623074 -5.9012894040005417 -5.6369534926187868 -5.7714401668280324 -5.9320046556884289 -5.7533292174264412 -6.0201588195355011
leaf_weight=17606.095510877669 169.71819886378944 980.94009749032557 800.99147428758442 1495.9872048106045 2268.3762290142477 263.97967262286693 569.84799132496119 177.06914606504142 328.42867482919246 266.42909798026085 204.38411193713546 1704.3913659984246 431.62240419909358 288.67960313521326 465.0943225780502 17.239467019215226 3575.8244595322758
leaf_count=6591256 63538 367238 299870 560058 849220 98827 213336 66290 122955 99744 76516 638079 161588 108074 174119 6454 1338694
internal_value=0 2.0357 3.23732 4.70782 2.38102 8.41144 1.70077 4.37939 0.393237 3.75411 1.69576 0.0225812 2.11273 0.372217 -0.458724 0.163115 -1.00269
internal_weight=0 10433.2 6012.4 2196.11 3816.28 433.698 2838.22 978.061 4420.78 1762.42 981.675 3439.11 760.051 1993.07 1446.03 221.624 21181.9
internal_count=11835856 3905906 2250883 822167 1428716 162365 1062556 366160 1655023 659802 367513 1287510 284543 746153 541357 82970 7929950
cat_boundaries=0 1 2 3 4 5 6 7 8
cat_threshold=2 2374904 262328 14 2 8389378 13107204 2
shrinkage=1


Tree=1
num_leaves=17
num_cat=7
split_feature=4 2 0 1 2 3 3 5 3 3 2 3 2 0 0 0
split_gain=45183.5 8392.01 2293.82 2192.17 1975.15 1839.28 1371.45 1037.82 954.597 472.469 340.333 317.933 299.601 318.053 28.6293 24.2425
threshold=0 1 1.5000000000000002 2 3 1.5000000000000002 4.5000000000000009 4 2.5000000000000004 2.5000000000000004 5 2.5000000000000004 6 1.5000000000000002 3.5000000000000004 1.5000000000000002
decision_type=1 1 2 1 1 2 2 1 2 2 1 2 1 2 2 2
left_child=-1 6 4 8 5 -3 10 -6 -4 -5 15 -12 13 -8 -14 -2
right_child=1 2 3 9 7 -7 12 -9 -10 -11 11 -13 14 -15 -16 -17
leaf_value=-0.10024292158495476 -0.069492788284867144 -0.026424963392291931 0.28004078566109936 0.10786046599706084 0.19399464826571344 0.24500706280777088 0.11896561296823641 0.075203621618981767 0.48576592812860941 0.24012681324118348 -0.021887502163269387 0.052918502380322731 0.0030677895121711523 0.27003987287259484 0.12802127574110317 -0.034542353418482129
leaf_weight=19170.843488699757 640.4519683145918 271.62815943313763 370.54884363361634 429.78629591315985 1079.9222970616538 3085.0009782691486 720.0123722050339 2305.6480037649162 576.40864040795714 726.73113081953488 1199.2113085084129 1079.6585223102011 204.18524514534511 172.79780821339227 20.145530282752588 287.57074382156134
leaf_count=7929950 255110 74403 93410 119650 289213 735162 216910 731977 136440 174453 444120 391385 76105 52213 6391 108964
internal_value=0 1.40335 1.96054 2.87445 1.67833 2.22379 0.258352 1.12762 4.0103 1.89337 -0.073448 0.134941 1.21314 1.46563 0.136792 -0.580371
internal_weight=0 13169.7 8845.67 2103.47 6742.2 3356.63 4324.03 3385.57 946.957 1156.52 3206.89 2278.87 1117.14 892.81 224.331 928.023
internal_count=11835856 3905906 2354708 523953 1830755 809565 1551198 1021190 229850 294103 1199579 835505 351619 269123 82496 364074
cat_boundaries=0 1 2 3 4 5 6 7
cat_threshold=2 13287687 62 268472 2 4718596 8388866
shrinkage=0.1


Tree=2
num_leaves=17
num_cat=8
split_feature=4 2 1 2 2 0 0 3 3 1 3 2 0 2 0 0
split_gain=34953.8 4560.8 1497.07 1098.04 993.959 799.776 685.648 571.555 525.715 435.489 342.584 342.436 187.841 161.193 123.273 23.279
threshold=0 1 2 3 4 1.0000000180025095e-35 1.5000000000000002 3.5000000000000004 1.5000000000000002 5 3.5000000000000004 6 3.5000000000000004 7 3.5000000000000004 1.5000000000000002
decision_type=1 1 1 1 1 2 2 2 2 1 2 1 2 1 2 2
left_child=-1 2 5 7 6 11 10 -4 -7 -5 -3 -2 -8 15 -15 -6
right_child=1 4 3 9 13 8 12 -9 -10 -11 -12 -13 -14 14 -16 -17
leaf_value=-0.10021975795445369 0.200441122830815 0.00049521439188753989 0.12966701923667187 0.15248410918297409 -0.065469598412725455 0.012716468583887584 0.13098197143558363 0.23879427774788634 0.25884621050902745 0.066090335338620562 0.078164692982853778 0.12219240724999747 0.2604887085314852 -0.0088981294880707273 0.10074570642922578 -0.031288187243632339
leaf_weight=17350.303277408239 1102.4124372466467 1018.7294611930847 1162.2896574805491 725.32711220136844 629.88310435600579 91.813586928881705 381.94605576992035 817.52778333658352 1583.0656914256979 3294.6129466732964 1283.2374426133465 1490.7851105965674 158.46166491042823 1116.2800651458092 112.91348658897914 291.42652203561738
leaf_count=7929950 162530 338511 248368 158554 266318 20468 93666 160641 290528 821986 360273 379252 37897 414008 39604 113302
internal_value=0 1.07266 1.45338 1.1256 0.286236 1.91043 0.673523 1.73851 2.45354 0.820183 0.437923 1.56701 1.68957 -0.226399 0.0116426 -0.540705
internal_weight=0 15260.7 10267.8 5999.76 4992.88 4268.08 2842.37 1979.82 1674.88 4019.94 2301.97 2593.2 540.408 2150.5 1229.19 921.31
internal_count=11835856 3905906 2242327 1389549 1663579 852778 830347 409009 310996 980540 698784 541782 131563 833232 453612 379620
cat_boundaries=0 1 2 3 4 5 6 7 8
cat_threshold=2 343800 30 4256 2228483 1 6296 524292
shrinkage=0.1


Tree=3
num_leaves=18
num_cat=8
split_feature=4 2 3 0 3 1 2 2 3 5 2 3 0 0 5 0 0
split_gain=28207.4 2755.16 863.154 883.275 739.814 677.416 504.576 239.441 223.118 157.83 122.389 85.8634 52.2681 44.0826 33.0439 22.2554 1.81899e-12
threshold=0 1 1.5000000000000002 3.5000000000000004 4.5000000000000009 2 3 4 2.5000000000000004 5 6 5.5000000000000009 2.5000000000000004 6.5000000000000009 7 1.5000000000000002 318.50000000000006
decision_type=1 1 2 2 2 1 1 1 2 1 1 2 2 2 1 2 2
left_child=16 4 10 5 7 -4 -5 15 -9 12 14 -11 -6 -12 -3 -2 -1
right_child=1 2 3 6 9 -7 -8 8 -10 11 13 -13 -14 -15 -16 -17 -18
leaf_value=-0.10019879860127248 -0.065086287983276245 0.12049601691545764 0.15873960438255322 0.042469867138197996 0.029962909578479708 0.094230653767560638 0.22780588304714455 -0.021458860401232155 0.039873941894267878 0.074913086858350839 -0.044697892730887777 0.14180792055832567 0.11460152358629377 0.094644978606868213 0.032571397474658342 -0.030118883936052488 -0.10019879860127248
leaf_weight=15701.75736628985 560.7026843377389 63.330675081815571 2081.4069228754379 195.26615993888117 511.83990032924339 8603.5209056483582 964.26197198964655 1192.6786846173927 1179.9095567946788 360.43032946391031 394.62148579116911 410.30525437253527 85.092345188604668 24.08968959399499 131.4882235028781 269.50070974975824 0.56235648412257333
leaf_count=7929666 255110 12289 311798 27874 150434 1721360 145599 444120 391385 87344 101905 94536 19305 5718 28165 108964 284
internal_value=0 0.856202 1.09951 1.1603 0.190191 1.07034 1.98926 -0.0723025 0.0900454 0.806288 -0.0561493 1.10525 0.420281 -0.358255 0.581677 -0.530956 -1.00199
internal_weight=0 17028.4 12458 11844.5 4570.46 10684.9 1159.53 3202.79 2372.59 1367.67 613.53 770.736 596.932 418.711 194.819 830.203 15702.3
internal_count=11835856 3905906 2354708 2206631 1551198 2033158 173473 1199579 835505 351619 148077 181880 169739 107623 40454 364074 7929950
cat_boundaries=0 1 2 3 4 5 6 7 8
cat_threshold=2 13287687 6 66584 4718596 2 2425056 2
shrinkage=0.1


Tree=4
num_leaves=17
num_cat=8
split_feature=4 2 0 2 3 2 2 3 3 2 0 3 1 0 2 3
split_gain=23356 1898.89 756.107 736.769 537.839 531.957 470.47 396.687 268.389 122.43 89.9199 49.6581 41.0643 20.8329 19.9052 16.8653
threshold=0 1 1.0000000180025095e-35 2 2.5000000000000004 3 4 1.5000000000000002 4.5000000000000009 5 2.5000000000000004 2.5000000000000004 6 1.5000000000000002 7 16.500000000000004
decision_type=1 1 2 1 2 1 1 2 2 1 2 2 1 2 1 2
left_child=-1 9 3 7 5 -4 -6 -3 -5 13 12 -12 -11 15 -15 -2
right_child=1 2 4 8 6 -7 -8 -9 -10 10 11 -13 -14 14 -16 -17
leaf_value=-0.100179844466109 -0.061233675606319371 -0.044556625816797764 0.16838057374317814 0.022849328053532889 0.14480055359966995 0.046621910153843649 0.07736196222489064 0.1011170875108176 0.078903207534442146 0.01924584670214265 0.019044178490943572 0.12137989227246451 -0.023964308950813806 -0.011816816289806605 -0.077685492866109249 1.6636394759776374
leaf_weight=14210.597992053954 559.28180669876747 196.68062593485229 428.63955565588549 3784.0726671176963 3425.6509988198522 2161.9278747979552 1611.2023556872737 3771.8104614275508 1103.2192627962213 302.91999888350256 111.46385561558418 82.522626966936514 746.20562492334284 224.10809450829402 52.1757871536538 0.056692179990931353
leaf_count=7929950 266297 49165 53386 946018 484113 453452 311519 538146 236875 108751 40662 22784 281415 91553 21749 21
internal_value=0 0.70168 0.81498 0.616707 1.04625 0.675982 1.23669 0.936614 0.3543 -0.199687 0.000317531 0.625782 -0.11533 -0.493709 -0.274955 -0.610588
internal_weight=0 18561.9 16483.2 8855.78 7627.42 2590.57 5036.85 3968.49 4887.29 2078.73 1243.11 193.986 1049.13 835.622 276.284 559.338
internal_count=11835856 3905906 3072674 1770204 1302470 506838 795632 587311 1182893 833232 453612 63446 390166 379620 113302 266318
cat_boundaries=0 1 2 3 4 5 6 7 8
cat_threshold=2 13156356 72888 2101384 2373856 524292 7 4
shrinkage=0.1


Tree=5
num_leaves=19
num_cat=9
split_feature=4 2 0 2 3 3 2 1 2 0 0 5 1 0 2 3 0 0
split_gain=19668.8 1344.44 474.023 456.476 438.182 376.772 258.278 130.916 106.948 69.6743 44.8052 33.3 30.2219 19.2695 18.6567 5.56179 1.81899e-12 9.09495e-13
threshold=0 1 3.5000000000000004 2 1.5000000000000002 4.5000000000000009 3 4 5 1.5000000000000002 22.500000000000004 6 7 1.5000000000000002 8 11.500000000000002 1.5000000000000002 333.50000000000006
decision_type=1 1 2 1 2 2 1 1 1 2 2 1 1 2 1 2 2 2
left_child=16 8 3 4 -3 -5 11 -8 13 12 -11 -4 -10 15 -15 -2 -1 -18
right_child=1 2 6 5 -6 -7 7 -9 9 10 -12 -13 -14 14 -16 -17 17 -19
leaf_value=-0.10016270542672777 -0.058939166206199302 -0.021320176140052244 -0.019781859144656307 0.033566682138970655 0.085729142288673399 0.081910487101829813 0.082766302415685833 0.14992057982229462 0.013200945386235514 0.034537863916433778 0.34498589820599612 0.056617536592483753 -0.026190172575719241 -0.010813238835729266 -0.076168292715669758 0.25645937475914837 -0.10016270542672777 -0.10016270542672777
leaf_weight=8663.8064509598771 525.92744701611809 404.23802584852092 132.03255727887154 6380.4414015943184 7069.2469986609649 2157.1552773073781 530.85297438828275 1101.0837446721271 274.6430852196645 330.70983948162757 4.7151856918353579 100.45970002491958 634.01023875107057 221.48831945913844 48.293288898887113 0.55970270768739183 4196.4444102225825 0.11838749994058062
leaf_count=5342269 266192 99391 18079 1455480 895991 394574 70902 120552 97757 108124 1355 17705 246376 91553 21749 126 2587608 73
internal_value=0 0.584882 0.672444 0.617251 0.798321 0.457279 1.15003 1.28713 -0.184642 -0.000482406 0.389019 0.126847 -0.14427 -0.468794 -0.257365 -0.586039 -1.00163 -1.00163
internal_weight=0 19915.9 17875.5 16011.1 7473.49 8537.6 1864.43 1631.94 2040.35 1244.08 335.425 232.492 908.653 796.269 269.782 526.487 12860.4 4196.56
internal_count=11835856 3905906 3072674 2845436 995382 1850054 227238 191454 833232 453612 109479 35784 344133 379620 113302 266318 7929950 2587681
cat_boundaries=0 1 2 3 4 5 6 7 8 9
cat_threshold=2 13156356 334008 197651 897 524292 2 7 4
shrinkage=0.1


Tree=6
num_leaves=20
num_cat=8
split_feature=4 2 1 3 2 2 0 3 2 5 3 3 0 0 3 3 0 3 7
split_gain=16780.7 1006.77 502.947 332.748 432.462 297.466 337.851 210.085 204.712 164.637 132.594 114.115 24.6703 22.5527 20.651 4.5298 1.81899e-12 1.81899e-12 5.55112e-17
threshold=0 1 2 2.5000000000000004 3 4 1.0000000180025095e-35 1.5000000000000002 5 6 3.5000000000000004 3.5000000000000004 1.5000000000000002 1.5000000000000002 8.5000000000000018 18.500000000000004 318.50000000000006 1.5000000000000002 7
decision_type=1 1 1 2 1 1 2 2 1 1 2 2 2 2 2 2 2 2 1
left_child=16 2 7 8 -5 13 10 12 -4 -9 -7 -8 -2 15 -15 -3 17 -1 -18
right_child=1 5 3 4 -6 6 11 9 -10 -11 -12 -13 -14 14 -16 -17 18 -19 -20
leaf_value=-0.1001471975317583 -0.049559061845216412 -0.056235100595992439 -0.0046232507069430438 0.001200434397552322 0.074557736672208372 -0.024259884717313024 0.027590780581466069 0.1100893189422294 0.046002551953606557 0.075747658658040673 0.020115420980737913 0.073509452226083183 0.026540077094694872 -0.022750106461928394 0.29988334891474905 0.20862494918305138 -0.10014719753175756 -0.1001471975317583 -0.1001471975317583
leaf_weight=8459.483383069397 117.57454168796539 520.96833725483157 1589.5132207470015 988.34786781203002 4507.4006029516459 1288.3749433441553 1021.7691292662639 2010.3626841739751 1598.9654456230346 4568.0749679997098 1410.5473654791713 1150.705804807134 66.806461530271918 269.71788233681582 1.9986154192592938 0.6465246903244396 0.13795747491531074 3178.3538326943526 0.2788502152543505
leaf_count=5764033 25734 276413 364366 157249 618217 429379 304135 230208 249717 584635 321433 216284 12201 115210 546 179 94 2165633 190
internal_value=0 0.49409 0.626196 0.465398 0.615031 0.132515 0.225134 0.831687 0.208945 0.862424 -0.0106786 0.519128 -0.219862 -0.431934 -0.20377 -0.559068 -1.00147 -1.00147 -1.00147
internal_weight=0 21111.8 15447 8684.23 5495.75 5664.73 4871.4 6762.82 3188.48 6578.44 2698.92 2172.47 184.381 793.331 271.716 521.615 11638.3 11637.8 0.416808
internal_count=11835856 3905906 2242327 1389549 775466 1663579 1271231 852778 614083 814843 750812 520419 37935 392348 115756 276592 7929950 7929666 284
cat_boundaries=0 1 2 3 4 5 6 7 8
cat_threshold=2 343800 30 9224 4718596 2624 2 2
shrinkage=0.1


Tree=7
num_leaves=17
num_cat=9
split_feature=4 2 0 2 5 2 1 3 2 2 0 3 3 0 2 3
split_gain=14452.9 745.058 312.497 387.198 1053.23 238.754 228.985 117.471 98.2719 76.5027 50.4727 30.7984 18.3455 16.1758 18.0335 3.73924
threshold=0 1 1.0000000180025095e-35 2 3 4 5 2.5000000000000004 6 7 3.5000000000000004 2.5000000000000004 1.5000000000000002 1.5000000000000002 8 8.5000000000000018
decision_type=1 1 2 1 1 1 1 2 1 1 2 2 2 2 1 2
left_child=-1 9 3 4 -3 -5 7 -4 -8 13 11 -11 -12 15 -15 -2
right_child=1 2 6 5 -6 -7 8 -9 -10 10 12 -13 -14 14 -16 -17
leaf_value=-0.10013317049829502 -0.054044014392224532 -0.077441309111983769 0.054180598091707603 0.0076922609322434381 0.25023437218970007 0.041719951751101131 0.053582540190025708 0.087867104615037606 0.020236572279283795 -0.025429652490170835 -0.0037193795423023038 0.0078512732307863316 0.075396989337708192 -0.0080024991224033389 -0.074124813535947603 0.10720264306225349
leaf_weight=10532.127432042034 468.20338428858668 153.74134099436924 1534.3640987935942 2917.6563985471148 270.99822788266465 7168.7151589205023 3753.2227347588632 3181.9672789904289 1209.5027255706955 549.33411468844861 40.377232881262898 563.07130903494544 106.91669467487372 214.45195720577613 43.764158739242703 1.4425722155719984
leaf_count=7929950 265882 20842 227740 667782 30428 1051152 527555 349339 197836 224912 13211 189096 26393 91553 21749 436
internal_value=0 0.421323 0.478693 0.359546 1.28599 0.318942 0.608576 0.767452 0.455126 -0.163038 -0.012897 -0.085837 0.537091 -0.419189 -0.223899 -0.535487
internal_weight=0 22177.7 20190.2 10511.1 424.74 10086.4 9679.06 4716.33 4962.73 1987.56 1259.7 1112.41 147.294 727.862 258.216 469.646
internal_count=11835856 3905906 3072674 1770204 51270 1718934 1302470 577079 725391 833232 453612 414008 39604 379620 113302 266318
cat_boundaries=0 1 2 3 4 5 6 7 8 9
cat_threshold=2 13156356 16 2 2498819 60 2109928 524292 4
shrinkage=0.1


Tree=8
num_leaves=18
num_cat=11
split_feature=4 2 7 3 2 0 1 2 1 2 3 2 1 0 2 3 0
split_gain=12543 561.09 280.256 224.86 238.898 121.054 95.916 90.2155 56.8437 54.425 54.0613 55.2488 23.7963 14.611 16.7392 3.23967 1.81899e-12
threshold=0 1 2 1.5000000000000002 3 1.0000000180025095e-35 4 5 6 7 2.5000000000000004 8 9 1.5000000000000002 10 7.5000000000000009 5.5000000000000009
decision_type=1 1 1 2 1 2 1 1 1 1 2 1 1 2 1 2 2
left_child=16 7 3 9 -5 8 -7 13 -4 -3 12 -12 -9 15 -15 -2 -1
right_child=1 2 5 4 -6 6 -8 10 -10 -11 11 -13 -14 14 -16 -17 -18
leaf_value=-0.10012048338643649 -0.051617170451858818 0.028283671245624666 0.024638008498699383 0.061869026517289552 0.031098674978002023 0.062077069626854865 0.027774104319855497 0.021168390891755276 0.00028868431867169292 -0.041703760057490762 0.084006534103721386 0.00969101093984686 -0.024615391110675983 -0.0072962380504302113 -0.072509449100579215 0.064263973892480689 -0.10012048338643649
leaf_weight=8474.861059851246 442.8315912920516 164.55533471773379 2194.1754627367482 8899.3689422258176 3626.6078814982902 1233.7919750402216 2586.6044942361768 131.65134522947483 1707.6841287650168 304.91277487692423 104.99460435565561 841.20800765906461 635.10598981031217 212.75069256965071 40.649174939841032 2.4257602766156188 1056.1482581938617
leaf_count=7051218 265509 29504 313404 1059599 682851 127222 352479 48982 317744 77059 31087 237674 248681 91553 21749 809 878732
internal_value=0 0.361996 0.415021 0.504878 0.530344 0.264342 0.390874 -0.0948591 0.140452 -0.17458 0.0291844 0.189276 -0.167993 -0.395108 -0.209068 -0.509859 -1.0012
internal_weight=0 23129.3 20717.7 12995.4 12526 7722.26 3820.4 2411.62 3901.86 469.468 1712.96 946.203 766.757 698.657 253.4 445.257 9531.01
internal_count=11835856 3905906 2959862 1849013 1742450 1110849 479701 946044 631148 106563 566424 268761 297663 379620 113302 266318 7929950
cat_boundaries=0 1 2 3 4 5 6 7 8 9 10 11
cat_threshold=2 13156359 1 265464 28 524292 31 2494688 8388608 7 4
shrinkage=0.1


Tree=9
num_leaves=20
num_cat=12
split_feature=4 2 0 2 3 7 2 1 2 0 3 5 1 0 2 3 0 7 5
split_gain=10960 433.743 208.032 187.853 237.355 182.328 175.033 105.604 55.89 41.8861 30.3829 24.4501 13.8881 13.0983 15.5061 2.75971 1.81899e-12 1.11022e-16 5.55112e-17
threshold=0 1 2.5000000000000004 2 5.5000000000000009 3 4 5 6 1.0000000180025095e-35 2.5000000000000004 7 8 1.5000000000000002 9 11.500000000000002 306.50000000000006 10 11
decision_type=1 1 2 1 2 1 1 1 1 2 2 1 1 2 1 2 2 1 1
left_child=16 8 3 5 -5 -3 11 -8 13 12 -11 -4 -10 15 -15 -2 -1 18 -18
right_child=1 2 6 4 -6 -7 7 -9 9 10 -12 -13 -14 14 -16 -17 17 -19 -20
leaf_value=-0.10010900395813667 -0.048780658695142545 0.051925527203185988 -0.05879294634276503 0.014352535538949676 0.059107653303592592 0.022195586033482227 0.01681521544276578 0.069193854649875305 0.0022510236788292923 -0.0048679294058854121 0.038964054791072095 0.016487408318416743 -0.029707383609849609 -0.0066478391127884427 -0.070859064373320152 0.13021651373878598 -0.10010900395813611 -0.10010900395813667 -0.10010900395813527
leaf_weight=8624.1737974947318 422.34645230020396 5804.1334250296932 137.37114268774167 7965.2851497267839 1392.0835189488716 3200.2371881837025 468.71799047803506 3004.8792580356821 203.60178139957134 322.85077852045652 309.9777745809406 62.897682731971145 426.64077410951722 211.21128617250361 37.815954207675532 0.86309215240180381 0.18272398039698601 0.52424380090087552 0.071784420870244489
leaf_count=7929234 266192 620548 15093 1534941 214169 343614 53657 284471 71451 123796 84360 6181 174005 91553 21749 126 168 482 66
internal_value=0 0.313424 0.353195 0.309894 0.209883 0.413133 0.570574 0.621946 -0.140507 -0.0155864 0.166022 -0.334783 -0.198188 -0.371553 -0.19511 -0.484156 -1.00109 -1.00109 -1.00109
internal_weight=0 23970.9 22035.6 18361.7 9357.37 9004.37 3673.87 3473.6 1935.31 1263.07 632.829 200.269 630.243 672.237 249.027 423.21 8624.95 0.778752 0.254508
internal_count=11835856 3905906 3072674 2713272 1749110 964162 359402 338128 833232 453612 208156 21274 245456 379620 113302 266318 7929950 716 234
cat_boundaries=0 1 2 3 4 5 6 7 8 9 10 11 12
cat_threshold=2 13156356 72888 1 16 769 524292 2 519 4 2 2
shrinkage=0.1


Tree=10
num_leaves=18
num_cat=13
split_feature=4 2 1 2 3 2 5 3 1 5 2 0 2 1 5 2 0
split_gain=9621.22 341.083 271.369 335.999 366.198 226.972 187.068 146.883 127.564 111.767 124.194 76.4682 162.297 49.2666 46.6298 11.2442 9.09495e-13
threshold=0 1 2 3 3.5000000000000004 4 5 3.5000000000000004 6 7 8 1.0000000180025095e-35 9 10 11 12 2.5000000000000004
decision_type=1 1 1 1 2 1 1 2 1 1 1 2 1 1 1 1 2
left_child=16 7 5 14 -5 6 -3 11 -7 13 -11 15 -13 -9 -4 -2 -1
right_child=1 2 3 4 -6 8 -8 9 -10 10 -12 12 -14 -15 -16 -17 -18
leaf_value=-0.10009862153400839 -0.043791276324175031 0.026187346718913641 -0.062676630830191982 0.011489430622347365 0.056286211451759965 0.0077741771969846406 0.11205484522709641 0.013886033137640311 0.044261002324996385 -0.030177943819854936 0.048818132234772188 0.091684412334453264 -0.0070149243660860353 -0.024566752553201173 -0.017325727606989458 -0.021124759017474747 -0.10009862153400839
leaf_weight=6041.0896049318835 303.89632430498023 360.45597750949673 314.77989391516894 4770.5433813093696 2955.2885846048594 1118.8317585065961 856.75359790306538 985.30156732560135 7521.922779572662 225.69280256913044 1492.0070419597905 182.94112842809409 1215.0589369547088 490.8988437509397 810.44967331830412 1119.8473223692272 1761.5031755547971
leaf_count=767229 21622 29404 40148 560479 288532 138412 73961 112111 755867 16991 186797 19960 80447 69412 96535 76996 223714
internal_value=0 0.272675 0.339211 0.211467 0.285881 0.453578 0.859208 0.0650721 0.39551 0.212054 0.385472 -0.101064 0.0650644 0.0102651 -0.297481 -0.264189 -1.00099
internal_weight=0 24724.7 18709 8851.06 7725.83 9857.96 1217.21 6015.64 8640.75 3193.9 1717.7 2821.74 1398 1476.2 1125.23 1423.74 7802.59
internal_count=3558617 2567674 1983338 985694 849011 997644 103365 584336 894279 385311 203788 199025 100407 181523 136683 98618 990943
cat_boundaries=0 1 2 3 4 5 6 7 8 9 10 11 12 13
cat_threshold=2 15253767 31 8216 2064 2 1 2 5 2097152 124 2 12582916
shrinkage=0.1


Tree=11
num_leaves=17
num_cat=10
split_feature=4 2 1 2 3 3 2 0 2 3 2 0 5 2 0 1
split_gain=8478.74 255.11 199.757 265.662 275.23 158.424 217.249 132.413 97.4246 65.4133 73.8454 50.7164 42.0527 23.9412 9.09212 8.80728
threshold=0 1 2 3 2.5000000000000004 1.5000000000000002 4 1.0000000180025095e-35 5 3.5000000000000004 6 3.5000000000000004 7 8 100.50000000000001 9
decision_type=1 1 1 1 2 2 1 2 1 2 1 2 1 1 2 1
left_child=-1 7 5 12 -5 13 -7 9 14 15 -11 -10 -4 -3 -9 -2
right_child=1 2 3 4 -6 6 -8 8 11 10 -12 -13 -14 -15 -16 -17
leaf_value=-0.10008922095570989 -0.036731841588264688 -0.067963607253147068 -0.060104426857512078 -0.00093902808389909943 0.038273509708833073 0.080447868162661598 0.035292674334353943 -0.02724119575246027 0.021013164775683324 0.018007919182024094 -0.027706403777759438 0.056270018944774097 -0.015923776119103821 -0.0043452934374516288 0.15574338958322356 -0.018659184240319798
leaf_weight=7062.1253680419177 440.04521195858251 127.74777372856624 295.22979940683581 2720.1157058284152 5234.5680408540647 1222.5551129779778 8837.56804999616 389.29162127594464 2083.451615549624 1186.1956672032829 491.9037760902429 507.35596986906603 797.17362008895725 118.78049702965654 2.7344896530266842 952.6896994196577
leaf_count=991142 34378 12961 39954 292361 551214 95086 890178 26977 198893 162660 45849 52516 96544 11877 158 64418
internal_value=0 0.237778 0.293766 0.184775 0.248335 0.389166 0.408952 0.0582008 0.208359 -0.0874647 0.0454982 0.278101 -0.276112 -0.402446 -0.25319 -0.247671
internal_weight=0 25407.4 19353.7 9047.09 7954.68 10306.7 10060.1 6053.67 2982.83 3070.83 1678.1 2590.81 1092.4 246.528 392.026 1392.73
internal_count=3567166 2576024 1990175 980073 843575 1010102 985264 585849 278544 307305 208509 251409 136498 24838 27135 98796
cat_boundaries=0 1 2 3 4 5 6 7 8 9 10
cat_threshold=2 15253767 31 8216 2064 524292 8388866 2 8728 417
shrinkage=0.1


Tree=12
num_leaves=17
num_cat=12
split_feature=4 2 7 3 2 2 1 2 2 0 0 1 0 2 7 1
split_gain=7499.09 214.446 148.537 134.857 111.541 71.3248 52.2589 41.7064 38.5329 25.4043 22.4614 25.3205 14.2893 17.0587 13.4108 2.73889
threshold=0 1 2 1.5000000000000002 3 4 5 6 7 24.500000000000004 3.5000000000000004 8 1.5000000000000002 9 10 11
decision_type=1 1 1 2 1 1 1 1 1 2 2 1 2 1 1 1
left_child=-1 8 3 7 -5 9 -7 -3 10 -4 11 -2 15 -14 -12 -10
right_child=1 2 5 4 -6 6 -8 -9 12 -11 14 -13 13 -15 -16 -17
leaf_value=-0.10008072892630529 0.016459690632514214 0.018074666290150108 0.043967339422685665 0.044117333027594526 0.02518507491381472 0.019727789945707484 0.0034663726891517943 -0.040795940213542624 -0.0060939853083279878 0.43308124167782963 -0.020479338945651654 -0.016618452229791653 -0.00036887043304366585 -0.068713825453621244 0.048400340271830891 -0.045356444672020872
leaf_weight=6389.1906676115468 326.57834118371829 179.44547240948305 662.70541341626085 4563.2521624411456 10275.316936146934 3430.4550973596051 4678.7388657559641 338.69330466398969 35.71920356201008 1.6821099543012668 36.255453116260469 738.41007925989106 213.32577344682068 34.574499871581793 128.28146188426763 369.63235035771504
leaf_count=990925 14326 23384 59111 372610 1138044 327500 505094 25352 2744 105 3437 39464 12549 2762 13206 32094
internal_value=0 0.208323 0.233629 0.293028 0.310539 0.129926 0.103613 -0.20846 -0.116621 0.442859 -0.0115453 -0.0647654 -0.311234 -0.126876 0.332228 -0.43166
internal_weight=0 26013.1 24130.3 15356.7 14838.6 8773.58 8109.19 518.139 1882.78 664.388 1229.53 1064.99 653.252 247.9 164.537 405.352
internal_count=3562707 2571782 2451200 1559390 1510654 891810 832594 48736 120582 59216 70433 53790 50149 15311 16643 34838
cat_boundaries=0 1 2 3 4 5 6 7 8 9 10 11 12
cat_threshold=2 13156356 1 2200 69760 30 2494688 8437760 7 4194308 2 28
shrinkage=0.1


Tree=13
num_leaves=17
num_cat=9
split_feature=4 2 0 3 7 2 0 2 2 0 1 3 0 2 0 7
split_gain=6663.05 162.306 133.324 127.966 115.856 78.9762 54.2524 50.4961 31.5461 22.2179 19.1685 14.7854 13.3855 15.5559 11.5896 2.53119
threshold=0 1 5.5000000000000009 1.5000000000000002 2 3 81.500000000000014 4 5 4.5000000000000009 6 1.5000000000000002 1.5000000000000002 7 155.50000000000003 8
decision_type=1 1 2 2 1 1 2 1 1 2 1 2 2 1 2 1
left_child=-1 8 3 7 -5 14 -7 -3 9 10 -2 -11 15 -14 -4 -10
right_child=1 2 5 4 -6 6 -8 -9 12 11 -12 -13 13 -15 -16 -17
leaf_value=-0.10007303505882351 0.014340484619575912 0.017127837530988756 -0.01283452360591817 0.025326068470393884 0.010386751158992923 0.068269824823907421 0.014863988761409101 -0.042637002714432076 -0.05455440573422321 -0.021356701837024927 -0.013459348952183007 0.060694548359847091 0.0013786900654328531 -0.066051539566658241 0.14236347346511097 -0.03554722917679104
leaf_weight=5785.5331519623287 349.31420945911668 199.70775379054248 202.67177911428735 14362.71655872371 8129.1595004440751 1065.7606728388928 231.53760457318276 457.0902610826306 92.125371156143956 29.125070951646194 797.45608655840624 89.290974507108331 209.48420591535978 31.104517917148769 4.9286869424395254 292.5649477224797
leaf_count=991599 16428 26543 20992 1443088 826903 77404 16155 27682 8324 1151 44576 10567 12264 2661 511 26165
internal_value=0 0.183623 0.205228 0.186561 0.199266 0.49373 0.582888 -0.248531 -0.0986904 -0.00719607 -0.0498364 0.405136 -0.280792 -0.100271 -0.0872944 -0.400991
internal_weight=0 26544 24653.6 23148.7 22491.9 1504.9 1297.3 656.798 1890.47 1265.19 1146.77 118.416 625.279 240.589 207.6 384.69
internal_count=3553013 2561414 2439278 2324216 2269991 115062 93559 54225 122136 72722 61004 11718 49414 14925 21503 34489
cat_boundaries=0 1 2 3 4 5 6 7 8 9
cat_threshold=2 13156357 1 197658 2429088 8437761 7 4194308 2
shrinkage=0.1


Tree=14
num_leaves=18
num_cat=13
split_feature=4 2 1 3 2 2 2 0 2 3 5 7 1 2 2 2 0
split_gain=5932.86 137.204 155.071 190.689 224.828 134.27 130.653 97.3709 55.592 48.3514 49.2498 46.6538 41.3889 22.0828 10.3409 7.95717 1.81899e-12
threshold=0 1 2 2.5000000000000004 3 4 5 1.0000000180025095e-35 6 3.5000000000000004 7 8 9 10 11 12 71.500000000000014
decision_type=1 1 1 2 1 1 1 2 1 2 1 1 1 1 1 1 2
left_child=16 7 5 6 -5 13 -4 9 15 14 -11 -7 -10 -3 -2 -9 -1
right_child=1 2 3 4 -6 11 -8 8 12 10 -12 -13 -14 -15 -16 -17 -18
leaf_value=-0.10006607868514353 -0.0081135761989292506 0.0053239755653123862 -0.008838718376457803 -0.0039293422996916107 0.031189813521616844 0.052805341600094306 0.023092970967851591 -0.014846069930382278 -0.031978459642957646 -0.016065646855371051 0.017785647835262396 0.029089320955049097 0.023339027338526445 -0.038275765465830641 -0.028589655774533981 -0.06372410698523491 -0.10006607868514353
leaf_weight=5199.0567923225462 362.27126114442945 277.07870385679416 4009.2505422448739 2321.887006695848 8535.785937996814 2314.3511575667653 1871.1471502210479 336.85325841244776 135.67489330330864 817.21008229500148 906.57252056000289 1292.8341285390779 2610.6560886900406 190.07809562701732 1006.3175819093594 31.231596329133026 37.401159215718508
leaf_count=984732 18321 32400 427448 259353 805419 167312 181990 24365 12991 101947 105058 94434 236915 9108 80149 2857 7084
internal_value=0 0.16234 0.201217 0.158403 0.237048 0.376286 0.0134621 0.0316025 0.15646 -0.0940432 0.0173744 0.441829 0.205001 -0.128464 -0.234377 -0.205691 -1.00066
internal_weight=0 27019.2 20812.4 16738.1 10857.7 4074.34 5880.4 6206.79 3114.42 3092.37 1723.78 3607.19 2746.33 467.157 1368.59 368.085 5236.46
internal_count=3551883 2560067 1977464 1674210 1064772 303254 609438 582603 277128 305475 207005 261746 249906 41508 98470 27222 991816
cat_boundaries=0 1 2 3 4 5 6 7 8 9 10 11 12 13
cat_threshold=2 15253767 6 74760 266784 2656 524292 2 1 513 4608 573443 4
shrinkage=0.1


Tree=15
num_leaves=18
num_cat=11
split_feature=4 0 2 2 5 1 1 2 5 5 1 3 3 1 0 3 0
split_gain=5284.29 109.435 151.691 141.899 372.729 228.169 116.331 104.64 99.7504 98.4881 131.998 88.7027 26.4113 21.7132 5.12182 2.04941 9.09495e-13
threshold=0 1.0000000180025095e-35 1 2 3 4 5 6 7 8 9 5.5000000000000009 13.500000000000002 10 12.500000000000002 5.5000000000000009 314.00000000000006
decision_type=1 2 1 1 1 1 1 1 1 1 1 2 2 1 2 2 2
left_child=16 3 9 4 15 -6 13 12 -9 14 -11 -8 -5 -4 -3 -2 -1
right_child=1 2 6 7 5 -7 11 8 -10 10 -12 -13 -14 -15 -16 -17 -18
leaf_value=-0.10005978757379511 -0.080877444875496932 -0.06673839987765634 0.0070413388723876598 -0.023380575112736064 0.13453042009168834 -0.028567226392553283 0.023069426173448676 0.022023534312316812 0.0023617984402795073 0.1052633594049156 -0.016775314427433942 0.046969720555767175 0.10900109542723718 -0.016964416193229585 -0.0033563640857731183 -0.052279986568503502 -0.10005978757379511
leaf_weight=4736.7011340963654 134.21057937853038 303.1742438795045 999.7370131034404 1241.7135558455484 369.46609929669648 112.8235445828177 9339.8851438972633 3792.9220445072278 8070.8741349451011 97.936354375910014 486.55492615501862 1862.5148055171594 15.25586856738664 591.40839559736196 13.309144703904165 30.812994476407766 0.19110100343823333
leaf_count=991455 14219 31362 97985 119866 21291 10621 803341 388332 811221 7434 38828 150033 1884 60271 1356 3609 40
internal_value=0 0.143071 0.206366 0.0801141 0.533619 0.985736 0.234197 0.0572901 0.0864048 -0.189315 0.0518721 0.27019 -0.21602 -0.0193152 -0.64073 -0.755378 -1.0006
internal_weight=0 27462.6 13694.5 13768.1 647.313 482.29 12793.5 13120.8 11863.8 900.975 584.491 11202.4 1256.97 1591.15 316.483 165.024 4736.89
internal_count=3553148 2561653 1190610 1371043 49740 31912 1111630 1321303 1199553 78980 46262 953374 121750 158256 32718 17828 991495
cat_boundaries=0 1 2 3 4 5 6 7 8 9 10 11
cat_threshold=2 524308 65552 2 15 769 14991364 2 2 3 256
shrinkage=0.1


Tree=16
num_leaves=17
num_cat=13
split_feature=4 2 1 5 2 2 3 5 2 2 2 1 0 0 2 6
split_gain=4714.25 98.8913 123.083 111.503 741.566 256.789 68.1924 95.906 57.2811 51.7988 51.6305 42.8089 27.3106 26.5762 19.6407 10.7047
threshold=0 1 2 3 4 5 3.5000000000000004 6 7 8 9 10 57.500000000000007 1.0000000180025095e-35 11 12
decision_type=1 1 1 1 1 1 2 1 1 1 1 1 2 2 1 1
left_child=-1 2 10 4 -4 -5 8 11 13 -9 15 -8 -10 -3 -12 -2
right_child=1 6 3 5 -6 -7 7 9 12 -11 14 -13 -14 -15 -16 -17
leaf_value=-0.10005411564332019 0.070434078523622837 -0.0068393722578753181 -0.058289372864616489 -0.0028697541809425847 0.039348155744830603 0.026849026603367701 0.0049385661213718207 -0.015882156922898322 -0.021905930877108862 0.032181587320103691 0.029478858628369544 -0.029001150436836393 0.18749147728531057 0.019538310799723194 0.049616512453660555 -0.038634775718972565
leaf_weight=4283.6248343950137 9.8399053835310042 804.85144531540573 909.70051320036873 8001.2803164932411 5088.0803518516477 4557.2479782141745 1137.5146554502426 254.40640717872884 1683.8663615373662 1764.1324759663548 1014.9538598917425 541.06214213231578 6.2517076211515805 726.95618892763741 1255.835073257098 105.24520110758021
leaf_count=990865 484 82007 86648 841125 430590 371528 121696 20029 103532 205771 84287 66379 662 59533 80935 5346
internal_value=0 0.126283 0.160496 0.132836 0.245076 0.0793371 0.0224634 0.115173 -0.0838495 0.262046 0.374175 -0.061447 -0.210071 0.0564196 0.407845 -0.269661
internal_weight=0 27861.2 20942.2 18556.3 5997.78 12558.5 6919.04 3697.12 3221.93 2018.54 2385.87 1678.58 1690.12 1531.81 2270.79 115.085
internal_count=3551417 2560552 1900943 1729891 517238 1212653 659609 413875 245734 225800 171052 188075 104194 141540 165222 5830
cat_boundaries=0 1 2 3 4 5 6 7 8 9 10 11 12 13
cat_threshold=2 474360 4 2 5144 272480 2 2146819 49157 327712 124 208 2
shrinkage=0.1


Tree=17
num_leaves=18
num_cat=10
split_feature=4 0 2 1 2 3 2 2 3 5 2 1 0 3 1 0 0
split_gain=4214.17 96.432 96.0474 115.599 111.47 104.461 91.6879 48.8233 47.341 50.9963 46.624 31.3043 22.7847 6.75671 4.27962 4.54747e-13 2.27374e-13
threshold=0 2.5000000000000004 1 2 3 3.5000000000000004 4 5 3.5000000000000004 6 7 8 5.5000000000000009 18.500000000000004 9 2.5000000000000004 13.500000000000002
decision_type=1 2 1 1 1 2 1 1 2 1 1 1 2 2 1 2 2
left_child=15 2 3 5 -5 -2 13 12 10 -10 -4 -9 -8 14 -3 -1 -17
right_child=1 6 8 4 -6 -7 7 11 9 -11 -12 -13 -14 -15 -16 16 -18
leaf_value=-0.10004894794650153 -0.011759568017211999 -0.0080960197606048095 0.0024977531562494319 0.053734523483287847 0.014746982913212728 0.017046752262997043 0.037585123768178165 -0.024245776807364998 -0.0096108785475803836 0.016493808856888472 -0.02600244286626166 0.023073688287970091 0.071343382113833856 0.35051712005756919 -0.047612659517005863 -0.10004894794650153 -0.10004894794650153
leaf_weight=3000.3365445765667 3205.6480240363162 53.417113668750972 1000.5331521867774 776.41377220558934 11778.156290111365 2072.8770382362418 744.70408130111173 139.76962360506877 1339.3981329108356 1695.8385769987945 1344.4836317363661 3624.0734386087861 273.30846199626103 0.44257357995957042 168.18566726939753 724.13742051972076 150.71412504045293
leaf_count=766975 343397 4547 83170 48239 1099225 196186 56353 12759 148155 192528 78920 261038 17514 38 18174 185111 38527
internal_value=0 0.111636 0.0844938 0.119786 0.171989 -0.00446479 0.237548 0.266512 -0.0326474 0.0497426 -0.139427 0.212569 0.461945 -0.381054 -0.406011 -1.00049 -1.00049
internal_weight=0 28217.2 23213.3 17833.1 12554.6 5278.53 5003.9 4781.86 5380.25 3035.24 2345.02 3763.84 1018.01 222.045 221.603 3875.19 874.852
internal_count=3550856 2560243 2189820 1687047 1147464 539583 370423 347664 502773 340683 162090 273797 73867 22759 22721 990613 223638
cat_boundaries=0 1 2 3 4 5 6 7 8 9 10
cat_threshold=2 114424 960 16 524304 2109824 2 2506755 513 515
shrinkage=0.1


Tree=18
num_leaves=18
num_cat=11
split_feature=4 3 7 2 0 2 1 2 1 0 5 0 2 1 0 7 0
split_gain=3782.77 86.3729 87.8149 72.4399 78.7381 55.5167 51.1373 50.0089 33.9913 33.6477 17.6676 17.2955 15.8317 11.3801 5.65696 0.549243 4.54747e-13
threshold=0 1.5000000000000002 1 2 2.5000000000000004 3 4 5 6 1.0000000180025095e-35 7 1.0000000180025095e-35 8 9 1.5000000000000002 10 318.50000000000006
decision_type=1 2 1 1 2 1 1 1 1 2 1 2 1 1 2 1 2
left_child=16 5 3 6 -5 10 -3 9 -9 -4 13 15 -13 -2 -12 -7 -1
right_child=1 2 7 4 -6 11 -8 8 -10 -11 14 12 -14 -15 -16 -17 -18
leaf_value=-0.10004428638829277 0.078369330255750047 0.006002201530604892 0.0052575373904888778 0.00044343617099097763 0.036367019340768705 -0.055510750250973344 0.022451270923386134 -0.0076052993196877063 0.0054629752700491932 0.036701520457678764 -0.017426892514199713 -0.01223983163668774 -0.053381963336564413 0.0042475682909457989 0.018507879598462156 -0.066618179469519992 -0.10004428638829277
leaf_weight=3508.9522822904401 53.637705887202173 2354.79500636179 666.58597206324339 4511.223229625728 705.5603338771034 140.41719399241265 10132.238616372342 3170.8456341454294 5308.3044910234166 695.2743568867445 89.036784027935937 357.69270455371588 127.92851967015304 44.287704277667217 86.239760612603277 65.184418429504149 0.13805212522856791
leaf_count=991286 6895 224037 75308 460695 58209 7985 839126 316183 458837 52577 7617 23154 10544 5546 9907 3453 39
internal_value=0 0.0998645 0.110164 0.152261 0.0529189 -0.194294 0.193566 0.0344321 0.00572788 0.211554 0.185815 -0.342267 -0.244293 0.532838 0.00253774 -0.590323 -1.00044
internal_weight=0 28509.3 27544.8 17703.8 5216.78 964.425 12487 9841.01 8479.15 1361.86 273.202 691.223 485.621 97.9254 175.277 205.602 3509.09
internal_count=3551398 2560073 2484972 1582067 518904 75101 1063163 902905 775020 127885 29965 45136 33698 12441 17524 11438 991325
cat_boundaries=0 1 2 3 4 5 6 7 8 9 10 11
cat_threshold=2 1 8457976 7291104 896 77952 960 2 8395012 180 1
shrinkage=0.1


Tree=19
num_leaves=18
num_cat=13
split_feature=4 0 2 2 5 1 1 2 5 5 2 1 6 2 3 3 3
split_gain=3389.89 77.2065 92.6802 80.7283 232.772 133.416 70.8502 65.2331 67.2278 50.1437 69.0089 60.5718 47.5559 26.3891 19.7708 2.06022 4.54747e-13
threshold=0 1.0000000180025095e-35 1 2 3 4 5 6 7 8 9 10 11 12 12.500000000000002 2.5000000000000004 1.5000000000000002
decision_type=1 2 1 1 1 1 1 1 1 1 1 1 1 1 2 2 2
left_child=16 3 9 4 15 -6 13 14 -9 10 -3 -11 -8 -4 -5 -2 -1
right_child=1 2 6 7 5 -7 12 8 -10 11 -12 -13 -14 -15 -16 -17 -18
leaf_value=-0.10004006663913662 -0.089546091133570829 -0.056905433929694993 -0.036467274125774427 -0.028849680387522138 -0.045672609619559518 0.085054802277432257 0.045130222705266523 0.013711251542390883 -0.0015820260196950167 0.046062567397218625 0.0021208762298924972 -0.0044998352224076702 0.017493511327391319 0.0067072019213757954 0.077274102397993746 -0.065062610566867018 -0.10004006663913662
leaf_weight=2305.8228458275553 52.23547650850378 356.58166155894287 308.03189901192673 759.03442074800842 89.525867893826216 486.58568866830319 659.76346552092582 4349.395616077818 8475.9151329910383 292.07385144627187 437.87026919308119 1095.5055559492903 11063.235278237727 255.5437112073414 17.970499414019287 100.48315930739045 868.59571683593094
leaf_count=719879 4941 36833 30129 94053 8845 23053 45344 400878 816168 21565 33531 94259 913359 25832 2118 12921 271176
internal_value=0 0.0884438 0.139974 0.0364196 0.358353 0.654238 0.17362 0.0188927 0.0360151 -0.050049 -0.250621 0.0644266 0.190327 -0.171149 -0.260599 -0.734369 -1.0004
internal_weight=0 28799.8 14468.6 14331.1 728.83 576.112 12286.6 13602.3 12825.3 2182.03 794.452 1387.58 11723 563.576 777.005 152.719 3174.42
internal_count=3554884 2563829 1200852 1362977 49760 31898 1014664 1313217 1217046 186188 70364 115824 958703 55961 96171 17862 991055
cat_boundaries=0 1 2 3 4 5 6 7 8 9 10 11 12 13
cat_threshold=2 8996373 65552 2 480 513 14680068 2 2 1040 11 2 4196706
shrinkage=0.1


Tree=20
num_leaves=17
num_cat=11
split_feature=4 0 3 7 2 2 2 2 0 2 7 1 0 0 6 2
split_gain=3043.16 67.1313 69.2278 60.9137 62.5837 52.6077 37.8484 37.6456 25.2342 30.504 17.3972 16.9421 9.56364 4.87203 6.84283 3.60503
threshold=0 5.5000000000000009 1.5000000000000002 1 2 3 4 5 34.500000000000007 6 7 8 1.0000000180025095e-35 7.5000000000000009 9 10
decision_type=1 2 2 1 1 1 1 1 2 1 1 1 2 2 1 1
left_child=-1 2 6 4 -4 13 11 -5 9 -7 -10 -2 -8 15 -15 -3
right_child=1 5 3 7 -6 8 12 -9 10 -11 -12 -13 -14 14 -16 -17
leaf_value=-0.10003626176981216 0.045101745139469962 -0.014758231995476254 0.020001113385857937 0.010049056050676054 0.0069010775239252871 0.061785882222635591 -0.052593595770927259 -0.0034705863504437238 0.088827235068280233 0.027353194593170194 0.0027192213375129329 -0.012159703242171591 -0.026024010233331937 0.05275601159823376 -0.044149696039064504 0.034837537635942509
leaf_weight=2872.4511047638953 91.53660642169416 45.559720612131059 5320.401677064714 3053.3756473690737 11679.210354029783 379.45347105246037 207.23836609104183 6276.5964430273743 25.122530430555344 994.91904226969928 355.28343340498395 101.77266078907996 391.21056141913868 7.7830000030808151 114.29447583307046 9.9630544460378569
leaf_count=991060 10948 4214 364769 300916 1155047 19419 12397 562292 1425 69160 22609 11332 23997 719 12038 1260
internal_value=0 0.0786048 0.065774 0.0745352 0.110168 0.258687 -0.225573 0.00960974 0.310227 0.375084 0.0840591 0.158397 -0.346459 -0.253729 -0.379715 -0.0224232
internal_weight=0 29053.7 27121.3 26329.6 16999.6 1932.38 791.758 9329.97 1754.78 1374.37 380.406 193.309 598.449 177.6 122.077 55.5228
internal_count=3563602 2572542 2441698 2383024 1519816 130844 58674 863208 112613 88579 24034 22280 36394 18231 12757 5474
cat_boundaries=0 1 2 3 4 5 6 7 8 9 10 11
cat_threshold=2 1 8390808 589850 2375840 245120 12448 8 176 2 524312
shrinkage=0.1


Tree=21
num_leaves=17
num_cat=13
split_feature=4 6 7 2 1 2 3 1 2 2 1 2 3 5 1 0
split_gain=2740.09 65.6087 59.9783 44.9173 57.3744 43.5301 35.1856 33.7231 89.8712 55.7856 21.5556 21.0156 20.3433 23.0102 20.9416 13.1208
threshold=0 1 2 3 4 5 3.5000000000000004 6 7 8 9 10 3.5000000000000004 11 12 5.5000000000000009
decision_type=1 1 1 1 1 1 2 1 1 1 1 1 2 1 1 2
left_child=-1 5 3 6 -5 12 -3 9 -9 -4 15 -12 13 -2 -14 -7
right_child=1 2 7 4 -6 10 -8 8 -10 -11 11 -13 14 -15 -16 -17
leaf_value=-0.10003280326686803 -0.035776955254840453 -0.014830080197494622 0.016635414633990424 0.02812953452490817 0.0092587599531848558 0.043133917607636886 0.0067268207912858482 0.0071412624137014566 -0.02008245157925501 -0.0056733444852336218 0.036825102815126291 -0.012292987330688244 0.023625832536485293 0.030884290256744037 -0.052340583318910616 0.079024921776857437
leaf_weight=2600.4374342770316 66.608712572488002 1222.9349333652062 2274.6306524372194 1830.6646180795506 13409.316596074728 581.02661347808316 1988.0435043136822 2442.1660213525174 2393.1672213894781 2195.6088482184568 202.89939407329075 144.14092972618528 49.94890703051351 232.61516308842693 100.51827471307479 123.50843529310077
leaf_count=991537 5172 76104 218150 127357 1201273 50225 217965 231129 224029 163036 15760 10958 3622 16354 8796 7032
internal_value=0 0.0708198 0.0598068 0.0928192 0.115425 0.274437 -0.0147875 -0.00564966 -0.063463 0.0569001 0.384027 0.166513 0.00941609 0.160452 -0.290312 0.487341
internal_weight=0 29257.8 27756.5 18451 15240 1501.27 3210.98 9305.57 4835.33 4470.24 1051.58 347.04 449.691 299.224 150.467 704.535
internal_count=3568499 2576962 2459043 1622699 1328630 117919 294069 836344 455158 381186 83975 26718 33944 21526 12418 57257
cat_boundaries=0 1 2 3 4 5 6 7 8 9 10 11 12 13
cat_threshold=2 2 1 835847 4 6919181 31 6492579 8502481 244 8397010 2 56
shrinkage=0.1


Tree=22
num_leaves=18
num_cat=11
split_feature=4 0 2 5 2 1 3 1 5 3 2 1 1 5 0 3 0
split_gain=2464.54 56.1828 71.1362 69.9817 58.5052 134.514 65.0282 56.3869 60.0223 55.8929 48.3528 45.3127 41.4125 18.9732 17.9979 14.5748 4.54747e-13
threshold=0 1.0000000180025095e-35 1 2 3 4 2.5000000000000004 5 6 2.5000000000000004 7 8 9 10 3.5000000000000004 12.500000000000002 297.00000000000006
decision_type=1 2 1 1 1 1 2 1 1 2 1 1 1 1 2 2 2
left_child=16 4 3 14 5 6 -2 13 -9 -7 15 -5 -12 -4 -3 -6 -1
right_child=1 2 7 11 10 9 -8 8 -10 -11 12 -13 -14 -15 -16 -17 -18
leaf_value=-0.10002967868239601 0.022560771155593462 -0.060978487577694189 -0.018421222865596033 0.052264243752603259 -0.027008342372274813 -0.050548943541998619 0.083371110214305336 0.024788146589238801 0.009941150385548268 0.0119862149767855 0.011050863925429448 -0.0073153366839092439 -0.002022922372525859 0.0037677131968582075 -0.013343619052695078 0.059632628489433306 -0.10002967868239601
leaf_weight=2353.0119474800304 361.59538538265042 280.0658741107909 630.06368512031622 147.23312481609173 740.03913685929729 238.96682343957946 342.33865193277597 4152.0254894697573 7911.0260409904877 355.61955652432516 3273.6985383403953 670.92768473899923 9235.4897799713071 992.23730514384806 110.65755338873714 19.938887352123857 0.29901394760236044
leaf_count=991524 17441 30456 54494 10195 90936 23939 19063 271407 665313 37658 238164 58264 942206 98703 11807 2142 126
internal_value=0 0.0631487 0.106336 -0.125673 0.0189931 0.220723 0.514039 0.12683 0.150389 -0.129295 -0.000913781 0.0395577 0.0140463 -0.0482024 -0.474877 -0.24414 -1.0003
internal_weight=0 29461.9 14894.2 1208.88 14567.7 1298.52 703.934 13685.4 12063.1 594.586 13269.2 818.161 12509.2 1622.3 390.723 759.978 2353.31
internal_count=3563838 2572188 1200639 110722 1371549 98101 36504 1089917 936720 61597 1273448 68459 1180370 153197 42263 93078 991650
cat_boundaries=0 1 2 3 4 5 6 7 8 9 10 11
cat_threshold=2 524820 2 67600 15 769 2 14712836 3 6 2
shrinkage=0.1


Tree=23
num_leaves=17
num_cat=13
split_feature=4 3 0 2 1 2 2 2 2 2 6 5 1 1 0 1
split_gain=2218.57 50.0999 48.0927 47.2751 43.2385 78.6604 46.8062 37.7046 23.6257 14.3623 20.2135 13.8442 10.0971 7.24595 4.18223 3.31051
threshold=0 1.5000000000000002 4.5000000000000009 1 2 3 4 5 6 7 8 9 10 11 45.500000000000007 12
decision_type=1 2 2 1 1 1 1 1 1 1 1 1 1 1 2 1
left_child=-1 7 4 12 5 -3 -6 11 -5 10 -9 13 -4 -2 -11 -13
right_child=1 2 3 8 6 -7 -8 9 -10 14 -12 15 -14 -15 -16 -17
leaf_value=-0.10002685734477904 0.054123602142704889 -0.037890703203013215 0.082468364667337146 -0.02922551492768315 0.019720442297024507 0.0013071486189069189 0.0053221007405675549 -0.024213619878038203 0.016836011502057744 -0.059255243101578647 0.096996596176309069 0.0098952897034383144 0.036291783361555981 -0.0086572585904112539 0.18612431265813612 -0.015818982680485361
leaf_weight=2129.7385845785029 78.365980442380533 573.58210152573884 117.63384093227796 110.00082727090921 2558.70825787168 4171.7512126261136 18972.932837265194 463.68836243764963 2015.553945609834 172.10630745301023 14.1789338667877 91.31753572053276 184.89883457752876 26.92951833922416 0.69740920001640816 90.071554687572643
leaf_count=991798 9163 60983 5562 11691 196454 407053 1680999 29344 125550 11611 1067 10005 10897 3136 101 8886
internal_value=0 0.056404 0.063833 0.198486 0.0513906 -0.0350053 0.0704149 -0.1711 0.143266 -0.301522 -0.201946 0.130863 0.563108 0.423853 -0.550776 -0.032001
internal_weight=0 29642.4 28705.1 2428.09 26277 4745.33 21531.6 937.356 2125.55 650.671 477.867 286.685 302.533 105.295 172.804 181.389
internal_count=3564300 2572502 2499189 153700 2345489 468036 1877453 73313 137241 42123 30411 31190 16459 12299 11712 18891
cat_boundaries=0 1 2 3 4 5 6 7 8 9 10 11 12 13
cat_threshold=2 12595332 896 8651796 68624 7291104 589840 8394758 1 2 278 244 405
shrinkage=0.1


Tree=24
num_leaves=18
num_cat=12
split_feature=4 6 3 2 2 5 1 1 2 2 5 3 7 1 0 0 0
split_gain=1996.28 44.8717 47.1011 230.92 203.52 277.862 111.962 84.6784 76.1669 33.1349 32.862 30.9427 15.8281 21.4781 7.11104 5.05314 2.27374e-13
threshold=0 1 3.5000000000000004 2 3 4 5 6 7 8 9 7.5000000000000009 10 11 6.5000000000000009 117.50000000000001 8.5000000000000018
decision_type=1 1 2 1 1 1 1 1 1 1 1 2 1 1 2 2 2
left_child=16 9 4 6 5 -3 -4 -6 -5 10 14 -12 15 -14 -2 -11 -1
right_child=1 2 3 8 7 -7 -8 -9 -10 12 11 -13 13 -15 -16 -17 -18
leaf_value=-0.10002430098713773 -0.073631249829315668 0.015595316258007023 0.027740584177428945 -0.03235013836798846 0.022037648977707894 -0.020360892941194891 -0.0024323923832871176 -0.00021576858800705429 -0.0014122126479475939 0.047786353068714968 0.018564292231147177 -0.10112206385881189 0.032580780619134823 -0.0032084415840356478 0.045339412454883786 -0.02085998734720379 -0.10002430098713773
leaf_weight=1792.3109392030165 67.401745533337817 3189.8857535853749 5216.4491434032097 1034.1468276334926 4451.0121457951609 6587.9121714945068 1614.2207980467938 2782.1189329712652 3363.6186818573624 394.13451444974635 293.02040917088743 23.319869043305516 530.45194495958276 248.259109278908 5.4286909024231127 11.023167411331086 133.8606614805758
leaf_count=922421 4545 265478 448986 83664 287210 655945 140079 271004 295093 29827 20722 2301 41679 18915 340 563 68892
internal_value=0 0.0501669 0.0410104 0.0912785 0.00782983 -0.0862181 0.20617 0.134897 -0.0874424 0.214546 -0.0409644 0.0974129 0.296381 0.215481 -0.647633 0.459187 -1.00024
internal_weight=0 29812.4 28239.4 11228.4 17010.9 9777.8 6830.67 7233.13 4397.77 1573.04 389.171 316.34 1183.87 778.711 72.8304 405.158 1926.17
internal_count=3557664 2566351 2447459 967822 1479637 921423 589065 558214 378757 118892 27908 23023 90984 60594 4885 30390 991313
cat_boundaries=0 1 2 3 4 5 6 7 8 9 10 11 12
cat_threshold=2 2 12584928 13387622 2 248 15 65548 4199437 2 1 244
shrinkage=0.1


Tree=25
num_leaves=17
num_cat=11
split_feature=4 0 2 2 1 2 3 2 5 1 3 2 1 3 5 3
split_gain=1798.32 44.1821 50.9736 46.6782 60.304 55.5325 48.7348 36.4004 63.1287 45.8489 32.2761 22.591 14.2861 13.8193 24.3982 18.1538
threshold=0 1.0000000180025095e-35 1 2 3 4 2.5000000000000004 5 6 7 6.5000000000000009 8 9 5.5000000000000009 10 2.5000000000000004
decision_type=1 2 1 1 1 1 2 1 1 1 2 1 1 2 1 2
left_child=-1 3 13 4 6 -6 -2 8 -4 -9 11 -5 -12 15 -15 -3
right_child=1 2 7 10 5 -7 -8 9 -10 -11 12 -13 -14 14 -16 -17
leaf_value=-0.10002198947034775 -0.026907399837837631 0.034360298945249799 -0.055663968177629045 -0.028693846556827676 0.02918543907971733 0.0052983945452797967 0.0020116025989538933 -0.021849005575546546 0.003559537748609082 0.0083916166036723961 -0.018181559780384229 -0.0073145426720582218 0.02495900549381698 0.0159987987227336 0.066327735368894788 0.012972851217060094
leaf_weight=1743.0914529981092 942.4801832519006 518.46817591961008 258.58694386458956 562.97424789774232 1146.3085654834285 6253.3755510812625 1526.6963996603154 515.92608106811531 592.12887596827932 11242.840658039786 89.452905178186484 3838.4927079392364 393.3401548510883 216.34024973260239 173.62356132431887 1692.1730209277011
leaf_count=991416 78167 43534 29637 76039 76069 567314 151598 50676 45983 898330 11860 342238 50812 11692 11099 115079
internal_value=0 0.0446244 0.082443 0.00563446 0.0451921 0.0903321 -0.0899032 0.0559867 -0.142745 0.0704735 -0.074234 -0.101309 0.171062 0.2097 0.384067 0.179889
internal_weight=0 29963.2 15210.1 14753.1 9868.86 7399.68 2469.18 12609.5 850.716 11758.8 4884.26 4401.47 482.793 2600.61 389.964 2210.64
internal_count=3551543 2560127 1206030 1354097 873148 643383 229765 1024626 75620 949006 480949 418277 62672 181404 22791 158613
cat_boundaries=0 1 2 3 4 5 6 7 8 9 10 11
cat_threshold=2 6434944 73336 448 3088 524308 2 513 6553604 771 2
shrinkage=0.1


Tree=26
num_leaves=18
num_cat=13
split_feature=4 7 6 2 5 2 3 5 2 1 3 2 2 2 5 0 0
split_gain=1619.79 42.2954 40.8792 32.2993 53.4257 51.6698 46.2289 68.1982 57.7062 41.3652 31.7148 33.6219 18.1934 11.5261 12.2092 3.90501 2.27374e-13
threshold=0 1 2 3 4 5 5.5000000000000009 6 7 8 1.5000000000000002 9 10 11 12 117.50000000000001 318.50000000000006
decision_type=1 1 1 1 1 1 2 1 1 1 2 1 1 1 1 2 2
left_child=16 2 13 6 5 -5 7 -3 -8 -6 12 -12 -4 14 -2 -15 -1
right_child=1 3 10 4 9 -7 8 -9 -10 -11 11 -13 -14 15 -16 -17 -18
leaf_value=-0.10001989646520526 -0.028430131005390175 0.013416403165942281 -0.037304664639271914 -0.0013268146624913042 -0.024851389110160403 -0.058589427960360853 0.064222650924820227 -0.008393032264855816 0.0091469104484987445 0.0056102651514474211 0.008987634964896395 -0.0012342249838539889 -0.0020677335951992258 0.049153319010948222 0.026978453830684614 -0.016569605078124796 -0.10001989646520526
leaf_weight=1576.4025050662458 50.493557302746922 2151.7099685987923 238.73334464197978 276.89732798107434 605.04479731124593 378.07286746730097 229.308081317693 4297.2379278133158 984.07570625678636 1612.0930290502729 14239.698774449527 4160.6587492402177 372.73098758322885 307.1595572931692 187.21818321698811 9.3145538577809912 0.047727059572934105
leaf_count=990886 3826 173386 15945 17374 57270 38032 17285 415509 88314 104611 1182581 390610 30692 21825 13847 477 30
internal_value=0 0.0396583 0.0671635 -0.0114281 -0.101669 -0.352957 0.0225004 -0.0111625 0.201599 -0.0278934 0.0593595 0.066805 -0.164692 0.334886 0.145949 0.457726 -1.0002
internal_weight=0 30100.4 19566 10534.4 2872.11 654.97 7662.33 6448.95 1213.38 2217.14 19011.8 18400.4 611.464 554.186 237.712 316.474 1576.45
internal_count=3562500 2571584 1659803 911781 217287 55406 694494 588895 105599 161881 1619828 1573191 46637 39975 17673 22302 990916
cat_boundaries=0 1 2 3 4 5 6 7 8 9 10 11 12 13
cat_threshold=2 1 2 2342368 2 9191429 2 8256 480 8466168 10520 4798732 2
shrinkage=0.1


Tree=27
num_leaves=20
num_cat=12
split_feature=4 1 2 3 2 2 5 1 0 5 2 3 7 2 5 3 0 0 0
split_gain=1463.33 37.2523 71.016 61.9722 167.853 140.555 97.6078 52.5108 43.4049 39.801 17.8975 11.9678 6.47103 26.3096 22.3307 4.82073 2.27374e-13 2.27374e-13 1.42109e-14
threshold=0 1 2 2.5000000000000004 3 4 5 6 1.0000000180025095e-35 7 8 2.5000000000000004 9 10 11 2.5000000000000004 7.5000000000000009 6.5000000000000009 22.500000000000004
decision_type=1 1 1 2 1 1 1 1 2 1 1 2 1 1 1 2 2 2 2
left_child=16 2 12 5 8 9 -7 -6 -5 -3 15 -12 13 -2 -14 -4 17 -1 -18
right_child=1 3 10 4 7 6 -8 -9 -10 -11 11 -13 14 -15 -16 -17 18 -19 -20
leaf_value=-0.10001800169972924 0.037714076430839898 -0.010409323822080693 0.014388029779572971 -0.019775514201952338 0.016179095256382708 0.0082224889780198266 -0.019958114335197043 0.0029993517751079214 9.2922988116842163e-05 0.021365379147071092 -0.045944619144037288 -0.010500296109524649 0.043897297814012658 0.010616205201204119 0.0053012979756796941 -0.0013695567812118236 -0.10001800169972924 -0.10001800169972924 -0.10001800169972924
leaf_weight=1295.4880609251559 958.01844113192055 487.17332921782508 267.47056234092452 2503.3772209907766 8365.7564062069869 1669.0195919804974 4662.9726339472109 4756.9867001111852 1960.7456379163777 2065.9438021287788 138.71497924590949 304.1091640884988 208.38135666318703 611.73299869615585 534.1979540111497 708.22831356152892 81.418577807606198 18.092057601548731 32.44708611862734
leaf_count=899936 50896 42544 18140 261220 688380 149321 438906 417897 155989 154724 6680 27545 13939 51445 39035 43796 56559 12568 22540
internal_value=0 0.0359616 0.129381 0.0227379 0.0571373 -0.0453254 -0.125104 0.114074 -0.110241 0.152426 -0.0468178 -0.211262 0.237209 0.274619 0.16132 0.0292018 -1.00018 -1.00018 -1.00018
internal_weight=0 30202.8 3730.85 26472 17586.9 8885.11 6331.99 13122.7 4464.12 2553.12 1418.52 442.824 2312.33 1569.75 742.579 975.699 1427.45 1313.58 113.866
internal_count=3552060 2560457 251476 2308981 1523486 785495 588227 1106277 417209 197268 96161 34225 155315 102341 52974 61936 991603 912504 79099
cat_boundaries=0 1 2 3 4 5 6 7 8 9 10 11 12
cat_threshold=2 4 8404046 6353932 2176136 2 120 2 6308496 1 14348 2
shrinkage=0.1


Tree=28
num_leaves=17
num_cat=11
split_feature=4 0 2 3 2 1 1 2 1 2 3 0 3 5 5 1
split_gain=1317.07 34.2064 38.8104 29.783 28.5351 45.4167 28.2491 27.0889 18.5256 16.6806 13.4733 6.86615 15.1462 6.97851 5.28677 3.66576
threshold=0 2.5000000000000004 1 1.5000000000000002 2 3 4 5 6 7 2.5000000000000004 155.50000000000003 6.5000000000000009 8 9 10
decision_type=1 2 1 2 1 1 1 1 1 1 2 2 2 1 1 1
left_child=-1 3 11 7 6 -6 -5 14 10 -10 -4 13 -13 -3 -2 -9
right_child=1 2 8 4 5 -7 -8 15 9 -11 -12 12 -14 -15 -16 -17
leaf_value=-0.10001629286327902 0.02922624918207678 -0.041565215238097267 0.018969125904052926 -0.036263330178512895 0.0092585202178260793 -0.00059269298152141983 -0.0027336414621225978 -0.053031883213712272 0.008249972018317989 0.020612382690706015 -0.0098924762821551854 -0.0023974701722495454 0.40393882906805612 -0.011809051637442643 -0.0037013812787261521 -0.02599653241468074
leaf_weight=1290.5748716625385 73.824808791978285 147.7770813612733 224.68699742713943 254.79799185658339 8577.0199784373399 10290.480034632375 5045.6294196362724 135.58860529353842 2126.7172839728883 2343.6472612689249 577.40010965627152 4.040500398259609 1.1867862055078147 168.89035273250192 143.62119589501526 217.47523448755965
leaf_count=990795 9218 14838 19140 24920 640958 1018268 471361 8969 131654 149430 41791 345 85 16414 14387 12949
internal_value=0 0.0313167 0.101934 0.0153474 0.0206784 0.0388812 -0.0441071 -0.210485 0.122466 0.147627 -0.0178528 -0.231011 0.898558 -0.256952 0.0714906 -0.375537
internal_weight=0 30332.8 5594.35 24738.4 24167.9 18867.5 5300.43 570.51 5272.45 4470.36 802.087 321.895 5.22729 316.667 217.446 353.064
internal_count=3565522 2574727 373697 2201030 2155507 1659226 496281 45523 342015 281084 60931 31682 430 31252 23605 21918
cat_boundaries=0 1 2 3 4 5 6 7 8 9 10 11
cat_threshold=2 525328 15483143 15 513 6639782 771 411694 2 2 29
shrinkage=0.1


Tree=29
num_leaves=18
num_cat=12
split_feature=4 7 6 2 5 3 1 2 3 0 2 2 2 5 0 1 0
split_gain=1190.67 31.9583 28.9313 27.6025 50.5694 47.3931 31.8053 30.652 30.4491 22.8733 26.2485 22.4852 9.19457 6.83924 4.32883 3.37758 2.27374e-13
threshold=0 1 2 3 4 5.5000000000000009 5 6 5.5000000000000009 5.5000000000000009 7 8 9 10 11.500000000000002 11 267.00000000000006
decision_type=1 1 1 1 1 2 1 1 2 2 1 1 1 1 2 1 2
left_child=16 2 12 4 7 -6 14 -3 -8 11 -11 -4 15 -14 -5 -2 -1
right_child=1 3 9 6 5 -7 8 -9 -10 10 -12 -13 13 -15 -16 -17 -18
leaf_value=-0.10001473678055472 0.012423928579575715 -0.065817283679367608 -0.0019461017267999002 -0.035043326900905274 -0.0007776475373911701 -0.060935455971438617 -0.00050071573444106351 0.0040734987563737527 0.016144900344221998 -0.026741134996797384 0.021690632544682013 0.0058804693138724967 -0.016341926219276406 0.021305082020694026 0.096390553734933326 0.0449687902004356 -0.10001473678055472
leaf_weight=1167.9226128738374 68.158876424422488 232.84633747139014 5143.908632357954 260.02172290883027 1755.4198511339491 141.51486955815926 6780.9914158363827 91.601354013662785 1311.4854284999892 116.47664384741802 1191.1651897204574 12797.959727542242 63.456433892250061 201.44318692898378 2.5302381576038888 247.55473760282621 0.23690400738268991
leaf_count=990918 5320 19514 502858 26399 119285 13360 611804 6806 112677 11008 68150 1036362 4633 14532 238 16193 201
internal_value=0 0.0286513 0.0523277 -0.0157404 -0.114539 -0.0526553 0.0106519 -0.479881 0.021942 0.045694 0.17338 0.036388 0.272259 0.118398 -0.325374 0.385399 -1.00015
internal_weight=0 30406.5 19830.1 10576.4 2221.38 1896.93 8355.03 324.448 8092.48 19249.5 1307.64 17941.9 580.613 264.9 262.552 315.714 1168.16
internal_count=3560258 2569139 1659056 910083 158965 132645 751118 26320 724481 1618378 79158 1539220 40678 19165 26637 21513 991119
cat_boundaries=0 1 2 3 4 5 6 7 8 9 10 11 12
cat_threshold=2 1 2 13369373 2 513 4194328 589851 7140613 10749683 2 833
shrinkage=0.1


Tree=30
num_leaves=18
num_cat=11
split_feature=4 0 2 2 5 2 3 5 2 2 3 2 2 0 1 3 0
split_gain=1076.68 27.538 35.8426 33.4666 79.9349 120.078 73.0114 34.6474 250.847 173.462 21.8484 71.4296 32.1659 8.86208 14.2402 9.96175 2.27374e-13
threshold=0 1.0000000180025095e-35 1 2 3 4 2.5000000000000004 5 6 7 3.5000000000000004 8 9 5.5000000000000009 10 5.5000000000000009 1.0000000180025095e-35
decision_type=1 2 1 1 1 1 2 1 1 1 2 1 1 2 1 2 2
left_child=16 3 13 4 5 -2 -6 8 -5 -9 12 -12 -4 15 -15 -3 -1
right_child=1 2 10 7 6 -7 -8 9 -10 -11 11 -13 -14 14 -16 -17 -18
leaf_value=-0.10001333916676272 0.034871603059424432 0.011560071326679321 0.011305141153742915 0.020059281383070827 0.0020167135814721979 -0.064075034391584698 0.04775891891237477 0.0086628346788750685 -0.029791735734559927 -0.020197155247439397 0.014925822264318711 -0.0099579954265118509 -0.0041773734618846745 0.053130580332849953 0.0042280626946434507 0.029648095166834077 -0.10001333916676272
leaf_weight=504.14314671233296 205.15450360323302 2098.6586126103066 1774.6610101514962 3239.9618103017565 720.49128465470858 280.89230387471616 676.66285751992837 4052.947869667667 1454.4921143715037 4266.6531708170078 4100.3383253286593 1597.5720278897788 5398.6197709267726 142.99037211015821 113.59532316541299 356.1465291348286 553.7717856913805
leaf_count=472717 15891 151847 123843 272371 57102 32801 55282 301459 152336 470800 316710 107560 470676 4503 4997 20862 519252
internal_value=0 0.0260536 0.0554432 -0.00468804 0.119552 -0.229117 0.241704 -0.0227406 0.0459311 -0.0615169 0.033323 0.0795765 -0.00337081 0.159737 0.33716 0.141843 -1.00013
internal_weight=0 30479.8 15582.6 14897.3 1883.2 486.047 1397.15 13014.1 4694.45 8319.6 12871.2 5697.91 7173.28 2711.39 256.586 2454.81 1057.91
internal_count=3551009 2559040 1200998 1358042 161076 48692 112384 1196966 424707 772259 1018789 424270 594519 182209 9500 172709 991969
cat_boundaries=0 1 2 3 4 5 6 7 8 9 10 11
cat_threshold=2 6467712 69136 2 67584 2 8413408 790794 8390499 329736 30
shrinkage=0.1


Tree=31
num_leaves=18
num_cat=11
split_feature=4 1 2 3 2 2 5 1 0 5 2 3 2 3 5 3 0
split_gain=972.063 26.3177 53.4169 43.2582 123.661 106.43 77.733 40.7087 30.4867 25.1791 13.4745 9.61631 6.80398 23.727 5.69141 5.28354 1.13687e-13
threshold=0 1 2 2.5000000000000004 3 4 5 6 1.0000000180025095e-35 7 8 2.5000000000000004 9 2.5000000000000004 10 2.5000000000000004 314.00000000000006
decision_type=1 1 1 2 1 1 1 1 2 1 1 2 1 2 1 2 2
left_child=16 2 12 5 8 9 -7 -6 -5 -3 15 -12 13 -2 -14 -4 -1
right_child=1 3 10 4 7 6 -8 -9 -10 -11 11 -13 14 -15 -16 -17 -18
leaf_value=-0.10001206373172965 0.025411735370449842 -0.0087803953099478398 0.013189909914977125 -0.017910044061690705 -0.0079804516937223915 0.0064287088925777591 -0.018758828493357575 0.010634311846453488 -0.0012268047867344829 0.016353166604057074 -0.042775267561897201 -0.010386905620240762 0.045334759701436078 0.0018463199374819314 0.023365165737899485 -0.0032091750420730398 -0.10001206373172965
leaf_weight=957.09727386385202 1053.3961225999519 484.06140038685407 270.04642161517404 2447.363170911849 1296.2265529370634 1691.6473339824006 4444.3998723521945 12129.16949388932 1982.7303788845893 2257.563155412965 131.30248104571365 303.71004119864665 157.73633987212088 718.81104786740616 467.10137940198183 721.03795111691579 0.046320123597978553
leaf_count=991808 62222 38024 18171 257339 118579 149032 428161 993163 156672 167041 6610 27684 9617 44611 39148 44369 48
internal_value=0 0.023305 0.100798 0.0121803 0.0405492 -0.0448638 -0.117957 0.0883245 -0.104198 0.118723 -0.0523861 -0.197098 0.191773 0.157646 0.284558 0.012466 -1.00012
internal_weight=0 30556.3 3823.14 26733.2 17855.5 8877.67 6136.05 13425.4 4430.09 2741.62 1426.1 435.013 2397.04 1772.21 624.838 991.084 957.144
internal_count=3552299 2560443 252432 2308011 1525753 782258 577193 1111742 414011 205065 96834 34294 155598 106833 48765 62540 991856
cat_boundaries=0 1 2 3 4 5 6 7 8 9 10 11
cat_threshold=2 4 8404046 6321164 2307212 2 768 2 6308496 4168 2
shrinkage=0.1


Tree=32
num_leaves=18
num_cat=14
split_feature=4 7 2 5 1 1 2 6 6 3 2 2 2 5 0 1 0
split_gain=875.597 26.9978 22.9628 40.8654 41.1297 26.6807 26.5042 24.553 22.4825 17.4961 17.6716 17.0952 7.0074 7.8062 3.45456 2.82219 1.13687e-13
threshold=0 1 2 3 4 5 6 7 8 1.5000000000000002 9 10 11 12 11.500000000000002 13 311.50000000000006
decision_type=1 1 1 1 1 1 1 1 1 2 1 1 1 1 2 1 2
left_child=16 8 3 6 -5 14 -3 -7 12 11 -11 -10 13 -2 -4 -14 -1
right_child=1 2 5 4 -6 7 -8 -9 9 10 -12 -13 15 -15 -16 -17 -18
leaf_value=-0.10001091252071431 -0.026307198333801879 -0.062841539882483324 -0.033272231037776323 0.003756027211737829 -0.02840694270307198 0.018518415786586449 0.0026782701368154877 -0.00042204692393789953 -0.055255179612473726 -0.0023626596704665842 0.0055508862541363974 -0.0061890468355414695 0.0088945709763453128 0.018190904338486493 0.07895594603530548 0.037248409034064719 -0.10001091252071431
leaf_weight=865.15715444716625 49.065776511095464 214.56760318530723 253.28393500833772 1352.0994579470134 552.74168341018958 754.12284563039429 92.963282043347135 7404.8179838682991 74.025492101674899 3453.3609315968934 15382.364833854488 515.83865279826568 66.995011276798323 200.61431389523204 2.7727902005426577 281.85993955796584 0.067234854737761363
leaf_count=990812 3755 18047 24368 78422 54458 58037 7038 670613 6130 335172 1229751 41527 5048 14369 240 17787 77
internal_value=0 0.0199669 -0.0207714 -0.11117 -0.0570635 0.00312355 -0.449919 0.0132697 0.0415878 0.0357061 0.041017 -0.133883 0.23248 0.0908261 -0.30852 0.322029 -1.00011
internal_weight=0 30651.5 10627.4 2212.37 1904.84 8415 307.531 8158.94 20024.1 19425.6 18835.7 589.864 598.535 249.68 256.057 348.855 865.224
internal_count=3555651 2564762 911223 157965 132880 753258 25085 728650 1653539 1612580 1564923 47657 40959 18124 24608 22835 990889
cat_boundaries=0 1 2 3 4 5 6 7 8 9 10 11 12 13 14
cat_threshold=2 1 13369373 2 527 513 4194328 2 2 708871 8216 4798732 2 577
shrinkage=0.1


Tree=33
num_leaves=18
num_cat=10
split_feature=4 0 1 2 3 2 2 0 2 2 3 0 2 7 2 3 0
split_gain=792.258 22.6395 21.6467 46.8071 32.5394 99.5628 95.9613 20.1161 23.9139 16.8886 17.9431 12.4023 9.10904 7.01857 6.39862 6.08999 1.13687e-13
threshold=0 6.5000000000000009 1 2 2.5000000000000004 3 4 34.500000000000007 5 6 2.5000000000000004 10.500000000000002 7 8 9 2.5000000000000004 318.50000000000006
decision_type=1 2 1 1 2 1 1 2 1 1 2 2 1 1 1 2 2
left_child=16 2 3 14 6 -6 -4 8 11 10 -9 -3 -5 -11 -2 -10 -1
right_child=1 7 4 12 5 -7 -8 9 15 13 -12 -13 -14 -15 -16 -17 -18
leaf_value=-0.10000987939476513 -0.034243186725878456 0.01965489292988094 0.011009831854964347 0.0080148915167977345 -0.011244163069124576 0.0068825254911157128 -0.012125842994343069 0.086777612797689613 -0.015652291381704261 0.037471748133537479 0.0034316926973085049 0.044434084424387857 0.019572176190803779 -0.0229508836896017 -0.0085224166453134933 0.0089380544391498788 -0.10000987939476513
leaf_weight=783.47664164903108 106.43722661584616 530.80946837784722 2586.2146057141945 1286.8708876941819 3948.2272461856483 12920.683288135566 5793.0764018617338 34.600109999300912 161.87256918242201 20.615544595755637 101.90955870947801 326.06838359811809 1574.1700253611198 284.85712586715817 757.9431876684539 266.56248357659206 0.034764121752231314
leaf_count=991625 5350 27835 193407 100137 378902 1092976 554055 3830 14744 824 5125 16447 84917 15853 56333 18060 44
internal_value=0 0.018218 0.0115876 0.082636 0.00107114 0.0263733 -0.049865 0.129436 0.192719 -0.0545946 0.228807 0.287486 0.144198 -0.182749 -0.12045 -0.00344696 -1.0001
internal_weight=0 30700.9 28973.6 3725.42 25248.2 16868.9 8379.29 1727.3 1285.31 441.982 136.51 856.878 2861.04 305.473 864.38 428.435 783.511
internal_count=3560464 2568795 2466077 246737 2219340 1471878 747462 102718 77086 25632 8955 44282 185054 16677 61683 32804 991669
cat_boundaries=0 1 2 3 4 5 6 7 8 9 10
cat_threshold=2 4 6750625 6317068 2176136 6320613 8404620 541264 8 262177
shrinkage=0.1


Tree=34
num_leaves=20
num_cat=12
split_feature=4 7 1 2 3 6 0 2 2 2 0 3 1 2 5 0 0 0 5
split_gain=715.139 21.1989 19.7085 19.7548 19.8692 17.9465 14.8216 22.401 20.2655 14.4368 9.42143 8.13676 7.96322 5.83955 6.23304 4.24628 1.13687e-13 2.77556e-17 1.38778e-17
threshold=0 1 2 3 8.5000000000000018 4 3.5000000000000004 5 6 7 2.5000000000000004 33.500000000000007 8 9 10 117.50000000000001 290.50000000000006 311.50000000000006 11
decision_type=1 1 1 1 2 1 2 1 1 1 2 2 1 1 1 2 2 2 1
left_child=16 5 3 4 -3 13 8 -8 -7 12 -5 -11 -4 14 -2 -15 -1 18 -18
right_child=1 2 9 10 -6 6 7 -9 -10 11 -12 -13 -14 15 -16 -17 17 -19 -20
leaf_value=-0.10000893983491106 -0.023168913987354538 0.0086788748771893538 -0.015994322532540333 -0.0078975755971795996 0.08645180527140621 0.0086535127275176368 0.0263531369537881 0.0044924928782907429 0.0001718097121727123 -0.0098222665434123616 0.013091205171886952 0.33373143351404932 0.0010955780641800999 0.031263701660834149 0.015802657348059666 -0.037538821899187537 -0.10000893983490891 -0.1000089398349088 -0.10000893983491106
leaf_weight=708.53707023733296 50.925150077324361 2190.1450958260102 290.15632304106839 1387.8783766296692 33.349369732663035 3547.3266501459293 630.01193326909561 1804.569013981265 13550.688739872479 3496.9986613763031 252.82575910934247 0.68952123401686449 2967.3360845403513 340.73421486932784 211.41633626283146 9.2126890458166582 0.046469322987832129 0.044324585003778338 0.016442991211078062
leaf_count=991082 3941 200419 20668 91052 2086 234567 36911 110211 1230084 309777 16250 64 268522 21649 15090 445 65 62 23
internal_value=0 0.0159868 -0.020168 0.0367561 0.0980128 0.0350458 0.0297613 0.102762 0.0193667 -0.052707 -0.0463504 -0.0972673 -0.00470971 0.203627 0.0793511 0.286342 -1.00009 -1.00009 -1.00009
internal_weight=0 30764.3 10619.4 3864.2 2223.49 20144.9 19532.6 2434.58 17098 6755.18 1640.7 3497.69 3257.49 612.288 262.341 349.947 708.644 0.107237 0.0629123
internal_count=3552968 2561736 908838 309807 202505 1652898 1611773 147122 1464651 599031 107302 309841 289190 41125 19031 22094 991232 150 88
cat_boundaries=0 1 2 3 4 5 6 7 8 9 10 11 12
cat_threshold=2 1 28 8404678 2 14689668 536 258480 514 4275468 2 2
shrinkage=0.1


Tree=35
num_leaves=18
num_cat=14
split_feature=4 6 7 2 1 2 2 3 2 2 3 1 5 1 2 7 0
split_gain=647.312 17.9525 20.9826 18.7139 14.9226 27.9505 16.0953 13.4114 15.5273 12.9581 12.9326 15.6434 12.5259 9.38613 12.7754 7.73401 1.13687e-13
threshold=0 1 2 3 4 5 6 1.5000000000000002 7 8 3.5000000000000004 9 10 11 12 13 303.50000000000006
decision_type=1 1 1 1 1 1 1 2 1 1 2 1 1 1 1 1 2
left_child=16 3 7 10 6 -6 -4 8 -3 -9 12 -12 -2 15 -15 -5 -1
right_child=1 2 4 13 5 -7 -8 9 -10 -11 11 -13 -14 14 -16 -17 -18
leaf_value=-0.1000080803354509 -0.035604998519598731 0.0052543490169738027 0.022133099510457121 0.042476280077965271 -0.020841596163419209 -0.0028285726848393134 -0.00022411391755082694 -0.0023100770510217799 -0.027205484380315472 0.0044617479616317355 0.014488617990921063 -0.052708080332307686 0.015061632113297474 0.018817914319458975 -0.017165394546926043 0.019027625249609346 -0.1000080803354509
leaf_weight=641.41884038690478 60.4167336137034 276.07004788133781 344.02938729652669 177.22121583885746 1055.503820570244 4553.8625445764046 3565.5798267947976 3450.219496034726 305.75680964975618 15536.597661360633 51.892899975180626 90.977234242018312 253.63104482740164 236.99696320411749 155.17138263199013 681.80212810664671 0.066629156935959055
leaf_count=991550 4670 24900 26036 12296 87445 411415 301789 333758 21517 1231698 3486 8394 15469 15682 11795 50269 103
internal_value=0 0.0148591 0.00900824 0.114494 -0.0295006 -0.0624911 0.0179468 0.0277405 -0.12181 0.0323233 -0.0590385 -0.309762 0.0531435 0.176924 0.0450741 0.235906 -1.00008
internal_weight=0 30795.7 29087.6 1708.11 9518.98 5609.37 3909.61 19568.6 581.827 18986.8 456.918 142.87 314.048 1251.19 392.168 859.023 641.485
internal_count=3552272 2560619 2438558 122061 826685 498860 327825 1611873 46417 1565456 32019 11880 20139 90042 27477 62565 991653
cat_boundaries=0 1 2 3 4 5 6 7 8 9 10 11 12 13 14
cat_threshold=2 2 1 6296585 29 9176604 8393744 15618272 577799 56 2 244 8495314 8
shrinkage=0.1


Tree=36
num_leaves=18
num_cat=13
split_feature=4 0 2 5 1 5 2 2 2 2 5 1 3 5 5 3 0
split_gain=584.772 17.5409 26.9389 190.847 53.6433 33.3568 201.207 135.617 24.2427 17.9208 52.6006 31.232 10.4904 14.8218 12.3998 8.4522 1.13687e-13
threshold=0 1.0000000180025095e-35 1 2 3 4 5 6 7 8 9 10 5.5000000000000009 11 12 14.500000000000002 318.50000000000006
decision_type=1 2 1 1 1 1 1 1 1 1 1 1 2 1 1 2 2
left_child=16 2 3 15 -5 6 -4 -7 12 10 -10 -11 14 -14 -3 -2 -1
right_child=1 8 5 4 -6 7 -8 -9 9 11 -12 -13 13 -15 -16 -17 -18
leaf_value=-0.10000731909140242 -0.066149546845840498 0.019493513291942238 0.021497614295505851 0.048867108144528958 -0.0051290059734149015 -0.020700617563174636 -0.019018966824710968 0.0044175446762130983 -0.05033844265880532 -0.021539078479067667 0.011546532227860111 0.0035715019340390379 0.0088628018678754052 0.044973079520718273 0.0046605720468792522 0.17681233327687182 -0.10000731909140242
leaf_weight=580.17559385870118 244.95755207515322 809.0711886647623 2854.0482170864707 667.73765792069025 257.67917108163238 3675.9469182470348 2133.2764985609101 5153.3723691905616 247.36250651045702 507.48239035450388 308.81752693321323 11665.948152846075 245.90346065443009 211.37585694761947 1857.4909308402566 1.4402561178430904 0.022827870387117311
leaf_count=991194 29211 43280 247109 43335 16935 370258 194305 452186 27201 49389 23454 902141 12866 12159 136295 155 39
internal_value=0 0.0132596 -0.0112671 0.133667 0.343047 -0.0236389 0.0417204 -0.0605845 0.036448 0.0170088 -0.156948 0.0250788 0.115239 0.255547 0.0916109 -0.647294 -1.00007
internal_weight=0 30841.9 14988.5 1171.81 925.417 13816.6 4987.32 8829.32 15853.5 12729.6 556.18 12173.4 3123.84 457.279 2666.56 246.398 580.198
internal_count=3551512 2560279 1353494 89636 60270 1263858 441414 822444 1206785 1002185 50655 951530 204600 25025 179575 29366 991233
cat_boundaries=0 1 2 3 4 5 6 7 8 9 10 11 12 13
cat_threshold=2 66064 2 61 2 8398944 14698724 14856320 524305 2 513 2 2
shrinkage=0.1


Tree=37
num_leaves=22
num_cat=14
split_feature=4 1 5 2 2 3 2 1 5 2 2 1 0 1 2 0 0 0 7 0 0
split_gain=528.322 16.3417 35.1013 326.339 141.115 111.696 92.5206 41.3935 26.4811 108.768 97.2761 27.8386 23.6111 21.2727 18.6806 16.8813 1.13687e-13 1.13687e-13 5.68434e-14 1.77636e-15 6.93889e-18
threshold=0 1 2 3 4 2.5000000000000004 5 6 7 8 9 10 1.5000000000000002 11 12 3.5000000000000004 311.50000000000006 18.500000000000004 13 26.500000000000004 314.00000000000006
decision_type=1 1 1 1 1 2 1 1 1 1 1 1 2 1 1 2 2 2 1 2 2
left_child=16 2 3 15 5 -4 -5 -6 9 14 13 -11 -12 -10 -3 -2 17 18 -1 -19 -18
right_child=1 8 4 6 7 -7 -8 -9 10 11 12 -13 -14 -15 -16 -17 20 19 -20 -21 -22
leaf_value=-0.10000662709605267 -0.063883622746773103 -0.059558665128441893 -0.028263500786534793 0.027381457173302221 0.020692723219911828 -0.00054003905970046752 0.002678773401661368 0.0034233007551153216 0.036381973952160702 0.012968350810184298 -0.009715059731951298 -0.0063983770450631349 0.0035454742526153209 0.013590630246620933 -0.027347648106717151 -0.015130558240585122 -0.10000662709605267 -0.10000662709605267 -0.10000662709605267 -0.10000662709605267 -0.10000662709604818
leaf_weight=349.3367748260498 587.01776227878872 282.07606917875819 2273.3807212140528 3295.237562234397 2539.8993552785832 4028.386490960198 2819.9172128919745 3077.1058361986652 564.6613524176646 1181.0431146837072 3822.6923745840322 1959.9541947962716 2069.7662802265259 1612.7816180236405 696.42979665985331 80.799483289942145 0.010592639446257546 5.0669890791177741 161.3243098706007 9.3156967610120756 0.022244542837142944
leaf_count=659584 48244 34070 222505 212582 164390 330197 218227 240740 28660 87732 389059 150789 188193 158493 79930 5637 20 9567 304597 17589 42
internal_value=0 0.0115088 0.0300682 0.0875126 -0.0025982 -0.105247 0.160131 0.112551 -0.016977 -0.0822271 0.0163107 0.00901732 -0.0504864 0.196403 -0.371418 -0.571295 -1.00007 -1.00007 -1.00007 -1.00007 -1.00007
internal_weight=0 30891.1 18701.7 6782.97 11918.8 6301.77 6115.15 5617.01 12189.4 4119.5 8069.9 3141 5892.46 2177.44 978.506 667.817 525.077 525.044 510.661 14.3827 0.0328372
internal_count=3550847 2559448 1442522 484690 957832 552702 430809 405130 1116926 352521 764405 238521 577252 187153 114000 53881 991399 991337 964181 27156 62
cat_boundaries=0 1 2 3 4 5 6 7 8 9 10 11 12 13 14
cat_threshold=2 62 2 4195864 608740 8456288 12 2 14106 6488466 64 1 24 1
shrinkage=0.1


Tree=38
num_leaves=19
num_cat=13
split_feature=4 0 2 1 5 2 5 2 2 2 1 5 3 3 2 3 0 5
split_gain=477.135 14.8202 21.2453 49.8517 38.7895 21.6102 18.601 137.024 102.962 17.4433 14.5615 23.6326 22.7888 8.03158 19.2817 8.16056 5.68434e-14 3.46945e-18
threshold=0 1.0000000180025095e-35 1 2 3 4 5 6 7 8 9 10 3.5000000000000004 2.5000000000000004 11 5.5000000000000009 314.00000000000006 12
decision_type=1 2 1 1 1 1 1 1 1 1 1 1 2 2 1 2 2 1
left_child=16 2 3 5 -5 -2 7 -4 -8 13 12 -12 -11 14 -3 -15 -1 -18
right_child=1 9 6 4 -6 -7 8 -9 -10 10 11 -13 -14 15 -16 -17 17 -19
leaf_value=-0.10000599404457966 -0.06050809864167498 0.050838531832327297 0.012831583801780505 -0.014285223804302138 0.025179965853308374 -0.0081641454513642301 0.005475120418204628 -0.024588165220655711 -0.016827007581186784 -0.00055661508723231186 -0.013091772581976699 0.0021663906330273244 0.0098439487322362282 0.0045853037110036169 0.0090933954767137247 0.019628431785349343 -0.10000599404457418 -0.10000599404457966
leaf_weight=474.8970984115731 99.468093519797549 146.73073905566707 3443.4641369521851 313.92404011136387 1205.1307100828271 321.53169712028466 4169.8088722135872 1355.6488027722226 4096.1014707320137 4813.6569135034224 1538.7540203112876 2982.8427103966824 3746.33734989597 1823.5647523375228 428.17907913215458 449.50564342667349 0.018210879992693663 0.011022374732418848
leaf_count=990951 11881 11226 272498 29916 83032 35824 317900 146172 454017 380813 124357 268517 251920 115198 33857 22981 38 23
internal_value=0 0.00992739 -0.0126247 0.0847684 0.169129 -0.216482 -0.027131 0.0223679 -0.0559024 0.0311707 0.0156714 -0.0301947 0.039906 0.10195 0.207902 0.0756012 -1.00006 -1.00006
internal_weight=0 30934.6 15005.1 1940.05 1519.05 421 13065 4799.11 8265.91 15929.6 13081.6 4521.6 8559.99 2847.98 574.91 2273.07 474.926 0.0292333
internal_count=3551121 2560109 1351240 160653 112948 47705 1190587 418670 771917 1208869 1025607 392874 632733 183262 45083 138179 991012 61
cat_boundaries=0 1 2 3 4 5 6 7 8 9 10 11 12 13
cat_threshold=2 69136 960 2 16 2 8413408 790794 6467712 124 2 2097152 2
shrinkage=0.1


Tree=39
num_leaves=18
num_cat=10
split_feature=4 7 2 3 5 3 2 1 3 6 0 2 2 2 3 3 0
split_gain=431.785 14.2778 16.2365 43.0466 36.0486 19.408 42.4211 18.419 12.7579 11.9647 10.45 15.8994 11.8702 3.63955 6.12525 4.34801 5.68434e-14
threshold=0 1 2 5.5000000000000009 3 6.5000000000000009 4 5 29.500000000000004 6 5.5000000000000009 7 8 9 7.5000000000000009 13.500000000000002 306.50000000000006
decision_type=1 1 1 2 1 2 1 1 2 1 2 1 1 1 2 2 2
left_child=16 9 3 4 -3 7 -7 -4 -5 13 12 -12 -11 14 -2 -15 -1
right_child=1 2 5 8 -6 6 -8 -9 -10 10 11 -13 -14 15 -16 -17 -18
leaf_value=-0.10000541630876746 0.0082504855146059413 -0.046400639996441201 0.0037210570975076008 -0.057846075292526361 -0.00073965168861660083 0.055209230441241368 0.0020688188916057121 -0.0060831244670658232 0.62193331083791514 0.0060585262631318469 -0.024380735442048537 0.013572043924430694 1.0008482984437236e-05 0.020507032508283229 -0.071847099720650676 0.11921715597851967 -0.10000541630876746
leaf_weight=429.76946667098673 194.37670890032314 193.39821478829253 3429.6766462108353 179.98276546073612 1631.4025429547764 184.19050923339091 680.94350493582897 4319.6642005060567 0.27650871966034074 4204.3541419893736 112.5525050557917 1272.5957850608975 14110.618765910214 425.24736951233353 10.040572744794188 4.5097082136198869 0.033823214122093215
leaf_count=991095 12156 15926 297683 16972 108875 12706 57130 398078 21 284623 9942 68680 1247274 28489 808 275 78
internal_value=0 0.00918343 -0.0205356 -0.101336 -0.0557895 -0.0016095 0.140447 -0.0174707 -0.568033 0.0247041 0.020352 0.104101 0.0140181 0.159901 0.0411495 0.21053 -1.00005
internal_weight=0 30953.8 10619.5 2005.06 1824.8 8614.47 865.134 7749.34 180.259 20334.3 19700.1 1385.15 18315 634.174 204.417 429.757 429.803
internal_count=3550811 2559638 907391 141794 124801 765597 69836 695761 16993 1652247 1610519 78622 1531897 41728 12964 28764 991173
cat_boundaries=0 1 2 3 4 5 6 7 8 9 10
cat_threshold=2 1 4980764 2 8413760 30 2 589851 8389146 4306956
shrinkage=0.1


Tree=40
num_leaves=18
num_cat=12
split_feature=4 3 2 2 2 5 2 3 0 0 1 1 5 2 5 1 0
split_gain=390.376 12.6208 132.803 86.279 84.5533 117.517 90.2034 70.9989 60.8228 51.6368 35.1305 33.4059 75.0107 50.4516 10.2351 8.08176 5.68434e-14
threshold=0 3.5000000000000004 1 2 3 4 5 6.5000000000000009 1.5000000000000002 1.5000000000000002 6 7 8 9 10 11 303.50000000000006
decision_type=1 2 1 1 1 1 1 2 2 2 1 1 1 1 1 1 2
left_child=16 4 7 8 5 6 -2 14 -4 -7 -5 12 -6 -13 -3 -9 -1
right_child=1 2 3 10 11 9 -8 15 -10 -11 -12 13 -14 -15 -16 -17 -18
leaf_value=-0.1000049177989534 0.013090115062709289 -0.050674655137772022 0.045578312746863324 -0.011337374382381325 -0.016201339477375797 -0.02111612761334504 -0.036150020728139845 -0.0089188177668920437 0.0075855367934031387 -0.0019417966271956045 0.0050493631132080049 -0.038401440912002066 0.019421089104200248 0.0034510518439303558 -0.011679385454456029 -0.085096595182169721 -0.1000049177989534
leaf_weight=388.88787989306729 3209.6454379583593 76.806987172923982 865.41069296933711 1537.3068416583119 718.07607265166007 4439.1893221575301 411.22123394603841 30.155923320446163 821.22937904344872 2054.5020292461268 8478.7907243699301 300.71129803685471 3343.4481074912474 3935.3476255846908 544.25687461066991 219.35856975521892 0.037667269818483777
leaf_count=991132 245296 6345 78813 134064 52757 469646 33718 2570 37763 191442 710812 26204 178064 329399 42722 20321 96
internal_value=0 0.0080823 0.0325049 0.0606127 -0.00859547 -0.0699384 0.0743423 -0.342099 0.269199 -0.150497 0.0252547 0.0661846 0.130908 0.00396565 -0.165019 -0.796578 -1.00005
internal_weight=0 30985.5 12573.3 11702.7 18412.1 10114.6 3620.87 870.578 1686.64 6493.69 10016.1 8297.58 4061.52 4236.06 621.064 249.514 388.926
internal_count=3551164 2559936 1033410 961452 1526526 940102 279014 71958 116576 661088 844876 586424 230821 355603 49067 22891 991228
cat_boundaries=0 1 2 3 4 5 6 7 8 9 10 11 12
cat_threshold=2 8 8388672 13125478 2 8405092 771 7 2 16 2 968
shrinkage=0.1


Tree=41
num_leaves=17
num_cat=12
split_feature=4 3 2 2 5 1 2 5 5 2 2 3 2 1 3 3
split_gain=352.817 12.8492 170.744 91.0957 37.5082 33.1916 29.451 93.3607 58.4656 233.731 64.1828 58.3864 43.4611 27.6507 5.64857 4.80869
threshold=0 5.5000000000000009 1 2 3 4 5 6 7 8 9 3.5000000000000004 10 11 7.5000000000000009 6.5000000000000009
decision_type=1 2 1 1 1 1 1 1 1 1 1 2 1 1 2 2
left_child=-1 6 13 4 -4 -5 7 12 9 -8 -10 -9 -2 15 -15 -3
right_child=1 2 3 5 -6 -7 8 11 10 -11 -12 -13 -14 14 -16 -17
leaf_value=-0.10000444307927692 0.011163627354609134 -0.058726763920268002 0.021696747425601581 -0.017202251549488286 0.065031399629174216 0.0082767499348567319 -0.056021763079270141 -0.015109257497362694 -0.0040991519822375965 0.0088114129003134967 0.013808415869363953 0.0023261171781383408 -0.0097688696906335776 0.012482177839624596 -0.045381288367697406 -0.090593236523432583
leaf_weight=351.85664893846842 4599.4799111522734 63.192283249925822 437.28625549166463 608.98743269161787 367.67624345514923 2943.8225503484719 756.9771551907761 6069.8119950720575 3064.7998313690769 2017.189927995787 5753.0890790501144 2809.7276849860209 1257.1234046405298 51.838999362662435 25.009781420230865 188.93835463281721
leaf_count=991061 328747 5406 24047 55060 28128 240854 74749 641242 227121 138632 386473 288198 98367 4554 2158 19069
internal_value=0 0.0069832 0.0552253 0.10806 0.409813 0.0387337 -0.00160451 -0.0312586 0.0360885 -0.0904956 0.0759536 -0.0959223 0.0667284 -0.628815 -0.0561795 -0.794551
internal_weight=0 31015 4686.75 4357.77 804.962 3552.81 26328.2 14736.1 11592.1 2774.17 8817.89 8879.54 5856.6 328.979 76.8488 252.131
internal_count=3553866 2562805 379276 348089 52175 295914 2183529 1356554 826975 213381 613594 929440 427114 31187 6712 24475
cat_boundaries=0 1 2 3 4 5 6 7 8 9 10 11 12
cat_threshold=2 8 8396864 2 771 5005669 2 2 1560 10553472 8288 39
shrinkage=0.1


Tree=42
num_leaves=17
num_cat=11
split_feature=4 0 2 1 3 2 2 1 2 0 0 0 5 2 2 2
split_gain=319.247 11.612 16.6612 42.2185 34.8792 17.7223 12.4624 18.0164 15.8125 12.757 9.99139 21.0277 9.37986 95.2123 66.2078 8.34288
threshold=0 1.0000000180025095e-35 1 2 2.5000000000000004 3 4 5 6 81.500000000000014 242.50000000000003 290.50000000000006 7 8 9 10
decision_type=1 2 1 1 2 1 1 1 1 2 2 2 1 1 1 1
left_child=-1 2 3 5 -5 -2 10 8 -8 -9 15 -12 13 -4 -14 -3
right_child=1 6 12 4 -6 -7 7 9 -10 -11 11 -13 14 -15 -16 -17
leaf_value=-0.10000402249444121 -0.057058869899196389 -0.05358776465901563 -0.061976761857360077 -0.0015785611739335818 0.027972138710679897 -0.0089651903398591595 0.0065043062841181054 0.0052510539696397169 -0.028541999630134381 -0.017581715222230128 0.46167280377782882 -0.048618930068786294 0.0038527602207437334 0.003882737657239164 -0.014249318394665176 -0.0024553130607313568
leaf_weight=318.46910595812369 90.945612315787002 22.271715975890402 220.4102660624776 727.00975113303866 886.42752799089067 372.72387363971211 217.77105330466293 11746.646275539999 303.71165300905704 249.90380343561992 1.4192856652662151 1.8734423723071811 4230.3049171222374 4631.6591660830891 3854.5764983192785 3473.6680821880582
leaf_count=991356 11237 2855 18934 55126 64146 40808 21314 865755 28949 13523 100 113 324263 397393 435838 279267
internal_value=0 0.00630509 -0.0136751 0.0692663 0.145664 -0.194039 0.0250338 0.0397637 -0.140597 0.0477144 -0.0276947 1.71335 -0.0270245 0.00771271 -0.0479051 -0.0294137
internal_weight=0 31031.3 15014.1 2077.11 1613.44 463.669 16017.3 12518 521.483 11996.6 3499.23 3.29273 12937 4852.07 8084.88 3495.94
internal_count=3550977 2559621 1347745 171317 119272 52045 1211876 929541 50263 879278 282335 213 1176428 416327 760101 282122
cat_boundaries=0 1 2 3 4 5 6 7 8 9 10 11
cat_threshold=2 8982032 960 16 609813 513 2531464 2 4194312 266506 524288
shrinkage=0.1


Tree=43
num_leaves=18
num_cat=12
split_feature=4 0 0 2 2 5 3 2 2 1 1 2 2 7 2 0 0
split_gain=288.988 11.55 14.2864 20.5165 12.492 17.6808 10.9455 145.175 64.997 38.278 27.5589 125.427 52.2169 7.17968 5.31158 4.59762 5.68434e-14
threshold=0 6.5000000000000009 34.500000000000007 1 2 3 5.5000000000000009 4 5 6 7 8 9 10 11 158.50000000000003 318.50000000000006
decision_type=1 2 2 1 1 1 2 1 1 1 1 1 1 1 1 2 2
left_child=16 6 3 13 5 -4 10 9 -9 -8 11 -2 -12 -3 -5 -6 -1
right_child=1 2 4 14 15 -7 7 8 -10 -11 12 -13 -14 -15 -16 -17 -18
leaf_value=-0.10000363451916112 -0.021395914197162403 0.0070517461072594481 -0.029671840446200561 -0.025278911557543256 -0.024406884498716652 0.039938552270619682 -0.074043054661601881 0.036972110370313102 0.0044216576176438196 -0.0095367120265921132 -0.0090112401643232861 0.010561199826170906 0.0020601294373842186 0.045479146705316657 0.0081976451947428208 0.015156462930982129 -0.10000363451916112
leaf_weight=288.25422086875187 1520.7545673554414 61.290933646960184 55.886318161850795 40.583782686502673 254.85844543809071 105.12327077845111 261.15568691724911 754.98877036687918 3143.7579766475828 159.24718384700827 7742.2031108046649 6212.2560982966097 9453.4205320316833 235.20312920713332 1009.0983438903932 33.199152002111077 0.012208409956655395
leaf_count=991667 119100 3316 2698 4594 13457 7787 24769 49515 271377 16347 754960 404122 816593 11636 57053 1874 42
internal_value=0 0.00585187 0.0837082 0.135232 -0.0707444 0.148543 0.00107302 0.0475483 0.108035 -0.503976 -0.00697932 0.0425708 -0.0292701 0.363108 0.0667701 -0.191813 -1.00004
internal_weight=0 31043 1795.24 1346.18 449.067 161.01 29247.8 4319.15 3898.75 420.403 24928.6 7733.01 17195.6 296.494 1049.68 288.058 288.266
internal_count=3550907 2559198 102415 76599 25816 10485 2456783 362008 320892 41116 2094775 523222 1571553 14952 61647 15331 991709
cat_boundaries=0 1 2 3 4 5 6 7 8 9 10 11 12
cat_threshold=2 4214821 8404892 2 24 8396864 7 7 4461476 9003101 2 589826
shrinkage=0.1


Tree=44
num_leaves=17
num_cat=11
split_feature=4 6 7 2 2 1 3 1 0 3 3 2 2 0 1 5
split_gain=260.702 11.3629 12.9422 12.7781 11.7403 15.6074 10.2331 8.54815 9.04246 8.29617 7.84539 14.0224 9.01733 7.03467 6.28048 3.47326
threshold=0 1 2 3 4 5 5.5000000000000009 6 9.5000000000000018 8.5000000000000018 1.5000000000000002 7 8 220.00000000000003 9 10
decision_type=1 1 1 1 1 1 2 1 2 2 2 1 1 2 1 1
left_child=-1 3 10 9 6 -6 -4 8 -5 14 11 -3 -12 -9 -2 -11
right_child=1 2 4 7 5 -7 -8 13 -10 15 12 -13 -14 -15 -16 -17
leaf_value=-0.10000328643323844 0.0086463396504503753 0.014196453928876255 -0.0025319888263707897 0.017385676740064797 0.00013208346742913719 -0.014422937089869223 0.0077246622697311491 0.0041317778322087564 0.055018758275342389 -0.026595408279196014 0.0060066369018243523 -0.019866221378270099 0.00066736591125023191 0.21632940303946949 -0.014971886596667381 -0.10083617445860343
leaf_weight=260.5436835133296 222.00938789057545 164.00394553970546 5318.8938418810721 605.31227896013297 1292.1366173358401 1720.7108930071699 1190.4508524332196 619.50095230451552 71.376739718369208 13.238859208766371 3983.4360438900767 404.64043571840739 15254.185613605601 1.5662446613423515 209.88959385734051 12.025874550454319
leaf_count=990601 12283 16274 492180 45081 86722 147804 96171 42881 3132 930 260199 30866 1307872 70 16678 1820
internal_value=0 0.00445375 -0.000223222 0.0826159 -0.0305198 -0.0820086 -0.00655211 0.132665 0.210442 -0.061025 0.0143423 -0.101418 0.0177641 0.0459296 -0.0297785 -0.619336
internal_weight=0 31083.4 29328.5 1754.92 9522.19 3012.85 6509.34 1297.76 676.689 457.164 19806.3 568.644 19237.6 621.067 431.899 25.2647
internal_count=3551564 2560963 2438088 122875 822877 234526 588351 91164 48213 31711 1615211 47140 1568071 42951 28961 2750
cat_boundaries=0 1 2 3 4 5 6 7 8 9 10 11
cat_threshold=2 2 1 6296585 2340321 13 212 4342368 12583448 58 2
shrinkage=0.1


Tree=45
num_leaves=23
num_cat=14
split_feature=4 0 2 3 1 5 2 3 8 1 2 1 1 1 6 3 0 0 8 0 0 5
split_gain=235.888 9.11797 12.5248 41.5012 52.6616 36.6213 11.002 9.30279 9.29943 8.94121 8.41708 8.49454 6.54392 5.35045 3.36241 0.744939 2.84217e-14 2.84217e-14 2.84217e-14 1.42109e-14 1.38778e-17 1.38778e-17
threshold=0 1.0000000180025095e-35 1 2.5000000000000004 2 3 4 1.5000000000000002 5 6 7 8 9 10 11 4.5000000000000009 314.00000000000006 1.5000000000000002 12 197.50000000000003 308.50000000000006 13
decision_type=1 2 1 2 1 1 1 2 1 1 1 1 1 1 1 2 2 2 1 2 2 1
left_child=16 2 3 4 -2 -5 7 12 15 -10 14 -12 -3 -9 -8 -4 17 18 21 -19 -21 -1
right_child=1 6 8 5 -6 -7 10 13 9 -11 11 -13 -14 -15 -16 -17 -18 19 -20 20 -22 -23
leaf_value=-0.10000297779973762 0.029344640344342088 0.0054068651752097003 -0.10197234945975814 -0.0071605631838749769 -0.025471543577258976 0.032271254888720617 0.27835245202544251 0.012509918689048719 -0.0057246195148729986 -0.00034319733456424951 -0.00680054920689369 0.0017200268191122003 -0.033335181428642606 0.0040805091478330327 -0.0806620349190003 -0.049816770694489101 -0.10000297779973864 -0.10000297779973864 -0.10000297779973864 -0.10000297779973864 -0.10000297779972628 -0.10000297779973466
leaf_weight=0.098288720488199047 234.76560255349614 82.556514669326134 9.2583437124267203 350.80948844715022 615.78447867132491 716.71546173037495 0.26421996764838696 1597.7146818151232 4988.1361645741272 8093.7591276796884 1292.3434883072041 11527.294445679057 83.685158840497024 1479.8024633273017 20.587431418884083 3.8888241224922249 0.01094741196720761 76.824415428753127 158.75508457855904 0.071872139436890303 0.0080915653670672327 0.02522664496791549
leaf_count=413 12317 5737 672 33235 55406 46395 29 99588 479249 718433 97055 905998 6261 96550 2852 344 46 322809 667074 302 34 106
internal_value=0 0.00395481 -0.0137688 0.061513 -0.102959 0.193132 0.0204981 0.0724361 -0.0248236 -0.0239978 0.00731546 0.00856439 -0.157757 0.085106 -0.514422 -0.865452 -1.00003 -1.00003 -1.00003 -1.00003 -1.00003 -1.00003
internal_weight=0 31097.4 15013.1 1918.08 850.55 1067.52 16084.2 3243.76 13095 13081.9 12840.5 12819.6 166.242 3077.52 20.8517 13.1472 235.794 235.783 158.879 76.9044 0.0799637 0.123515
internal_count=3550905 2560121 1346051 147353 67723 79630 1214070 208136 1198698 1197682 1005934 1003053 11998 196138 2881 1016 990784 990738 667593 323145 336 519
cat_boundaries=0 1 2 3 4 5 6 7 8 9 10 11 12 13 14
cat_threshold=2 8456720 513 2 14856320 2 329 524288 515 866 90 2 2 2
shrinkage=0.1


Tree=46
num_leaves=17
num_cat=12
split_feature=4 7 2 1 3 2 6 2 6 0 2 2 2 1 3 3
split_gain=213.514 9.31566 13.0012 16.0334 15.4947 15.8233 11.8922 11.3254 7.39789 6.6418 13.124 11.0971 4.76603 2.86264 12.6113 4.10626
threshold=0 1 2 3 2.5000000000000004 4 5 6 7 2.5000000000000004 8 9 10 11 12.500000000000002 11.500000000000002
decision_type=1 1 1 1 2 1 1 1 1 2 1 1 1 1 2 2
left_child=-1 8 4 12 7 -6 -5 -3 13 11 -11 -10 -4 14 -2 -15
right_child=1 2 3 6 5 -7 -8 -9 9 10 -12 -13 -14 15 -16 -17
leaf_value=-0.1000026962968289 0.017910864971580811 0.0037134195430167101 0.036177377870467126 0.012241639948555608 0.0078405973888786458 -0.023108593592152702 -0.00071684185395607823 -0.02172309940446358 0.0053319213635983059 0.015312514521638119 0.00158555822100107 -0.00099300998367927149 -0.028822124947999253 0.0073727829584011532 0.20790126367270326 -0.07204658780224453
leaf_weight=213.40182484494289 274.41006988717709 969.96479457226815 5.4006283648777753 783.71973908576183 202.49430326581933 877.22168339410564 7348.85759463266 203.13623590546194 3543.9456330138491 928.40975335089024 2733.7313099398161 12630.821379862493 222.19964855117723 370.57917603035457 3.5388487773016086 6.6266084234230211
leaf_count=990998 15996 54552 489 57312 13174 83172 655792 13243 223776 65050 163949 1165261 22475 25334 209 504
internal_value=0 0.00366033 -0.0203869 -0.00216159 -0.0876223 -0.174457 0.00531287 -0.00844735 0.0161146 0.0126616 0.051117 0.00395486 -0.258221 0.120665 0.196238 0.058232
internal_weight=0 31105.1 10613 8360.18 2252.82 1079.72 8132.58 1173.1 20492.1 19836.9 3662.14 16174.8 227.6 655.155 277.949 377.206
internal_count=3551286 2560288 900209 736068 164141 96346 713104 67795 1660079 1618036 228999 1389037 22964 42043 16205 25838
cat_boundaries=0 1 2 3 4 5 6 7 8 9 10 11 12
cat_threshold=2 1 6815773 513 17 2 2097164 2 12789126 536 8683520 26
shrinkage=0.1


Tree=47
num_leaves=17
num_cat=13
split_feature=4 1 5 2 2 3 2 5 2 2 2 3 2 2 2 3
split_gain=193.512 8.02017 64.993 47.9696 45.4368 32.9602 61.484 19.6853 199.9 75.8379 18.004 16.9475 12.4201 9.53634 6.86782 4.45296
threshold=0 1 2 3 4 8.5000000000000018 5 6 7 8 9 9.5000000000000018 10 11 12 4.5000000000000009
decision_type=1 1 1 1 1 2 1 1 1 1 1 2 1 1 1 2
left_child=-1 2 3 13 15 7 14 8 -3 -9 -8 -6 -5 -2 -7 -4
right_child=1 5 4 12 11 6 10 9 -10 -11 -12 -13 -14 -15 -16 -17
leaf_value=-0.10000244214232493 -0.015628270682080007 -0.04913166196837862 0.02366942028767521 -0.057740476193076623 -0.0004886863549478824 -0.055225496406819535 0.059905495822634304 -0.0097091048047900034 0.0092414516017120651 0.004857347574041132 0.022190912746996225 -0.038306305940346078 -0.02698559246821583 -0.00086914281958155133 -0.0086721755454732367 0.012246958114396815
leaf_weight=193.23256420147663 699.11472715320997 627.69003448053263 880.90637210430577 213.86901013250463 3684.7700797410216 79.426062906160951 196.85497168917209 6406.2390463507618 7340.6933953288244 8060.3981500568334 454.71040365681984 122.43701519188471 541.46901102899574 1160.7755115253967 72.693349877372384 557.15757797472179
leaf_count=991707 57683 59168 54459 25705 371133 7965 10331 569181 514171 642987 34978 11765 54601 84585 4819 55744
internal_value=0 0.00380359 -0.0237909 -0.152598 0.0403854 0.013142 0.212128 0.00601965 0.0459319 -0.0159645 0.343188 -0.0170041 -0.363343 -0.0647087 -0.348862 0.191111
internal_weight=0 31099.2 7860.5 2615.23 5245.27 23238.7 803.685 22435 7968.38 14466.6 651.565 3807.21 755.338 1859.89 152.119 1438.06
internal_count=3550982 2559275 715675 222574 493101 1843600 58093 1785507 573339 1212168 45309 382898 80306 142268 12784 110203
cat_boundaries=0 1 2 3 4 5 6 7 8 9 10 11 12 13
cat_threshold=2 897 2 11370725 131474 89114 2 1564 4999392 4465344 4120 2162753 10
shrinkage=0.1


Tree=48
num_leaves=17
num_cat=7
split_feature=4 8 0 2 3 3 2 5 0 2 5 0 0 3 3 0
split_gain=174.818 7.91436 7.82361 10.8018 26.0564 21.342 8.87337 11.7961 9.38666 4.83821 5.70739 8.11816 2.38079 0.51002 8.33232e-06 2.84217e-14
threshold=0 1 1.0000000180025095e-35 2 1.5000000000000002 8.5000000000000018 3 4 81.500000000000014 5 6 3.5000000000000004 8.5000000000000018 3.5000000000000004 3.5000000000000004 314.00000000000006
decision_type=1 1 2 1 2 2 1 1 2 1 1 2 2 2 2 2
left_child=15 9 3 4 -3 -5 8 -8 -4 10 14 -12 13 -11 -2 -1
right_child=1 2 6 5 -6 -7 7 -9 -10 12 11 -13 -14 -15 -16 -17
leaf_value=-0.10000220375324764 -0.10102578189107576 -0.042923600667710268 0.0039482642211343235 -0.006564052688244915 0.0011511672806736931 0.026941840495719207 -0.0083994579844495973 0.0017638695665885007 -0.016412512739448867 -0.094969072013868561 0.053097648204093406 0.45652499576333982 0.17698735136361793 -0.066743689206866005 -0.10141492475438954 -0.10000220375324764
leaf_weight=174.74394705027225 1.0801049438305201 135.95220528438222 10627.230889556464 4633.7549070181558 10022.598343728343 198.23782649636269 1682.4940911948215 3554.921272919164 231.3532123407349 14.406486324500298 7.0385879655368626 0.53684499673545349 0.35867541609331866 11.521929506212471 1.1216156817972658 0.0077574882889156465
leaf_count=991137 111 10522 750473 440387 876325 17355 144049 305988 12600 1044 297 28 25 941 112 44
internal_value=0 0.00297194 0.0035151 -0.0129236 0.00560761 -0.0517872 0.0188248 -0.0149819 0.0351122 -0.465213 0.200205 0.816872 -0.571472 -0.824264 -1.01224 -1.00002
internal_weight=0 31122.6 31086.5 14990.5 10158.6 4831.99 16096 5237.42 10858.6 36.0642 9.77715 7.57543 26.2871 25.9284 2.20172 174.752
internal_count=3551438 2560257 2557699 1344589 886847 457742 1213110 450037 763073 2558 548 325 2010 1985 223 991181
cat_boundaries=0 1 2 3 4 5 6 7
cat_threshold=2 2 8986456 14856426 2 4240 2
shrinkage=0.1


Tree=49
num_leaves=19
num_cat=10
split_feature=4 0 0 2 2 3 1 5 2 2 3 2 2 3 0 2 0 0
split_gain=158.261 7.96009 10.5464 15.1738 9.87287 20.1436 7.56108 52.8377 43.6311 37.5567 30.0583 66.8864 24.5661 6.21219 4.86734 4.39106 2.84217e-14 2.84217e-14
threshold=0 6.5000000000000009 34.500000000000007 1 2 2.5000000000000004 3 4 5 6 5.5000000000000009 7 8 15.500000000000002 156.50000000000003 9 318.50000000000006 1.5000000000000002
decision_type=1 2 2 1 1 2 1 1 1 1 2 1 1 2 2 1 2 2
left_child=16 6 3 13 5 -4 7 8 -2 -9 12 -12 -8 -3 -6 -5 17 -1
right_child=1 2 4 15 14 -7 10 9 -10 -11 11 -13 -14 -15 -16 -17 -18 -19
