tree
version=v3
num_class=1
num_tree_per_iteration=1
label_index=0
max_feature_idx=9
objective=cross_entropy
feature_names=pat_remoteness cc_diabetes_complications cc_diabetes gender count_proc adm_past_year an100mdc_ra agegroup_rm flag_emergency indstat_flag
feature_infos=1:0:2:3 1:0 1:0 1:0 [0:50] [0:340] 6:5:8:14:1:4:11:3:21:23:9:19:2:13:7:10:18:20:12:16:22:15:0:24:17 3:6:7:2:5:4:8:0:1:9 1:0 1:0
tree_sizes=3448 3411 2966 2826 2939 2931 3305 3270 3483 3506 3462 3469 3458 3439 3498 3490 3457 3238 3463 3468 3506 3484 3490

Tree=0
num_leaves=32
num_cat=13
split_feature=6 8 3 4 0 5 5 5 5 5 6 4 5 5 5 7 7 6 5 4 5 8 5 4 8 4 8 5 4 0 3
split_gain=2648.64 1401.7 324.836 451.629 532.703 413.235 196.48 238.194 96.8812 51.796 38.2299 35.4485 128.593 203.391 57.3701 29.093 17.473 17.1896 15.1667 27.0559 13.5055 14.976 13.0338 12.4697 6.05886 3.75414 3.29769 2.89521 1.70852 0.907589 0.547301
threshold=0 1 2 1.0000000180025095e-35 3 300.50000000000006 262.50000000000006 300.50000000000006 3.5000000000000004 2.5000000000000004 4 1.0000000180025095e-35 143.50000000000003 155.50000000000003 12.500000000000002 5 6 7 1.5000000000000002 1.5000000000000002 8.5000000000000018 8 106.50000000000001 1.0000000180025095e-35 9 1.5000000000000002 10 4.5000000000000009 1.0000000180025095e-35 11 12
decision_type=1 1 1 2 1 2 2 2 2 2 1 2 2 2 2 1 1 1 2 2 2 1 2 2 1 2 1 2 2 1 1
left_child=1 2 6 4 -4 -5 8 -8 -1 15 20 12 14 -14 -3 17 22 26 25 -20 27 -22 -12 -19 -18 -13 -2 -11 29 -17 -30
right_child=9 11 3 5 -6 -7 7 -9 -10 10 16 18 13 -15 -16 28 24 23 19 -21 21 -23 -24 -25 -26 -27 -28 -29 30 -31 -32
leaf_value=-8.7039577439865283 -9.1539518049701805 -8.7838789007069131 -8.3168503205573856 -8.6491050109492882 -7.3231920420362231 33.21711972409733 35.337691315903413 -9.1943121120241802 -8.3244069471711928 -9.083755081360458 -9.0613770047938154 -8.9316897210594401 25.061075140214815 -9.1943121120241962 -5.4599722019255417 -9.1770878215962455 -9.1308564168147441 -9.0893535401989141 -9.1657439804948844 -8.9213034468386869 -8.8860754963631035 -9.0957267288626156 -8.5130473986953934 -9.1362035478745938 -9.170941988840438 -9.1150660790669065 -9.1806412757663818 -9.0306316289517099 -9.1879276945643333 -9.1623253865161498 -9.1790886282356876
leaf_weight=53.02287814180454 109.01800072168407 1.7055149975203661 18.348377212954802 21.459735086311415 7.6424811939577948 0.0023578548352806141 0.0022455760336005373 0.0025824124386417679 7.701988958848232 27.135316232437617 27.833128984879298 1.1423245282931009 0.0029192488436821087 0.004266594463842921 0.053556988401396777 139.33810516377707 91.402354968493455 88.606388249056181 7.0008078423561555 12.820105854632855 10.381634839744947 5.0717457506907495 0.44035746018926047 158.32433824907639 64.184513816820981 49.213819794807932 80.463255878406926 16.495552427630173 187.95763326129236 59.399640404422826 111.66957690216077
leaf_count=472243 970958 15190 163418 191129 68067 21 20 23 68597 241678 247893 10174 26 38 477 1241001 814066 789164 62352 114181 92463 45171 3922 1410100 571653 438318 716638 146916 1674026 529037 994574
internal_value=0 3.46535 5.93261 7.89291 10.6963 4.49795 4.40087 206.125 4.38483 -0.554721 -0.148066 0.236973 4.66158 138.162 4.11622 -0.666343 -0.365629 -0.440089 0.125612 0.866603 0.505312 1.39419 0.306304 -0.241148 -0.498858 -0.166053 -0.674262 0.306302 -0.838809 -0.783747 -0.903325
internal_weight=0 180.126 108.183 47.453 25.9909 21.4621 60.7297 0.00482799 60.7249 1177.72 242.945 71.9433 1.76626 0.00718584 1.75907 934.777 183.86 436.412 70.1771 19.8209 59.0842 15.4534 28.2735 246.931 155.587 50.3561 189.481 43.6309 498.365 198.738 299.627
internal_count=12093534 1604274 963518 422635 231485 191150 540883 43 540840 10489260 2163762 640756 15731 64 15667 8325498 1637534 3886860 625025 176533 526228 137634 251815 2199264 1385719 448492 1687596 388594 4438638 1770038 2668600
cat_boundaries=0 1 2 3 4 5 6 7 8 9 10 11 12 13
cat_threshold=64 2 2 1 1320096 992 768 533262 2 2 2 1 2
shrinkage=1


Tree=1
num_leaves=32
num_cat=19
split_feature=5 8 0 5 3 3 5 3 6 5 4 8 2 8 7 6 0 5 7 6 5 5 5 3 9 4 1 5 4 0 0
split_gain=5345.08 3727.52 1305.57 2410.01 4691.08 3274.62 1370.98 2264.79 1223.71 893.215 2423.83 233438 711.894 309.881 369.134 50.5395 27.7943 27.1548 18.7304 16.4978 13.0409 11.825 6.99002 4.00935 3.07988e-12 2.03715e-12 1.44556e-12 2.92169e-13 6.86881e-14 2.47753e-14 7.06206e-15
threshold=266.50000000000006 0 1 303.00000000000006 2 3 284.00000000000006 4 5 144.50000000000003 1.0000000180025095e-35 6 7 8 9 10 11 2.5000000000000004 12 13 2.5000000000000004 1.5000000000000002 154.50000000000003 14 15 1.0000000180025095e-35 16 324.50000000000006 1.5000000000000002 17 18
decision_type=2 1 1 2 1 1 2 1 1 2 2 1 1 1 1 1 1 2 1 1 2 2 2 1 1 2 1 2 2 1 1
left_child=8 2 3 4 -2 -5 7 -4 9 13 11 -11 -8 14 -1 20 -12 18 -17 -19 23 -15 -22 -10 28 26 -26 -27 29 -3 -30
right_child=1 24 6 5 -6 -7 12 -9 15 10 16 -13 -14 21 -16 17 -18 19 -20 -21 22 -23 -24 -25 25 27 -28 -29 30 -31 -32
leaf_value=0.38636836416018649 -71.417199751414444 -0.10001066700488369 -81.606047741802783 -0.1000132223064471 -4.7725427846521873 -82.569655375777174 -37.688254399435479 -0.10002885091343557 -0.088797035165777458 0.45990388581201291 2.8724096197662634 -946.54174482535529 -6.0885498493483858 -0.01201350752626943 0.096798063734502171 -0.021786664835936352 -0.10001818167479214 0.048953508910062941 -0.06917027539991269 -0.018287536647851217 -0.044581192777629577 0.072697570045535884 0.35506768573791048 -0.069943102849929509 -0.10001228137062078 -0.10001181129528469 -0.10001525801107192 -0.1000110418520509 -0.10001091282167868 -0.10001088056203862 -0.10001105994102505
leaf_weight=96.703356948099128 0.014021865696126843 0.017784445815777872 0.0073614181019392433 0.0067209426561021246 0.042803383970757121 0.016975943966883511 0.0079812201729623222 0.0063498814997728914 303.2112968923758 0.17858877146500207 0.033642518326814752 0.0026414726954712133 0.066794384452810496 51.137707738511445 116.00048172894455 236.7278210883087 0.48450248616427416 50.417465572470974 155.3726844218038 84.221509916889772 104.63715567324834 24.313392034191899 0.43948213905969064 179.59708976430545 0.0037213436080492097 0.067796418545185588 0.00290513603240694 0.0053225509327603495 0.0051092551802867092 0.0078213172673713416 0.0090355244319653139
leaf_count=433572 115 167 64 53 303 138 64 40 2934160 542 185 51 460 458882 527717 2161078 2910 421706 1503879 767967 968386 180255 3563 1726381 32 593 21 49 47 72 82
internal_value=0 -136.18 -231.757 -323.893 -212.174 -591.795 -147.915 -438.595 -0.052496 1.74689 -33.8867 -133.429 -94.6136 1.894 2.51163 -0.529726 0.929779 -0.290265 -0.428825 0.0916947 -0.735838 0.152838 -0.429097 -0.817837 -1.00012 -1.00012 -1.00014 -1.00012 -1.00011 -1.00011 -1.00011
internal_weight=0 0.288505 0.169009 0.0805221 0.0568252 0.0236969 0.0884869 0.0137113 1403.48 288.854 0.699375 0.18123 0.0747756 288.155 212.704 1114.62 0.518145 526.739 392.101 134.639 587.885 75.4511 105.077 482.808 0.119496 0.0797454 0.00662648 0.073119 0.0397505 0.0256058 0.0141448
internal_count=12093534 2300 1237 609 418 191 628 104 12091234 1604114 3688 593 524 1600426 961289 10487120 3095 4854630 3664957 1189673 5632490 639137 971949 4660541 1063 695 53 642 368 239 129
cat_boundaries=0 1 2 3 4 5 6 7 8 9 10 11 12 13 14 15 16 17 18 19
cat_threshold=2 1 2 2 2 64 2 2 2 992 553742 4 992 1310880 2 2 2 8 1
shrinkage=0.1


Tree=2
num_leaves=27
num_cat=11
split_feature=6 5 5 0 7 8 8 5 7 5 4 6 4 4 5 7 4 5 4 4 5 5 3 6 5 3
split_gain=930.897 675.79 15769.1 525.535 171.716 104.63 62.5525 66.3358 38.7152 27.1272 22.5888 20.7844 13.7113 12.0088 11.4599 10.4441 14.6045 9.74411 9.22245 7.03618 6.77934 37.7533 4.64204 2.8942 2.35425 1.2897
threshold=0 284.00000000000006 303.00000000000006 1 2 3 4 3.5000000000000004 5 5.5000000000000009 1.5000000000000002 6 1.0000000180025095e-35 1.0000000180025095e-35 1.0000000180025095e-35 7 1.0000000180025095e-35 1.5000000000000002 3.5000000000000004 1.0000000180025095e-35 31.500000000000004 32.500000000000007 8 9 1.5000000000000002 10
decision_type=1 2 2 1 1 1 1 2 1 2 2 1 2 2 2 1 2 2 2 2 2 2 1 1 2 1
left_child=1 4 -3 -4 5 10 17 -8 12 15 -1 13 14 -11 25 16 -10 -6 -13 -7 23 -22 -16 -14 -17 -2
right_child=8 2 3 -5 6 19 7 -9 9 11 -12 18 20 -15 22 24 -18 -19 -20 -21 21 -23 -24 -25 -26 -27
leaf_value=0.36306666054609726 0.016436197697827021 -328.52937147794705 49.577370773741777 -2.9750842913420055 -0.021009635300778973 0.31517232931210398 0.091897810104887276 0.25354444358704092 -0.018812104257328661 0.14281546576228393 0.24268727463199197 -0.064112764805578024 -0.042516775024722432 0.017279483970780378 0.051638252248386599 -0.084459026362131456 -0.063518101227264215 0.058002224744147873 0.089460622089666458 0.03689430596655062 4.1948970443961118 0.13204896301306587 0.14114008528694297 -0.0051303371469650924 -0.066052819722309405 -0.04357366590118314
leaf_weight=52.470921277961111 6.0113237049008585 0.0015223973831784967 0.002012988545175177 0.034794929283269438 46.834670033487697 0.9630678794832076 185.48201095048725 29.413009421808624 105.91315614320774 10.707157287504399 22.175942485926498 52.928472916669307 36.963614946216694 26.42992939774831 12.528904114817294 372.97814140948344 235.66755937979178 23.410174941200239 4.2222814901473376 16.069303515971114 0.023283382564840305 1.2927371001315746 10.781611159525227 58.508434460985882 85.401438981491083 8.8594542755308776
leaf_count=160579 56342 67 40 41 430247 4364 774567 102801 993314 85613 98109 516417 361266 228651 114083 3912763 2321585 167445 40738 136559 204 8592 96662 548152 850000 84333
internal_value=0 1.28475 -131.455 -1.01043 1.33235 2.49104 0.84288 1.14023 -0.532441 -0.60972 3.27305 -0.109221 -0.0136846 0.421291 0.492768 -0.676333 -0.482438 0.0532228 -0.449088 0.526291 -0.214886 2.0393 0.930348 -0.245958 -0.792997 -0.193154
internal_weight=0 376.857 0.0383303 0.0368079 376.819 91.6792 285.14 214.895 1029.22 894.248 74.6469 94.2878 134.969 37.1371 38.1813 799.96 341.581 70.2448 57.1508 17.0324 96.7881 1.31602 23.3105 95.472 458.38 14.8708
internal_count=12093534 1874819 148 81 1874671 399611 1475060 877368 10218715 8949081 258688 871419 1269634 314264 351420 8077662 3314899 597692 557155 140923 918214 8796 210745 909418 4762763 140675
cat_boundaries=0 1 2 3 4 5 6 7 8 9 10 11
cat_threshold=192 1 896 2 1 768 1320240 224 2 10487310 1
shrinkage=0.1


Tree=3
num_leaves=26
num_cat=13
split_feature=6 5 4 5 0 5 0 8 7 6 5 5 7 5 6 4 4 5 4 3 4 0 1 8 0
split_gain=643.25 294.456 467.755 489.022 457.252 200.121 541.198 89.1842 73.8432 47.233 22.8187 20.78 16.6412 12.8894 10.9893 9.03898 7.24413 7.19556 10.6981 4.41855 3.96741 2.1818e-12 2.21518e-12 1.59085e-12 4.97274e-13
threshold=0 303.00000000000006 1.5000000000000002 312.50000000000006 1 303.00000000000006 2 3 4 5 116.50000000000001 2.5000000000000004 6 2.5000000000000004 7 1.5000000000000002 1.0000000180025095e-35 1.5000000000000002 1.5000000000000002 8 1.5000000000000002 9 10 11 12
decision_type=1 2 2 2 1 2 1 1 1 1 2 2 1 2 1 2 2 2 2 1 2 1 1 1 1
left_child=5 9 21 4 -4 7 -7 8 10 13 -1 12 -11 19 -13 -10 -15 20 -19 -2 -9 22 -3 -23 -5
right_child=1 2 3 24 -6 6 -8 17 15 11 -12 14 -14 16 -16 -17 -18 18 -20 -21 -22 23 -24 -25 -26
leaf_value=0.034066875864365784 -0.086865880812590529 -0.10001155449196655 -42.709447111526828 -0.10001174245538547 -0.10001134573654261 -0.60328294228602608 -55.248195170321139 0.10183718867753754 0.17471675524790473 -0.01833590015587935 2.4442184807459477 0.038416034207550458 -0.064788830540828513 0.0079901676195974925 -0.015645763179998478 0.12931466040439615 -0.05444439415238405 -0.025524697710917921 0.1015011366728632 -0.06559658710203134 -0.017279439811072651 -0.10001060427830995 -0.10001506320144733 -0.1000132747429487 -0.10001011541575795
leaf_weight=81.2808363335499 258.69388378294491 0.0053089190036530445 0.009387592086568473 0.0028823007289133784 0.0034419143564718988 3.7030050158500631 0.0018132978206643047 2.9724747919537426 184.15105166913847 226.30477719271585 0.039301849770707935 55.014996278642485 134.80603525092033 24.999880170547272 81.2659354842543 57.554623045358767 72.411653703983347 10.723916082389907 17.368170043409918 156.9196425153267 47.140546922935755 0.023505446282851561 0.0027218642687216743 0.0024646848647780209 0.0053934929644583454
leaf_count=299015 2934160 103 136 61 63 33 36 20564 462163 2161078 77 422221 1503879 245117 768457 202214 727004 67685 114169 1726381 438318 229 84 200 87
internal_value=0 -0.48564 -73.5872 -190.526 -312.781 0.991121 -6.30029 1.08315 1.31513 -0.48646 0.313737 -0.249215 -0.379791 -0.698011 0.0784918 1.57394 -0.384211 0.124968 0.530101 -0.788354 -0.10214 -1.00011 -1.00013 -1.00011 -1.00011
internal_weight=0 1010.47 0.0551062 0.0211053 0.0128295 404.936 3.70482 401.231 323.026 1010.42 81.3201 497.392 361.111 513.025 136.281 241.706 97.4115 78.2051 28.0921 415.614 50.113 0.0340009 0.00803078 0.0259701 0.00827579
internal_count=12093534 10489260 963 347 199 1604274 69 1604205 963469 10488297 299092 4855635 3664957 5632662 1190678 664377 972121 640736 181854 4660541 458882 616 187 429 148
cat_boundaries=0 1 2 3 4 5 6 7 8 9 10 11 12 13
cat_threshold=64 1 1 2 7 553742 992 1310880 2 2 2 1 2
shrinkage=0.1


Tree=4
num_leaves=27
num_cat=13
split_feature=6 5 3 7 7 4 8 5 8 5 3 8 8 5 5 6 3 5 1 5 4 5 5 4 3 4
split_gain=505.467 141.412 332.597 58.5811 35.2 26.1528 24.8903 24.5641 23.8879 18.6817 12.4243 11.912 11.5758 8.68039 8.07363 7.94932 6.78475 6.09355 5.99805 5.32303 5.19865 4.74659 2.38626 5.60758 1.45657 1.04003
threshold=0 303.00000000000006 1 2 3 1.0000000180025095e-35 4 3.5000000000000004 5 5.5000000000000009 6 7 8 1.5000000000000002 5.5000000000000009 9 10 1.5000000000000002 11 147.50000000000003 3.5000000000000004 8.5000000000000018 1.5000000000000002 7.5000000000000009 12 1.5000000000000002
decision_type=1 2 1 1 1 2 1 2 1 2 1 1 1 2 2 1 1 2 1 2 2 2 2 2 1 2
left_child=1 3 -3 8 5 13 7 -5 10 22 -1 14 21 15 -7 -2 -15 -8 -4 -13 -10 -11 24 -24 -6 -14
right_child=4 2 18 6 9 11 17 -9 20 12 -12 19 25 16 -16 -17 -18 -19 -20 -21 -22 -23 23 -25 -26 -27
leaf_value=0.19827117880960848 -0.050820013886057169 -3.9907021349661704 -0.16849237226516461 0.057196616248572196 -0.073555522382622598 -0.036277167600379245 -0.018220391984215479 0.13928601846112634 0.061395153592515309 -0.01665033719709173 0.13398509790907034 -0.066785166945712834 -0.090679704724165783 -0.00098532204522190788 0.021906920900150683 0.006861962978488967 0.07219452937984025 0.04257320993253088 -0.4270758202881535 0.14073201289590639 -0.10001398786641509 0.07419912796066977 -0.065491434169069621 0.15418716016458967 -0.087345822033103385 -0.033417791136415652
leaf_weight=55.981103837941191 24.562399895992712 0.25772493872711344 2.1713219583034826 226.40521819242707 128.53088545030033 164.75123110945464 45.237675440141231 43.447857431825014 16.106481344360876 9.5968495412453212 64.935883496621841 153.47980693909591 10.718267495809384 23.226167074668481 27.884909240002344 75.149129828962003 27.873488252843302 25.942621784306539 1.5284998640418255 1.2461284644959949 2.2775880059707552 14.35040764276337 75.323751366515353 1.1801908106790495 189.5405877266183 4.5050370756289331
leaf_count=144021 273143 33 26 774567 1547360 1728470 430247 102846 122924 89408 114675 1667723 113246 206487 244857 711854 237674 167458 22 10016 18000 127013 836777 13223 2365403 46061
internal_value=0 0.764635 -5.17275 0.829473 -0.484136 -0.287764 0.549278 0.704135 1.37715 -0.698109 1.63748 -0.444511 -0.0555215 0.0541907 -0.278548 -0.117556 0.389323 0.0393666 -2.7532 -0.651139 0.413983 0.377913 -0.779593 -0.621026 -0.817732 -0.737342
internal_weight=0 484.292 3.95755 480.334 931.919 498.173 341.033 269.853 139.301 433.746 120.917 347.362 39.1706 150.811 192.636 99.7115 51.0997 71.1803 3.69982 154.726 18.3841 23.9473 394.575 76.5039 318.071 15.2233
internal_count=12093534 1874819 81 1874738 10218715 5080224 1475118 877413 399620 5138491 258696 3651066 375728 1429158 1973327 984997 444161 597705 48 1677739 140924 216421 4762763 850000 3912763 159307
cat_boundaries=0 1 2 3 4 5 6 7 8 9 10 11 12 13
cat_threshold=192 2 896 992 2 2 2 2 2 5845762 2 2 1
shrinkage=0.1


Tree=5
num_leaves=27
num_cat=13
split_feature=6 5 3 7 8 6 5 7 0 5 5 4 4 0 1 4 8 5 5 8 5 3 5 5 5 0
split_gain=396.87 134.468 17162.3 37.1392 37.3789 33.9269 19.186 15.7651 15.4747 13.29 12.4955 11.7303 7.6195 7.4949 6.59393 6.41353 6.21301 5.91033 5.70937 5.22744 4.92299 4.7372 3.17634 2.12704 1.91482 0.543297
threshold=0 303.00000000000006 1 2 3 4 3.5000000000000004 5 6 5.5000000000000009 2.5000000000000004 1.5000000000000002 3.5000000000000004 7 8 1.0000000180025095e-35 9 7.5000000000000009 1.0000000180025095e-35 10 1.5000000000000002 11 154.50000000000003 5.5000000000000009 1.5000000000000002 12
decision_type=1 2 1 1 1 1 2 1 1 2 2 2 2 1 1 2 1 2 2 1 2 1 2 2 2 1
left_child=1 3 -3 6 13 10 11 15 -8 19 21 -1 -11 -5 -4 18 17 -12 -7 -9 -6 24 -18 -17 -2 -23
right_child=5 2 14 4 20 7 8 9 -10 12 16 -13 -14 -15 -16 23 22 -19 -20 -21 -22 25 -24 -25 -26 -27
leaf_value=0.037254806173038613 -0.065125321389197216 -172.35110358496149 -0.15787178467463558 0.22798867963997849 -0.0068040129317315434 -0.0066473841940668469 0.27945354622440471 -0.03502404638219625 0.075329635839333955 -0.0018672015128673167 -0.032871682437623471 -0.016894670882405108 0.11819629120110225 0.10647547305544343 -0.44225236822193781 -0.012092872272108042 -0.069026142225569159 0.040844715057590415 0.088703049541029005 -0.065110487937671185 0.056128206606984678 -0.10000753644930177 0.27942886528299998 0.045141767810329858 -0.027467893268892891 -0.083000891900750495
leaf_weight=119.44809921259005 123.27034581777855 0.0058054846602064725 2.0897789150476722 5.1814495807338972 33.259288301473106 9.6397568135216734 4.2128724231297383 227.74403609248122 31.358901006628003 46.86935588943409 40.21571514968673 60.151741485780803 5.9575943374369862 249.33670738408773 1.3369927704333786 45.497324949603353 35.492734923609518 14.908334976764207 18.016486314501066 77.367574259304035 19.848522035195316 20.732526696941918 0.26353968475450429 7.5741347679009712 15.163933544943573 199.9217875976027
leaf_count=400144 1545005 33 26 8734 306700 89890 10705 2511163 110335 403575 423373 397910 48560 523060 22 451211 405876 141579 140603 886067 117150 275728 1505 54772 181376 2658432
internal_value=0 0.627881 -5.59867 0.680773 0.900975 -0.45928 0.30969 -0.246766 0.995046 -0.33694 -0.656587 0.19119 0.11673 1.08949 -2.68826 0.146125 -0.339932 -0.12935 0.554681 -0.426531 0.167163 -0.755013 -0.664579 -0.0392459 -0.610004 -0.845988
internal_weight=0 526.23 3.43258 522.798 307.626 888.635 215.172 438.666 35.5718 357.939 449.969 179.6 52.827 254.518 3.42677 80.7277 90.8803 55.1241 27.6562 305.112 53.1078 359.089 35.7563 53.0715 138.434 220.654
internal_count=12093534 1874819 81 1874738 955644 10218715 919094 4585841 121040 3849365 5632874 798054 452135 531794 48 736476 972333 564952 230493 3397230 423850 4660541 407381 505983 1726381 2934160
cat_boundaries=0 1 2 3 4 5 6 7 8 9 10 11 12 13
cat_threshold=192 2 31 2 553742 768 4 8 2 2 2 1 4
shrinkage=0.1


Tree=6
num_leaves=30
num_cat=10
split_feature=6 7 5 8 5 7 8 5 8 5 4 5 4 7 5 5 4 5 5 4 4 4 6 4 3 5 4 5 0
split_gain=327.472 35.0883 33.3892 100.146 555.003 28.3809 27.792 25.8644 23.0112 14.2325 8.29931 8.6779 7.88185 6.62529 5.43364 4.7929 4.66893 4.23216 4.02426 3.69383 3.59866 3.23183 3.03107 2.52468 1.8856 1.66771 0.766829 0.13287 4.05998e-07
threshold=0 1 154.50000000000003 2 303.00000000000006 3 4 153.50000000000003 5 5.5000000000000009 1.0000000180025095e-35 158.50000000000003 1.0000000180025095e-35 6 21.500000000000004 1.5000000000000002 1.5000000000000002 2.5000000000000004 1.5000000000000002 7.5000000000000009 1.5000000000000002 1.5000000000000002 7 10.500000000000002 8 2.5000000000000004 1.5000000000000002 303.00000000000006 9
decision_type=1 1 2 1 2 1 1 2 1 2 2 2 2 1 2 2 2 2 2 2 2 2 1 2 1 2 2 2 1
left_child=2 9 5 19 28 15 13 -8 18 24 11 -10 14 -7 -11 16 -1 -12 23 27 -14 -17 -20 -3 25 -2 -26 -4 -5
right_child=1 8 3 4 -6 6 7 -9 10 12 17 -13 20 -15 -16 21 -18 -19 22 -21 -22 -23 -24 -25 26 -27 -28 -29 -30
leaf_value=-0.0091290927000018725 -0.084962102259250646 -0.073461952826622698 -0.1010273343944591 -0.10030113712796451 -13.325953636803925 0.1118179798604714 0.011703884057857931 2.706609146125154 0.0078189334742395106 0.089710707834578129 -0.034803727278241124 0.9731953631918584 -0.072894754877932996 0.061930243440594702 -0.10001298670127474 0.012365824759179496 -0.082287797173541427 -0.0021988777695750202 0.0056577238796129857 0.27698629018328369 0.0034136518104283921 0.12187759486612877 -0.047763709683081933 0.20423699394676911 -0.059649550020425747 -0.056291522016259615 -0.074870111921736926 -0.14175941171930673 -0.10001406618977247
leaf_weight=38.496202498434343 179.46437204060931 82.875192877064592 1.1199578880661558 0.099960713901964482 0.037816119314811658 77.308406216907315 85.921776281910525 0.035628267374703593 138.1807973379189 9.4875388821674402 121.15645170509383 0.093178109351668037 14.752075781400764 343.71285260771407 1.7951798988900396 10.671644338362965 11.279348025542275 59.293674611384418 18.391080906592833 0.23623057751683507 10.635771514959314 3.6051796092651776 43.5839888333212 0.32868229816813155 74.334715429081996 22.874284861922206 59.672303800442023 2.810736013606737 0.097142965947514592
leaf_count=118889 2618160 1062453 1236 41 24 129180 700901 137 1329221 84426 1410578 841 160581 930823 15135 34525 65784 551430 195687 21 102068 16629 497335 4063 989669 263556 809326 60 755
internal_value=0 -0.441603 0.531097 -2.20326 -22.2918 0.561475 0.63388 0.128209 -0.244686 -0.673717 -0.0996463 0.0846947 -0.100203 0.752175 0.59524 -0.0956396 -0.257072 -0.240902 -0.579959 -1.07072 -0.409268 0.400197 -0.387049 -0.72365 -0.756276 -0.817209 -0.664272 -1.30154 -1.0016
internal_weight=0 836.919 575.433 4.40184 0.23492 571.031 506.979 85.9574 463.903 373.016 318.724 138.274 36.6706 421.021 11.2827 64.0524 49.7756 180.45 145.179 4.16692 25.3878 14.2768 61.9751 83.2039 336.346 202.339 134.007 3.93069 0.197104
internal_count=12093534 10094529 1999005 2137 820 1996868 1761041 701038 5051608 5042921 3292070 1330062 362210 1060003 99561 235827 184673 1962008 1759538 1317 262649 51154 693022 1066516 4680711 2881716 1798995 1296 796
cat_boundaries=0 1 2 3 4 5 6 7 8 9 10
cat_threshold=1048768 31 2 3 2 1 768 21123377 2 4
shrinkage=0.1


Tree=7
num_leaves=30
num_cat=14
split_feature=6 7 5 8 5 7 8 8 5 8 7 3 6 5 5 5 4 5 4 5 8 6 4 5 4 3 4 5 0
split_gain=265.281 32.8384 30.3175 133.752 20328.3 20.8402 20.7382 20.0284 13.5103 7.27246 7.11081 7.00106 6.55804 5.06516 4.91534 3.85428 4.28825 3.80844 3.00998 2.98885 2.84438 2.74368 2.37582 1.95127 5.19739 1.95438 0.996563 0.0919408 2.9848e-07
threshold=0 1 154.50000000000003 2 272.50000000000006 3 4 5 5.5000000000000009 6 7 8 9 157.50000000000003 1.5000000000000002 1.5000000000000002 1.5000000000000002 1.5000000000000002 7.5000000000000009 8.5000000000000018 10 11 5.5000000000000009 1.5000000000000002 7.5000000000000009 12 1.5000000000000002 303.00000000000006 13
decision_type=1 1 2 1 2 1 1 1 2 1 1 1 1 2 2 2 2 2 2 2 1 1 2 2 2 1 2 2 1
left_child=2 8 5 18 28 15 17 14 23 19 13 -12 -9 -8 -7 16 -1 22 27 -10 -17 -19 -3 25 -25 -2 -11 -4 -5
right_child=1 6 3 4 -6 7 10 12 9 26 11 -13 -14 -15 -16 20 -18 21 -20 -21 -22 -23 -24 24 -26 -27 -28 -29 -30
leaf_value=-0.0082956505278864272 -0.085042420986259942 -0.075045011585412671 -0.10093805249868418 -0.10027239972236045 -409.4699214538536 -0.0080861912880070431 -0.020543544085362877 0.0088112458501364566 -0.021513908613202445 -0.088576205052303264 -0.01063931168974571 0.042132038015789339 0.066314263355995898 0.29687665918331302 0.040512686868574399 -0.032611251134141213 -0.080766055528952108 0.0052708254303958264 0.22658403927901016 0.052094068762312831 0.062917208119071311 -0.045703091349685324 -0.0056793567898302507 -0.06188351895984371 0.14709247243336063 -0.067094811821186678 -0.029600376838758127 -0.13636332083023803 -0.10001273365862309
leaf_weight=38.146693188376858 147.02091447238485 72.108609087540202 1.0142307140120612 0.090472797521215398 0.0012213892353752634 53.304555046575963 213.92757677427298 37.783643725357251 8.9175277572794602 8.747599330206894 54.826055631041356 46.430588869127916 414.29450050866564 0.50390128593019667 34.140730230764156 4.4450964760544576 10.388673999805176 18.495397331891581 0.25848417083034281 14.463520264571995 10.431312009939573 41.552049486272153 5.300660821812925 60.329389694408746 1.214074516778054 103.30569753540505 4.2608077613913329 2.6386223660293719 0.086678382896918912
leaf_count=118889 2346571 991863 1236 41 48 504070 2287879 269173 83833 112748 566353 434618 790830 3220 196968 22685 65784 195687 21 119822 28469 497335 74653 809458 13184 1511498 45807 60 731
internal_value=0 -0.417155 0.452887 -2.25317 -29.0327 0.478754 -0.227137 0.537009 -0.65116 -0.0932517 -0.0909863 0.1234 0.631701 -0.189155 0.10888 -0.0877455 -0.238075 -0.556349 -1.03192 0.2402 0.343731 -0.367358 -0.702951 -0.737137 -0.57761 -0.776357 -0.692591 -1.26527 -1.00145
internal_weight=0 801.404 607.025 4.08971 0.178373 602.935 453.145 539.523 348.26 36.3895 315.688 101.257 452.078 214.431 87.4453 63.4118 48.5354 137.457 3.91134 23.381 14.8764 60.0474 77.4093 311.87 61.5435 250.327 13.0084 3.65285 0.177151
internal_count=12093534 10094529 1999005 2137 820 1996868 5051608 1761041 5042921 362210 3292070 1000971 1060003 2291099 701038 235827 184673 1759538 1317 203655 51154 693022 1066516 4680711 822642 3858069 158555 1296 772
cat_boundaries=0 1 2 3 4 5 6 7 8 9 10 11 12 13 14
cat_threshold=1048768 31 2 3 1 1 2 224 2 1048704 1 21123377 2 4
shrinkage=0.1


Tree=8
num_leaves=32
num_cat=16
split_feature=6 7 4 7 4 5 7 9 8 0 5 5 5 6 4 6 7 5 5 5 5 5 0 3 3 5 4 3 4 0 8
split_gain=219.839 30.5215 19.3219 18.5259 13.2553 12.7794 9.69951 9.57234 8.91459 8.88169 7.37898 20.3891 7.30114 7.17919 10.7485 6.58267 6.41887 5.22106 4.68036 47.4969 3.8322 3.82764 3.45802 2.50168 1.97578 1.75402 1.57711 1.50223 0.826742 1.55767e-06 1.10204e-09
threshold=0 1 1.0000000180025095e-35 2 1.0000000180025095e-35 5.5000000000000009 3 4 5 6 14.500000000000002 15.500000000000002 1.0000000180025095e-35 7 1.0000000180025095e-35 8 9 25.500000000000004 28.500000000000004 25.500000000000004 5.5000000000000009 147.50000000000003 10 11 12 2.5000000000000004 8.5000000000000018 13 1.5000000000000002 14 15
decision_type=1 1 2 1 2 2 1 1 1 1 2 2 2 1 2 1 1 2 2 2 2 2 1 1 1 2 2 1 2 1 1
left_child=3 5 10 12 6 24 22 16 20 -9 15 -12 26 14 -7 -3 -6 -8 19 -14 -4 -10 -5 -15 28 -26 27 -1 -2 -20 -28
right_child=1 2 8 4 7 13 17 9 21 -11 11 -13 18 23 -16 -17 -18 -19 29 -21 -22 -23 -24 -25 25 -27 30 -29 -30 -31 -32
leaf_value=0.1469319973442062 -0.05424097056235181 0.038014161166688966 -0.028192000587538568 -0.080802493728122482 -0.025267769216983267 0.17815434385542653 0.05183229302774911 0.23517823370366739 -0.058757523541182091 0.041384894215120704 0.95790986600521255 0.079650976459593889 0.069062295125017242 -0.0077191850155833774 -0.003260465365410747 -0.0081101026299302114 0.016436908780339175 0.17189194714084047 -0.10039158223983508 2.6055228412631717 0.011828278676645494 0.10326911586772101 0.0061526674054383328 -0.078864104956933689 -0.082225390709092058 -0.050998019855514831 -0.10005306989828713 0.10539407728869626 -0.071130964963250387 -0.10011235608184824 -0.10000988880363693
leaf_weight=17.814330343731854 65.551300801205841 32.022108402452432 146.2056571080617 5.1880003913247492 36.822177706962975 5.0328896026591385 257.37076150385832 3.5577065017059608 121.19862670403325 7.0538808706260339 0.28357414260972191 3.8960411517972489 60.889241977718484 7.5847642408071057 9.3022316131727205 109.695882035252 185.83000457206276 3.6738361318205639 0.23345735805924048 0.073915547283830971 28.608886609465458 1.4757539780111972 38.603365340073736 14.187388083319417 151.85241302976647 20.404085223337461 0.30361947922210675 17.029593154191389 51.947164262914157 1.3851351659244517 0.0060276351068740963
leaf_count=36071 989669 296988 1719957 10216 215054 33891 541779 17144 1664572 30332 2089 27200 102172 84974 87703 1088735 897418 3974 192 117 242051 10016 116242 155642 2618160 263556 645 25689 809326 1899 61
internal_value=0 -0.393098 -0.210498 0.395941 0.309329 -0.627889 0.452372 0.135656 -0.361438 1.06357 0.0828424 1.39238 0.799827 -0.0861661 0.355988 0.0442209 0.0914318 0.515473 0.676816 0.721377 -0.216426 -0.568084 -0.0337767 -0.370584 -0.717065 -0.785265 1.24634 1.26631 -0.617082 -1.00153 -1.00052
internal_weight=0 769.249 443.387 635.835 538.1 325.862 304.836 233.264 297.489 10.6116 145.898 4.17962 97.7353 36.1073 14.3351 141.718 222.652 261.045 62.5818 60.9632 174.815 122.674 43.7914 21.7722 289.755 172.256 35.1536 34.8439 117.498 1.61859 0.309647
internal_count=12093534 10094529 5051608 1999005 1832159 5042921 672211 1159948 3636596 47476 1415012 29289 166846 362210 121594 1385723 1112472 545753 104380 102289 1962008 1674588 126458 240616 4680711 2881716 62466 61760 1798995 2091 706
cat_boundaries=0 1 2 3 4 5 6 7 8 9 10 11 12 13 14 15 16
cat_threshold=1048768 31 768 3 1 2 1 8660028 10488836 10 4 1 1 2 4 2
shrinkage=0.1


Tree=9
num_leaves=32
num_cat=14
split_feature=6 6 7 5 7 8 5 5 7 4 4 0 3 7 7 5 0 7 4 5 5 4 8 5 4 4 5 0 4 5 5
split_gain=178.208 29.694 13.2652 11.3429 10.6834 10.3555 10.1058 7.95078 5.72194 5.71115 5.48013 9.04604 5.1405 4.55327 4.24192 4.00617 3.78685 3.32628 3.10617 3.74604 3.02299 2.58523 1.70024 2.51029 3.23056 2.22529 1.57089 0.704205 3.86986e-06 2.54281e-06 3.11406e-09
threshold=0 1 2 2.5000000000000004 3 4 147.50000000000003 5.5000000000000009 5 3.5000000000000004 1.0000000180025095e-35 6 7 8 9 154.50000000000003 10 11 1.0000000180025095e-35 1.0000000180025095e-35 13.500000000000002 8.5000000000000018 12 1.5000000000000002 2.5000000000000004 1.5000000000000002 102.50000000000001 13 1.0000000180025095e-35 12.500000000000002 1.5000000000000002
decision_type=1 1 1 2 1 1 2 2 1 2 2 1 1 1 1 2 1 1 2 2 2 2 1 2 2 2 2 1 2 2 2
left_child=2 3 22 12 18 6 8 13 -4 -9 11 -5 14 -6 -2 -12 20 -18 19 -3 -7 -8 28 25 -25 -24 -20 -14 29 -1 -30
right_child=1 4 5 10 7 16 21 9 -10 -11 15 -13 27 -15 -16 -17 17 -19 26 -21 -22 -23 23 24 -26 -27 -28 -29 30 -31 -32
leaf_value=-0.10001691281817655 -0.0025695100789103649 -0.0082324452129357122 0.053397125200034458 0.31468914285789262 -0.019597643144445877 0.030973741824543145 -0.11877488717319287 -0.0025760475703209911 0.025440508861962002 0.096674330140542539 -0.045376103714628184 0.0019659415488857074 -0.10000563440199034 -0.052126835557554152 -0.060086935183679302 0.20203207869853498 0.030092590628477175 -0.025746766907270638 -0.0004042940565190263 0.067002017377985085 -0.069608671238367253 0.20570157716291604 -0.023952266394204894 0.006766999066177057 0.26267927734434471 -0.10001849467412285 0.13728602768246873 -0.077486425019592506 -0.10000892123050589 -0.10052367581583332 -0.1000153459860653
leaf_weight=0.1581300313046089 26.947336226454354 9.8062169531986019 343.10452137391258 0.96455095183398498 177.78589501929673 50.385878575252733 4.5018777719614027 47.209805128514233 180.4441103158606 6.6094361489049893 56.737624048553698 22.554221928357965 15.293086540033983 81.898615950929639 85.193386360900988 0.66212542158971999 6.1410422443004826 33.065357722399405 49.188320942230348 20.357215959940049 3.1764546797494395 0.25971158171887498 14.456398760718011 4.6806346813536939 0.55139173426141486 5.2399579215416443 0.84278783634726895 150.98116159389252 1.1559865269809964 0.26486581354402006 2.1717573095738771
leaf_count=954 366477 89890 529958 10013 2085570 401496 2185 403575 514551 48560 724016 235168 275728 1311660 1359904 3136 44235 256278 501833 140603 7420 29 46906 12239 1632 28667 4150 2658432 13336 53 14880
internal_value=0 -0.363159 0.346579 -0.572277 -0.162848 0.37927 0.439486 -0.245846 0.452675 0.096127 -0.258641 0.147913 -0.683986 -0.326186 -0.518528 -0.425222 0.077231 -0.15892 0.152899 0.425431 0.250088 -1.01077 -0.276403 -0.278335 0.33737 -0.441887 0.0191514 -0.795576 -1.00049 -1.00334 -1.00013
internal_weight=0 753.032 649.758 359.333 393.698 621.079 528.31 313.504 523.549 53.8192 80.9185 23.5188 278.415 259.685 112.141 57.3997 92.7687 39.2064 80.1945 30.1634 53.5623 4.76159 28.6791 24.9284 5.23203 19.6964 50.0311 166.274 3.75074 0.422996 3.32774
internal_count=12093534 10218715 1874819 5632874 4585841 1756152 1046723 3849365 1044509 452135 972333 245181 4660541 3397230 1726381 727152 709429 300513 736476 230493 408916 2214 118667 89444 13871 75573 505983 2934160 29223 1007 28216
cat_boundaries=0 1 2 3 4 5 6 7 8 9 10 11 12 13 14
cat_threshold=192 553742 2 768 2 992 8 1 228 832 1 773 1 4
shrinkage=0.1


Tree=10
num_leaves=32
num_cat=15
split_feature=6 7 6 7 4 5 5 9 5 5 4 2 0 4 6 7 4 5 3 5 5 3 6 4 5 4 4 4 2 8 0
split_gain=149.038 26.03 15.6924 11.1961 10.6153 10.5267 8.47506 7.38203 6.66844 44.7314 31.0802 21.8257 6.66133 6.47065 11.7853 6.03255 5.4881 5.74043 5.39151 5.30272 4.19195 4.13455 3.81414 3.70328 3.39856 3.15926 2.65425 3.94026 2.15524 1.91381 9.5664e-07
threshold=0 1 2 3 1.0000000180025095e-35 1.5000000000000002 2.5000000000000004 4 43.500000000000007 44.500000000000007 1.0000000180025095e-35 5 6 1.0000000180025095e-35 7 8 1.0000000180025095e-35 1.5000000000000002 9 30.500000000000004 28.500000000000004 10 11 1.5000000000000002 1.0000000180025095e-35 2.5000000000000004 10.500000000000002 12.500000000000002 12 13 14
decision_type=1 1 1 1 2 2 2 1 2 2 2 1 1 2 1 1 2 2 1 2 2 1 1 2 2 2 2 2 1 1 1
left_child=2 8 3 20 15 21 26 12 16 10 -10 -11 -8 14 -7 -5 17 -2 -9 -6 24 29 -18 -15 -1 -23 28 -28 -4 -3 -22
right_child=1 5 6 4 19 13 7 18 9 11 -12 -13 -14 23 -16 -17 22 -19 -20 -21 30 25 -24 -25 -26 -27 27 -29 -30 -31 -32
leaf_value=0.092898028397886662 0.00032540202454135503 -0.065698535813199163 -0.022084227225864821 -0.0021710117535926944 0.010971380804054654 0.034597754350296217 -0.052240954507286545 0.044742314576571927 8.0296923703058667 0.038200314372426103 -0.10001120369173003 1.3580631158109062 0.037550004900766321 -0.064848633573143313 -0.045926042677557281 0.041714120218730166 0.014328361451377178 0.091025011956463509 0.24522728559593993 -0.073747349223748579 -0.1003334982947523 -0.040683430961047894 -0.029890781884098834 -0.029393855258136089 0.055926165385257347 -0.073307062582502885 0.37076575950787738 -0.10000950043415813 0.019199968001575109 -0.088543891192362056 -0.10010349053931077
leaf_weight=39.893543279729784 14.949742893004442 122.42264492572576 111.64425650482372 43.12827838078374 204.49196719149768 30.117122019965564 10.464939292464805 2.7631768891271804 0.012300570488149698 1.4468816226699346 0.0076130794986966049 0.13716547920193956 39.252829650335116 51.19569450214658 23.283966409766322 268.52673569016042 30.230153694690671 13.086294893641023 2.606835524646157 7.6651583020429817 0.2111366284370888 106.1977332308162 31.354530836510094 69.391026073183639 65.990110862585425 41.199844776518148 0.42483101836114562 0.30572980867145816 14.260452898743095 52.349627914798475 1.2596433761937067
leaf_count=53452 75196 323176 336633 117986 745422 125554 58648 14436 105 6204 43 520 222320 108065 80734 419203 77262 85825 13585 9514 188 273255 64131 183813 85639 84715 1021 730 41840 125611 1787
internal_value=0 -0.412522 0.243727 0.31865 0.24693 -0.504176 -0.0195436 0.306809 0.0865319 2.117 49.2167 1.5249 0.186502 -0.31613 -0.0263363 0.369099 0.0598475 0.42661 1.42066 0.0791052 0.617729 -0.621379 -0.107119 -0.444464 0.69856 -0.498022 -0.163054 1.73753 -0.174082 -0.725414 -1.00137
internal_weight=0 587.382 812.89 631.167 523.812 496.158 181.723 55.0878 91.2247 1.60396 0.0199136 1.58405 49.7178 173.988 53.4011 311.655 89.6207 28.036 5.37001 212.157 107.354 322.17 61.5847 120.587 105.884 147.398 126.635 0.730561 125.905 174.772 1.47078
internal_count=3736613 1614209 2122404 1433191 1292125 1304923 689213 308989 309286 6872 148 6724 280968 498166 206288 537189 302414 161021 28021 754936 141066 806757 141393 291878 139091 357970 380224 1751 378473 448787 1975
cat_boundaries=0 1 2 3 4 5 6 7 8 9 10 11 12 13 14 15
cat_threshold=17957088 768 64 768 1 1 2 10757398 3 2 2 526608 1 2 4
shrinkage=0.1


Tree=11
num_leaves=32
num_cat=14
split_feature=6 8 7 5 6 7 4 5 5 3 5 5 3 0 5 0 7 0 5 7 0 4 4 5 8 5 5 5 4 4 5
split_gain=142.731 19.0567 20.0726 15.8289 13.2365 9.04149 7.8247 7.43474 7.37534 7.1275 6.80194 9.91693 5.07855 4.0585 3.89439 6.8393 3.33987 3.47854 2.80398 2.62226 3.63021 2.48937 2.13835 2.10953 1.63608 2.34168 1.55254 7.19513 0.483724 2.90039e-06 6.94755e-08
threshold=0 1 2 8.5000000000000018 3 4 5.5000000000000009 2.5000000000000004 17.500000000000004 5 33.500000000000007 29.500000000000004 6 7 1.5000000000000002 8 9 10 2.5000000000000004 11 12 7.5000000000000009 4.5000000000000009 3.5000000000000004 13 1.0000000180025095e-35 154.50000000000003 155.50000000000003 1.0000000180025095e-35 1.0000000180025095e-35 31.500000000000004
decision_type=1 1 1 2 1 1 2 2 2 1 2 2 1 1 2 1 1 1 2 1 1 2 2 2 1 2 2 2 2 2 2
left_child=4 2 6 18 5 24 12 19 14 -5 11 -7 -2 -12 22 -16 23 -18 -4 20 -6 -21 -3 -9 29 -26 28 -28 -10 -1 -8
right_child=1 8 3 9 7 10 30 16 26 -11 13 -13 -14 -15 15 -17 17 -19 -20 21 -22 -23 -24 -25 25 -27 27 -29 -30 -31 -32
leaf_value=-0.10030813484884266 -0.016501731842549935 -0.079873141451147836 -0.064841280545148788 0.1214203488248079 -0.079003402421986821 0.031790279915103137 -0.10000812010257201 0.035365257258750532 -0.1290064383243581 -0.013572253457764106 0.071570265963594767 0.3754353664428417 0.019999196733620845 -0.076591118316386236 0.23226510134168318 -0.04529668832483788 -0.01214701016316927 0.056735865523318975 -0.033695217387126337 -0.030179497326452084 0.012554873856828221 0.09974522207048471 -0.035364262781759241 -0.039903367246834742 -0.047886415667678033 0.017534474263358798 0.73397506155187131 -0.10004194614081696 -0.10005788396592391 -0.10001209382142853 -0.1000580537207944
leaf_weight=0.37374139974417664 75.122902158434727 84.441940360797162 173.47169105622743 6.7740656623382165 4.7601919515800546 612.67209990778792 7.61701088726113 5.1706226119858938 20.586121381646088 9.2549914090689089 2.3289672292085015 0.8409158765061866 77.383293577835047 8.9678008750979625 0.90287478528989595 53.006562473939994 9.104548390468608 37.638883656241433 34.683908798950142 81.627090782309097 47.971856095995463 1.5018376068765054 12.376069028065102 13.304800152802043 15.340447607595712 8.5046107676753291 0.11990160932327754 0.75343374019576004 8.0213781477941648 2.8899221230094554 0.28922143541626599
leaf_count=920 196309 204270 415738 31790 14651 1322282 18214 32274 5659 43657 4266 1117 247722 7677 1963 114270 47152 212792 85387 239288 153642 5384 30601 73919 59928 25585 454 2768 16845 16592 1223
internal_value=0 -0.435313 -0.317284 -0.500456 0.207995 0.277384 -0.0283287 -0.0194532 -0.711363 0.434772 0.303596 0.322613 0.0201923 -0.460458 -0.621893 -0.406481 0.257109 0.356849 -0.596516 -0.153646 0.0360596 -0.248437 -0.741837 -0.122227 -0.245762 -0.245533 -1.1688 0.144616 -1.20889 -1.00046 -1.0001
internal_weight=0 564.805 384.597 224.185 852.998 651.919 160.412 201.08 180.208 16.0291 624.81 613.513 152.506 11.2968 150.727 53.9094 65.2189 46.7434 208.156 135.861 52.732 83.1289 96.818 18.4754 27.1087 23.8451 29.4808 0.873335 28.6075 3.26366 7.90623
internal_count=3634339 1416870 1040040 576572 2217469 1438367 463468 779102 376830 75447 1335342 1323399 444031 11943 351104 116233 366137 259944 501125 412965 168293 244672 234871 106193 103025 85513 25726 3222 22504 17512 19437
cat_boundaries=0 1 2 3 4 5 6 7 8 9 10 11 12 13 14
cat_threshold=17958112 2 928 64 2 1 2 2 8 774 2 832 4 1
shrinkage=0.1


Tree=12
num_leaves=32
num_cat=16
split_feature=6 8 7 5 6 7 4 5 4 4 5 3 6 9 7 5 0 5 3 7 9 4 4 4 4 8 5 5 0 4 8
split_gain=118.575 17.9 18.1348 12.6124 10.4234 7.7497 7.68889 6.65691 6.54188 6.05965 5.96332 5.95489 5.08253 4.83159 3.98437 3.7669 4.51326 3.22475 2.64757 3.9196 3.75745 2.18655 4.31045 2.16558 2.09754 1.8108 1.40848 2.75459 0.36929 0.321628 4.98205e-07
threshold=0 1 2 5.5000000000000009 3 4 1.0000000180025095e-35 17.500000000000004 5.5000000000000009 7.5000000000000009 2.5000000000000004 5 6 7 8 1.5000000000000002 9 28.500000000000004 10 11 12 1.0000000180025095e-35 1.5000000000000002 4.5000000000000009 8.5000000000000018 13 154.50000000000003 155.50000000000003 14 1.0000000180025095e-35 15
decision_type=1 1 1 2 1 1 2 2 2 2 2 1 1 1 1 2 1 2 1 1 1 2 2 2 2 1 2 2 1 2 1
left_child=4 2 8 9 5 17 14 15 11 -4 21 -2 -5 -8 -7 23 -17 24 19 -12 -20 25 -23 -3 -1 -6 29 -28 -10 -9 -19
right_child=1 7 3 12 10 6 13 26 28 -11 18 -13 -14 -15 -16 16 -18 30 20 -21 -22 22 -24 -25 -26 -27 27 -29 -30 -31 -32
leaf_value=0.054598626351275131 -0.021976790428490222 -0.078286711259141065 -0.066855655880594139 0.053790988003392784 0.0020515880894394632 -0.0027967768708392501 0.0010485784660549814 -0.12470420395571116 -0.052331674583728151 0.11453638313749491 0.029677973261761265 0.013376778303103104 -0.022494104845619478 0.072975845783712565 0.032029103124689949 0.15529588320537202 -0.042938022580877262 -0.10033925676524441 0.029049104219594488 -0.026913526072841337 0.1331506347300577 -0.070432450007559891 -0.012535954187237292 -0.03238269698573485 -0.1000694696699172 -0.10000929494481324 0.28252840863619616 -0.10003838111658302 -0.10000842837946802 -0.10005214845646532 -0.10010875933711186
leaf_weight=116.31264159160492 90.654240838675832 78.275350997009696 150.83270690425707 6.9054722551211398 61.727158786830842 43.469545985295554 210.01534477368853 19.229933897171584 2.0973922416633286 1.8644325735767768 13.132568187001196 100.42063488287772 11.932125440969573 9.7736764680302013 288.9239208537947 1.1750671718400554 50.816061643978173 0.10116947716596481 34.090251811415101 15.992036514234998 3.8597650029023489 16.905278040063422 53.730531084362156 11.830422080871356 0.88347570976475154 1.7887845650038787 0.26136068876075924 0.6724575770276715 7.2076224516022176 7.3019340867322162 1.2825482112675688
leaf_count=137712 210867 204903 389452 37396 187003 117986 824615 3989 4875 4384 69445 297617 50169 30321 419208 2891 109016 176 186117 88736 17802 40836 147096 30308 1378 5330 567 2265 17238 14659 1717
internal_value=0 -0.409202 -0.293993 -0.520807 0.182048 0.242107 0.184249 -0.686032 -0.0703284 -0.646409 -0.0201342 -0.0339649 0.220845 0.0424707 0.283541 -0.598921 -0.384577 0.476245 0.222321 -0.00446688 0.396369 -0.142861 -0.263923 -0.722598 0.534327 -0.00822729 -1.13671 0.070359 -0.892619 -1.1792 -1.00126
internal_weight=0 541.477 371.915 171.535 871.989 670.762 552.182 169.563 200.38 152.697 201.226 191.075 18.8376 219.789 332.393 142.097 51.9911 118.58 67.0746 29.1246 37.95 134.152 70.6358 90.1058 117.196 63.5159 27.4657 0.933818 9.30501 26.5319 1.38372
internal_count=3656074 1380596 1011998 481401 2275478 1533113 1392130 368598 530597 393836 742365 508484 87565 854936 537194 347118 111907 140983 362100 158181 203919 380265 187932 235211 139090 192333 21480 2832 22113 18648 1893
cat_boundaries=0 1 2 3 4 5 6 7 8 9 10 11 12 13 14 15 16
cat_threshold=17958112 2 992 64 768 2 8397596 1 3 8 2 209 1 2 2 1
shrinkage=0.1


Tree=13
num_leaves=32
num_cat=15
split_feature=6 6 8 7 5 5 0 5 7 7 5 5 0 5 3 8 5 0 3 5 0 4 4 0 4 8 5 5 5 4 4
split_gain=99.4537 16.7568 10.3801 15.7314 8.89607 20.4721 70.65 8.76794 6.37538 5.94666 8.97983 5.6645 5.50153 5.47202 5.45574 5.23777 6.04518 4.55597 4.00196 3.97943 3.91604 3.751 2.63806 2.62279 1.72902 1.54723 1.99964 1.48431 2.1282 0.195483 2.12637e-06
threshold=0 1 2 3 19.500000000000004 21.500000000000004 4 7.5000000000000009 5 6 10.500000000000002 1.0000000180025095e-35 7 17.500000000000004 8 9 147.50000000000003 10 11 1.5000000000000002 12 5.5000000000000009 9.5000000000000018 13 4.5000000000000009 14 1.0000000180025095e-35 154.50000000000003 155.50000000000003 1.0000000180025095e-35 1.0000000180025095e-35
decision_type=1 1 1 1 2 2 1 2 1 1 2 2 1 2 1 1 2 1 1 2 1 2 2 1 2 1 2 2 2 2 2
left_child=1 8 3 11 9 6 -6 22 25 10 -3 23 -7 19 -9 16 -10 -17 -11 24 -21 -13 -5 -2 -4 30 -27 29 -29 -15 -1
right_child=2 4 13 7 5 12 -8 14 15 18 -12 21 -14 27 -16 17 -18 -19 -20 20 -22 -23 -24 -25 -26 26 -28 28 -30 -31 -32
leaf_value=-0.1002780362153543 0.033110562153017727 -0.07406882640082299 -0.079200445306072578 -0.060536633876532221 4.4151233897494651 0.2119240302081023 0.32788210430476555 -0.036143900017803397 0.02804164349986632 -0.017180556703237784 0.25860818585965079 0.034973466767255011 0.013971339816097068 -0.12099070167250191 0.076485724479341863 0.020267401900016045 -0.094750770151236383 -0.026073033810123464 0.0066185376218183259 0.13775795799204293 -0.04092297834756211 -0.10001056156344612 0.10402392616786796 -0.046093167543454619 -0.036464003059700816 -0.045317620067328271 0.015297549235948962 0.23298649385220013 -0.10003735763198857 -0.10004940619300227 -0.10001104074969235
leaf_weight=0.33732956896710709 5.2584906766060158 26.988317849489139 67.294592262562219 157.08588604719625 0.04429535770759685 1.6027552202649531 0.93479509509052039 9.3945087752101699 569.652944157977 132.80206332173839 0.8365262623919979 44.229478506314535 11.320526026083368 17.849999720121566 7.932099854425247 50.681574846937906 4.0376930018801422 36.491730852809269 150.98937454077895 1.2617344315367518 44.005739964228269 2.1591470509411002 0.9802454677519552 20.402769906380858 11.016549390405997 14.620755033567553 8.6694716032070556 0.30020761964260501 0.53186206251120893 5.941292772666201 2.5770123580223299
leaf_count=920 10340 73074 191662 406781 206 7542 4483 31451 876019 437599 4228 139708 51968 2834 38681 340460 1891 219849 538265 3318 96464 4681 2659 40266 29301 59928 25585 478 1853 12732 8176
internal_value=0 0.124983 -0.460295 -0.346575 -0.0615479 0.719228 5.12794 -0.493026 0.212973 -0.0983564 -0.471294 0.0688123 0.385216 -0.681224 0.154178 0.233537 0.271774 0.00868772 -0.0436461 -0.595451 -0.359426 0.286907 -0.595161 -0.298628 -0.731884 -0.226909 -0.227544 -1.1117 0.201164 -1.15761 -1.00042
internal_weight=0 1012.59 395.645 247.443 325.519 13.9024 0.97909 175.393 687.069 311.616 27.8248 72.0499 12.9233 148.202 17.3266 660.864 573.691 87.1733 283.791 123.579 45.2675 46.3886 158.066 25.6613 78.3111 26.2046 23.2902 24.6234 0.83207 23.7913 2.91434
internal_count=3663402 2650193 1013209 674567 1117365 64199 4689 479572 1532828 1053166 77302 194995 59510 338642 70132 1438219 877910 560309 975864 320745 99782 144389 409440 50606 220963 94609 85513 17897 2331 15566 9096
cat_boundaries=0 1 2 3 4 5 6 7 8 9 10 11 12 13 14 15
cat_threshold=24544497 64 2 896 8 2 3 4 2 2 1 2 8 2 1
shrinkage=0.1


Tree=14
num_leaves=32
num_cat=12
split_feature=6 6 8 7 5 7 7 3 5 4 5 3 5 5 4 5 3 4 5 0 5 5 8 0 4 5 5 4 4 4 5
split_gain=83.0862 14.3124 9.59084 14.1445 9.02468 6.52139 5.71249 6.77167 12.1667 5.12429 5.05183 5.03956 5.26935 4.49382 5.20129 4.45586 4.32643 4.32501 4.0135 3.9847 3.90571 3.63885 3.55127 2.96222 1.72807 1.38076 1.4823 1.08424 0.223932 0.126824 2.86849e-08
threshold=0 1 2 3 2.5000000000000004 4 5 6 8.5000000000000018 3.5000000000000004 17.500000000000004 7 19.500000000000004 5.5000000000000009 5.5000000000000009 16.500000000000004 8 5.5000000000000009 1.0000000180025095e-35 9 5.5000000000000009 1.5000000000000002 10 11 4.5000000000000009 154.50000000000003 155.50000000000003 9.5000000000000018 1.0000000180025095e-35 1.0000000180025095e-35 31.500000000000004
decision_type=1 1 1 1 2 1 1 1 2 2 2 1 2 2 2 2 1 2 2 1 2 2 1 1 2 2 2 2 2 2 2
left_child=2 6 3 17 27 20 13 15 -9 -6 21 19 -13 16 -15 -8 -2 18 -1 -7 28 24 -22 -23 -4 29 -27 -5 -3 -12 -19
right_child=1 5 10 4 9 11 7 8 -10 -11 25 12 -14 14 -16 -17 -18 30 -20 -21 22 23 -24 -25 -26 26 -28 -29 -30 -31 -32
leaf_value=-0.023002671036977961 0.051634316098832213 -0.086208364165072215 -0.077287265648660855 -0.069838657132331602 -0.024425157675443818 -0.0035804044893803589 0.00066520435727117095 0.016900707359173976 0.10776934913643965 0.094498772329297209 -0.11759100992735201 0.005959699695158526 0.08376087038486052 -0.014049210245494013 0.19042408301016603 -0.08463724113479984 0.023663392513939563 -0.10000588842058632 0.019710349688436678 -0.039549931077547409 -0.028438441494820135 0.10567214056956463 0.18788381232758267 -0.039247164225015729 -0.033422836949999535 0.16388595412976564 -0.10003354703325225 0.063821460119453319 -0.066002286630573753 -0.10004400345720832 -0.10004878474072332
leaf_weight=35.062895916711568 106.11826430875226 14.496390071395359 61.628164209589158 106.08049229870085 30.429778735803325 92.195360128462198 195.61560479397303 234.20755404797819 15.724017539767372 4.1129452243767437 16.604341949700036 151.92798290356586 9.234444615152368 27.633501538355635 1.3026981288494415 6.3215112973120986 115.47217136609106 4.0305198295100118 59.044337466270918 46.247361414943725 2.793233523829258 1.4585509300668491 1.0419928698247525 42.792179348889476 10.513389999698118 0.37874101380293618 0.48574519898829754 0.61039704990980581 8.8228061734007479 5.4779446189568253 0.16216011127744412
leaf_count=72286 167356 38914 189581 312381 100723 313016 590664 498726 21873 13384 2104 550045 35583 30621 1334 8305 138229 9207 191466 149511 13888 7450 3956 97485 29027 478 1824 1251 25005 12978 569
internal_value=0 0.107045 -0.434926 -0.325057 -0.510743 -0.065208 0.186969 0.113624 0.226176 -0.102651 -0.655012 -0.0155116 0.104176 0.30982 -0.0484389 -0.0200513 0.370585 -0.00572995 0.0379614 -0.155962 -0.461775 -0.570468 0.303342 -0.344705 -0.708948 -1.08385 0.155925 -0.69074 -0.785634 -1.13238 -1.00008
internal_weight=0 1029.15 378.873 239.534 141.234 326.76 702.395 451.869 249.932 34.5427 139.339 299.605 161.162 250.527 28.9362 201.937 221.59 98.2999 94.1072 138.443 27.1544 116.392 3.83523 44.2507 72.1416 22.9468 0.864486 106.691 23.3192 22.0823 4.19268
internal_count=3629220 2587026 1042194 701267 427739 1129918 1457108 1119568 520599 114107 340927 1048155 585628 337540 31955 598969 305585 273528 263752 462527 81763 323543 17844 104935 218608 17384 2302 313632 63919 15082 9776
cat_boundaries=0 1 2 3 4 5 6 7 8 9 10 11 12
cat_threshold=9009934 64 2 928 3 896 2 2 2 1 2 8
shrinkage=0.1


Tree=15
num_leaves=32
num_cat=12
split_feature=6 6 8 7 5 4 7 5 7 5 5 4 8 4 8 2 5 5 1 5 5 4 4 4 8 5 5 1 4 4 5
split_gain=69.9676 13.343 8.003 11.3546 10.0605 5.17919 5.14116 4.09134 3.94679 4.08166 4.83506 4.79052 3.57276 3.5644 3.41108 4.94541 3.22786 2.72809 2.51924 2.47732 2.20424 2.18065 2.04499 2.00178 1.50751 1.62244 1.35119 1.71374 0.0370984 1.93622e-06 2.0243e-08
threshold=0 1 2 3 8.5000000000000018 1.0000000180025095e-35 4 154.50000000000003 5 5.5000000000000009 8.5000000000000018 9.5000000000000018 6 5.5000000000000009 7 8 8.5000000000000018 1.0000000180025095e-35 9 17.500000000000004 1.5000000000000002 7.5000000000000009 2.5000000000000004 4.5000000000000009 10 1.5000000000000002 154.50000000000003 11 1.0000000180025095e-35 1.0000000180025095e-35 31.500000000000004
decision_type=1 1 1 1 2 2 1 2 1 2 2 2 1 2 1 1 2 2 1 2 2 2 2 2 1 2 2 1 2 2 2
left_child=2 6 3 13 18 -6 24 12 9 11 -11 -3 -8 17 15 -10 -16 -1 -5 20 23 -9 -22 -4 29 -26 28 -28 -21 -2 -15
right_child=1 8 19 4 5 -7 7 21 14 10 -12 -13 -14 30 16 -17 -18 -19 -20 26 22 -23 -24 -25 25 -27 27 -29 -30 -31 -32
leaf_value=-0.022077290860090391 -0.10026895424506066 -0.074083548359242468 -0.079968657969487031 -0.06524188319977739 0.13180516461690264 -0.016490898282163293 0.00065275491875697097 -0.11802906986949686 0.038486858526687331 0.19000328338838388 -0.035221831641019399 0.43351170730633237 0.021067414170469177 -0.10000528507467508 -0.01423640686372549 -0.0047882065061562234 -0.073753396091307002 0.014181381817743411 0.046754449518091219 -0.11103882842817021 -0.057259501794803408 0.17658997518719718 -0.0060683358795849693 -0.031341438699686246 -0.038056869394220066 0.023386913179485273 -0.10013333108881453 0.19646830718584471 -0.10004302562908647 -0.10001011694764622 -0.10004409547888936
leaf_weight=33.363422479640576 0.32614397670840878 23.147407099939308 49.912431182205182 115.06584200163707 3.8823313129015542 5.9865893958451579 99.279649685791824 3.0159116156864907 30.320250055488032 1.3792385648630432 3.0854781481684768 0.18743488823383717 628.00622264140111 3.5377596031248681 41.972441376081406 204.63131367710866 11.639353378912345 54.890993459496713 2.0441377501701927 11.786074916519281 23.393820150267857 0.2740552869872771 11.709906801406758 10.194718964463389 17.748541823588319 5.6704416130960444 0.46127039029670414 0.33721746047376733 4.1482661825575642 2.5377913467527833 0.13970039600008011
leaf_count=67319 947 68016 169398 349390 18309 26398 528038 1526 107946 6552 15497 609 1025393 8764 118368 663151 31106 188715 4804 1596 60182 31 29193 29101 73030 13624 1024 856 10863 8418 463
internal_value=0 0.0868639 -0.432726 -0.334587 -0.510922 0.418472 0.158548 0.175373 -0.0842335 -0.391593 0.343546 -0.700063 0.182807 -0.0319738 -0.042499 0.00796395 -0.271578 0.00474267 -0.63287 -0.663296 -0.600932 -0.934872 -0.401831 -0.71721 -0.228578 -0.231795 -1.01815 0.251275 -1.08176 -1.0004 -1.00007
internal_weight=0 1073.22 330.854 218.911 126.979 9.86892 756.859 730.576 316.363 27.7996 4.46472 23.3348 727.286 91.9319 288.563 234.952 53.6118 88.2544 117.11 111.944 95.2109 3.28997 35.1037 60.1072 26.2829 23.419 16.7328 0.798488 15.9343 2.86394 3.67746
internal_count=3628627 2662252 966375 664162 398901 44707 1651007 1554988 1011245 90674 22049 68625 1553431 265261 920571 771097 149474 256034 354194 302213 287874 1557 89375 198499 96019 86654 14339 1880 12459 9365 9227
cat_boundaries=0 1 2 3 4 5 6 7 8 9 10 11 12
cat_threshold=621326 192 2 928 2 3 1 2 2 1 1 2
shrinkage=0.1


Tree=16
num_leaves=32
num_cat=15
split_feature=6 6 3 4 5 0 8 7 5 2 5 7 3 7 7 5 7 4 4 5 5 7 4 3 5 4 4 4 8 5 4
split_gain=60.1363 13.548 10.6287 7.8134 11.2612 9.11522 7.30254 6.67877 4.96547 66.9463 52.7033 4.37848 5.74034 8.59575 4.28354 3.97744 3.96871 4.54381 3.25121 2.89464 4.39023 2.7747 2.60452 2.04763 1.95284 1.52949 1.42362 4.56328 1.67594 0.0217098 6.22025e-09
threshold=0 1 2 1.0000000180025095e-35 9.5000000000000018 3 4 5 157.50000000000003 6 182.00000000000003 7 8 9 10 28.500000000000004 11 9.5000000000000018 1.5000000000000002 15.500000000000002 2.5000000000000004 12 1.0000000180025095e-35 13 32.500000000000007 8.5000000000000018 4.5000000000000009 6.5000000000000009 14 43.500000000000007 1.0000000180025095e-35
decision_type=1 1 1 2 2 1 1 1 2 1 2 1 1 1 1 2 1 2 2 2 2 1 2 1 2 2 2 2 1 2 2
left_child=2 11 8 4 7 -6 16 -4 19 10 -10 15 14 -14 -13 23 17 -3 24 20 -1 -20 -18 -2 -8 -17 28 -28 -5 -21 -11
right_child=1 6 3 26 5 -7 18 -9 9 30 -12 12 13 -15 -16 25 22 -19 21 29 -22 -23 -24 -25 -26 -27 27 -29 -30 -31 -32
leaf_value=-0.071270593782685257 0.035602160249247873 -0.054780977891170785 0.040110723623227561 -0.033471049293519572 0.84929250150107061 0.16180157979232346 -0.049613825075115442 -0.031976721101856155 12.428652788059914 -0.1000649241560691 -0.10003682986246679 0.017860978610782674 -0.022763992885089304 0.024641473124657243 -0.011891635882709049 -0.080883263715135365 0.011559293674058087 0.44484654674344659 0.016875167174291626 -0.1000264384178353 -0.028945481707904785 -0.029756880845113701 -0.0081855789113317555 0.018218803432809218 -0.11518176453926199 0.16463623393706625 0.030645805058338905 -0.10000806345439089 -0.065710941267771522 -0.10895178604134122 -0.10002532643179129
leaf_weight=100.92743897479522 131.89929418046086 22.110539980250909 12.83824702345373 36.069980818659587 0.21067899444460639 2.2796848684326956 25.792274145194828 19.400050564414414 0.0079816472643869929 0.067591613710304865 0.005795559933176265 57.850658598188602 39.167187520186417 233.46442670858778 162.41471463704511 4.3761487514566388 140.46147577674162 0.18353425766690531 13.100651002818266 3.5456674089509752 32.366122163097316 35.551175549413529 127.40156785894817 139.35177573034161 5.5133542986077364 0.26934800188610086 8.4191853476295346 3.9168659897163698 29.158256954618992 11.777758612413889 0.096034387384975162
leaf_count=333458 206715 76875 48066 95672 1237 11031 74366 57206 20 163 21 161183 94816 493716 514721 5699 490188 690 39241 11473 91092 108593 394066 181091 7539 41 22937 10801 91763 3700 425
internal_value=0 0.065607 -0.458115 -0.243408 0.150805 2.19962 -0.0902133 -0.00746274 -0.65094 4.63644 71.583 0.140818 0.0803677 0.178999 -0.0380638 0.242224 -0.0189143 -0.349783 -0.360232 -0.657252 -0.609933 -0.198478 0.0209017 0.266717 -0.611612 -0.666479 -0.419913 -0.108386 -0.478829 -1.06887 -1.00042
internal_weight=0 1138.91 261.087 112.293 34.7287 2.49036 370.115 32.2383 148.794 0.177403 0.0137772 768.794 492.897 272.632 220.265 275.897 290.157 22.2941 79.9575 148.617 133.294 48.6518 267.863 271.251 31.3056 4.6455 77.5643 12.3361 65.2282 15.3234 0.163626
internal_count=3628605 2849540 779065 338713 117540 12268 1191558 105272 440352 629 41 1657982 1264436 588532 675904 393546 961819 77565 229739 439723 424550 147834 884254 387806 81905 5740 221173 33738 187435 15173 588
cat_boundaries=0 1 2 3 4 5 6 7 8 9 10 11 12 13 14 15
cat_threshold=611086 192 2 4 2 816 2 896 2 3 33 3 577 2 2
shrinkage=0.1


Tree=17
num_leaves=30
num_cat=12
split_feature=5 2 3 5 6 8 6 3 4 5 8 4 7 8 4 2 5 5 5 4 5 4 5 5 5 5 4 8 8
split_gain=98.817 305.226 472.752 60.0668 51.7024 49.4853 11.2439 10.1122 6.628 7.43399 4.78343 4.67374 3.65721 3.54895 3.73165 3.16989 2.75154 4.244 1.55267 1.35152 1.44404 3.61391 0.111015 0.0323774 0.0105374 0.00711842 5.23152e-08 6.10649e-10 6.67927e-11
threshold=157.50000000000003 0 1 182.00000000000003 2 3 4 5 1.0000000180025095e-35 9.5000000000000018 6 1.5000000000000002 7 8 2.5000000000000004 9 15.500000000000002 2.5000000000000004 154.50000000000003 8.5000000000000018 159.50000000000003 1.0000000180025095e-35 196.50000000000003 303.00000000000006 43.500000000000007 306.50000000000006 1.0000000180025095e-35 10 11
decision_type=2 1 1 2 1 1 1 1 2 2 1 2 1 1 2 1 2 2 2 2 2 2 2 2 2 2 2 1 1
left_child=4 19 3 5 7 -3 13 16 9 -9 12 -12 -8 15 -15 -6 17 -1 -10 20 21 -2 28 -22 -18 26 -4 -5 -21
right_child=1 2 25 27 6 -7 10 8 18 -11 11 -13 -14 14 -16 -17 24 -19 -20 22 23 -23 -24 -25 -26 -27 -28 -29 -30
leaf_value=-0.069051631646131581 0.41267548207890292 -6.0030950735185158 -0.10015492374404014 -0.10004184569586497 0.037866429247410606 -3.6747682678372722 -0.033935800419421756 -0.00087709342749706576 -0.040491598426417662 0.1630576788080414 -0.059677702550918567 -0.011247922675217611 0.0017173909914872589 -0.018329677954778342 0.025071350407039623 0.013882879711448935 -0.1000239026237167 -0.026519598076124168 0.16161674492756953 -0.10003122968941247 -0.10006815352878967 -0.10005142561348919 0.16867129674537315 -0.1215222505307838 -0.10654561995281311 -0.12393821362404395 -0.10004751783246016 -0.10001139851373142 -0.10001781715159715
leaf_weight=93.692877124376537 0.19502684598410081 0.21382744712173007 0.067201124940765911 0.014905510673997924 60.866956475903862 0.15927857453061731 21.784549031119241 32.280805196038273 73.930753388362064 3.0254302385437759 30.507156611623941 57.457205155469637 298.35361898322662 63.594011097447947 28.774565171981521 582.47934089102637 3.2103522211255013 31.297787102470465 0.38207628110103442 0.010706644323363436 1.2069889381875802 0.46579445826500887 0.24849064789304973 1.6860718008183537 10.852693241235102 0.31685876636765897 0.13946430759915529 0.011803397399489768 0.00568391322303785
leaf_count=332306 433 113 89 51 65041 48 78489 105551 214743 12221 80859 179181 1027765 357047 172249 898017 8511 87933 997 43 4125 1993 21 271 2936 33 508 45 28
internal_value=0 -4.60363 -20.9193 -46.8119 -0.0309716 -50.0913 0.0600712 -0.434676 -0.225035 0.131707 -0.072134 -0.28044 -0.017151 0.13339 -0.0480943 0.16152 -0.6312 -0.584016 -0.394525 -0.658651 -0.821066 0.512686 1.52045 -1.12572 -1.05057 -1.14521 -1.00082 -1.00028 -1.00027
internal_weight=0 4.7421 0.923339 0.399815 1392.49 0.373106 1143.82 248.673 109.619 35.3062 408.103 87.9644 320.138 735.715 92.3686 643.346 139.054 124.991 74.3128 3.81876 3.55388 0.660821 0.264881 2.89306 14.063 0.523524 0.206665 0.0267089 0.0163906
internal_count=3631647 7801 887 257 3623846 161 2858648 765198 333512 117772 1366294 260040 1106254 1492354 529296 963058 431686 420239 215740 6914 6822 2426 92 4396 11447 630 597 96 71
cat_boundaries=0 1 2 3 4 5 6 7 8 9 10 11 12
cat_threshold=1 2 611086 2 64 2 2 3 2 2 2 2
shrinkage=0.1


Tree=18
num_leaves=32
num_cat=14
split_feature=6 3 6 4 5 8 5 7 5 7 7 4 5 5 5 0 0 9 4 7 0 5 4 8 5 4 0 5 4 5 4
split_gain=46.7747 10.4083 8.9455 5.56635 5.51745 5.43986 4.33917 4.15703 4.04795 3.50442 3.47455 3.36641 3.06725 2.94497 3.39712 2.91928 2.84864 2.2527 2.20303 1.673 2.53609 2.37167 1.58257 1.42886 1.43945 1.15732 0.942801 0.529703 0.970045 0.119542 1.28088e-06
threshold=0 1 2 1.0000000180025095e-35 3.5000000000000004 3 15.500000000000002 4 2.5000000000000004 5 6 8.5000000000000018 154.50000000000003 1.0000000180025095e-35 17.500000000000004 7 8 9 1.5000000000000002 10 11 1.5000000000000002 8.5000000000000018 12 1.0000000180025095e-35 1.5000000000000002 13 158.50000000000003 4.5000000000000009 161.50000000000003 1.0000000180025095e-35
decision_type=1 1 1 2 2 1 2 1 2 1 1 2 2 2 2 1 1 1 2 1 1 2 2 1 2 2 1 2 2 2 2
left_child=1 6 10 4 7 9 8 -3 26 15 23 -11 17 25 -15 -4 -6 -12 -10 20 -5 -21 -14 30 -25 -7 -1 28 -8 -29 -2
right_child=2 3 5 19 16 13 27 -9 18 11 12 -13 22 14 -16 -17 -18 -19 -20 21 -22 -23 -24 24 -26 -27 -28 29 -30 -31 -32
leaf_value=-0.10000332354570907 -0.10023419355059543 0.027746164864568414 0.020575188898169873 -0.10001340986444562 0.3212794209723695 -0.10000443877682488 -0.10866065919895068 -0.032470313852249258 -0.046104025380785306 -0.013713601819528779 0.011752216207461289 0.12454551972392858 -0.11396041652259437 -0.006850220939391841 -0.074052787912433513 -0.011596780663179155 0.068846263592419465 0.038091550471535687 0.0089820247360823269 -0.068991532777150741 0.0094946479815635771 -0.022660123336187665 0.15109984839462026 -0.041567996959874891 0.0097381024399998215 -0.048532755124471375 -0.06361203861032326 -0.16726770155131232 0.024608946281007266 -0.11053156803942242 -0.10000886886954961
leaf_weight=7.8174834603851195 0.28393269127991549 11.134927807448546 91.843265936556691 2.3636298464334686 0.4747173415053112 5.8231660841264583 13.826965153341007 16.653688894894007 18.551751306327791 155.22658305967116 727.70146343437966 1.781287926241929 2.6027048826623509 42.938549013781085 9.1197227239299519 40.704851462902525 7.6672513689554744 33.987365600456428 11.927847443308563 32.245164169653435 20.090016898372827 16.807435996027607 0.24659649090608568 13.683730220000148 9.1083067613290023 17.485281408746232 79.68881104106913 1.7892756900691886 0.56863361881551178 0.46862849101557902 2.2634045340528246
leaf_count=31438 887 37399 352776 6215 1957 17437 10676 47796 60381 469049 1524826 7506 1399 123437 22113 147626 31263 63621 25843 108125 51587 46895 21 60193 26457 52419 300839 153 468 311 7554
internal_value=0 -0.424017 0.0511918 -0.209408 0.111698 -0.0770732 -0.62676 -0.100415 -0.559314 -0.0168954 0.110673 -0.114178 0.123782 -0.3185 -0.18623 0.0994504 0.835644 0.129275 -0.245467 -0.370758 -0.0140653 -0.441217 -0.910204 -0.207963 -0.210647 -0.61392 -0.668631 -1.1046 -1.03396 -1.55492 -1.00034
internal_weight=0 242.076 1154.8 107.437 35.9306 364.923 134.639 27.7886 117.986 289.556 789.878 157.008 764.538 75.3667 52.0583 132.548 8.14197 761.689 30.4796 71.5062 22.4536 49.0526 2.8493 25.3394 22.792 23.3084 87.5063 16.6535 14.3956 2.2579 2.54734
internal_count=3638667 761346 2877321 331237 118415 1192363 430109 85195 418501 976957 1684958 476555 1589867 215406 145550 500402 33220 1588447 86224 212822 57802 155020 1420 95091 86650 69856 332277 11608 11144 464 8441
cat_boundaries=0 1 2 3 4 5 6 7 8 9 10 11 12 13 14
cat_threshold=611086 2 192 2 816 836 2 1 8 1 832 4 1 4
shrinkage=0.1


Tree=19
num_leaves=32
num_cat=14
split_feature=6 3 8 6 4 7 4 5 7 5 5 5 5 3 5 0 5 5 5 0 7 0 0 7 5 5 0 5 5 4 5
split_gain=39.7116 9.44303 7.46096 6.22635 4.72927 4.70486 4.48071 8.52427 4.14376 13.8886 4.13221 18.7873 4.01342 3.99699 3.90309 3.89911 3.22003 2.83858 4.40003 2.29201 2.21497 1.55336 1.44839 1.43318 2.56093 2.19409 0.97029 0.948004 0.411571 0.901055 0.0811516
threshold=0 1 2 3 1.0000000180025095e-35 4 1.5000000000000002 2.5000000000000004 5 19.500000000000004 124.50000000000001 123.50000000000001 15.500000000000002 6 2.5000000000000004 7 4.5000000000000009 3.5000000000000004 1.5000000000000002 8 9 10 11 12 2.5000000000000004 1.5000000000000002 13 1.0000000180025095e-35 158.50000000000003 4.5000000000000009 161.50000000000003
decision_type=1 1 1 1 2 1 2 2 1 2 2 2 2 1 2 1 2 2 2 1 1 1 1 1 2 2 1 2 2 2 2
left_child=1 12 3 10 8 27 17 15 19 -10 11 -2 14 -9 26 -8 -7 18 -4 -3 -16 -19 -12 24 -6 -25 -1 -5 29 -14 -30
right_child=2 4 6 5 23 16 7 13 9 -11 22 -13 28 -15 20 -17 -18 21 -20 -21 -22 -23 -24 25 -26 -27 -28 -29 30 -31 -32
leaf_value=-0.10000300690987787 0.013806504861035851 0.12131249540896896 -0.048609450839735821 -0.089278920411229645 0.022255017956674367 -0.0058059710440865053 -0.073945084341945397 0.080775186698033477 -0.051616876941077521 0.47037445563098984 0.07408891839385344 2.0004361193642088 -0.10683106519307886 0.008797471132092961 0.017214076853582394 -0.012080182843851244 0.020949043119583028 0.11687408281385321 0.046802132637421709 0.033012516598660224 -0.031819985536485011 -0.0685874557636309 -0.094449960362065377 -0.066714025991654033 -0.048655619819166745 -0.021349355158576177 -0.061257771183263324 -0.043604054248600692 -0.15833453641240028 0.02034451385595893 -0.10952136847357295
leaf_weight=7.0743713050178485 687.33345113552059 3.6146176084621402 13.618827174497712 9.3242308323497145 14.722644501009201 216.55048864175478 11.50956625204708 13.826166879693119 16.532153425840082 0.52593778904701949 0.57347165962482893 0.047605906649549889 12.703114305739287 17.454874604787619 8.7684532905077486 88.706561347526076 56.777295579360953 0.46045167212287202 7.492580136495234 15.74258066350558 20.798915445433526 23.52448144202754 4.5996411369337684 30.039371598111757 7.7866449468519923 16.52738658525459 74.847206514285062 8.864126674277939 1.7059672794130158 0.58266736321093127 0.42553849831097057
leaf_count=31438 1061800 13223 49732 34143 36305 691583 53141 56071 50697 1725 1151 94 9845 72690 26832 455634 262086 1513 26003 56970 52195 75371 4241 107980 21017 43779 301214 32663 135 511 269
internal_value=0 -0.398815 0.045981 0.0803411 -0.194884 -0.0426785 -0.142888 -0.0496054 0.0967314 -0.223944 0.130851 0.139441 -0.59976 0.406115 -0.533629 -0.191852 -0.00239496 -0.414891 -0.147472 0.326394 -0.222184 -0.650271 -0.757664 -0.348617 -0.0157528 -0.416658 -0.646036 -0.432437 -1.07798 -1.01254 -1.48589
internal_weight=0 232.398 1160.66 984.07 105.491 291.516 176.594 131.497 36.4153 17.0581 692.554 687.381 126.906 31.281 111.489 100.216 273.328 45.0963 21.1114 19.3572 29.5674 23.9849 5.17311 69.076 22.5093 46.5668 81.9216 18.1884 15.4173 13.2858 2.13151
internal_count=3632051 754135 2877916 2087761 331696 1020475 790155 637536 122615 52422 1067286 1061894 422439 128761 411679 508775 953669 152619 75735 70193 79027 76884 5392 209081 57322 151759 332652 66806 10760 10356 404
cat_boundaries=0 1 2 3 4 5 6 7 8 9 10 11 12 13 14
cat_threshold=611086 2 2 8397888 3 824 2 4 2 896 8 2 832 4
shrinkage=0.1


Tree=20
num_leaves=32
num_cat=13
split_feature=6 3 8 6 4 7 6 5 7 5 1 7 5 7 3 2 7 5 5 5 5 5 4 4 5 5 5 4 5 4 5
split_gain=33.4298 8.76374 6.13136 5.02006 4.05892 3.96579 3.87653 3.71375 4.29638 7.30274 4.85425 3.6758 4.30878 3.55117 4.72002 3.52681 3.43313 3.05727 2.92198 8.86907 2.63889 2.54231 1.47634 4.30787 1.19109 0.959839 0.327244 0.834164 0.0556458 0.0429936 1.76371e-07
threshold=0 1 2 3 1.0000000180025095e-35 4 5 15.500000000000002 6 14.500000000000002 7 8 1.0000000180025095e-35 9 10 11 12 4.5000000000000009 17.500000000000004 15.500000000000002 4.5000000000000009 9.5000000000000018 6.5000000000000009 4.5000000000000009 3.5000000000000004 1.0000000180025095e-35 158.50000000000003 4.5000000000000009 161.50000000000003 1.0000000180025095e-35 154.50000000000003
decision_type=1 1 1 1 2 1 1 2 1 2 1 1 2 1 1 1 1 2 2 2 2 2 2 2 2 2 2 2 2 2 2
left_child=1 7 3 13 16 25 18 8 9 -1 -10 15 -13 17 -15 -8 24 -2 19 -4 -7 -18 23 -6 -3 -5 27 -9 -28 -20 -24
right_child=2 4 6 5 22 20 11 26 10 -11 -12 12 -14 14 -16 -17 21 -19 29 -21 -22 -23 30 -25 -26 -27 28 -29 -30 -31 -32
leaf_value=-0.0073884465303246522 0.025807770862936792 -0.060106718120339075 -0.037746136627706303 -0.088282748105559694 -0.038912723753463149 -0.0054706808121199636 -0.10001792684142066 -0.10501858736499917 -0.071239908829933155 0.80893480274061647 0.11845118471025229 -0.037363157928158967 0.0042237845126064438 -0.0061301073720722412 0.014920723136851619 0.04543938603912339 0.024527622272628738 -0.0041251392610972123 -0.11703101975670921 0.46518030883605843 0.018570954839007673 0.12106229003165431 -0.10000477914652638 0.040251495626895312 0.016020265633909188 -0.040707275636180582 -0.15088164020020256 0.01590383409080294 -0.10861561286794337 -0.10004522845154723 -0.10019540172796176
leaf_weight=28.072557836479977 228.64157407619496 10.025584589828211 38.548811224760357 8.5319767631370969 55.651793625875143 215.7826284053881 1.7910872756765457 11.717154174177264 76.485375755830319 0.11001717400358656 1.3732720452971978 41.502114759077813 62.331850901777216 188.44580438215621 244.98437479627933 24.041661804592767 20.877385477000647 40.107744639130033 2.9130644917167947 0.35386511906108253 57.907632515734576 3.1381857109872717 3.0324781981034898 7.8426162246387312 2.5852461330578071 8.4312090097228047 1.615273182796954 0.59967296732793407 0.38591479161425457 3.0507414522489853 0.049327268454362527
leaf_count=87797 210258 31626 119231 34120 173082 695024 8020 9607 319994 327 4500 232971 293330 453814 365321 112238 73338 41431 591 910 272453 9722 9558 22281 10604 32310 118 542 237 8145 138
internal_value=0 -0.374139 0.0401171 0.0708469 -0.177059 -0.0399635 -0.132391 -0.574212 -0.509666 -0.0310131 -0.601665 -0.0267835 -0.113092 0.115637 0.0563821 0.254878 0.0903173 0.20575 -0.352964 -0.331714 -0.00370396 0.262229 -0.324153 -0.291346 -0.248195 -0.406643 -1.05225 -0.991312 -1.42731 -1.08342 -1.00008
internal_weight=0 223.562 1167.37 992.833 103.203 290.653 174.533 120.359 106.041 28.1826 77.8586 129.667 103.834 702.179 433.43 25.8327 36.6264 268.749 44.8665 38.9027 273.69 24.0156 66.5762 63.4944 12.6108 16.9632 14.318 12.3168 2.00119 5.96381 3.08181
internal_count=3633638 753471 2880167 2104731 330349 1033907 775436 423122 412618 88124 324494 646559 526301 1070824 819135 120258 125290 251689 128877 120141 967477 83060 205059 195363 42230 66430 10504 10149 355 8736 9696
cat_boundaries=0 1 2 3 4 5 6 7 8 9 10 11 12 13
cat_threshold=611086 2 2 8397888 3 10759168 896 1 773 896 2 2 135
shrinkage=0.1


Tree=21
num_leaves=32
num_cat=12
split_feature=6 7 6 5 3 5 3 1 3 7 5 4 4 4 5 5 5 1 5 4 9 5 5 6 5 5 4 4 8 4 5
split_gain=28.9461 7.05152 8.55677 10.2519 9.61538 4.73157 6.81592 4.2407 3.89935 3.74154 3.35086 3.34377 5.24284 4.05023 3.18248 2.63358 4.02958 3.0496 2.35478 2.20395 2.03449 5.70996 1.75393 1.60104 5.6242 1.83557 1.46251 0.96246 0.270611 1.35162 0.720269
threshold=0 1 2 8.5000000000000018 3 12.500000000000002 4 5 6 7 1.5000000000000002 8.5000000000000018 11.500000000000002 1.0000000180025095e-35 11.500000000000002 15.500000000000002 2.5000000000000004 8 6.5000000000000009 1.0000000180025095e-35 9 1.5000000000000002 154.50000000000003 10 1.5000000000000002 1.0000000180025095e-35 3.5000000000000004 1.5000000000000002 11 4.5000000000000009 157.50000000000003
decision_type=1 1 1 2 1 2 1 1 1 1 2 2 2 2 2 2 2 1 2 2 1 2 2 1 2 2 2 2 1 2 2
left_child=8 5 11 10 -5 9 7 -7 15 18 -4 13 -13 -3 -11 16 27 -18 -2 23 22 -22 -21 24 -10 -25 -8 -1 29 -17 -30
right_child=1 2 3 4 -6 6 26 -9 19 14 -12 12 -14 -15 -16 28 17 -19 -20 20 21 -23 -24 25 -26 -27 -28 -29 30 -31 -32
leaf_value=-0.050637407643620902 0.050014867695961668 -0.011805036225519223 -0.0080798126672095138 -0.0021646220251316396 0.10662152408696157 -0.017069210668928646 -0.089026056120231331 0.085532949673460326 -0.029109772890773235 0.0088355671967398179 0.012235756997412736 0.23100868151262466 -0.10001180551881193 -0.046895431656199839 0.11620779662308758 -0.10705750636073481 0.13612834417079786 -0.02344403435380641 -0.055262502273883976 -0.046821967571341355 -0.10000326297276592 0.25266272324366762 0.17300109453546794 0.0078317204885536354 0.12045021408771801 -0.054561445953338922 0.010095662556897545 -0.076800343732749271 -0.096681709846089675 0.072230609785784702 -0.17332551145274699
leaf_weight=26.334103662415146 44.63478634945568 62.33000936260953 300.06914710181093 15.287963250078294 17.340889170390138 14.020085827704637 12.982205951902754 5.6523959017522403 5.6420430392754497 561.85346442464652 111.30468149292574 1.2083893260496545 0.79211981821845245 69.647598283677098 2.7740909562926381 2.1850971032425837 1.270450188407267 20.898003639973471 2.2308042434669906 41.365340808017208 0.99739427531312563 0.85065125347250603 0.36617863951141671 8.345930121533458 4.5357169644994428 10.838577224298204 1.6813266897236179 30.169348800067382 8.0037139455380366 0.52068389726196063 1.4479641746511323
leaf_count=119869 94382 187747 831555 32279 30006 34875 23948 15065 17878 1240456 291911 4649 3234 243350 8185 3031 3513 57805 7196 129028 4023 2404 1100 24230 17983 39506 5003 148658 5292 274 70
internal_value=0 0.0279811 -0.0518524 0.0165905 0.556507 0.0991289 -0.26055 0.12411 -0.408053 0.120946 -0.0258307 -0.26407 0.999381 -0.30323 0.0920016 -0.571247 -0.504309 -0.142991 0.370896 -0.260782 -0.403463 0.623281 -0.448931 -0.0490139 0.189362 -0.180234 -0.776607 -0.646068 -1.00441 -0.725564 -1.08423
internal_weight=0 1223.81 577.981 444.003 32.6289 645.829 34.336 19.6725 163.771 611.493 411.374 133.978 2.00051 131.978 564.628 90.8294 78.6719 22.1685 46.8656 72.9418 43.5796 1.84805 41.7315 29.3623 10.1778 19.1845 14.6635 56.5035 12.1575 2.70578 9.45168
internal_count=3628505 3053841 1624731 1185751 62285 1429110 78891 49940 574664 1350219 1123466 438980 7883 431097 1248641 338512 329845 61318 101578 236152 136555 6427 130128 99597 35861 63736 28951 268527 8667 3305 5362
cat_boundaries=0 1 2 3 4 5 6 7 8 9 10 11 12
cat_threshold=610830 960 8686897 2 1 1 2 512 2 1 6 2
shrinkage=0.1


Tree=22
num_leaves=32
num_cat=14
split_feature=6 4 7 5 4 7 6 9 4 5 5 4 5 6 5 5 4 5 2 6 4 3 5 0 3 5 8 8 5 4 3
split_gain=24.863 6.44149 5.41639 6.99715 6.71264 5.13229 4.9296 6.75453 3.94745 3.89819 5.69173 3.41509 6.59468 2.86169 8.77965 3.21505 2.85451 2.70452 2.47708 2.8814 2.24034 1.20553 2.95 1.16614 0.846659 0.443003 0.266521 0.264276 0.370458 0.114813 5.26691e-10
threshold=0 1.0000000180025095e-35 1 1.5000000000000002 1.5000000000000002 2 3 4 1.5000000000000002 1.5000000000000002 15.500000000000002 2.5000000000000004 7.5000000000000009 5 28.500000000000004 31.500000000000004 1.5000000000000002 14.500000000000002 6 7 9.5000000000000018 8 106.50000000000001 9 10 5.5000000000000009 11 12 1.0000000180025095e-35 2.5000000000000004 13
decision_type=1 2 1 2 2 1 1 1 2 2 2 2 2 1 2 2 2 2 1 1 2 1 2 1 1 2 1 1 2 2 1
left_child=9 5 3 20 -5 18 7 -4 -8 16 11 17 -13 14 -7 -15 23 -11 19 -2 -3 22 -12 30 -25 -20 -23 28 -18 -29 -1
right_child=1 2 6 4 -6 13 8 -9 -10 10 21 12 -14 15 -16 -17 27 -19 25 -21 -22 26 -24 24 -26 -27 -28 29 -30 -31 -32
leaf_value=-0.10000232384292246 0.0030242217120038137 -0.066808354227836583 0.0024642682293457745 -0.053295079864471288 0.053628466681307579 -0.029941903016801531 -0.03876437786480029 0.07403719661810966 -0.0062451286527234074 -0.02994062219606863 -0.075216476795631718 0.0077418418288153022 0.23015572521417924 0.015996476467250855 0.33008302153313607 -0.046987418920212992 -0.082196758916208645 0.15935696650347986 -0.10006657607089904 -0.029243164912572169 0.18875675173456982 -0.067603052605954464 0.1287568324743236 -0.050130601714652126 -0.016734058061919473 -0.035187510495815082 -0.10554205622720006 -0.080729862308541608 -0.054161651840182456 -0.10000264116244564 -0.10000498967796792
leaf_weight=1.5252659083926119 91.847615470658639 36.137257952363143 325.14364449785216 10.697088958167798 13.015455827390268 27.099988573227169 52.222829440944679 13.74284864719891 130.87624333460974 35.679957065252893 3.7574351852235832 11.137164808686064 1.5143964560702432 506.34643334642897 0.6947125287133521 8.2363812844707791 16.847959526616254 0.77105553592991682 3.3444209673398282 29.53411803156132 0.34630035507870965 2.3508251383956349 0.87397049184301057 16.041011164224983 14.410730727009652 1.5357047419893204 8.7202691892962303 5.1887118094928137 6.5442204446535461 7.6457616669504205 1.4415795095992507
leaf_count=8740 202420 154309 941256 35388 47539 114714 165308 37631 435534 118261 11307 30149 4537 876085 1284 9966 78740 2074 7001 109301 1445 3017 2339 78999 46361 3326 4996 27183 27447 37892 4512
internal_value=0 0.0210167 -0.0557216 -0.3164 0.0539363 0.0881468 -0.0192299 0.0521294 -0.147164 -0.417083 -0.271585 -0.103994 0.343649 0.12909 -0.15402 0.147026 -0.612356 -0.259364 -0.0907661 -0.0698699 -0.643825 -0.79565 -0.367256 -0.40157 -0.343263 -0.796501 -0.974861 -0.806802 -0.743536 -0.922111 -1.00004
internal_weight=0 1250.82 582.182 60.1961 23.7125 668.639 521.986 338.886 183.099 134.45 64.8051 49.1026 12.6516 542.378 27.7947 514.583 69.6452 36.451 126.262 121.382 36.4836 15.7025 4.63141 33.4186 30.4517 4.88013 11.0711 36.2267 23.3922 12.8345 2.96685
internal_count=3629061 3142507 1818410 238681 82927 1324097 1579729 978887 600842 486554 176680 155021 34686 1002049 115998 886051 309874 120335 322048 311721 155754 21659 13646 138612 125360 10327 8013 171262 106187 65075 13252
cat_boundaries=0 1 2 3 4 5 6 7 8 9 10 11 12 13 14
cat_threshold=610822 10 19 22151376 1 22020480 1 8398144 1 4 2 2 2 2
shrinkage=0.1


end of trees

feature importances:
adm_past_year=236
count_proc=136
agegroup_rm=73
an100mdc_ra=59
flag_emergency=59
gender=49
pat_remoteness=48
cc_diabetes_complications=9
cc_diabetes=9
indstat_flag=8

parameters:
[boosting: goss]
[objective: cross_entropy]
[metric: cross_entropy]
[tree_learner: serial]
[device_type: cpu]
[data: ]
[valid: ]
[num_iterations: 100]
[learning_rate: 0.1]
[num_leaves: 32]
[num_threads: 4]
[max_depth: 5]
[min_data_in_leaf: 20]
[min_sum_hessian_in_leaf: 0.001]
[bagging_fraction: 1]
[pos_bagging_fraction: 1]
[neg_bagging_fraction: 1]
[bagging_freq: 0]
[bagging_seed: 3]
[feature_fraction: 1]
[feature_fraction_bynode: 1]
[feature_fraction_seed: 2]
[early_stopping_round: 0]
[first_metric_only: 0]
[max_delta_step: 0]
[lambda_l1: 0]
[lambda_l2: 0]
[min_gain_to_split: 0]
[drop_rate: 0.1]
[max_drop: 50]
[skip_drop: 0.5]
[xgboost_dart_mode: 0]
[uniform_drop: 0]
[drop_seed: 4]
[top_rate: 0.2]
[other_rate: 0.1]
[min_data_per_group: 100]
[max_cat_threshold: 32]
[cat_l2: 10]
[cat_smooth: 10]
[max_cat_to_onehot: 4]
[top_k: 20]
[monotone_constraints: ]
[feature_contri: ]
[forcedsplits_filename: ]
[forcedbins_filename: ]
[refit_decay_rate: 0.9]
[cegb_tradeoff: 1]
[cegb_penalty_split: 0]
[cegb_penalty_feature_lazy: ]
[cegb_penalty_feature_coupled: ]
[verbosity: 1]
[max_bin: 255]
[max_bin_by_feature: ]
[min_data_in_bin: 3]
[bin_construct_sample_cnt: 200000]
[histogram_pool_size: -1]
[data_random_seed: 1]
[output_model: LightGBM_model.txt]
[snapshot_freq: -1]
[input_model: ]
[output_result: LightGBM_predict_result.txt]
[initscore_filename: ]
[valid_data_initscores: ]
[pre_partition: 0]
[enable_bundle: 1]
[max_conflict_rate: 0]
[is_enable_sparse: 1]
[sparse_threshold: 0.8]
[use_missing: 1]
[zero_as_missing: 0]
[two_round: 0]
[save_binary: 0]
[header: 0]
[label_column: ]
[weight_column: ]
[group_column: ]
[ignore_column: ]
[categorical_feature: ]
[predict_raw_score: 0]
[predict_leaf_index: 0]
[predict_contrib: 0]
[num_iteration_predict: -1]
[pred_early_stop: 0]
[pred_early_stop_freq: 10]
[pred_early_stop_margin: 10]
[convert_model_language: ]
[convert_model: gbdt_prediction.cpp]
[num_class: 1]
[is_unbalance: 0]
[scale_pos_weight: 1]
[sigmoid: 1]
[boost_from_average: 1]
[reg_sqrt: 0]
[alpha: 0.9]
[fair_c: 1]
[poisson_max_delta_step: 0.7]
[tweedie_variance_power: 1.5]
[max_position: 20]
[lambdamart_norm: 1]
[label_gain: ]
[metric_freq: 1]
[is_provide_training_metric: 0]
[eval_at: ]
[multi_error_top_k: 1]
[num_machines: 1]
[local_listen_port: 12400]
[time_out: 120]
[machine_list_filename: ]
[machines: ]
[gpu_platform_id: -1]
[gpu_device_id: -1]
[gpu_use_dp: 0]

end of parameters

pandas_categorical:[[0, 1, 2, 3], [0, 1], [0, 1], [1, 2], [0, 1, 2, 3, 4, 5, 6, 7, 8, 9, 10, 11, 12, 13, 14, 15, 16, 17, 18, 19, 20, 21, 22, 23, 99], [0, 1, 2, 3, 4, 5, 6, 7, 8, 9], [0, 1], [0, 1]]
