tree
version=v3
num_class=1
num_tree_per_iteration=1
label_index=0
max_feature_idx=9
objective=cross_entropy
feature_names=cc_depression cc_spina_bifida flag_emergency cc_tetplg_prplg_dplg_hmplg_dt count_proc an100mdc_ra agegroup_rm pat_remoteness indstat_flag adm_past_year
feature_infos=1:0 1:0 1:0 1:0 [0:50] 6:5:8:14:1:4:11:3:21:23:9:19:2:13:7:10:18:20:12:16:22:15:0:24:17 3:6:7:2:5:4:8:0:1:9 1:0:2:3 1:0 [0:340]
tree_sizes=3327 2759 3184 3172 3168 2969 1657 2455 2479 2671 1926 3099 2149 2847 3018 2966 3186 2460 2595 3169 2952 2952 2810 3070 3060

Tree=0
num_leaves=31
num_cat=10
split_feature=3 9 7 8 9 4 9 1 9 7 4 9 4 8 4 7 5 4 9 4 4 1 4 4 4 4 9 2 9 4
split_gain=1472.87 1376.81 1446.06 1586.11 1992.92 1362.19 1778.77 1068.12 723.796 681.576 426.273 919.748 417.331 280.596 337.436 2080.59 180.272 473.719 465.331 234.774 122.636 153.738 128.697 117.743 102.74 185.908 36.8629 22.2223 7.54777 6.93889e-18
threshold=0 7.5000000000000009 1 2 15.500000000000002 3.5000000000000004 10.500000000000002 3 1.5000000000000002 4 1.0000000180025095e-35 2.5000000000000004 8.5000000000000018 5 6.5000000000000009 6 7 23.500000000000004 1.5000000000000002 3.5000000000000004 3.5000000000000004 8 17.500000000000004 3.5000000000000004 4.5000000000000009 5.5000000000000009 3.5000000000000004 9 1.5000000000000002 3.5000000000000004
decision_type=1 2 1 1 2 2 2 1 2 1 2 2 2 1 2 1 1 2 2 2 2 1 2 2 2 2 2 1 2 2
left_child=7 13 5 4 -4 6 -3 16 24 -5 11 -10 -12 14 23 -16 17 19 -19 -1 21 -15 -22 -2 29 -26 28 -28 -18 -9
right_child=1 2 3 9 -6 -7 -8 8 10 -11 12 -13 -14 20 15 -17 26 18 -20 -21 22 -23 -24 -25 25 -27 27 -29 -30 -31
leaf_value=-10.536506436132843 -1.9563403284397509 99.771042092905716 73.908154101383118 66.221789365986879 -10.906905047305369 -10.906905047305367 11.129864785075972 -10.906905047305386 61.330701427621264 -6.7675034184127556 -0.53666042030038597 6.4436624129901556 51.57710055334563 9.3235721758647525 122.50489069461941 -10.906905047305369 -10.886289078085481 84.020718845890627 -10.906905047305289 -9.1558715309078504 -9.9958241240025991 -8.3565638250733745 3.8281291092730783 -10.906905047305383 19.752948632526902 -10.906905047305367 -10.699617430053916 -10.863401328669532 -10.834836678453689 -10.906905047305365
leaf_weight=12.149073548271188 0.044689917322102701 0.0045176117691880791 0.0058951794835593319 0.0012965343194082379 0.0052266539751144592 0.0047201952565956171 0.0045378701179288328 0.042785632540470846 0.0041529614918545113 0.096632323493395123 0.038571896002395079 0.011527000433488864 0.0016004095505195428 0.0049430370927439071 0.0014991178068157751 0.0053076873700774732 160.07008655744357 0.0010534341345199696 0.0010129174370376861 1.3706191007531732 0.87807786781922914 0.98026097886759023 0.0067865468281524954 0.021899274988754769 0.003261594147261349 0.005024070487706922 20.744123685208251 13.791924339402611 34.689282174485925 0.0046391618616326005
leaf_count=599707 2206 223 291 64 258 233 224 2112 205 4770 1904 569 79 244 74 262 7901438 52 50 67657 43344 48388 335 1081 161 248 1023979 680802 1712345 229
internal_value=0 26.5856 129.265 90.7005 448.566 434.55 661.582 -0.226131 97.5992 50.0575 178.044 317.878 123.464 20.0963 80.7483 292.824 -0.271077 2.40109 482.945 4.10365 17.7159 25.3905 9.17103 59.0698 16.9499 119.69 -0.511084 0.418787 -0.702217 -1.00002
internal_weight=0 2.06629 0.122826 0.109051 0.0111218 0.0137757 0.00905548 242.929 0.111563 0.0979289 0.0558523 0.01568 0.0401723 1.94346 0.073396 0.00680681 242.817 13.5218 0.00206635 13.5197 1.87007 0.985204 0.884864 0.0665892 0.0557105 0.00828566 229.295 34.536 194.759 0.0474248
internal_count=12093534 101997 6063 5383 549 680 447 11991537 5507 4834 2757 774 1983 95934 3623 336 11986030 667466 102 667364 92311 48632 43679 3287 2750 409 11318564 1704781 9613783 2341
cat_boundaries=0 1 2 3 4 5 6 7 8 9 10
cat_threshold=1 4 2 1 8 2 8 262656 2 2
shrinkage=1


Tree=1
num_leaves=26
num_cat=14
split_feature=4 1 4 7 3 4 4 3 9 3 7 4 8 4 1 4 1 4 8 9 8 4 7 8 1
split_gain=22618.8 139375 2.4669e+06 19597.1 71750.3 233738 4968.2 9033.13 4449.25 105938 2.7165e+07 3.19357e+07 1.6844e+07 8744.28 116828 3358.7 2686.47 231180 422906 57649.4 229.359 142.281 9158.5 75.7344 51.0039
threshold=8.5000000000000018 0 15.500000000000002 1 2 12.500000000000002 17.500000000000004 3 7.5000000000000009 4 5 3.5000000000000004 6 1.0000000180025095e-35 7 24.500000000000004 8 1.0000000180025095e-35 9 1.5000000000000002 10 6.5000000000000009 11 12 13
decision_type=2 1 2 1 1 2 2 1 2 1 1 2 1 2 1 2 1 2 1 2 1 2 1 1 1
left_child=8 3 -3 4 5 -2 20 -8 16 13 11 -11 -12 14 -10 -6 17 18 -1 -19 -5 23 -23 -18 -15
right_child=1 2 -4 6 15 -7 7 -9 9 10 12 -13 -14 24 -16 -17 21 19 -20 -21 -22 22 -24 -25 -26
leaf_value=-4.6345241326837394 -1224.1295710171257 -3895.0322178765996 -30.98794479377365 0.061140309310665143 -0.10000410136439307 -103.90396119093528 -4.6777113584615275 -27.400581874677741 0.13978944458037856 -13422.670716307639 -1.1730408676478887 -0.10000183580479681 -6066.4769987780237 -0.15846975943974706 -62.355192490555602 -170.55418714650955 -0.10827376857358062 -25.389938967844824 -110.89083115428735 -0.18427175013766625 -4.5659877426422781 -31.019040649003372 0.075523173053929249 -0.027534969698838535 0.04574602640558869
leaf_weight=1.2579450418779743 0.0020424343238119027 0.0017201839800681231 0.041814880620222539 2.4821440582782088 0.078224718674391611 0.021153218414838196 6.9252009590200032 0.17948337396046543 3.7532576997364222 0.0032854617747943848 5.312576067633926 0.0038494145701406528 0.0045826363930244734 112.45678344368935 0.32503219437785441 0.0011733358132914864 246.93590130281706 0.90988846825780356 0.5333986197297792 331.72981250619705 0.1119574189524396 0.09702760383515853 3.987997087166149 219.40619918343862 13.722277093413139
leaf_count=111 72 144 21 97586 3217 29 352 8333 167822 447 4690 210 533 483 205 62 516442 2101 1261 1576 4604 3832 172118 10464819 642464
internal_value=0 -51.3701 -1836.66 -43.4403 -478.202 -2025.43 -38.8414 -52.5175 -3.18749 -8.48702 -146.747 -61809.1 -64.0047 -2.83562 -48.4095 -26.1896 -2.29476 -4.46159 -362.739 -2.53218 -1.38559 -0.754347 -6.63036 -0.702875 -1.36261
internal_weight=0 9.84491 0.0435351 9.80138 0.102594 0.0231957 9.69879 7.10468 940.44 135.582 5.32429 0.00713488 5.31716 130.257 4.07829 0.0793981 804.858 334.431 1.79134 332.64 2.5941 470.427 4.08502 466.342 126.179
internal_count=12093534 114420 165 114255 3380 101 110875 8685 11979114 816854 5880 657 5223 810974 168027 3279 11162260 5049 1372 3677 102190 11157211 175950 10981261 642947
cat_boundaries=0 1 2 3 4 5 6 7 8 9 10 11 12 13 14
cat_threshold=1 8 2 2 1 4 1 1 2 2 1 8 2 2
shrinkage=0.1


Tree=2
num_leaves=30
num_cat=13
split_feature=1 3 8 9 4 9 4 4 7 4 9 4 8 4 3 9 7 9 8 8 3 7 9 4 0 3 9 9 9
split_gain=156.869 9604.52 261956 406343 140928 720.595 312.617 228.834 33123.5 87104.9 845095 12191.1 459.192 85249 123.542 118.709 87.1904 3998.24 16824.9 73.5171 66.3108 55.252 26.7407 14.1779 13.352 10.7018 7.12843 3.70002 1.2438e-14
threshold=0 1 2 7.5000000000000009 3.5000000000000004 6.5000000000000009 1.0000000180025095e-35 6.5000000000000009 3 8.5000000000000018 8.5000000000000018 12.500000000000002 4 8.5000000000000018 5 3.5000000000000004 6 7.5000000000000009 7 8 9 10 12.500000000000002 7.5000000000000009 11 12 6.5000000000000009 1.0000000180025095e-35 15.500000000000002
decision_type=1 1 1 2 2 2 2 2 1 2 2 2 1 2 1 2 1 2 1 1 1 1 2 2 1 1 2 2 2
left_child=1 6 5 4 -4 -3 15 16 9 10 -9 -11 13 -10 -14 21 17 25 -19 22 -21 -1 -18 27 -25 -2 -17 -8 -5
right_child=7 2 3 28 -6 -7 23 8 12 11 -12 -13 14 -15 -16 26 19 18 -20 20 -22 -23 -24 24 -26 -27 -28 -29 -30
leaf_value=-0.71051274946648979 -0.10932636788833959 -0.11154987886397122 -920.47096812541213 -0.10003560268838659 -0.10000379009112254 72.066745502426599 0.16626669671329566 -2912.0512451149725 0.489654766391727 1.866639163069084 -21.37175708221341 -90.402558485818645 -0.14091511965230338 -857.27437838957997 -0.59968997697877668 -0.71051844090068439 -0.10726173069908287 0.26332688667845144 -38.020862821604076 -0.031136937092247786 0.19383412206319472 -2.1575807915377796 0.55637888842980443 -1.0571594342562296 -0.26592374599982999 0.045845691810772596 -0.29706945900292181 -0.14796358936213272 -0.10003542774343982
leaf_weight=0.36280509790890303 60.099782000088453 0.76688983912726516 0.0096679144846885199 0.011028537875972688 0.0020094790302625969 0.0013856771747668964 0.375061335507893 0.0011332607336965736 0.16958959036855958 0.050848071718064609 0.0094021409058768768 0.019932990685590863 70.352519807697732 0.001166623764385726 6.4040197832018881 3.0233476310968403 165.44585452385579 0.55046426619810518 0.14503890348896575 214.91256489103674 13.952394202404205 0.96747551417627131 0.60940166387808758 0.22013592948735547 6.8397278888622273 4.7995223000489338 0.48373562097549433 413.21021480276261 0.006436839536036131
leaf_count=686 1766 32 244 32 116 22 1136 3878 6715 2370 277 1010 9640 4963 270093 216 420157 22058 6266 10975181 86479 334 25476 27 183 251232 246 2679 20
internal_value=0 -1.79818 -111.443 -3054.27 -7620.91 0.186323 -1.59269 -0.985884 -2.58145 -640.477 -3323.13 -241.177 -1.90716 -53.7068 -1.79192 -9.58586 -0.719069 -1.78673 -77.2038 -0.541735 -0.174219 -17.6292 -1.04826 -1.50077 -2.90596 -0.978509 -6.53491 -1.47679 -1.00036
internal_weight=0 426.28 0.797418 0.0291428 0.0116774 0.768276 425.483 537.524 77.0086 0.0813165 0.0105354 0.0707811 76.9273 0.170756 76.7565 4.83736 460.515 65.5948 0.695503 394.92 228.865 1.33028 166.055 420.645 7.05986 64.8993 3.50708 413.585 0.0174654
internal_count=12093534 5973 466 412 360 54 5507 12087561 298946 7535 4155 3380 291411 11678 279733 1482 11788615 281322 28324 11507293 11061660 1020 445633 4025 210 252998 462 3815 52
cat_boundaries=0 1 2 3 4 5 6 7 8 9 10 11 12 13
cat_threshold=2 1 2 8 2 2 8 2 2 1 1 2 2
shrinkage=0.1


Tree=3
num_leaves=30
num_cat=11
split_feature=4 1 5 4 9 7 9 9 7 9 9 9 4 4 8 3 3 4 0 4 4 0 9 0 9 4 4 4 7
split_gain=137.108 130.1 176.787 102.058 22903.4 30613.4 1045.66 88.5762 70.2855 4555.86 66.7114 98.4928 87.6165 71.3175 57.9972 35.4543 28.1922 17.4225 8.43735 30.3838 7.18491 27.8418 6.83585 10.1264 3.14454 2.02559 1.86101 2.64207 0.67421
threshold=23.500000000000004 0 1 1.0000000180025095e-35 2.5000000000000004 2 9.5000000000000018 7.5000000000000009 3 7.5000000000000009 1.0000000180025095e-35 1.5000000000000002 29.500000000000004 27.500000000000004 4 5 6 32.500000000000007 7 32.500000000000007 7.5000000000000009 8 5.5000000000000009 9 1.0000000180025095e-35 37.000000000000007 30.500000000000004 42.000000000000007 10
decision_type=2 1 1 2 2 1 2 2 1 2 2 2 2 2 1 1 1 2 1 2 2 1 2 1 2 2 2 2 1
left_child=1 3 7 4 5 -1 -6 14 9 -4 18 12 13 -12 -3 -9 -10 -14 19 -2 24 -22 25 -24 -5 -13 28 -28 -20
right_child=10 2 8 20 6 -7 -8 15 16 -11 11 22 17 -15 -16 -17 -18 -19 26 -21 21 -23 23 -25 -26 -27 27 -29 -30
leaf_value=27.099936364930979 -0.13713919673630859 -0.050151252811510762 -0.097930543593567676 0.12565115935907137 -0.36713064569620518 -381.021976845594 51.673517489041046 2.6622723470207443 -0.049368643722711839 -8.476229070730005 -1.4875299584663779 -0.13713919673630889 -0.30593804195256757 -3.6819149462777183 0.22760365924490561 0.78453883191264495 -0.10256880775859692 -1.0233331341216656 -0.18317524543165259 -1.6563288036826274 -0.21882086623706121 -1.7343981286981009 -1.1498334316765326 -0.13713919673630762 -0.14112520990678895 -0.39033746308623568 -0.33529436285974346 -0.13713919673630912 -0.24663033957928837
leaf_weight=0.0036764626002243617 0.39494740962982272 11.651873846363749 56.075576311508506 0.44233699981827967 7.7883628096897155 0.0036752945125896322 0.0038629763876086849 0.10860425406009178 199.47391630663225 0.65662032218424471 0.59242111444473255 1.5797896385192935 0.59242111444473278 0.19747370481491133 21.187863432649458 1.356629457519692 198.96619529640424 0.78989481925964444 2.1722107529640189 0.19747370481491128 6.1505685834183152 0.12364744308210962 0.19749229566939092 0.19747370481491255 391.6051499919447 0.39494741112169607 4.5418952107429513 0.78989481925964333 7.3065270781516878
leaf_count=667 151 39399 238931 1198 463 309 161 311 11051878 27003 333 777 61 73 596483 35300 95156 128 126 37 202 29 280 94 2940 101 298 53 592
internal_value=0 -1.07695 -0.729781 -1.49538 -5.0778 -1769.29 -3.41332 1.26206 -0.888115 -1.94901 -3.72789 -7.09585 -11.9597 -20.3613 1.29053 9.23718 -0.759348 -7.15878 -2.73477 -6.43536 -1.42523 -2.48689 -2.63737 -6.4351 -1.40824 -1.87779 -2.58674 -3.05938 -2.32089
internal_weight=0 895.599 489.477 406.121 7.79958 0.00735176 7.79223 34.305 455.172 56.7322 19.9449 4.54191 2.17221 0.789895 32.8397 1.46523 398.44 1.38232 15.4029 0.592421 398.322 6.27422 2.3697 0.394966 392.047 1.97474 14.8105 5.33179 9.47874
internal_count=12093534 12090430 12084461 5969 1600 976 624 671493 11412968 265934 3104 1847 595 406 635882 35611 11147034 189 1257 188 4369 231 1252 374 4138 878 1069 351 718
cat_boundaries=0 1 2 3 4 5 6 7 8 9 10 11
cat_threshold=2 262656 1 8 2 2 1 2 1 1 2
shrinkage=0.1


Tree=4
num_leaves=30
num_cat=12
split_feature=4 1 9 8 2 3 4 5 9 9 4 4 3 9 4 9 8 4 2 0 4 9 0 4 4 4 4 2 7
split_gain=151.856 128.354 662.244 8834.11 23752 221.285 35186 142.564 108.973 253.388 611.686 4630.03 75.3279 846.762 49.4899 42.2324 34.0194 59.44 38.5636 12.9469 123.459 10.3848 27.5931 9.86328 2.44137 2.34294 3.27977 1.78275 0.780763
threshold=23.500000000000004 0 1.5000000000000002 1 2 3 1.0000000180025095e-35 4 1.0000000180025095e-35 1.5000000000000002 29.500000000000004 27.500000000000004 5 7.5000000000000009 32.500000000000007 1.5000000000000002 6 5.5000000000000009 7 8 32.500000000000007 5.5000000000000009 9 1.0000000180025095e-35 37.000000000000007 30.500000000000004 42.000000000000007 10 11
decision_type=2 1 2 1 1 1 2 1 2 2 2 2 1 2 2 2 1 2 1 1 2 2 1 2 2 2 2 1 1
left_child=1 2 3 4 -1 6 -4 16 19 10 11 -10 13 -9 -12 -14 18 -18 -3 20 -2 24 -23 -7 -11 28 -27 -5 -21
right_child=8 7 5 27 -6 23 -8 12 9 21 14 -13 15 -15 -16 -17 17 -19 -20 25 -22 22 -24 -25 -26 26 -28 -29 -30
leaf_value=-151.312733463916 -0.13237976540677285 0.32882624932854621 -295.24341790303652 -0.10043176634768264 -0.10043105754245259 -0.23722955692682338 -0.10897029114160724 -0.10411585272307095 -3.8421613832933041 -0.13237976540677335 -0.32500869316067466 -76.376292175016616 -0.07284762421611754 -1.9293075533228237 -1.7977991068028452 0.024206273760433199 -0.053488214821383689 2.0126550270637544 0.027187283990313234 -0.18131451704524332 -4.9611066135591031 -0.13237976540677276 -2.2356009961252963 -0.13737025377632217 -0.43661636722392316 -0.36254544947179468 -0.13237976540677338 0.24548568276621949 -0.25304153853992906
leaf_weight=0.014548595574385001 0.36953914165496921 14.152922631892707 0.0040658209909453227 0.30741443671417779 0.036322565283638114 10.160520207381351 0.62461142327381869 234.7763286354056 0.21426062285900091 1.4781565666198759 0.50592389702796947 0.0091772759333252889 136.25889084191107 2.5696365383513742 0.41556555032730136 66.823059351534397 7.1625313128133756 0.14199844154185637 6.0503085529344611 1.9844575226306906 0.06180445477366453 0.18476957082748441 0.094169045675479193 373.00780606456607 0.32104841095093362 3.8137826025486001 0.7390782833099363 0.2890919460911654 6.4505792558193678
leaf_count=112 151 312021 66 1623 77 774 211 93249 333 777 61 73 8039367 5827 128 3485410 31044 1064 116479 126 37 94 280 1980 101 298 53 1126 592
internal_value=0 -1.05672 -1.48484 -33.4417 -433.455 -1.43094 -20.1768 -0.704993 -4.10679 -9.32812 -21.2737 -68.2136 -0.837207 -1.23876 -9.89195 -0.409125 1.25868 -0.133228 2.38494 -2.85271 -8.24257 -2.74686 -8.42422 -1.40018 -1.86667 -2.67371 -3.25182 0.672143 -2.36167
internal_weight=0 852.38 384.444 0.647378 0.0508712 383.797 0.628677 467.936 16.6423 3.22307 1.14493 0.223438 440.428 237.346 0.921489 203.082 27.5078 7.30453 20.2032 13.4192 0.431344 2.07814 0.278939 383.168 1.7992 12.9879 4.55286 0.596506 8.43504
internal_count=12093534 12090430 5969 2938 189 3031 277 12084461 3104 1847 595 406 11623853 99076 189 11524777 460608 32108 428500 1257 188 1252 374 2754 878 1069 351 2749 718
cat_boundaries=0 1 2 3 4 5 6 7 8 9 10 11 12
cat_threshold=2 2 2 2 512 2 1 2 2 2 2 2
shrinkage=0.1


Tree=5
num_leaves=28
num_cat=11
split_feature=4 1 5 7 9 9 9 4 4 2 9 8 3 9 0 0 9 4 0 4 8 4 4 4 9 9 7
split_gain=135.44 87.9879 120.05 81.2446 1740.31 79.0366 354.608 11514.5 450.694 371.786 25.7284 21.6128 21.9819 17.3145 303.385 17.0177 11.1015 8.55842 156.399 5.13884 41.1155 3.35627 4.63143 3.3377 2.56719 1.71005 0.980151
threshold=23.500000000000004 0 1 2 6.5000000000000009 1.0000000180025095e-35 1.5000000000000002 27.500000000000004 32.500000000000007 3 7.5000000000000009 4 5 5.5000000000000009 6 7 5.5000000000000009 7.5000000000000009 8 1.0000000180025095e-35 9 30.500000000000004 42.000000000000007 37.000000000000007 1.0000000180025095e-35 9.5000000000000018 10
decision_type=2 1 1 1 2 2 2 2 2 1 2 1 1 2 1 1 2 2 1 2 1 2 2 2 2 2 1
left_child=1 17 11 4 -4 15 7 9 -9 -7 -5 16 -13 23 -15 21 -3 19 25 20 -1 26 -23 -8 -21 -19 -2
right_child=5 2 3 10 -6 6 13 8 -10 -11 -12 12 -14 14 -16 -17 -18 18 -20 24 -22 22 -24 -25 -26 -27 -28
leaf_value=-0.266802306459761 -0.18156472103070839 -0.060435116320364815 -0.095446808651221196 -0.076051209087075314 -3.4189672886526106 -167.40407422164188 -0.12836493681957328 -0.3616948321760457 -8.3702941865998035 -111.63610946722432 0.052095108167818906 0.10366376566120633 0.35338889707779642 -0.12836493681957267 -16.405596979073177 -0.99843991017813927 0.23203442778509398 -0.25853106248541996 -8.201640038729975 0.091390755383761124 0.42176520573612786 -0.41569017769382666 -0.1283649368195732 -0.53217325725434317 -0.13074300699659758 -0.12678701124044559 -0.26660224769411967
leaf_weight=9.2650837823748589 1.7930898517370222 10.409626885652871 46.041620831532512 334.74066599736869 1.6313680183784658 0.003586288308724761 1.3771429061889675 0.41333667959387593 0.084662914276123102 0.0017931441543627682 16.436836468466083 30.932181351274949 3.9781757597820251 0.17214286327362083 0.012266671730288505 0.34478173108072846 1.4826983719732663 3.7756742730355777 0.024694282505592361 0.5210580602289373 0.95673403672236357 3.0281871855258951 0.68857145309448275 0.24042545600092768 344.27806985946143 1.3331230550367772 5.5529030412435736
leaf_count=159 126 38092 235247 10387860 30687 257 777 134 128 76 759174 624719 3909 94 280 188 4773 182 29 1198 1441 298 53 101 2940 20 592
internal_value=0 -0.975747 -0.678688 -0.845621 -2.09178 -4.14512 -9.48555 -32.9512 -17.232 -1488.15 -0.700533 0.761816 1.32121 -2.93047 -12.111 -3.06587 -0.239709 -1.34332 -2.62528 -1.32479 -2.02354 -2.85024 -3.6246 -1.88385 -1.30407 -2.24153 -2.45845
internal_weight=0 805.808 445.653 398.85 47.673 13.7129 2.30536 0.503379 0.498 0.00537943 351.178 46.8027 34.9104 1.80198 0.18441 11.4075 11.8923 360.154 5.13349 355.021 10.2218 11.0628 3.71676 1.61757 344.799 5.1088 7.34599
internal_count=12093534 12090430 12084461 11412968 265934 3104 1847 595 262 333 11147034 671493 628628 1252 374 1257 42865 5969 231 5738 1600 1069 351 878 4138 202 718
cat_boundaries=0 1 2 3 4 5 6 7 8 9 10 11
cat_threshold=2 262656 8 2 2 1 2 1 1 2 2
shrinkage=0.1


Tree=6
num_leaves=15
num_cat=8
split_feature=4 3 1 4 3 4 9 9 8 5 5 8 3 4
split_gain=128.495 1837.08 71.969 297.447 94.5189 2621.68 5733.82 1041.83 4365.36 65.2941 14.6831 3.22628 115.041 8.21821
threshold=30.500000000000004 0 1 14.500000000000002 2 16.500000000000004 1.0000000180025095e-35 7.5000000000000009 3 4 5 6 7 1.0000000180025095e-35
decision_type=2 1 1 2 1 2 2 2 1 1 1 1 1 2
left_child=2 -2 3 11 5 9 -7 10 -9 -4 -6 13 -13 -1
right_child=1 -3 4 -5 7 6 -8 8 -10 -11 -12 12 -14 -15
leaf_value=-0.23605104367480739 -9.279238402587163 -0.11560581955188667 0.058362042282212812 -3.699713184357778 0.035151349973135147 -92.040517191074628 6.6820148515727018 82.102001006701983 -2.7536428505589083 -0.053908560169924714 -0.096916159738122551 -0.12441219993261712 11.355623640796622 -0.12766552782345408
leaf_weight=9.4142308430746073 0.23310098632780241 3.5591630954295637 69.559525940285141 0.23325700575025976 9.2860849693779528 0.0097889381103770049 0.01474487109765938 0.0060825595905953378 1.8472193140195814 141.86707230934036 208.81865659922141 300.04049816854734 0.0087293224387384738 27.231923748880956
leaf_count=159 886 40 2801806 27 2420 4251 5425 700 5289 9173664 93082 5051 409 325
internal_value=0 -6.78871 -0.953407 -1.29972 -0.682935 -0.205538 -327.081 -1.14187 -24.7515 -0.167608 -0.941251 -1.27499 -1.24078 -1.55509
internal_weight=0 3.79226 768.338 336.929 431.409 211.451 0.0245338 219.958 1.8533 211.427 218.105 336.695 300.049 36.6462
internal_count=12093534 926 12092608 5971 12086637 11985146 9676 101491 5989 11975470 95502 5944 5460 484
cat_boundaries=0 1 2 3 4 5 6 7 8
cat_threshold=1 2 1 2 265984 16781824 2 1
shrinkage=0.1


Tree=7
num_leaves=23
num_cat=11
split_feature=4 9 3 7 1 4 4 1 5 9 9 1 3 3 8 4 4 4 9 2 4 2
split_gain=138.305 134.962 6721.94 1.99871e+06 9259.37 95.4138 1172.94 88.0707 63.2709 47.1871 203.364 40.6487 28.2583 26.9676 16.9945 15.4229 8.16544 7.65861 4.53873 3.21886 2.31495 0.00138036
threshold=30.500000000000004 7.5000000000000009 0 1 2 17.500000000000004 18.500000000000004 3 4 1.0000000180025095e-35 1.5000000000000002 5 6 7 8 42.000000000000007 1.5000000000000002 7.5000000000000009 3.5000000000000004 9 37.000000000000007 10
decision_type=2 2 1 1 1 2 2 1 1 2 2 1 1 1 1 2 2 2 2 1 2 1
left_child=1 7 3 -3 -5 11 -7 8 14 15 -11 -4 16 -10 -1 19 -9 -14 21 20 -2 -12
right_child=9 2 5 4 -6 6 -8 12 13 10 18 -13 17 -15 -16 -17 -18 -19 -20 -21 -22 -23
leaf_value=0.099290351058990145 -0.6764360022035304 -3515.3095299986412 -0.12218714808791914 -30.122647697235138 -1.5614177594518166 -63.696610248852579 -0.10421082000729885 0.25114740731266216 -0.099122679851759501 -4.2232886026036693 -0.10849891924497229 0.031478764613862398 -0.1251344743370327 -0.044041159247995704 -0.048942572997877895 -0.12222422103364153 -0.29539430638360259 -0.28727917325123159 -0.79329382243548396 -0.11086489268818274 -0.95931008307764343 -0.12222422103364104
leaf_weight=32.395694473979539 1.5913087099033871 0.0016214326882571437 78.993871356360614 0.11990973897088404 2.1262158304452901 0.0031349472631773253 0.038774047050636341 0.27974190190434711 191.41970249736508 0.19459849388295297 0.14439202845096588 22.011023923183501 231.12629065082578 165.9390954743931 10.159833866944949 0.5950755476951598 11.980145980636129 2.9502079458285939 0.14898997807178888 0.08839698880908442 0.35358795523643505 0.14876888692378998
leaf_count=607133 203 291 704 5699 72 75 398 160 92507 160 133 815481 4617 10524645 40412 59 233 181 193 36 102 40
internal_value=0 -1.04858 -2.10995 -56.1974 -30.8616 -0.906796 -48.6116 -0.878929 -0.589198 -7.57106 -15.2947 -0.887002 -1.34929 -0.715436 0.517421 -5.69993 -2.82924 -1.27178 -3.4387 -7.01039 -7.27863 -1.15464
internal_weight=0 749.545 103.295 2.24775 2.24613 101.047 0.041909 646.251 399.914 3.26512 0.636749 101.005 246.336 357.359 42.5555 2.62837 12.2599 234.076 0.442151 2.03329 1.9449 0.293161
internal_count=12093534 12092608 822720 6062 5771 816658 473 11269888 11264697 926 526 816185 5191 10617152 647545 400 393 4798 366 341 305 173
cat_boundaries=0 1 2 3 4 5 6 7 8 9 10 11
cat_threshold=2 8 1 1 1536 2 2 2 1 2 2
shrinkage=0.1


Tree=8
num_leaves=23
num_cat=10
split_feature=4 4 9 9 1 4 9 7 4 5 3 8 6 9 4 4 2 2 9 7 9 7
split_gain=224.228 107.936 163.916 17518.2 97.282 923.069 170.856 1282.89 4445.99 73.3449 62.6283 25.202 24.6151 23.6367 16.064 14.0326 7.46092 7.37015 2.6752 2.17192 0.00154014 1.94289e-16
threshold=30.500000000000004 42.000000000000007 1.0000000180025095e-35 2.5000000000000004 0 14.500000000000002 45.500000000000007 1 3.5000000000000004 2 3 4 5 7.5000000000000009 1.0000000180025095e-35 37.000000000000007 6 7 1.0000000180025095e-35 8 1.0000000180025095e-35 9
decision_type=2 2 2 2 1 2 2 1 2 1 1 1 1 2 2 2 1 1 2 1 2 1
left_child=4 2 15 -4 5 10 9 8 -8 12 13 -11 -6 -1 -9 16 -2 -5 -12 -17 -3 -22
right_child=1 20 3 17 6 -7 7 14 -10 11 18 -13 -14 -15 -16 19 -18 -19 -20 -21 21 -23
leaf_value=-0.23485759211412247 -1.1133342855273962 -0.11966732890866977 -223.56990648112026 -1.3124763390391185 0.077902322450413133 -15.565819822686894 0.18690166939785402 0.53360244178199989 -21.852888537002826 -0.054746542902381193 0.12404396589312744 -0.11318249508158723 -0.018992245264428331 -0.47783877884938053 -0.10015066942089029 -2.7104614888697669 -0.1097247303949215 -0.11965704426744704 -0.12120875471209347 -1.8416953137161649 -0.10762506174981611 -0.10762506949311064
leaf_weight=13.234246261344323 0.89302475610020349 0.54935640096664418 0.0035799032433735654 0.083141376482681606 38.700290719248173 0.038758006581303017 0.34854505636576505 0.47347931541509281 0.1241223055304176 184.55378154367662 0.44544744631207217 122.98451388041116 53.649390658258653 5.7398875281214705 2.5756635644476096 0.038368590176105499 0.08077342808248078 0.1374109829048393 289.45151387955133 0.1151057705283165 0.065828986260449085 0.065828919410705566
leaf_count=390 203 59 219 180 876753 27 9559 16917 1554 9312216 1624 468953 1315454 73 85231 31 27 55 3857 80 45 27
internal_value=0 -11.4392 -16.6124 -41.3114 -0.920569 -1.34288 -0.597183 -7.5319 -56.0074 -0.536109 -1.32352 -0.756551 0.252568 -3.08362 -0.0173974 -11.7016 -10.3009 -5.69313 -1.20832 -20.5889 -1.17339 -1.07625
internal_weight=0 2.03242 1.3514 0.224132 712.32 308.91 403.41 3.52181 0.472667 399.888 308.871 307.538 92.3497 18.9741 3.04914 1.12727 0.973798 0.220552 289.897 0.153474 0.681014 0.131658
internal_count=12093534 926 795 454 12092608 5971 12086637 113261 11113 11973376 5944 9781169 2192207 463 102148 341 230 235 5481 111 131 72
cat_boundaries=0 1 2 3 4 5 6 7 8 9 10
cat_threshold=2 4 17270528 2 1 960 2 2 2 1
shrinkage=0.1


Tree=9
num_leaves=25
num_cat=14
split_feature=4 4 4 7 6 2 9 3 9 5 1 5 9 1 3 9 3 7 2 4 4 9 7 7
split_gain=147.911 156.408 550.835 110.491 91.7253 87.184 53.4355 1116.96 6669.93 47.6998 47.5761 36.975 30.202 43.3223 29.426 19.3409 13.8711 22.8935 7.60601 4.68774 2.29556 0.00108993 0.000356236 1.11022e-16
threshold=30.500000000000004 42.000000000000007 37.000000000000007 0 1 2 30.500000000000004 3 151.50000000000003 4 5 6 2.5000000000000004 7 8 3.5000000000000004 9 10 11 1.0000000180025095e-35 4.5000000000000009 1.0000000180025095e-35 12 13
decision_type=2 2 2 1 1 1 2 1 2 1 1 1 2 1 1 2 1 1 1 2 2 2 1 1
left_child=4 2 5 -4 9 15 10 8 -8 12 14 -12 18 -14 -6 -2 20 -18 -1 -9 -11 -3 -7 -23
right_child=1 21 3 -5 6 22 7 19 -10 16 11 -13 13 -15 -16 -17 17 -19 -20 -21 -22 23 -24 -25
leaf_value=0.084458324659552095 -2.9581740575364166 -0.11744916516294901 -15.056193841950311 -36.419575016144556 -0.24580297608653262 -0.11744934605548746 -30.134686155469513 0.1136902700831485 -0.7372394223220331 -0.084347017338996466 0.015623493382231096 -0.083590049951058731 -0.11932037830889713 0.36681490975359943 -0.11882498018283721 -0.10270583745209461 0.83365356897623011 -0.01412391357720923 -0.075077146094460007 -0.11647562739367884 -0.15189812257859073 -0.10684703096606447 -0.10870661566034945 -0.10684703781910682
leaf_weight=14.932754737268624 0.3150863573901006 0.50598156452178955 0.020052613399459959 0.0027533571701496831 19.688907463614761 0.12649630010128021 0.086597113415252225 0.93523813613465634 0.70968508951186315 19.156697269165765 47.318917165789912 247.31819800516683 2.3353855945169926 8.523995692729228 249.8070017953365 0.025651458650827408 0.32131649158088393 36.703298013307432 3.7361164166590806 16.431648477532868 6.8221883506794816 0.059976086444507359 0.07379519953247958 0.05997602641582489
leaf_count=437368 356 59 170 82 450 25 385 18828 183 29775 689620 8256409 24 205424 5226 93 23438 2145080 168243 97143 15012 45 69 27
internal_value=0 -12.0362 -24.1167 -176.354 -0.876532 -17.6995 -1.01431 -2.71998 -39.3426 0.0903284 -0.977369 -0.699631 0.968616 2.62268 -1.28102 -27.4321 -0.397599 -0.0676651 0.525312 -1.04081 -1.02086 -1.15417 -1.14228 -1.06847
internal_weight=0 1.18977 0.563835 0.022806 674.828 0.541029 582.296 18.1632 0.796282 92.5318 564.133 294.637 29.5283 10.8594 269.496 0.340738 63.0035 37.0246 18.6689 17.3669 25.9789 0.625934 0.200291 0.119952
internal_count=12093534 926 795 252 12092608 543 9068244 116539 568 3024364 8951705 8946029 811059 205448 5676 449 2213305 2168518 605611 115971 44787 131 94 72
cat_boundaries=0 1 2 3 4 5 6 7 8 9 10 11 12 13 14
cat_threshold=1 896 2 2 3156736 2 17204736 2 2 2 8 2 2 1
shrinkage=0.1


Tree=10
num_leaves=18
num_cat=12
split_feature=4 3 6 5 1 7 9 9 3 8 1 3 8 9 3 9 2
split_gain=1002.81 150225 80.6868 34.3146 28.4061 49.9597 1141.16 22.7455 22.4017 15.8967 18.6784 9.50055 8.35276 4.3271 3.27127 2.61291 0.574757
threshold=32.500000000000007 0 1 2 3 4 7.5000000000000009 7.5000000000000009 5 6 7 8 9 7.5000000000000009 10 1.0000000180025095e-35 11
decision_type=2 1 1 1 1 1 2 2 1 1 1 1 1 2 1 2 1
left_child=2 -2 3 9 8 6 -6 -7 13 14 -11 16 -13 -4 -1 -10 -5
right_child=1 -3 4 11 5 7 -8 -9 15 10 -12 12 -14 -15 -16 -17 -18
leaf_value=-0.10878037991090748 -0.1124957896171674 -581.89600653909372 -0.18918670997063031 -0.10403084562737082 -0.068200552064537609 -0.069617885115564937 -2.6886168785111662 0.064766353519134956 0.12739017475844358 -0.11815658789911582 0.13314973872560218 -0.021648034789068737 0.46804517351830255 -0.2831014186488176 0.23175227905290841 -0.11682402277690003 -0.036446003561133623
leaf_weight=4.4135727480916103 0.67798195792903648 0.0044675831498438559 13.274881048608849 21.707696943678457 37.768695388029037 227.76089575813751 1.738391477194418 13.332254665048195 0.43890107935277362 3.2729370413580989 30.692486949391053 32.612621841048906 0.35208325880736774 7.7820595353841773 0.30135896687422459 243.04842078154422 1.3357309785278619
leaf_count=74 25 81 95 39819 195640 1808305 59526 512195 296 34 597022 604572 8192 42 5041 2335 2393
internal_value=0 -39.2108 -0.857309 0.0421773 -0.996047 -0.792674 -1.83504 -0.621865 -1.24941 0.675777 1.08934 -0.431486 -0.164178 -2.23895 -0.870149 -1.16384 -1.00113
internal_weight=0 0.68245 639.833 94.6885 545.144 280.6 39.5071 241.093 264.544 38.6804 33.9654 56.0081 32.9647 21.0569 4.71493 243.487 23.0434
internal_count=3835687 106 3835581 1257147 2578434 2575666 255166 2320500 2768 602171 597056 654976 612764 137 5115 2631 42212
cat_boundaries=0 1 2 3 4 5 6 7 8 9 10 11 12
cat_threshold=2 896 3418880 2 4 2 2 2 2 1 2 2
shrinkage=0.1


Tree=11
num_leaves=29
num_cat=9
split_feature=1 8 9 3 9 5 4 3 4 4 3 3 9 9 4 8 9 9 9 9 2 4 4 4 4 4 9 4
split_gain=59.2899 82.189 647.158 445724 375569 54.5016 27.7654 74.3263 16.3075 16.7953 15.3539 11.7804 32.8091 10.0606 3.87835 96.5943 388.305 11.5915 2.2452 2.09502 1.42483 0.771641 0.298988 0.212747 0.133315 0.132888 0.00115639 1.55625e-05
threshold=0 1 7.5000000000000009 2 31.500000000000004 3 15.500000000000002 4 9.5000000000000018 8.5000000000000018 5 6 6.5000000000000009 9.5000000000000018 1.0000000180025095e-35 7 10.500000000000002 9.5000000000000018 1.0000000180025095e-35 7.5000000000000009 8 8.5000000000000018 18.500000000000004 2.5000000000000004 17.500000000000004 3.5000000000000004 2.5000000000000004 1.5000000000000002
decision_type=1 1 2 1 2 1 2 1 2 2 1 1 2 2 2 1 2 2 2 2 1 2 2 2 2 2 2 2
left_child=10 2 11 13 -5 6 7 -3 9 -7 14 23 -13 -4 15 17 -17 -1 20 25 -16 -20 -8 -2 -10 27 -27 -12
right_child=1 5 3 4 -6 8 22 -9 24 -11 19 12 -14 -15 18 16 -18 -19 21 -21 -22 -23 -24 -25 -26 26 -28 -29
leaf_value=-0.16005603352621531 -0.1045684953697766 0.54259416034240526 0.62402937969579619 -2462.9785932920677 -231.65689330852939 -0.041531027136415939 -0.1037179184808595 0.043951417004490512 -0.10064732245196635 0.85473377836922926 -0.10416120229779868 0.006480382376787947 1.7740126683533175 -0.033077065276275255 -0.10042034079207224 5.9518610587544636 0.042108226089717704 0.94899427161927319 -0.11345604963558031 -0.23850970543021388 0.23938220001099786 -0.1923095032223478 -0.14118160608618363 -0.094207713031861873 -0.1174142303772665 -0.17730805189646323 -0.1752151135824882 -0.10240912028451482
leaf_weight=8.4741025269031507 82.931404599337839 3.1121229769560248 0.27616899499969338 0.0013397885486517982 0.0017262776191273588 109.45614514994556 6.481396162080812 75.716160173161953 5.5222966245080789 0.20948200066281583 0.19176837056874416 6.5725362303464854 0.10672227730719884 1.490523219113238 0.21257396601149781 0.13217544308707552 0.70000931713730097 0.095300296554342703 218.53344075195494 8.2810649424791318 0.29415216529746718 1.2480939866290999 3.1732153147610509 26.042376398623674 33.565847436684855 3.6862004559342081 9.3008719980716688 0.06891326978802681
leaf_count=44 1660 13497 7756 51 38 1849019 492 1638994 8935 4053 32 125133 2201 27233 116 185 96 30 2052 38 128 20 176 730 1149 24 38 25
internal_value=0 -0.548066 -1.23232 -20.2103 -12066.8 -0.209389 0.395624 0.636377 -0.558329 -0.39819 -1.18303 -0.941911 0.347223 0.696417 -1.10735 -0.478351 9.80751 -1.47722 -1.13419 -1.99054 0.968335 -1.13904 -1.16031 -1.02092 -1.15045 -1.7439 -1.75809 -1.03698
internal_weight=0 354.659 117.423 1.76976 0.00306607 237.237 88.4829 78.8283 148.754 109.666 251.219 115.653 6.67926 1.76669 229.69 9.40159 0.832185 8.5694 220.288 21.5288 0.506726 219.782 9.65461 108.974 39.0881 13.2478 12.9871 0.260682
internal_count=3683945 3681117 164802 35078 89 3516315 1653159 1652491 1863156 1853072 2828 129724 127334 34989 2671 355 281 74 2316 157 244 2072 668 2390 10084 119 62 57
cat_boundaries=0 1 2 3 4 5 6 7 8 9
cat_threshold=2 2 1 18222848 2 1 2 2 2
shrinkage=0.1


Tree=12
num_leaves=20
num_cat=10
split_feature=4 4 1 5 8 3 3 6 4 7 9 3 3 8 4 9 9 9 4
split_gain=101.824 529.623 101.487 53.7162 31.2535 41.9097 19.7856 24.9513 16.6349 10.4649 21.7596 9.34656 6.90475 5.20966 2.32985 2.00047 1.12417 0.000418288 0.000282676
threshold=30.500000000000004 32.500000000000007 0 1 2 3 4 5 1.0000000180025095e-35 6 3.5000000000000004 7 8 9 17.500000000000004 1.0000000180025095e-35 7.5000000000000009 1.5000000000000002 37.000000000000007
decision_type=2 2 1 1 1 1 1 1 2 1 2 1 1 1 2 2 2 2 2
left_child=2 -2 8 4 12 -6 7 -5 9 10 -1 16 -4 -11 -8 -13 -10 18 -3
right_child=1 17 3 6 5 -7 14 -9 11 13 -12 15 -14 -15 -16 -17 -18 -19 -20
leaf_value=-0.89191484501049512 -7.9294923537597688 -0.10523119334192735 -0.10658499989430373 0.016990877012517211 0.30094491041756405 0.036711604224940644 -0.084555134834650297 -0.0688151710287528 -0.16248777112324045 -0.135660114380424 -0.26124727276324616 0.076387267268151066 0.052198114513665031 -0.30834824966030927 -0.11594314005695974 -0.11204725481996543 -0.20942983881222876 -0.10437739327227986 -0.11232873045946688
leaf_weight=0.67591068728461179 0.10233714376954496 0.065521522657945752 16.557193360082238 54.945453829478978 6.6389103625151726 62.628608518441894 90.077957074541189 76.521366450295901 12.817512902083346 6.9009341588243842 2.8702085688710213 0.5649689231069307 3.2814409606195474 2.339107374660669 32.066856145858765 201.9897653799126 8.4746592994779331 0.1075534764677286 0.39083787798881531
leaf_count=103 38 35 355 1236131 8733 1164055 85547 1133666 96 61 121 227 54863 96 280 2059 35 38 32
internal_value=0 -13.1108 -0.741144 -0.393365 0.272806 0.620369 -0.613971 -0.368953 -1.24483 -2.35421 -3.81456 -1.18147 -0.803212 -1.79376 -0.927955 -1.11522 -1.81172 -1.09988 -1.1131
internal_weight=0 0.66625 579.351 342.718 89.1062 69.2675 253.612 131.467 236.633 12.7862 3.54612 223.847 19.8386 9.24004 122.145 202.555 21.2922 0.563913 0.456359
internal_count=3686571 143 3686428 3683630 1228006 1172788 2455624 2369797 2798 381 224 2417 55218 157 85827 2286 131 105 67
cat_boundaries=0 1 2 3 4 5 6 7 8 9 10
cat_threshold=2 17206784 2 2 1 960 1 2 2 2
shrinkage=0.1


Tree=13
num_leaves=27
num_cat=12
split_feature=1 9 7 9 9 7 8 8 5 3 9 4 4 9 3 9 7 4 8 3 8 9 4 4 4 4
split_gain=107.798 95.786 116.797 128.628 201.13 108.051 4101.83 44.8485 42.5793 21.8094 29.2232 16.6759 92.4451 6.75018 19.8401 9.35054 26.5012 6.22118 8.15492 3.24343 3.07809 1.81516 0.749956 0.10035 7.79112e-05 8.55196e-06
threshold=0 7.5000000000000009 1 15.500000000000002 9.5000000000000018 2 3 4 5 6 2.5000000000000004 10.500000000000002 6.5000000000000009 9.5000000000000018 7 8.5000000000000018 8 1.0000000180025095e-35 9 10 11 1.0000000180025095e-35 17.500000000000004 3.5000000000000004 5.5000000000000009 8.5000000000000018
decision_type=1 2 1 2 2 1 1 1 1 1 2 2 2 2 1 2 1 2 1 1 1 2 2 2 2 2
left_child=13 8 3 4 -3 6 -4 -7 11 20 -11 12 -2 15 -15 19 -17 18 -16 21 -10 -1 -13 -21 -19 -5
right_child=1 2 5 25 -6 7 -8 -9 9 10 -12 22 -14 14 17 16 -18 24 -20 23 -22 -23 -24 -25 -26 -27
leaf_value=0.063480229499282656 0.040255171361775526 0.32415493253103911 0.081434528451786115 -0.10000839789456822 4.4232280590613362 0.65305562331354072 52.942798782097739 0.051934414216868743 -0.099877926478196294 -0.054061254879784519 0.063436588749786957 -0.10941098839980151 0.89244860371700652 -0.32188914377461703 0.38318837909590897 -0.12183949922765408 0.33830355198354245 -0.11248836023740777 -0.25849172374529727 -0.18147023341736535 -0.066169627772052417 -0.10947911552345357 -0.195697917915516 -0.15558605569517139 -0.11192537266687397 -0.101681574239586
leaf_weight=0.60922672087326557 45.285156765094527 0.23574070039330772 0.54945803490569567 0.3242771184908354 0.24318883272879965 1.3277636665279802 0.015082062364206728 19.02635618583442 85.194206197837048 108.69332197020398 26.286582877838669 2.5420341961689665 1.3097553841271281 5.957733627416621 0.20665815379470587 4.2465987661792601 1.7747205793857572 33.848329171538353 4.7566527538001457 1.70061692595483 39.720081292194692 150.7676195858505 1.6683429777672412 12.5575872366109 2.6506068893049806 0.033724967639642056
leaf_count=298 629353 6844 4184 10388 8826 27832 834 662918 2233 1678554 537778 1194 6365 30 30 46 22 343 115 49 88992 1765 44 63 32 27
internal_value=0 -0.275042 1.75343 13.3372 24.0557 1.28998 14.9366 0.911475 -0.417079 -0.568588 -0.311792 0.392603 0.642098 -1.17854 -1.51251 -1.08628 0.137828 -1.26732 -2.31774 -1.13078 -0.891594 -1.08783 -1.43602 -1.58673 -1.12447 -1.00166
internal_weight=0 332.455 21.7556 0.836932 0.47893 20.9187 0.56454 20.3541 310.699 259.894 134.98 50.8053 46.5949 219.076 47.42 171.656 6.02132 41.4622 4.96331 165.635 124.914 151.377 4.21038 14.2582 36.4989 0.358002
internal_count=3669159 3666366 721853 26085 15670 695768 5018 690750 2944513 2307557 2216332 636956 635718 2793 550 2243 68 520 145 2175 91225 2063 1238 112 375 10415
cat_boundaries=0 1 2 3 4 5 6 7 8 9 10 11 12
cat_threshold=2 4 8 2 2 1536 2 2 1 2 1 2
shrinkage=0.1


Tree=14
num_leaves=28
num_cat=10
split_feature=7 9 4 8 4 8 2 4 4 2 9 1 4 9 4 5 9 4 9 3 4 9 4 3 4 9 8
split_gain=3830.36 20296.3 26067.2 1.76104e+06 422990 5613.36 1917.87 138.545 757.319 1705.55 4659.78 85.6377 73.5668 159.877 220.236 55.5172 57.1893 47.5199 20.3023 10.6032 9.97555 9.70258 13.4867 4.06172 0.000318072 0.000238057 4.71406e-06
threshold=0 7.5000000000000009 6.5000000000000009 1 7.5000000000000009 2 3 30.500000000000004 37.000000000000007 4 2.5000000000000004 5 8.5000000000000018 1.0000000180025095e-35 9.5000000000000018 6 82.500000000000014 8.5000000000000018 8.5000000000000018 7 1.0000000180025095e-35 6.5000000000000009 1.0000000180025095e-35 8 8.5000000000000018 1.0000000180025095e-35 9
decision_type=1 2 2 1 2 1 1 2 2 1 2 1 2 2 2 1 2 2 2 1 2 2 2 1 2 2 1
left_child=1 12 5 24 -5 18 -7 11 9 10 -9 17 21 14 -14 16 -13 20 -3 -17 -2 23 -23 -1 -4 -10 -15
right_child=7 2 3 4 -6 6 -8 8 25 -11 -12 15 13 26 -16 19 -18 -19 -20 -21 -22 22 -24 -25 -26 -27 -28
leaf_value=-0.095604774179021135 -0.20787172380740448 1.9732033218127336 -0.10920133371736707 -933.32400712045899 -2660.5036980328528 -3.7655740179567161 -8.3648933326787134 -90.792348401969988 -0.11031329444347063 -0.10522803165685615 -0.10163598833262577 0.025154812675620454 5.6503079751988778 -0.10083101855545307 -0.10051444062941871 -0.042796762789623452 0.71020697013338208 0.51876800360113395 -0.10867068779609959 -0.088030931838959409 -0.11294362297848788 2.2686482969489403 -0.10010577836702031 -0.0016352261335301676 -0.10162755538741629 -0.10412271457878008 -0.10013334704903652
leaf_weight=22.724650495209062 11.766199484296946 0.048233090107846162 0.077160470202899498 0.0028925760598215158 0.002781326140771867 1.3289185715839371 2.8531549207109439 0.0088210516672031503 0.33900163592623578 0.047294902000397765 0.015837492421269417 96.860503210947471 0.13910729771305241 0.40638070003296889 0.12774831670321871 132.75477313939837 1.2341444989378221 1.1768225698086201 1.6241376809248966 85.000402204597663 187.08700289333098 0.042216571994002965 0.055814625537323082 5.7670994335688865 0.19707131445143131 0.07605404406785965 0.12715109384043899
leaf_count=1284 355 369 28 30 35 2442 3770 51 24 22 23 1179748 331 652 689 2262779 15945 29 3733 80495 2361 307 413 73856 30 27 591
internal_value=0 -11.3871 -63.7063 -361.832 -17799.8 -49.4527 -69.0339 -0.652047 -17.5107 -112.221 -325.442 -0.636132 -0.466951 8.98878 28.9729 -0.311893 0.306491 -1.14811 -0.486271 -0.577995 -1.18561 -0.73167 9.19985 -0.765841 -1.03759 -1.09179 -1.00665
internal_weight=0 35.5245 6.13435 0.279906 0.0056739 5.85444 4.18207 516.367 0.487009 0.0719534 0.0246585 515.88 29.3902 0.800387 0.266856 315.85 98.0946 200.03 1.67237 217.755 198.853 28.5898 0.0980312 28.4917 0.274232 0.415056 0.533532
internal_count=3630419 88560 10437 123 65 10314 6212 3541859 147 96 74 3541712 78123 2263 1020 3538967 1195693 2745 4102 2343274 2716 75860 720 75140 58 51 1243
cat_boundaries=0 1 2 3 4 5 6 7 8 9 10
cat_threshold=8 2 2 1 2 2 18255360 1 2 2
shrinkage=0.1


Tree=15
num_leaves=28
num_cat=12
split_feature=1 7 2 9 4 8 6 2 3 9 9 3 4 4 3 9 9 9 2 7 9 9 4 4 9 4 7
split_gain=56.5052 75.0405 119.614 173.636 35.5629 32.5689 28.2458 32.5374 11.6506 16.401 5.12175 3.3071 25776.3 5.51853 3.05944 2.29995 1.89026 0.885914 0.882064 1.23156 0.480034 2.04668 0.586876 0.463999 0.189819 0.0233358 4.81801e-12
threshold=0 1 2 7.5000000000000009 3.5000000000000004 3 4 5 6 13.500000000000002 142.50000000000003 7 5.5000000000000009 8.5000000000000018 8 2.5000000000000004 1.0000000180025095e-35 1.0000000180025095e-35 9 10 9.5000000000000018 10.500000000000002 7.5000000000000009 2.5000000000000004 7.5000000000000009 3.5000000000000004 11
decision_type=1 1 1 2 2 1 1 1 1 2 2 1 2 2 1 2 2 2 1 1 2 2 2 2 2 2 1
left_child=8 2 11 17 -5 6 10 -8 16 24 -3 12 -2 -13 23 -16 18 -4 26 -20 22 -22 -18 -7 25 -10 -1
right_child=1 5 3 4 -6 14 7 -9 9 -11 -12 13 -14 -15 15 -17 20 -19 19 -21 21 -23 -24 -25 -26 -27 -28
leaf_value=-0.10038978299238428 -0.094137503897178842 -0.073463809860755069 -0.106837134096314 -0.84287088187637349 -2.3369627172581611 -0.10416231244352037 0.036959648116638454 -0.060688628553655061 -0.1021142153558504 -0.38982128949518846 0.4654218597103621 -0.082316386126141061 322.1547285687256 -0.17625340566283251 -0.10004240793530828 1.2025185049457856e-08 -0.10559259466633704 -0.0048782546170701548 0.28276654344553309 -0.10074695398542043 -0.16187985346052264 -0.10604826614416328 -0.15477093096385558 -0.083516326749056014 -0.16510245415478267 -0.14135146178533292 -0.10039086726871951
leaf_weight=0.058008062886092254 20.323138195891946 65.817686468473582 4.9455220400217161 4.7125578517774853 0.16488360894695908 43.722002949565649 127.58335379411768 46.58244838417626 0.15370151214301842 3.4123738110187167 0.1768440479193164 24.796981910776779 0.0024825101736486435 8.3630880024653376 3.7298507534887397 5.986109191046828 129.42733785177072 1.029621728756865 0.2607369753530871 0.1233423221856776 8.6656222799792868 27.096774333189387 2.4729694911111428 14.49397843189581 4.5270029902458182 10.953810384067671 0.13962001819169861
leaf_count=43 1209 968213 10641 1106 94 1227 1694546 778465 54 20 2262 59754 55 1365 69487 60416 1829 11331 92 35 71 447 34 564 21 60 120
internal_value=0 -0.497321 -1.47959 -4.50657 -8.93379 -0.292195 -0.119274 0.102539 -1.17068 -1.91195 -0.625428 -0.865397 -0.54779 -1.06008 -0.903524 -0.384052 -1.08676 -0.892678 0.712752 1.59606 -1.09301 -1.19577 -1.06515 -0.990221 -1.47843 -1.40809 -1.00391
internal_weight=0 372.431 64.3383 10.8526 4.87744 308.092 240.16 174.166 187.291 19.0469 65.9945 53.4857 20.3256 33.1601 67.9319 9.71596 168.244 5.97514 0.581707 0.384079 167.663 35.7624 131.9 58.216 15.6345 11.1075 0.197628
internal_count=3663561 3660735 85555 23172 1200 3575180 3443486 2473011 2826 155 970475 62383 1264 61119 131694 129903 2671 21972 290 127 2381 518 1863 1791 135 114 163
cat_boundaries=0 1 2 3 4 5 6 7 8 9 10 11 12
cat_threshold=2 8 2 1 23 2 1 2 2 2 1 2
shrinkage=0.1


Tree=16
num_leaves=30
num_cat=14
split_feature=7 4 8 9 9 4 4 8 1 2 5 9 0 9 9 8 6 8 9 4 4 9 9 3 2 2 4 9 2
split_gain=311.857 3703.38 15503.6 15482.8 3892.85 425.404 14589.1 30515.8 71.1123 59.2682 35.0598 21.1246 46.6338 20.4927 15.912 17.1703 7.83702 3.82952 23.4941 45.9302 2.90451 1.89752 1.82401 1.78322 1.16152 0.732782 0.135699 4.52782e-07 2.10792e-08
threshold=0 11.500000000000002 1 2.5000000000000004 1.5000000000000002 5.5000000000000009 6.5000000000000009 2 3 4 5 2.5000000000000004 6 7.5000000000000009 1.5000000000000002 7 8 9 8.5000000000000018 1.5000000000000002 9.5000000000000018 1.0000000180025095e-35 8.5000000000000018 10 11 12 1.0000000180025095e-35 5.5000000000000009 13
decision_type=1 2 1 2 2 2 2 1 1 1 1 2 1 2 2 1 1 1 2 2 2 2 2 1 1 1 2 2 1
left_child=1 5 27 4 -4 9 7 -7 17 22 11 16 -13 -11 20 -16 -10 21 26 -20 -12 25 -1 -23 -8 -2 -19 28 -3
right_child=8 2 3 -5 -6 6 24 -9 10 13 14 12 -14 -15 15 -17 -18 18 19 -21 -22 23 -24 -25 -26 -27 -28 -29 -30
leaf_value=-0.072426913560566089 -0.10035324573887749 -0.10025009290635029 -120.95519818093145 -362.21481919216524 -0.10008507388439492 -8.7671830668118744 -0.17304158950385454 -89.688576459599048 0.035416745902198357 -0.050742816956098696 -0.066698192933976094 0.053018130334355512 0.46634297636241534 -0.41083178827612676 -0.084710770190121895 0.0099458740330764708 -0.030083238207676322 -0.12945522183792954 0.70413129100863858 -0.10943426071361602 -0.10694061148744023 -0.14098016092982132 -0.11436646768147118 -0.10713082621616288 -0.10731514555588668 0.14207867849705769 -0.10857201930897827 -0.10096544790828471 -0.10000455709446004
leaf_weight=26.535982265744437 0.17888437594775086 0.040726239054492901 0.006619505795242564 0.0022092477811384023 0.0044616765699174721 0.3578573140161842 7.7180422934796633 0.053578355538437206 18.621463348918407 1.912101153011087 87.974681221203724 33.865445744022374 2.9690380648301717 9.1117921230407184 27.385054948641702 63.831790082963757 42.945740860784127 5.5831698998808967 1.1090999795123928 1.8537637889385221 22.527793156921632 17.577748359251721 17.022088459653943 135.81407722481256 4.1261325090160339 0.41146209521399973 7.0289729365031395 0.010274059329062502 0.0038247879710979751
leaf_count=55483 171 121 141 42 23 509 1448 998 297410 20580 1104913 329751 26965 756 59590 1148990 582005 46 45 25 6695 123 3813 2109 905 105 125 24 114
internal_value=0 -2.84536 -235.899 -1204.88 -722.946 -2.60785 -7.93196 -193.05 -0.537734 -1.41239 -0.245263 0.239938 0.863341 -3.48374 -0.470521 -0.184719 -0.0940599 -1.05541 -0.582878 1.95111 -0.749023 -1.10321 -0.888165 -1.1101 -1.50145 0.686179 -1.17817 -1.00367 -1.00229
internal_weight=0 66.9057 0.0681155 0.0132904 0.0110812 66.8376 12.2556 0.411436 469.678 54.582 300.121 98.4017 36.8345 11.0239 201.719 91.2168 61.5672 169.557 15.575 2.96286 110.502 153.982 43.5581 153.392 11.8442 0.590346 12.6121 0.0548251 0.044551
internal_count=3644025 84957 465 206 164 84492 3860 1507 3559068 80632 3556319 1236131 356716 21336 2320188 1208580 879415 2749 241 70 1111608 2508 59296 2232 2353 276 171 259 235
cat_boundaries=0 1 2 3 4 5 6 7 8 9 10 11 12 13 14
cat_threshold=8 2 2 2 2 2816 1 2 192 1 2 2 2 2
shrinkage=0.1


Tree=17
num_leaves=23
num_cat=10
split_feature=7 4 4 4 4 4 1 2 4 8 3 3 9 3 7 2 9 9 4 4 9 2
split_gain=201.895 18901.1 1481.33 3154.92 180.756 9886.73 65.7087 33.2075 28.3896 39.3851 112.358 3.14131 1.66911 1.29475 0.509701 0.539301 0.394823 0.0871383 0.161286 0.0742174 0.0495629 7.69488e-07
threshold=0 15.500000000000002 12.500000000000002 13.500000000000002 5.5000000000000009 7.5000000000000009 1 2 15.500000000000002 3 4 5 1.0000000180025095e-35 6 7 8 3.5000000000000004 3.5000000000000004 17.500000000000004 18.500000000000004 7.5000000000000009 9
decision_type=1 2 2 2 2 2 1 1 2 1 1 1 2 1 1 1 2 2 2 2 2 1
left_child=1 2 4 -4 7 -6 12 -1 9 10 -8 -11 14 20 15 -2 -15 19 -19 -10 -14 -16
right_child=6 -3 3 -5 5 -7 8 -9 17 11 -12 -13 13 16 21 -17 -18 18 -20 -21 -22 -23
leaf_value=-0.086443298489260953 -0.10031978377118178 -111.54740712703645 -58.277399599267348 -0.10149438396783537 -21.65138628167524 -0.14822962385785404 0.30243146005018529 -0.27261313715947127 -0.10207250456778397 -0.09768662053387861 -0.014203500955565124 -0.033573981750907471 -0.13084201234737466 -0.099171219462970361 -0.10031904410529109 0.15512966424328242 -0.11010671980894784 -0.10637984709485662 -0.13828745985087409 -0.11241179223289621 -0.14192645835543186 -0.10077104103488399
leaf_weight=40.424342832641223 0.10485577448470014 0.015253950099576197 0.013751401565967993 0.028939489275217056 0.21817059591597401 10.722296242106518 11.924582430377995 12.557443493111384 10.889299005124974 50.415766369802441 186.22176022973662 9.0077157095577132 9.7037462223455915 53.537362785928252 0.057057150270952657 0.39018311499972358 86.134619484753784 3.3307709739456182 3.0211015129578978 19.155514651583101 6.9039866263046852 0.1108158715069924
leaf_count=57637 117 60 32 38 927 2240 86823 19915 1434 1789 3362208 122089 86 1016 50 96 1304 397 239 904 38 40
internal_value=0 -2.45962 -2.19419 -188.409 -2.06983 -5.77037 -0.56137 -1.30568 -0.282444 -0.165625 0.0485181 -0.879681 -1.08382 -1.09054 0.499598 1.01022 -1.05915 -1.10914 -1.21556 -1.08664 -1.3545 -1.00617
internal_weight=0 63.9802 63.9649 0.0426909 63.9223 10.9405 450.909 52.9818 293.967 257.57 198.146 59.4235 156.943 156.28 0.662912 0.495039 139.672 36.3967 6.35187 30.0448 16.6077 0.167873
internal_count=3659479 80849 80789 70 80719 3167 3578630 77552 3575883 3572909 3449031 123878 2747 2444 303 213 2320 2974 636 2338 124 90
cat_boundaries=0 1 2 3 4 5 6 7 8 9 10
cat_threshold=8 2 2 1 2 2 2 1 2 2
shrinkage=0.1


Tree=18
num_leaves=24
num_cat=9
split_feature=7 4 4 3 4 1 5 2 4 4 9 4 9 7 9 8 9 9 9 3 4 7 9
split_gain=433.846 4611.59 1271.85 1.4837e+06 4968.71 49.6902 29.055 22.6748 15.902 32.9548 6.72609 6.46843 205.211 234.596 6.06619 5.14005 2.58789 1.85661 1.55305 0.961438 0.831424 0.39251 0.181852
threshold=0 14.500000000000002 5.5000000000000009 1 8.5000000000000018 2 3 4 15.500000000000002 14.500000000000002 7.5000000000000009 1.0000000180025095e-35 3.5000000000000004 5 1.0000000180025095e-35 6 10.500000000000002 8.5000000000000018 1.0000000180025095e-35 7 5.5000000000000009 8 3.5000000000000004
decision_type=1 2 2 1 2 1 1 1 2 2 2 2 2 1 2 1 2 2 2 1 2 1 2
left_child=1 2 7 4 -4 6 14 17 9 -8 -9 12 13 -7 20 -16 -14 -1 21 -20 -2 -13 -10
right_child=5 -3 3 -5 -6 11 8 10 22 -11 -12 18 16 -15 15 -17 -18 -19 19 -21 -22 -23 -24
leaf_value=-0.066453637200222737 -0.08029781271387379 -58.208020538084341 31.030311650883228 -1092.2014408212392 -0.14655484206308392 3.9528236509656831 0.014781147423407954 -0.031060030448739135 -0.10339896164590417 3.4220451273896604 -0.26282911603987008 0.081039920595187442 -0.14652619631320424 -0.1055858470976139 -0.083178560716158201 -0.030532272228136273 0.07110606461321349 -0.11210508179679897 -0.13100551869723004 -0.10452187094138599 -0.10858821929523843 -0.10055831936823086 -0.13228905838050115
leaf_weight=22.994811508076634 44.27659345048292 0.013767809607087568 0.051387451589229083 0.012453088536857559 9.7695277759859387 0.27067166690198874 128.19880199028401 1.4046641025857916 7.5789502219603646 0.028392469935623832 11.531267307427878 0.54881566851782027 9.0573435537517035 0.30062755197286606 25.929148243931138 65.122453498316474 0.58146276720799583 14.542791617235489 15.510324741763824 117.94785043588128 13.572766161149046 0.15198250976402206 3.0579114723522194
leaf_count=53430 520240 63 1107 44 2121 92 1873919 17871 810 326 762 173 83 53 52299 1104990 121 3875 120 2044 25751 90 193
internal_value=0 -3.39397 -3.26186 -13.6662 0.165766 -0.531058 -0.290874 -1.23486 0.0540024 0.155356 -2.37662 -1.00981 -0.242522 18.1722 -0.577356 -0.455246 -1.33397 -0.841399 -1.0682 -1.076 -0.869354 0.416566 -1.11704
internal_weight=0 60.3207 60.3069 9.83337 9.82092 432.134 287.765 50.4735 138.864 128.227 12.9359 144.369 10.2101 0.571299 148.901 91.0516 9.63881 37.5376 134.159 133.458 57.8494 0.700798 10.6369
internal_count=3660577 79273 79210 3272 3228 3581304 3578528 75938 1875248 1874245 18633 2776 349 145 1703280 1157289 204 57305 2427 2164 545991 263 1003
cat_boundaries=0 1 2 3 4 5 6 7 8 9
cat_threshold=8 1 1 8937727 2 1 2 2 1
shrinkage=0.1


Tree=19
num_leaves=30
num_cat=13
split_feature=7 1 4 8 3 4 4 4 9 2 9 3 2 8 9 9 9 3 9 8 4 3 8 4 2 4 4 9 9
split_gain=43.6015 51.8707 24.6986 33.8733 65.1786 20.6641 3025.56 95.9649 32.3664 15.6127 4.82465 3.18081 2.79348 2.42742 23.2346 34.0385 2.16786 4.24956 1.50817 1.104 0.909187 0.783222 0.636006 0.480132 0.383653 0.0831399 0.0725601 0.133068 0.0597405
threshold=0 1 15.500000000000002 2 3 6.5000000000000009 7.5000000000000009 8.5000000000000018 9.5000000000000018 4 7.5000000000000009 5 6 7 8.5000000000000018 11.500000000000002 8.5000000000000018 8 1.0000000180025095e-35 9 1.0000000180025095e-35 10 11 1.5000000000000002 12 3.5000000000000004 18.500000000000004 1.0000000180025095e-35 3.5000000000000004
decision_type=1 1 2 1 1 2 2 2 2 1 2 1 1 1 2 2 2 1 2 1 2 1 1 2 1 2 2 2 2
left_child=5 2 3 4 -2 9 12 8 -8 16 19 -5 -7 14 20 -16 17 -1 24 -11 -3 -20 -9 -12 -15 -18 27 -4 -28
right_child=1 13 26 11 -6 6 7 22 -10 10 23 -13 -14 18 15 -17 25 -19 21 -21 -22 -23 -24 -25 -26 -27 28 -29 -30
leaf_value=0.0050098583392375407 0.19781128528985295 -0.16702417863421881 -0.083775225438179945 -0.096348375817297105 -0.012062121960634923 -97.254281549097982 -5.4184598290462951 -0.17472882885555938 -1.1476309186296045 -0.10522255336879752 -0.24937826054360945 -0.029436960488592085 -103.71149159522167 0.080302867458449223 0.55759027416494555 -0.10871414824364728 -0.10673360086974522 -0.089639515980633092 -0.1025019337256651 0.069819222896669794 -0.10623875459771495 -0.12742351970851973 -0.12100478706678597 -0.20907298452248255 -0.10029721542159027 -0.12580414118525801 -0.11031027979375517 -0.10803942355055951 -0.12855939226637114
leaf_weight=6.9185571037605715 16.109628303376724 4.5580737218260756 2.9259409916612773 43.780069988690229 181.68526959880165 0.0010271756050625764 0.01811482571065326 3.8958145086075175 0.86857678118667536 0.93451998425007365 5.2739522961592238 8.4808220637435152 0.0019265671726333121 0.55042853391959845 1.3475188799202436 1.7787647238001225 10.487227302780495 15.089457864036374 104.73161072746268 0.58641835288771071 5.3475453978389913 14.336800779706946 5.0728901700804245 6.7232875377672103 0.14959360365175278 2.9232571322711669 16.304152411962562 9.9332047793854752 2.0156125566091481
leaf_count=51372 91031 40 410 1805 3333230 247 164 1225 20 3613 429 122466 114 112 28 42 3621 1189 2130 14925 123 118 974 297 171 320 894 1410 174
internal_value=0 -0.486743 -0.243518 -0.138874 0.0503125 -1.40701 -2.72786 -2.42458 -12.3488 -1.14092 -2.0552 -0.854901 -1014.66 -1.00183 -0.591962 1.78482 -0.791973 -0.59885 -1.04642 -0.377328 -1.34209 -1.05503 -1.44341 -2.26791 0.417089 -1.10891 -1.08276 -1.02518 -1.12318
internal_weight=0 414.035 281.235 250.056 197.795 58.795 9.85835 9.8554 0.886692 48.9367 13.5182 52.2609 0.00295374 132.8 13.0319 3.12628 35.4185 22.008 119.768 1.52094 9.90562 119.068 8.9687 11.9972 0.700022 13.4105 31.1789 12.8591 18.3198
internal_count=3632694 3554184 3551420 3548532 3424261 78510 2744 2383 184 75766 19264 124271 361 2764 233 70 56502 52561 2531 18538 163 2248 2199 726 283 3941 2888 1820 1068
cat_boundaries=0 1 2 3 4 5 6 7 8 9 10 11 12 13
cat_threshold=8 1 1 2 2 2 2 2 1 2 1 2 1
shrinkage=0.1


Tree=20
num_leaves=28
num_cat=14
split_feature=7 4 8 9 9 1 4 8 6 9 4 2 4 3 9 2 9 8 3 8 7 2 4 9 9 9 2
split_gain=68.1405 17042 15182.1 2888.71 9991.24 53.278 21.1565 27.4712 26.5644 11.1193 17.3693 4.67048 3.35515 3.15465 1.69855 1.5983 1.39589 0.526688 0.515993 0.390874 0.293199 0.281506 0.0688084 0.153112 0.0460282 0.0176536 5.87354e-07
threshold=0 11.500000000000002 1 4.5000000000000009 2.5000000000000004 2 15.500000000000002 3 4 8.5000000000000018 7.5000000000000009 5 8.5000000000000018 6 88.500000000000014 7 1.0000000180025095e-35 8 9 10 11 12 18.500000000000004 1.0000000180025095e-35 3.5000000000000004 7.5000000000000009 13
decision_type=1 2 1 2 2 1 2 1 1 2 2 1 2 1 2 1 2 1 1 1 1 1 2 2 2 2 1
left_child=1 9 3 4 -3 6 7 13 -9 12 11 -11 15 -2 -12 -1 20 -14 25 -20 21 -7 23 -8 -24 -18 -22
right_child=5 2 -4 -5 -6 16 22 8 -10 10 14 -13 17 -15 -16 -17 18 -19 19 -21 26 -23 24 -25 -26 -27 -28
leaf_value=-0.057246555278005401 -0.09540637830780857 -41.286279946426106 -300.2487287079079 -0.10042820649887073 -222.84016042370342 -0.10028373467159016 -0.080521107939132447 0.025980173285922926 -0.046908190246247386 -0.20146105365910547 -0.36447436124261379 -0.10980007779562612 -0.11953884224727288 -0.027512321106161586 -0.5554908552075003 -0.13102051497583697 -0.12093188718503552 -0.17072238125042083 -0.11979451624106766 -0.10106105742443693 -0.10023607525377597 0.088349052789090901 -0.10930200586614039 -0.10747005463107762 -0.12599079880084074 -0.12828356091422149 -0.10068263898059543
leaf_weight=20.799308950927877 39.984828724642284 0.019424037489443435 0.0026653501881820354 0.0080744538252710552 0.0035916371562052509 0.093104957456214874 2.7500994483561998 131.88469612479685 67.212772960104104 10.178498686967096 0.85757274320670107 12.248342198928636 4.6413356631765073 8.2568626864402912 1.0182719239415692 3.4194511109133208 7.7005751170878565 3.5467789584900551 12.598793903278422 96.048143568325258 0.042289278004339535 0.52648034389831244 14.88173495274388 9.033329598990921 1.859077626847278 5.6723927347920835 0.097035992425004172
leaf_count=53634 1782 203 99 22 20 123 451 2175664 1248429 615 26 3954 864 122465 29 18629 87 953 207 2133 58 87 917 1403 189 38 45
internal_value=0 -1.66999 -711.999 -515.636 -696.181 -0.498756 -0.254865 -0.160819 0.00322845 -1.24718 -1.75851 -1.51401 -0.863718 -0.837859 -4.68165 -0.676627 -1.04674 -1.4171 -1.05515 -1.03233 0.305285 0.600032 -1.07035 -1.01181 -1.11155 -1.2405 -1.00547
internal_weight=0 56.7433 0.0337555 0.0310901 0.0230157 398.642 275.863 247.339 199.097 56.7096 24.3027 22.4268 32.4069 48.2417 1.87584 24.2188 122.779 8.18811 122.02 108.647 0.758911 0.619585 28.5242 11.7834 16.7408 13.373 0.139325
internal_count=3633126 79048 344 245 223 3554078 3551300 3548340 3424093 78704 4624 4569 74080 124247 55 72263 2778 1817 2465 2340 313 210 2960 1854 1106 125 103
cat_boundaries=0 1 2 3 4 5 6 7 8 9 10 11 12 13 14
cat_threshold=8 2 1 2 992 1 2 2 1 2 2 1 2 2
shrinkage=0.1


Tree=21
num_leaves=28
num_cat=14
split_feature=1 7 5 9 9 9 4 4 9 3 0 9 7 2 9 3 9 3 8 7 9 7 2 9 9 4 2
split_gain=43.4244 31.7634 26.3652 32.1442 4356.58 16.0656 15.5774 9.20937 8.11461 478.693 4.71015 4.35715 4.91342 2.90163 1.30824 0.732183 0.563949 0.409465 0.373636 1.068 0.488132 0.254232 0.219638 0.0123443 0.00852183 0.00245967 4.13097e-07
threshold=0 1 2 82.500000000000014 83.500000000000014 8.5000000000000018 15.500000000000002 7.5000000000000009 6.5000000000000009 3 4 1.5000000000000002 5 6 1.0000000180025095e-35 7 126.50000000000001 8 9 10 7.5000000000000009 11 12 7.5000000000000009 11.500000000000002 3.5000000000000004 13
decision_type=1 1 1 2 2 2 2 2 2 1 1 2 1 1 2 1 2 1 1 1 2 1 1 2 2 2 1
left_child=14 5 11 6 -5 8 -4 13 10 -10 -2 15 -13 -7 21 -3 -9 18 19 -16 -20 22 -1 25 -25 -19 -23
right_child=1 2 3 4 -6 7 -8 16 9 -11 -12 12 -14 -15 17 -17 -18 23 20 -21 -22 26 -24 24 -26 -27 -28
leaf_value=-0.10025666247397358 -0.087876458216345751 -0.098885538315962834 0.010825536390792381 54.967683939569568 0.031630492909155872 -0.18411654461524152 -0.11378927976174735 -0.39538074892288355 -0.087340008548153325 6.0502911008777396 0.16852509745762165 -0.007679339399403325 -0.073143769956461713 -0.10908036695243631 -0.16618313216626926 -0.072756457012427916 -0.28332201571553983 -0.10106244378740986 -0.094927072014681632 -0.10109239439280787 -0.11141157417856057 -0.10021355792838359 0.07264445655355603 -0.12874859352854107 -0.12069080766850726 -0.1187325677911715 -0.10060208699233467
leaf_weight=0.08426644521172777 22.854188976095966 14.606726399912075 156.07101662443662 0.01452757840706098 2.276945292585602 9.9920327997451803 10.720319307752332 1.5247917844657859 5.5430597185614507 0.13005509824188255 0.7396492015523134 24.742459882003335 21.364892949687448 10.642418154958479 3.3768344353011361 40.348601341089726 0.63660999736387003 0.079669679515059211 63.036212240652048 9.9434638962266018 25.122335823161848 0.038273080317057923 0.5734504777938505 2.764796257019043 2.4986837529577315 7.0290986150917005 0.096023079240763212
leaf_count=102 67386 8006 2154192 173 23954 622 1134 37 2250 35 2942 446680 203631 3874 64 711460 20 39 1582 176 546 56 76 20 21 57 48
internal_value=0 -0.315238 -0.177403 0.0748404 3.79916 -1.03044 0.0281606 -1.65987 -0.540184 0.53364 -0.798385 -0.552186 -0.380138 -1.45416 -1.03186 -0.797014 -3.62375 -1.04077 -1.01983 -1.17594 -0.996246 0.248912 0.504924 -1.21253 -1.24923 -1.18535 -1.00491
internal_weight=0 322.208 270.145 169.083 2.29147 52.0628 166.791 22.7959 29.267 5.67311 23.5938 101.063 46.1074 20.6345 114.643 54.9553 2.1614 113.851 101.479 13.3203 88.1585 0.792013 0.657717 12.3722 5.26348 7.10877 0.134296
internal_count=3629183 3626396 3549230 2179453 24127 77166 2155326 4553 72613 2285 70328 1369777 650311 4496 2787 719466 57 2505 2368 240 2128 282 178 137 41 96 104
cat_boundaries=0 1 2 3 4 5 6 7 8 9 10 11 12 13 14
cat_threshold=2 8 9199853 1 1 1 1 2 1 2 1 1 2 2
shrinkage=0.1


Tree=22
num_leaves=26
num_cat=13
split_feature=9 9 4 2 2 4 7 4 6 5 4 9 5 3 2 1 4 0 9 5 4 9 9 7 7
split_gain=3605.5 4.33184e+06 1.12376e+06 4.12376e+06 286604 111209 46.5893 46227.7 45.7843 28.7373 29.1279 17.0551 13.7711 11.7708 11.3461 10.0078 8.17441 9.99747 36.6983 7.04474 4.28643 3.42872 1.64912 1.05955 0.0177273
threshold=82.500000000000014 83.500000000000014 1.0000000180025095e-35 0 1 1.5000000000000002 2 11.500000000000002 3 4 1.0000000180025095e-35 5.5000000000000009 5 6 7 8 1.0000000180025095e-35 9 111.50000000000001 10 7.5000000000000009 143.50000000000003 1.0000000180025095e-35 11 12
decision_type=2 2 2 1 1 2 1 2 1 1 2 2 1 1 1 1 2 1 2 1 2 2 2 1 1
left_child=6 2 4 5 -2 -4 7 11 15 10 -10 12 -1 -13 -11 22 17 18 -3 -17 24 -19 -8 -22 -18
right_child=1 16 3 -5 -6 -7 8 -9 9 14 -12 13 -14 -15 -16 19 20 21 -20 -21 23 -23 -24 -25 -26
leaf_value=0.074242607849734438 -2039.5657654471152 4.9310857014062792 -0.10000932104987795 -7341.3120812222714 -370.13997081247521 -1402.3827611744216 0.060003976138691288 -289.06900299191813 0.17288460160305325 -0.082823315920987461 0.018026233425215046 -0.31446935467030401 -0.060614947851709747 -0.13247563396484877 -0.012856831579886728 0.0036407310104692977 -0.11748795701584674 0.23231396713136643 -0.10007050956515939 -0.065954071993644794 -0.31578960944534246 -0.10058607262043931 -0.10388753334956312 -0.10146984053837933 -0.10313711867662008
leaf_weight=2.0196305985355152 0.0019613005788414735 0.019876190768627566 0.0010109573463494279 0.001648231642813025 0.0021619304370485426 0.0012836232184152421 0.61889690974028511 0.0055369400324697376 16.078625512765022 31.717568683307903 49.662399580657286 4.1375769306305301 20.542492664768222 25.188451361037281 86.081411675346757 25.108574918723306 1.005181486934535 0.5996724253142931 0.053581255979460285 75.212044485080611 1.4425790033695007 0.63913882560293134 76.938510283205716 0.27457924580243043 5.9913951667418468
leaf_count=7659 25 296 32 53 65 32 217 171 147637 523870 329626 111 51434 6685 1151728 391564 1328 4007 340 965428 26 5003 1854 926 40214
internal_value=0 -19.6855 -23184.6 -35255.1 -11642.4 -7845.58 -0.500937 -1.38697 -0.373717 -0.00303377 0.485202 -1.07866 -0.425032 -1.58153 -0.292153 -0.715788 -1.04904 1.27773 12.6126 -0.547471 -1.39945 0.605611 -1.0258 -2.81519 -1.05199
internal_weight=0 10.0341 0.00806604 0.00394281 0.00412323 0.00229458 413.312 51.8937 361.418 183.54 65.741 51.8882 22.5621 29.326 117.799 177.878 10.026 1.31227 0.0734574 100.321 8.71373 1.23881 77.5574 1.71716 6.99658
internal_count=3630331 52347 207 117 90 64 3577984 66060 3511924 2152861 477263 65889 59093 6796 1675598 1359063 52140 9646 636 1356992 42494 9010 2071 952 41542
cat_boundaries=0 1 2 3 4 5 6 7 8 9 10 11 12 13
cat_threshold=2 2 8 55 3150338 262400 2 1 2 2 25331200 8 8
shrinkage=0.1


Tree=23
num_leaves=29
num_cat=15
split_feature=9 9 4 7 4 1 7 5 9 9 9 3 4 0 4 9 9 7 3 8 7 2 7 9 2 4 2 0
split_gain=120.707 5779.86 87692.7 202312 7215.73 37.2635 46.1005 28.1042 22.8435 8.95866 7.1667 9.55104 4.24183 3.96597 1.58824 4.58789 1.17267 0.566656 0.332446 0.345066 0.20326 0.171209 0.0134641 0.0095822 5.64769e-05 1.6592e-05 3.36453e-07 9.33371e-08
threshold=82.500000000000014 84.500000000000014 1.0000000180025095e-35 0 1.5000000000000002 1 2 3 5.5000000000000009 1.5000000000000002 6.5000000000000009 4 7.5000000000000009 5 1.0000000180025095e-35 107.50000000000001 1.0000000180025095e-35 6 7 8 9 10 11 7.5000000000000009 12 8.5000000000000018 13 14
decision_type=2 2 2 1 2 1 1 1 2 2 2 1 2 1 2 2 2 1 1 1 1 1 1 2 1 2 1 1
left_child=5 2 24 4 -4 16 10 8 -8 -9 13 -12 14 -7 15 -3 20 -14 23 -20 21 -1 -16 -18 -2 -19 -22 -26
right_child=1 12 3 -5 -6 6 7 9 -10 -11 11 -13 17 -15 22 -17 18 25 19 -21 26 -23 -24 -25 27 -27 -28 -29
leaf_value=-0.10024265977641306 -0.1042027996363698 -0.10653109249380209 -179.68149142132927 -1203.0952681320539 -0.10002932969055628 -0.083786834149694303 0.004547268728133538 -0.06434391165679744 0.11597225542574073 -0.015100620629041587 -0.30041108718244486 -0.1287095085827302 -0.26411394356531293 0.13951137542896955 -0.11592498712775692 0.12736864204964976 -0.11533627826452149 -0.10222979369850263 -0.096551840003747114 -0.11548559779617794 -0.1001983947291894 0.055299766115737226 -0.1028485261905458 -0.12143313228798172 -0.10044007338612695 -0.10058789104304805 -0.10056244868757605 -0.10003931337318735
leaf_weight=0.079627462662792886 0.065853394976824742 2.315356518289776 0.0044548096648213686 0.0019950236535826731 0.0044952552207178087 20.308331249427443 85.939938066654605 78.373020026111377 23.411334551726071 69.890006019884467 3.7734998355026619 22.900890528984011 1.5457794693287359 0.82780990305127389 0.92107371321543874 1.3148080514445353 6.1934395865811744 0.11293701219814534 72.146657218940234 11.107539138814898 0.035522051417407947 0.63594575334427339 5.4256485455416934 4.415737509727478 0.09160844748839736 0.13525717682763094 0.088964695110973602 0.0062051041422959688
leaf_count=120 30 1556 108 76 77 57957 1334825 988741 212227 985817 51 4313 26 3123 1320 7986 84 304 2052 225 56 87 33901 34 27 601 45 37
internal_value=0 -3.67937 -184.282 -2924.69 -894.85 -0.453457 -0.283526 -0.116156 0.260228 -0.385321 -1.18536 -1.52999 -1.00027 -0.750412 -0.745711 -0.21815 -1.0015 -2.41594 -1.01202 -0.990779 0.174747 0.379913 -1.04746 -1.17874 -1.01939 -1.01335 -1.00459 -1.00415
internal_weight=0 11.9455 0.174612 0.0109451 0.00895006 400.128 305.425 257.614 109.351 148.263 47.8105 26.6744 11.7709 21.1361 9.97689 3.63016 94.7034 1.79397 93.8634 83.2542 0.84006 0.715573 6.34672 10.6092 0.163667 0.248194 0.124487 0.0978136
internal_count=3635806 46049 355 261 185 3589757 3587054 3521610 1547052 1974558 65444 4364 45694 61080 44763 9542 2703 931 2395 2277 308 207 35221 118 94 905 101 64
cat_boundaries=0 1 2 3 4 5 6 7 8 9 10 11 12 13 14 15
cat_threshold=1 2 8 1052416 2 1 8 2 1 1 2 8 2 2 2
shrinkage=0.1


Tree=24
num_leaves=29
num_cat=17
split_feature=8 2 0 1 6 5 7 7 4 7 3 3 1 9 1 4 9 1 9 9 9 9 9 9 7 2 4 3
split_gain=42.6921 29.7733 29.4467 155.206 28.8781 23.2264 17.0853 5.57159 5.04558 4.55985 36.5144 4.46051 7.51408 6.54816 3.52863 3.25095 2.54715 2.10121 7.55666 1.81388 9.81792 1.32803 1.06145 0.650793 0.249844 0.125045 0.0551619 0.000163904
threshold=0 1 2 3 4 5 6 7 7.5000000000000009 8 9 10 11 6.5000000000000009 12 6.5000000000000009 2.5000000000000004 13 142.50000000000003 1.5000000000000002 1.0000000180025095e-35 1.0000000180025095e-35 9.5000000000000018 5.5000000000000009 14 15 1.5000000000000002 16
decision_type=1 1 1 1 1 1 1 1 2 1 1 1 1 2 1 2 2 1 2 2 2 2 2 2 1 1 2 1
left_child=2 4 8 9 17 6 -6 19 11 10 -4 13 -13 -1 21 -7 -16 23 -19 20 -3 -9 25 -2 -24 -10 -21 -11
right_child=1 7 3 -5 5 15 -8 14 22 27 -12 12 -14 -15 16 -17 -18 18 -20 26 -22 -23 24 -25 -26 -27 -28 -29
leaf_value=-0.092464636213268253 -0.082761137740233109 -0.10436434988991589 -0.10313469331083713 -1.2190804531941322 -0.12111397416490073 -0.034778764714552123 0.049002148997223383 0.038175183337506892 -0.15713186600868345 -0.10258566501828346 1.9867505235445362 0.024232448416502628 -0.1089468694356234 -0.21278786065250796 -0.074347035218694582 -0.096523951490626647 -0.030864441494220848 -0.063604716247000648 0.72934282617575941 -0.16328520672618135 0.93467303423094494 -0.099770901818474145 -0.24257871302536707 -0.11459448835925956 -0.10166963177568605 -0.10046233587474961 -0.14917488869604528 -0.10104266124951394
leaf_weight=40.017476033508956 13.238988475894478 1.5397480459578226 0.65589736653055297 1.4883145405910907 6.2696862860152223 42.783160619075311 101.16526576535125 0.71363350997688613 2.9558482254859166 3.7836060009922221 0.095815460463938532 8.0386810528905457 8.9567139504652147 5.0992753548998726 30.3577376796935 10.649785995326033 24.219578112273851 37.136071430963 0.12057256514071824 5.1899193682087326 0.096648721462770371 31.644574521872983 2.3974575300162697 12.47232441161759 0.13280199646215196 0.44844882911459111 5.9432434522162794 0.84154016362029349
leaf_count=2059 522 5009 26 42 10271 563333 1253814 121 1453 198 868 131103 222 167 585129 14443 381519 658781 1490 1487 2037 918 45 302 161 1074 3055 9699
internal_value=0 -0.341714 -1.17948 -3.15336 -0.139252 0.0984424 0.357472 -0.796236 -0.980335 -0.651792 1.63248 -0.896165 -0.459542 -1.06064 -0.705637 -0.396624 -0.550509 -0.657689 -0.610385 -1.41303 -0.429968 -0.967286 -1.86128 -0.982032 -2.35183 -1.49667 -1.55753 -1.02305
internal_weight=0 323.541 74.9119 6.86517 223.836 160.868 107.435 99.7051 68.0467 5.37686 0.751713 62.1121 16.9954 45.1168 86.9355 53.4329 54.5773 62.968 37.2566 12.7696 1.6364 32.3582 5.93456 25.7113 2.53026 3.4043 11.1332 4.62515
internal_count=3629348 3482231 147117 10833 2502956 1841861 1264085 979275 136284 10791 894 133551 131325 2226 967687 577776 966648 661095 660271 11588 7046 1039 2733 824 206 2527 4542 9897
cat_boundaries=0 1 2 3 4 5 6 7 8 9 10 11 12 13 14 15 16 17
cat_threshold=2 2 1 1 23 11550486 8 8 8 2 2 1 2 2 8 2 2
shrinkage=0.1


end of trees

feature importances:
count_proc=169
adm_past_year=166
cc_tetplg_prplg_dplg_hmplg_dt=64
pat_remoteness=57
indstat_flag=50
flag_emergency=44
cc_spina_bifida=36
an100mdc_ra=23
cc_depression=15
agegroup_rm=9

parameters:
[boosting: goss]
[objective: cross_entropy]
[metric: cross_entropy]
[tree_learner: serial]
[device_type: cpu]
[data: ]
[valid: ]
[num_iterations: 100]
[learning_rate: 0.1]
[num_leaves: 32]
[num_threads: 4]
[max_depth: 5]
[min_data_in_leaf: 20]
[min_sum_hessian_in_leaf: 0.001]
[bagging_fraction: 1]
[pos_bagging_fraction: 1]
[neg_bagging_fraction: 1]
[bagging_freq: 0]
[bagging_seed: 3]
[feature_fraction: 1]
[feature_fraction_bynode: 1]
[feature_fraction_seed: 2]
[early_stopping_round: 0]
[first_metric_only: 0]
[max_delta_step: 0]
[lambda_l1: 0]
[lambda_l2: 0]
[min_gain_to_split: 0]
[drop_rate: 0.1]
[max_drop: 50]
[skip_drop: 0.5]
[xgboost_dart_mode: 0]
[uniform_drop: 0]
[drop_seed: 4]
[top_rate: 0.2]
[other_rate: 0.1]
[min_data_per_group: 100]
[max_cat_threshold: 32]
[cat_l2: 10]
[cat_smooth: 10]
[max_cat_to_onehot: 4]
[top_k: 20]
[monotone_constraints: ]
[feature_contri: ]
[forcedsplits_filename: ]
[forcedbins_filename: ]
[refit_decay_rate: 0.9]
[cegb_tradeoff: 1]
[cegb_penalty_split: 0]
[cegb_penalty_feature_lazy: ]
[cegb_penalty_feature_coupled: ]
[verbosity: 1]
[max_bin: 255]
[max_bin_by_feature: ]
[min_data_in_bin: 3]
[bin_construct_sample_cnt: 200000]
[histogram_pool_size: -1]
[data_random_seed: 1]
[output_model: LightGBM_model.txt]
[snapshot_freq: -1]
[input_model: ]
[output_result: LightGBM_predict_result.txt]
[initscore_filename: ]
[valid_data_initscores: ]
[pre_partition: 0]
[enable_bundle: 1]
[max_conflict_rate: 0]
[is_enable_sparse: 1]
[sparse_threshold: 0.8]
[use_missing: 1]
[zero_as_missing: 0]
[two_round: 0]
[save_binary: 0]
[header: 0]
[label_column: ]
[weight_column: ]
[group_column: ]
[ignore_column: ]
[categorical_feature: ]
[predict_raw_score: 0]
[predict_leaf_index: 0]
[predict_contrib: 0]
[num_iteration_predict: -1]
[pred_early_stop: 0]
[pred_early_stop_freq: 10]
[pred_early_stop_margin: 10]
[convert_model_language: ]
[convert_model: gbdt_prediction.cpp]
[num_class: 1]
[is_unbalance: 0]
[scale_pos_weight: 1]
[sigmoid: 1]
[boost_from_average: 1]
[reg_sqrt: 0]
[alpha: 0.9]
[fair_c: 1]
[poisson_max_delta_step: 0.7]
[tweedie_variance_power: 1.5]
[max_position: 20]
[lambdamart_norm: 1]
[label_gain: ]
[metric_freq: 1]
[is_provide_training_metric: 0]
[eval_at: ]
[multi_error_top_k: 1]
[num_machines: 1]
[local_listen_port: 12400]
[time_out: 120]
[machine_list_filename: ]
[machines: ]
[gpu_platform_id: -1]
[gpu_device_id: -1]
[gpu_use_dp: 0]

end of parameters

pandas_categorical:[[0, 1], [0, 1], [0, 1], [0, 1], [0, 1, 2, 3, 4, 5, 6, 7, 8, 9, 10, 11, 12, 13, 14, 15, 16, 17, 18, 19, 20, 21, 22, 23, 99], [0, 1, 2, 3, 4, 5, 6, 7, 8, 9], [0, 1, 2, 3], [0, 1]]
