tree
version=v3
num_class=1
num_tree_per_iteration=1
label_index=0
max_feature_idx=15
objective=cross_entropy
feature_names=indstat_flag cc_diabetes adm_past_year flag_emergency pat_remoteness count_proc gender cc_diabetes_complications cc_ischaemic_heart_disease cc_renal_disease malnutrition flag_admtransfer low_los_flag cc_hypertension an100mdc_ra agegroup_rm
feature_infos=1:0 1:0 [0:340] 1:0 1:0:2:3 [0:50] 1:0 1:0 1:0 1:0 1:0 1:0 1:0 1:0 6:5:8:14:1:4:11:3:21:23:9:19:2:13:7:10:18:20:12:16:22:15:0:24:17 3:6:7:2:5:4:8:0:1:9
tree_sizes=3359 2977 3360 2911 3022 1947 3247 3251 3244 3403 2899 3244 2687 2715 2465 2987 3307 3368 3002 3345 3192 2493 3438 2878 3016 2688 2915 2870

Tree=0
num_leaves=32
num_cat=17
split_feature=7 14 3 2 3 2 4 1 5 2 3 2 3 2 2 2 1 5 10 15 3 2 13 2 5 8 14 2 1 11 5
split_gain=6417.83 2574.02 2366.56 1569.32 902.905 1112.35 2073.47 774.853 639.116 741.506 602.665 428.105 241.319 239.575 208.474 178.155 158.101 136.74 168.278 126.341 103.061 98.2285 56.0145 39.7295 38.609 62.1061 32.8898 29.7053 25.6721 29.9323 16.0533
threshold=0 1 2 4.5000000000000009 3 312.50000000000006 4 5 1.0000000180025095e-35 8.5000000000000018 6 10.500000000000002 7 5.5000000000000009 6.5000000000000009 3.5000000000000004 8 1.0000000180025095e-35 9 10 11 1.0000000180025095e-35 12 23.500000000000004 11.500000000000002 13 14 3.5000000000000004 15 16 1.0000000180025095e-35
decision_type=1 1 1 2 1 2 1 1 2 2 1 2 1 2 2 2 1 2 1 1 1 2 1 2 2 1 1 2 1 1 2
left_child=3 2 8 10 5 11 -7 12 9 -2 16 -5 14 -10 -3 19 21 18 -6 -9 -17 -1 -18 -19 26 -26 -12 -14 29 -4 -30
right_child=1 7 28 4 17 6 -8 15 13 -11 24 -13 27 -15 -16 20 22 23 -20 -21 -22 -23 -24 -25 25 -27 -28 -29 30 -31 -32
leaf_value=-7.9328935474446229 -6.5599959208034404 -8.1231722474235184 -6.1785291108420175 -7.1696852444922081 -6.5670382013770849 40.19936326167651 -8.4177235870930502 -8.3128887774487588 -7.5210493546389428 -3.0301489423776475 -8.1615860197580528 -6.3628217461172003 -8.3687367707134293 -6.4756734015293382 -7.6259774938372553 -8.2674230922368519 -7.5465713502761291 -8.07177161592465 12.070905870599935 -8.3960180293222493 -8.3773691090958504 -7.6606886487986738 -7.0813702836093331 -7.6874883866351098 -8.4177235870930485 -4.7149592272682614 -8.3441915940804456 -8.174453504223278 -7.9235751527801881 -8.0575894820800631 -8.3778080806490642
leaf_weight=20.832042858819477 10.442865587538108 116.10879311483586 0.089317835227120668 14.663011283118982 0.64840843770070833 0.014398230268852783 0.022451477707362662 208.44122729977244 13.271263703063594 0.63108175381785336 10.302543851867084 11.922710813814772 46.951408717723098 2.6260907783580469 9.0938246226869506 209.58015171781881 5.7395250456465874 6.6483218171924801 0.0048807560233399263 2021.7489785274665 143.72630703510367 36.458027305343421 4.7143222429440339 4.5190920020104386 0.10273991429130548 0.081020549987441792 19.922269936068922 9.4545124928117712 0.80947338647093292 1.6660460685670839 20.042336534243077
leaf_count=85364 42792 475782 366 60085 2657 59 92 854135 54382 2586 42217 48856 192394 10761 37264 858802 23519 27243 20 8284573 588951 149395 19318 18518 421 332 81636 38742 3317 6827 82128
internal_value=0 -0.324857 6.1836 6.69399 12.11 15.3393 188.961 -0.462246 13.7562 19.5886 4.57272 15.0986 1.53268 9.69336 2.3064 -0.604269 6.23288 4.83697 18.8991 -0.708789 0.0554966 5.5803 9.80917 4.01435 0.874227 15.3254 0.786367 -0.184727 -0.115569 3.55722 -0.424755
internal_weight=0 2814.68 49.5785 136.596 38.4433 26.6226 0.0368497 2765.11 26.9713 11.0739 98.1525 26.5857 181.609 15.8974 125.203 2583.5 67.7439 11.8207 0.653289 2230.19 353.306 57.2901 10.4538 11.1674 30.4086 0.18376 30.2248 56.4059 22.6072 1.75536 20.8518
internal_count=12093534 11533802 203159 559732 157530 109092 151 11330643 110521 45378 402202 108941 744182 65143 513046 10586461 277596 48438 2677 9138708 1447753 234759 42837 45761 124606 753 123853 231136 92638 7193 85445
cat_boundaries=0 1 2 3 4 5 6 7 8 9 10 11 12 13 14 15 16 17
cat_threshold=2 1024 2 2 2 2 2 2 1 1 1 2 2 2 282426 2 2
shrinkage=1


Tree=1
num_leaves=28
num_cat=18
split_feature=2 4 3 9 6 10 7 1 2 14 15 14 14 3 14 10 5 2 4 2 2 2 11 5 3 5 9
split_gain=16966.2 49778.2 100435 72019.3 151993 15579.7 1962.61 659.824 641.627 344.113 231.161 714.035 140.655 105.443 79.8801 378.255 69.8924 65.7057 53.6997 43.6282 43.1723 22.4527 4.48919e-05 1.12782e-08 1.12534e-08 6.29412e-09 3.25387e-10
threshold=312.50000000000006 0 1 2 3 4 5 6 324.50000000000006 7 8 9 10 11 12 13 1.0000000180025095e-35 92.500000000000014 14 37.500000000000007 8.5000000000000018 3.5000000000000004 15 1.0000000180025095e-35 16 1.0000000180025095e-35 17
decision_type=2 1 1 1 1 1 1 1 2 1 1 1 1 1 1 1 2 2 1 2 2 2 1 2 1 2 1
left_child=6 2 3 4 -2 25 9 13 -5 16 11 -9 -12 20 15 -11 18 -16 -1 -18 -8 -15 -3 24 -24 -4 -25
right_child=1 22 5 8 -6 -7 7 10 -10 14 12 -13 -14 21 17 -17 19 -19 -20 -21 -22 -23 23 26 -26 -27 -28
leaf_value=1.2674632055937813 -1336.1798539950012 -0.10343669441779485 -0.10012797093065209 -73.166891288247299 -299.86152562033197 -180.13109522538122 0.16708315705054511 0.35637913517925313 -129.99667565247975 -5.3593055522534225 -0.0053148773377790538 -0.045414310656178979 -0.070731660084061829 -0.038274125176261858 0.20650234009634594 -0.013811162851681156 0.4939845154151864 0.059073872236126417 0.63191172519313277 0.23891801681718552 0.060461849589868888 0.11773456436853168 -0.10002319773081277 -0.10004594649295212 -0.10013424876553433 -0.10003936603478569 -0.10003134237833229
leaf_weight=1.4624529461434577 0.0017962998535949737 0.062380928196944296 0.023559148583444767 0.0041058282367885113 0.0066719708847813308 0.0055545338163938132 171.45557265006937 46.467718372761738 0.0038492139719892289 0.1330993927340387 408.60051804220711 198.75659875282145 1959.8815349119104 46.962346695130691 194.39907339049387 24.351861198781993 35.685803681059042 35.796757592846916 14.617423524366131 8.2577038807794434 48.781625422881916 11.480218331096692 0.012461170786991715 0.033364878574502654 0.034085505641995861 0.012152683062595315 0.02810962253715843
leaf_count=2012 31 27 26 20 51 22 516449 126024 21 217 1234453 810512 8582158 198304 351541 85733 64612 26869 22269 6178 25662 40025 54 99 31 34 100
internal_value=0 -272.83 -1075.71 -3167.23 -5196.87 -243.326 -0.0868792 -0.344918 -1006.65 2.2847 -0.500877 0.417021 -0.59516 1.1178 1.55693 -0.304378 4.38306 1.75934 6.89715 4.46053 1.43467 -0.0762842 -1.01301 -1.00067 -1.00105 -1.00098 -1.00039
internal_weight=0 0.228092 0.0576897 0.0164233 0.00846827 0.0412664 3207.09 2892.39 0.00795504 314.704 2613.71 245.224 2368.48 278.68 254.681 24.485 60.0234 230.196 16.0799 43.9435 220.237 58.4426 0.170402 0.108021 0.0465467 0.0357118 0.0614745
internal_count=12093534 516 205 123 82 82 12093018 11533587 41 559431 10753147 936536 9816611 780440 464360 85950 95071 378410 24281 70790 542111 238329 311 284 85 60 199
cat_boundaries=0 1 2 3 4 5 6 7 8 9 10 11 12 13 14 15 16 17 18
cat_threshold=2 2 2 2 1 2 2 2098240 1 1088 23725185 2 16986117 2 4 2 2 2
shrinkage=0.1


Tree=2
num_leaves=32
num_cat=21
split_feature=7 1 2 3 4 13 14 15 15 2 3 2 9 15 2 14 5 14 12 3 3 2 2 5 14 2 3 5 4 9 6
split_gain=1282.19 516.865 407.337 2223.62 10960.6 16819.5 212.658 475.971 179.716 137.1 103.012 88.408 93.7469 84.1147 110.37 83.4055 74.5935 69.9387 68.8246 56.8185 52.759 50.6317 48.3634 41.4289 24.5418 18.7552 11.765 1.57533e-08 1.46341e-14 3.88578e-16 4.85723e-17
threshold=0 1 312.50000000000006 2 3 4 5 6 7 3.5000000000000004 8 3.5000000000000004 9 10 8.5000000000000018 11 1.0000000180025095e-35 12 13 14 15 7.5000000000000009 10.500000000000002 3.5000000000000004 16 3.5000000000000004 17 1.0000000180025095e-35 18 19 20
decision_type=1 1 2 1 1 1 1 1 1 2 1 2 1 1 2 1 2 1 1 1 1 2 2 2 1 2 1 2 1 1 1
left_child=2 13 8 4 30 -6 7 10 11 26 -3 18 -13 14 21 23 -16 -9 -1 -11 24 -2 -17 -10 -15 -22 -8 28 -5 -29 -4
right_child=1 6 3 27 5 -7 9 17 15 19 -12 12 -14 20 16 22 -18 -19 -20 -21 25 -23 -24 -25 -26 -27 -28 29 -30 -31 -32
leaf_value=0.22168926883873993 0.58020141192974106 0.28990746076131629 -0.10001997795654408 -0.10012719938032098 41.618783233326553 500.38703415936681 -0.071256658321316918 -0.063245082591433702 0.39154675737593619 0.040520799704074378 -0.037508891896431237 0.45320876835456075 0.96200583391089034 0.12622141395466874 0.036328937034182454 0.13201269111110278 1.0677135135210301 0.0038522507292049757 2.8466750810103303 -0.058328529250738309 -0.048124382368225117 2.0837592051288016 0.048471415047952091 0.17059167233188197 0.047393780481952523 0.090022068799339106 -0.09015592034926706 -0.10004148098541016 -0.10012709256001724 -0.10004145891608601 -0.10001998935620003
leaf_weight=5.2826089131928056 10.289743021188769 67.817117882193998 0.007388802376226522 0.019031526753678921 0.002397000687783743 0.0011988322076066362 1067.2789364768664 316.303513210456 30.099580280570081 153.68757457895845 11.195571591495534 6.3244096745656861 8.4728207076460631 104.91434650906012 7.7837356814416108 243.43602058656143 0.77065642396337342 302.37771497212816 0.10180751328880422 93.540987349770148 44.316060952027328 0.2289493305434015 96.873089733532879 11.817508330364943 131.39233644178603 12.627785964723442 476.41239499871381 0.021138294687261805 0.03929819609036507 0.012842172785894944 0.0073928876518039024
leaf_count=7902 19130 147278 37 25 23 54 4996019 1486545 28305 638992 34169 3979 6048 287127 582 436324 945 776938 186 435707 194958 253 65213 11474 238266 39180 2237713 61 31 33 37
internal_value=0 -0.323681 1.58503 62.2402 379.9 1945.7 -0.475862 -0.00272689 1.56835 -0.656502 2.16157 4.13433 7.44543 0.888907 2.59787 1.29093 1.29245 -0.309119 2.71322 0.0312033 0.666441 6.12928 1.05142 2.65835 0.897383 -0.174892 -0.770893 -1.00096 -1.00127 -1.00041 -1.0002
internal_weight=0 2800.94 402.519 0.110688 0.0183775 0.00359583 2488.61 697.694 402.408 1790.92 79.0127 20.1816 14.7972 312.324 19.0731 382.226 8.55439 618.681 5.38442 247.229 293.251 10.5187 340.309 41.9171 236.307 56.9438 1543.69 0.0923102 0.0583297 0.0339805 0.0147817
internal_count=12093534 11533802 559732 301 151 77 10753361 2444930 559431 8308431 181447 18115 10027 780441 20910 541316 1527 2263483 8088 1074699 759531 19383 501537 39779 525393 234138 7233732 150 56 94 74
cat_boundaries=0 1 2 3 4 5 6 7 8 9 10 11 12 13 14 15 16 17 18 19 20 21
cat_threshold=2 2 2 8 1 17695937 1 12 2 2 5 1024 262208 1 2 2 11012818 2 2 2 2
shrinkage=0.1


Tree=3
num_leaves=27
num_cat=15
split_feature=2 4 3 5 5 7 1 14 15 2 14 10 2 15 2 3 2 2 14 2 7 5 5 3 7 3
split_gain=8899.58 15047.4 110199 104020 14294.6 873.248 410.856 194.71 264.718 91.2711 63.5912 267.27 4356.41 48.8367 46.0759 44.2524 40.8309 16.2116 13.6265 5.62478 3.74341e-05 6.84933e-09 6.47933e-09 5.286e-09 2.61895e-10 1.70471e-10
threshold=312.50000000000006 0 1 1.0000000180025095e-35 2.5000000000000004 2 3 4 5 3.5000000000000004 6 7 112.50000000000001 8 115.50000000000001 9 6.5000000000000009 8.5000000000000018 10 2.5000000000000004 11 1.0000000180025095e-35 1.0000000180025095e-35 12 13 14
decision_type=2 1 1 2 2 1 1 1 1 2 1 1 2 1 2 1 2 2 1 2 1 2 2 1 1 1
left_child=5 20 3 -3 -5 10 15 8 -8 -9 11 19 -13 14 -12 17 -15 -7 -17 -1 22 -4 23 -2 -23 -24
right_child=1 2 21 4 -6 6 7 9 -10 -11 13 12 -14 16 -16 18 -18 -19 -20 -21 -22 24 25 -25 -26 -27
leaf_value=-0.047613688599191441 -0.10001808223486669 -1156.2825281793571 -0.10010360991595534 -355.72033783941237 -115.93144229036471 0.099892605852731298 0.12865651874304457 -0.07664695116349636 -0.028762835896059331 -0.0079876877711183413 0.22441080036255223 0.68108672763471079 -66.066366916927734 0.12162816781032129 0.065179562693764986 0.0522400592770072 0.043764272669937987 0.039753224778249802 -0.035838732321317464 0.039516057005483038 -0.10383708848215108 -0.10003753209489395 -0.10003751711494194 -0.10011498295050535 -0.10001964879498325 -0.10001807933927849
leaf_weight=20.969192865450111 0.0066883055696962401 0.0013838343147822849 0.019574301171763401 0.0047803797933907433 0.0051799445355014129 229.04717330812127 115.08046574029117 1313.4950536362737 723.1857618472277 227.08637281924894 110.26654001971474 0.12800797588408741 0.010586916144347924 215.57816220915993 21.758542108545043 16.926806462142849 97.944937943507966 55.730068598117214 41.416149725322612 11.457649094867518 0.045782744637108408 0.016876953159226105 0.013870996539480984 0.035562560893595219 0.015907737004454248 0.0066869620932266107
leaf_count=69008 37 78 37 56 39 516449 246240 6676070 2839562 991275 90853 348 20 298623 11091 65188 68399 25662 173141 21089 26 57 37 31 81 37
internal_value=0 -227.365 -613.21 -3438.86 -2310.16 -0.085353 -0.304287 -0.451838 -0.0588976 -0.660973 1.16107 -0.272032 -44.1758 1.244 1.84215 0.718685 0.942958 0.881235 -0.074736 -0.168274 -1.01662 -1.00057 -1.00077 -1.001 -1.00029 -1.00031
internal_weight=0 0.172295 0.0637031 0.0113442 0.00996032 3200.08 2721.97 2378.85 838.266 1540.58 478.114 32.5654 0.138595 445.548 132.025 343.12 313.523 284.777 58.343 32.4268 0.108592 0.052359 0.0628088 0.0422509 0.0327847 0.020558
internal_count=12093534 516 348 173 95 12093018 11533587 10753147 3085802 7667345 559431 90465 368 468966 101944 780440 367022 542111 238329 90097 168 175 142 68 138 74
cat_boundaries=0 1 2 3 4 5 6 7 8 9 10 11 12 13 14 15
cat_threshold=8 2 2 2 25068737 1 17510405 1 60 2 808488 2 2 2 1
shrinkage=0.1


Tree=4
num_leaves=28
num_cat=16
split_feature=7 1 2 4 5 2 14 15 2 14 3 14 3 3 14 2 5 1 14 2 2 6 2 5 3 15 2
split_gain=649.092 333.924 304.669 2548.57 1139.11 515.959 180.953 215.4 86.5262 67.9145 56.6134 44.4011 33.9159 30.2975 20.6385 24.8613 19.5623 26.2224 16.2141 30.7561 20.1777 14.0893 12.3574 28.0015 10.7367 8.99895 2.93882
threshold=0 1 312.50000000000006 2 2.5000000000000004 335.00000000000006 3 4 3.5000000000000004 5 6 7 8 9 10 92.500000000000014 1.0000000180025095e-35 11 12 6.5000000000000009 8.5000000000000018 13 3.5000000000000004 1.0000000180025095e-35 14 15 5.5000000000000009
decision_type=1 1 2 1 2 2 1 1 2 1 1 1 1 1 1 2 2 1 1 2 2 1 2 2 1 1 2
left_child=2 13 11 -4 5 -5 7 9 24 -3 -9 16 -10 18 26 -16 17 -1 19 -2 -20 -18 25 -24 -8 -15 -13
right_child=1 6 3 4 -6 -7 8 10 12 -11 -12 14 -14 22 15 -17 21 -19 20 -21 -22 -23 23 -25 -26 -27 -28
leaf_value=0.27244421693248033 0.097037363158505086 0.12133728043288246 -56.773155042471288 6.3105985288875486 -54.395668267592761 -15.736725525765463 -0.068313115401826871 -0.015912139163222948 0.022982809078067438 -0.017851413002482091 -0.084122200147932716 -0.043878198441562245 -0.056887460328052752 0.035970174124467028 0.087827300885784346 0.010545038990363711 0.17290238702274555 0.08582812518385538 0.067630260925882632 0.26373818140808347 -0.0050476299977100349 0.10047708116022971 0.6477908285713736 0.039822137671288955 -0.08836248164106475 -0.050970277941650335 0.049380237741619482
leaf_weight=25.217994924817958 88.795442204078427 140.24646561435657 0.0088225245126513085 0.062395920336712152 0.003683536982862278 0.012790459630195984 826.36147481416992 475.37523497793882 139.82881345022179 49.631561899703229 163.54261954674439 21.365551856339838 85.781939735097694 10.590149054725773 320.22867246308874 47.845350403998964 47.225801303255139 10.73485971149057 159.19569504930405 12.643598621711133 50.260820741619682 62.285518281219993 0.8023057938553384 13.584561330499126 394.66159450217674 32.81566550223215 4.0138749323973562
leaf_count=16022 199687 304047 38 184 35 44 4505463 1752156 565437 192894 814694 75926 427331 45217 340925 27726 35809 3845 310240 18556 13629 51977 2133 37892 2191339 153087 7201
internal_value=0 -0.28389 0.920155 -58.0182 -1.00074 25.5998 -0.426938 -0.049545 -0.638396 0.858823 -0.328575 0.929746 -0.0738554 0.598956 0.691284 0.757242 1.42898 2.16724 0.722552 1.07243 0.479036 1.3171 -0.0659257 0.737264 -0.747935 -0.332143 -0.208956
internal_weight=0 2644.12 539.005 0.0876924 0.0788699 0.0751864 2275.43 828.796 1446.63 189.878 638.918 538.918 225.611 368.688 393.453 368.074 145.464 35.9529 310.896 101.439 209.457 109.511 57.7927 14.3869 1221.02 43.4058 25.3794
internal_count=12093534 11533802 559732 301 263 228 10753361 3063791 7689570 496941 2566850 559431 992768 780441 451778 368651 107653 19867 542112 218243 323869 87786 238329 40025 6696802 198304 83127
cat_boundaries=0 1 2 3 4 5 6 7 8 9 10 11 12 13 14 15 16
cat_threshold=2 2 1 20874433 3 525376 2 2098306 2 2 8197 1 8913490 2 2 285
shrinkage=0.1


Tree=5
num_leaves=18
num_cat=11
split_feature=2 5 7 1 14 15 2 2 15 15 14 3 2 2 0 4 4
split_gain=1177.17 1793.93 447.594 272.221 166.884 174.719 91.6527 83.8863 32.7843 28.1663 29.6803 18.7851 17.8549 14.8382 10.1684 177.201 8.66201
threshold=335.00000000000006 1.5000000000000002 0 1 2 3 312.50000000000006 2.5000000000000004 4 5 6 7 130.50000000000003 7.5000000000000009 8 9 10
decision_type=2 2 1 1 1 1 2 2 1 1 1 1 2 2 1 1 1
left_child=2 -2 6 4 5 -4 9 -6 13 12 -11 -10 -1 -5 15 -8 -16
right_child=1 -3 3 8 7 -7 14 -9 11 10 -12 -13 -14 -15 16 -17 -18
leaf_value=0.12618812221600423 -0.1000173205421068 -148.47150681390443 0.07428284133044942 0.22427162973755688 -0.074849485928911608 -0.03064001725007226 -0.16886438648094912 -0.014125776198048957 0.048115085746366915 0.1013416373309039 0.036399658912941217 -0.01521598062372341 0.024466995359090419 0.088948975975940675 0.10964693750784504 -3.8869398252864644 -0.1402730626660097
leaf_weight=167.73569936184163 0.0020606456351600446 0.0013479678613426312 202.40153570477582 21.574496821442153 1072.8124060697735 618.32051956595387 3.7753953188657761 288.72165216360008 302.492952843284 107.60678836345323 297.62452909933484 55.416362059375388 19.234493433072203 12.976618284825234 1.5559769123792648 0.13268770277500186 12.755623608827591
leaf_count=108217 55 29 479255 19130 6331562 2566845 62 1375668 525393 92678 349267 234138 9269 1780 36 33 117
internal_value=0 -587.749 -0.0821533 -0.264681 -0.402573 -0.0418186 0.687735 -0.615208 0.502065 0.755701 0.556699 0.37268 1.09848 1.34515 -1.5214 -2.95101 -1.13101
internal_weight=0 0.00340861 3185.14 2574.72 2182.26 820.722 610.421 1361.53 392.46 592.202 405.231 357.909 186.97 34.5511 18.2197 3.90808 14.3116
internal_count=12093534 84 12093450 11533771 10753330 3046100 559679 7707230 780441 559431 441945 759531 117486 20910 248 95 153
cat_boundaries=0 1 2 3 4 5 6 7 8 9 10 11
cat_threshold=2 1 20841665 3 5 60 1928 2 1 2 2
shrinkage=0.1


Tree=6
num_leaves=31
num_cat=21
split_feature=7 1 14 15 2 2 3 14 3 15 5 6 14 2 2 15 14 15 0 4 3 2 2 3 5 14 4 1 5 8
split_gain=350.333 223.913 147.238 129.961 78.7228 74.9842 62.2632 39.7504 32.046 26.743 76.568 49.253 21.2754 19.0057 16.9966 24.6424 23.3009 12.0295 10.9303 6557.81 10.8843 35.2373 15.4955 9.27368 8.96033 8.83295 7.65815 30.5688 4.84612 0.375524
threshold=0 1 2 3 2.5000000000000004 312.50000000000006 4 5 6 7 1.0000000180025095e-35 8 9 5.5000000000000009 1.5000000000000002 10 11 12 13 14 15 157.50000000000003 128.50000000000003 16 4.5000000000000009 17 18 19 1.5000000000000002 20
decision_type=1 1 1 1 2 2 1 1 1 1 2 1 1 2 2 1 1 1 1 1 1 2 2 1 2 1 1 1 2 1
left_child=5 2 3 7 23 12 -5 -2 -6 10 11 -3 20 -12 15 -11 -16 24 19 28 22 -22 -1 -4 -14 -19 27 -20 -7 -28
right_child=1 9 4 6 8 18 -8 -9 -10 14 13 -13 17 -15 16 -17 -18 25 26 -21 21 -23 -24 -25 -26 -27 29 -29 -30 -31
leaf_value=0.096630429511205818 0.10490413184314717 0.46569779402711886 -0.06617156235596082 -0.0070128762092776095 0.011861326307207376 -0.10562295404503652 -0.07862143085565397 -0.018199365015099663 -0.058343781349254012 0.063539432944885677 0.11657921586514591 1.3413401198207457 0.055342171662211385 1.2871182365030585 0.0077504097006632303 -0.0068232667694601463 0.083473512885212056 0.027846638643322593 -0.26902715516947079 -131.52848420306552 0.02159720117962655 0.84254069476751803 0.0037108478002373388 -0.086972371446390154 0.12858126579610069 -0.030381459446464233 -0.17574222434809039 0.6141448513804475 -0.3988391489659634 -0.12903252584909194
leaf_weight=272.17968285811367 115.53131078829767 1.411075399024412 673.67232131083438 514.82673985675501 183.22479859214218 2.7865752950310712 158.90006896608975 36.440210927190492 100.78129319963045 64.5614292241371 3.6909516671439637 1.179136082297191 127.30688526739141 0.14412772125797335 76.719211624324089 149.82863389699196 115.32110916204692 137.67028971031232 0.95163363218307484 0.003804361447669157 36.909585424214583 0.53036180685739853 19.213939077919349 314.34614824844175 19.227639110381688 24.444395577445107 2.0932701751589775 0.66632214188575756 0.70658795535564412 9.6825271040020393
leaf_count=169342 126600 460 4239523 1970205 816241 35 869385 119640 556498 116139 2730 470 122992 55 47807 372055 240725 136108 20 38 42881 461 6291 2055269 17220 64136 24 33 27 124
internal_value=0 -0.246036 -0.378524 -0.0452292 -0.58988 0.575497 -0.235523 0.760848 -0.130514 0.427139 1.7379 8.64314 0.630598 1.6057 0.354925 0.170112 0.579727 0.394898 -1.50411 -3.07845 0.815035 0.332264 0.905035 -0.727895 0.608029 0.178117 -1.09307 0.946893 -1.64934 -1.37336
internal_weight=0 2510.58 2097.72 825.698 1272.02 654.373 673.727 151.972 284.006 412.856 6.42529 2.59021 637.483 3.83508 406.43 214.39 192.04 308.649 16.8907 3.49697 328.834 37.4399 291.394 988.018 146.535 162.115 13.3938 1.61796 3.49316 11.7758
internal_count=12093534 11533802 10753361 3085830 7667531 559732 2839590 246240 1372739 780441 3715 930 559431 2785 776726 488194 288532 340456 301 100 218975 43342 175633 6294792 140212 200244 201 53 62 148
cat_boundaries=0 1 2 3 4 5 6 7 8 9 10 11 12 13 14 15 16 17 18 19 20 21
cat_threshold=2 1 25068737 1 2 1089 2 1 2 2099146 270 21171329 312 1 2 2 2 5003312 2 2 2
shrinkage=0.1


Tree=7
num_leaves=31
num_cat=21
split_feature=7 3 14 2 15 1 2 2 14 1 1 14 1 2 15 2 6 10 14 10 2 5 9 5 1 5 4 0 3 3
split_gain=279.079 185.465 150.307 133.285 116.699 101.846 48.2332 47.707 34.9844 29.6443 24.7448 18.0921 19.3958 15.2383 14.3061 14.1245 13.8251 11.0543 10.9842 29.7909 14.1067 7.28559 6.48987 2.78224 2.5736 31.8603 5.63298 20.1886 3.5349 0.393116
threshold=0 1 2 6.5000000000000009 3 4 312.50000000000006 8.5000000000000018 5 6 7 8 9 2.5000000000000004 10 1.0000000180025095e-35 11 12 13 14 61.500000000000007 11.500000000000002 15 1.0000000180025095e-35 16 1.5000000000000002 17 18 19 20
decision_type=1 1 1 2 1 1 2 2 1 1 1 1 1 2 1 2 1 1 1 1 2 2 1 2 1 2 1 1 1 1
left_child=6 2 4 5 7 -4 11 -2 -5 -6 18 15 21 23 -14 22 -17 -15 19 -3 -20 -13 -1 -12 25 28 27 -26 -8 -28
right_child=1 10 3 8 9 -7 24 -9 -10 -11 13 12 14 17 -16 16 -18 -19 20 -21 -22 -23 -24 -25 26 -27 29 -29 -30 -31
leaf_value=0.13866106871999936 0.14244120265701857 1.6959363832162866 -0.056799205938269107 0.1252356324635292 0.043856367512998255 0.028176245701879363 0.22518005818121628 -0.022803204989296472 -0.013408958465934442 -0.0047322603492351385 -0.053964801067615698 0.088152554470036448 0.088480474076794768 -0.051212755740534292 0.026585316855168475 0.14850576178824998 0.076560970949881998 0.2696857748348821 -0.046227453894070909 0.055445807491820889 1.4186191149590539 -0.068431430769528789 -0.0063629945655320451 -0.08913438635304638 0.42594369069712368 -1.2649610835908052 -0.13253697880166965 -0.13533064557283961 -0.14443760730650254 -0.17645648336712028
leaf_weight=3.7679041187511757 111.67597190760716 0.1113579481607303 809.84831097508163 54.366051944016363 170.51765828591306 170.78946777945384 0.30115005389200666 20.71175035557826 30.405633407644928 476.31626174207486 23.885642464054627 95.560533224718768 38.144298788019341 137.27914708408935 414.47083128709852 49.781901749433018 57.630402518843766 1.0819437491736597 40.891391689176089 18.649357516696913 0.065847436111652224 3.0668247979874641 17.043180075823333 385.98166620128904 0.8507305532693864 0.2598830759525298 7.0330320825032633 2.5975940227508549 1.8375415733137099 2.8695311907001901
leaf_count=2482 149310 295 4935164 173904 172421 341788 25 3859 106983 1888707 154165 67375 12589 778520 424784 16400 24386 6053 172973 64893 168 1198 10217 2584599 33 27 74 43 27 72
internal_value=0 -0.228389 -0.0705193 -0.313066 0.261767 -0.419997 0.489398 1.08401 0.886986 0.0795366 -0.707396 0.5295 0.423321 -0.773982 0.343438 0.884015 1.09905 -0.487034 -0.0961198 0.425193 -0.352628 0.832836 0.19894 -0.870848 -1.24067 -2.19438 -1.06933 0.0314043 -0.923916 -1.45264
internal_weight=0 2452.58 1844.63 1065.41 779.222 980.638 695.215 132.388 84.7717 646.834 607.946 679.466 551.242 548.228 452.615 128.223 107.412 138.361 59.718 18.7607 40.9572 98.6274 20.8111 409.867 15.7495 2.39857 13.3509 3.44832 2.13869 9.90256
internal_count=12093534 11533802 7772136 5557839 2214297 5276952 559732 153169 280887 2061128 3761666 559431 505946 3523337 437373 53485 40786 784573 238329 65188 173141 68573 12699 2738764 301 79 222 76 52 146
cat_boundaries=0 1 2 3 4 5 6 7 8 9 10 11 12 13 14 15 16 17 18 19 20 21
cat_threshold=2 2 525511 1 1 3152432 2 2 1152 2 12 2 1 808488 2 2 2 2 2 2 1
shrinkage=0.1


Tree=8
num_leaves=31
num_cat=22
split_feature=7 3 14 2 15 1 15 2 1 2 2 1 0 14 15 4 14 1 5 10 2 3 1 5 4 4 0 3 5 10
split_gain=222.51 167.259 125.267 115.23 77.6676 58.6277 49.3361 40.1586 33.2926 25.0799 21.3164 15.8964 17.725 15.0492 13.0906 10.9857 10.3856 5.86668 6.65185 5.7341 2.63838 5.76739 2.6254 103.278 5.25338 3841.4 15.4744 2.78189 2.55369 2.11438
threshold=0 1 2 2.5000000000000004 3 4 5 312.50000000000006 6 1.5000000000000002 6.5000000000000009 7 8 9 10 11 12 13 10.500000000000002 14 16.500000000000004 15 16 1.5000000000000002 17 18 19 20 1.0000000180025095e-35 21
decision_type=1 1 1 2 1 1 1 2 1 2 2 1 1 1 1 1 1 1 2 1 2 1 1 2 1 1 1 1 2 1
left_child=1 2 4 5 10 -4 -5 13 -6 17 -1 12 -11 20 15 -15 -16 18 -3 -13 29 -22 23 27 26 -26 -24 -9 -19 -2
right_child=7 9 3 6 8 -7 -8 22 -10 11 -12 19 -14 14 16 -17 -18 28 -20 -21 21 -23 24 -25 25 -27 -28 -29 -30 -31
leaf_value=0.10259536854287075 0.22688815394314177 -0.046459824765926305 0.010508049854726783 0.090585871051322389 0.04132550344941209 -0.064157177104534224 -0.0065843228441952624 0.16518000005881769 -0.0065923861483940154 0.40911312496914665 -0.0024227905673891523 0.12825175908136197 0.012770384928837017 0.22823730011018123 0.060518349089778795 0.099448444550404261 0.030373608983654838 -0.053049099090493892 0.67130603877128125 -0.053541575319537175 -0.047084015915951731 0.23375459513300856 0.34886303191084256 -3.6497139741995044 -0.12247759312122918 -192.43677146804785 -0.13111630397504179 -0.13854891700527178 -0.090665550736276149 -0.037452669438659103
leaf_weight=133.60803133975332 0.30564080689077849 31.732434827586989 127.53221697482513 77.085489519915427 198.16164809200563 599.58309905363421 134.46386789185635 0.36523285527252058 540.41980510168651 1.1783553505229065 22.596826504188357 1.7522700348199578 26.590504150415658 7.9015774845029227 239.30920070449929 40.940658454579534 393.64560415800588 19.162153450816731 0.12964263602043402 176.43837073477334 1.8764438438229263 1.1981797711327991 0.92944833636283875 0.084585115313529857 8.995380819345888 0.0010387620422623858 2.422014676034451 1.7296299268717241 310.19886455599044 30.320114289585096
leaf_count=190799 302 149907 252974 281029 206114 4018977 519696 25 2295954 3456 6593 8313 84483 2002 136244 10018 323441 130513 483 1113925 632 1825 33 27 116 30 43 27 2270586 84967
internal_value=0 -0.211774 -0.0649629 -0.318236 0.202029 -0.510613 0.327939 0.41869 0.0618032 -0.686349 0.821445 -0.407867 0.29589 0.45211 0.48024 0.998419 0.425348 -0.845133 -0.435393 -0.517539 -0.200111 0.623587 -1.22732 -2.23919 -1.04872 -1.44683 0.0199452 -0.855947 -0.88477 -0.348146
internal_weight=0 2400.63 1833.45 938.665 894.786 727.115 211.549 730.025 738.581 567.183 156.205 205.96 27.7689 715.497 681.797 48.8422 632.955 361.223 31.8621 178.191 33.7004 3.07462 14.5273 2.17945 12.3479 8.99642 3.35146 2.09486 329.361 30.6258
internal_count=12093534 11533802 7772136 5072676 2699460 4271951 800725 559732 2502068 3761666 197392 1210177 87939 559431 471705 12020 459685 2551489 150390 1122238 87726 2457 301 79 222 146 76 52 2401099 85269
cat_boundaries=0 1 2 3 4 5 6 7 8 9 10 11 12 13 14 15 16 17 18 19 20 21 22
cat_threshold=1 2 9111239 1 2 114 2 2 2 17440773 8 2 2099080 2 2 2 2 2 8 2 2 2
shrinkage=0.1


Tree=9
num_leaves=32
num_cat=23
split_feature=2 3 14 15 14 1 14 5 1 7 7 1 2 5 15 7 2 7 2 11 4 15 14 5 14 6 3 4 4 10 5
split_gain=196.366 127.08 86.4449 52.243 36.751 33.8932 29.8172 40.671 29.2883 26.3135 22.0337 38.6167 21.4695 83.662 28.5433 17.2723 18.0797 14.9793 14.9416 12.1537 10.6088 10.2812 9.56894 8.53851 7.02508 5.23017 7.08443 6.98468 2.845 3.07176 3.03283
threshold=1.0000000180025095e-35 0 1 2 3 4 5 1.5000000000000002 6 7 8 9 8.5000000000000018 1.0000000180025095e-35 10 11 262.50000000000006 12 10.500000000000002 13 14 15 16 1.0000000180025095e-35 17 18 19 20 21 22 1.0000000180025095e-35
decision_type=2 1 1 1 1 1 1 2 1 1 1 1 2 2 1 1 2 1 2 1 1 1 1 2 1 1 1 1 1 1 2
left_child=2 4 21 6 12 9 7 -4 19 -5 18 -12 14 -14 -2 16 -10 -8 -6 24 -21 28 -7 -17 -3 26 -23 -27 30 -30 -1
right_child=1 8 3 5 10 22 17 -9 15 -11 11 -13 13 -15 -16 23 -18 -19 -20 20 -22 25 -24 -25 -26 27 -28 -29 29 -31 -32
leaf_value=0.1095738117493642 0.10598019131918512 0.04045411770990865 0.080143398389908735 0.010780459015102786 0.047988732370802908 0.035522280299489811 0.017986304387683782 -0.060588876641652002 0.01129694827855672 -0.078364139187908841 -0.021491697871557761 0.048438063481596412 -0.023651498929240709 0.087217811329854483 0.039890462350364926 0.00600382822672619 -0.13382515036550371 -0.045179972924871969 0.00028825103372700811 -0.04680813356502906 0.24582437310877833 0.050377426009685526 -0.027932277236415826 -0.065516750204425156 -0.022729784245130003 0.060308330138633563 -0.10004477623555837 0.14509183427444605 0.1858326171607973 -0.02607941602914118 -0.017947673912212268
leaf_weight=3.8132623439014424 82.629645326029276 26.794934382913986 63.254498857655562 35.161616032283746 183.62319714177158 29.094911428415799 45.729687022584812 30.406276197609259 68.145735079196811 568.11995439615566 331.09619210138067 103.70119243126811 177.7819586588148 110.28283767482208 465.63004490546882 17.921019930042974 9.8220187043431633 209.6918254971099 102.22544310579207 1.7348168231983436 4.3334226568331351 39.16967744762951 51.008876017170678 243.49149226066947 25.955476318856647 30.508843694216921 3.4029993425792773 14.257805935645591 0.69944179274898488 31.045225497335199 3.6503392717713723
leaf_count=4788 155124 65398 113793 50245 153081 68053 69225 108453 107809 4059973 1963250 180169 61144 107259 1265537 118911 519 1269828 32421 2840 8045 47996 113444 1738998 85845 40393 14756 18342 1173 58244 8478
internal_value=0 0.134095 -0.385385 -0.478487 0.263026 -0.641152 -0.151058 0.311318 -0.370028 -0.731684 0.0923645 -0.0481313 0.404146 0.187938 0.525116 -0.482932 -0.0698487 -0.325948 0.3093 0.281425 1.62165 0.381852 -0.039371 -0.606137 0.12725 0.569291 0.383536 0.873112 -0.0665221 -0.214103 0.472049
internal_weight=0 1955.17 1159.02 1032.47 1556.97 683.385 349.082 93.6608 398.199 603.282 720.646 434.797 836.324 288.065 548.26 339.38 77.9678 255.422 285.849 58.8187 6.06824 126.548 80.1038 261.413 52.7504 87.3393 42.5727 44.7666 39.2083 31.7447 7.4636
internal_count=12093534 6046350 6047184 5853014 3917985 4291715 1561299 222246 2128365 4110218 2328921 2143419 1589064 168403 1420661 1966237 108328 1339053 185502 162128 10885 194170 181497 1857909 151243 121487 62752 58735 72683 59417 13266
cat_boundaries=0 1 2 3 4 5 6 7 8 9 10 11 12 13 14 15 16 17 18 19 20 21 22 23
cat_threshold=2 263168 385 3671746 1 192 2 2 2 1 3 2 2 1 2 284 5253314 808544 2 2 1 2 2
shrinkage=0.1


Tree=10
num_leaves=27
num_cat=16
split_feature=3 2 6 2 14 2 7 14 5 14 14 7 2 2 1 1 0 4 8 10 5 15 12 2 5 5
split_gain=162.63 134.784 146.232 128.754 81.9545 47.1748 37.4647 28.9201 18.8721 18.7103 17.7444 16.5642 15.7888 17.2165 12.7604 9.74915 7.65996 12.3303 7.39931 6.94102 405.157 6.8149 6.72345 3.25611 0.0642512 5.22477e-06
threshold=0 312.50000000000006 1 1.0000000180025095e-35 2 3.5000000000000004 3 4 1.5000000000000002 5 6 7 262.50000000000006 252.50000000000003 8 9 10 11 12 13 1.0000000180025095e-35 14 15 1.5000000000000002 1.0000000180025095e-35 1.0000000180025095e-35
decision_type=1 2 1 2 1 2 1 1 2 1 1 1 2 2 1 1 1 1 1 1 2 1 1 2 2 2
left_child=1 3 25 4 8 11 -6 14 -1 12 -9 16 13 -7 -5 21 18 -18 -2 22 -21 -13 -11 -17 -14 -3
right_child=5 2 -4 7 6 9 -8 10 -10 19 -12 15 24 -15 -16 23 17 -19 -20 20 -22 -23 -24 -25 -26 -27
leaf_value=0.026122576434758502 -0.044854984562101595 -0.1060200705654409 -1.6184795146895639 -0.050729330560540645 0.02577929050247775 0.029504812110310759 -0.06065675548383799 0.038133150132759128 -0.023114778394480145 -0.054722330070736694 0.015776734105169495 0.02808883745188236 -0.12962994605842326 1.873183719741881 0.17905419158162375 -0.086567426387941057 0.52884327649338492 0.03095599630413283 0.050817485619012837 -20.596138575435333 -0.10006966790930821 -0.047617611161581454 0.12418767191389808 -0.061813907259399448 -0.1079348489591582 -0.10637961063256363
leaf_weight=263.728655079904 43.253148152974966 0.79415389982750639 1.0575321135324875 66.941342807920591 56.399896273884224 99.534407449697028 452.20074472203851 678.28423961349472 110.44489472598434 62.847165542567382 847.7311948288334 11.854019673861321 5.2469044422658149 0.050675081467487774 2.5072317659505634 282.63104776568076 0.63587117244605917 2.2842256422445639 9.9419454547114565 0.0097577785846841847 0.83121480148111004 30.075396526954137 2.1731321336410465 65.445604813779937 1.8451221652503589 0.82307614979799826
leaf_count=243290 90087 25 40 112004 64808 117730 553604 507006 107583 63386 1339893 24501 99 45 3171 320515 1313 4195 20653 22 2432 42271 2058 69872 416 25
internal_value=0 0.0536481 -7.04118 0.0613055 -0.245122 -0.519437 -0.500869 0.230852 0.112875 -0.075407 0.258973 -0.691167 0.184471 0.30443 -0.370927 -0.764258 -0.183178 1.39374 -0.269742 -0.455228 -3.37885 -0.308719 -0.487427 -0.819133 -1.23986 -1.06203
internal_weight=0 2480.91 2.67476 2478.24 882.774 618.66 508.601 1595.46 374.174 172.538 1526.02 446.121 106.677 99.5851 69.4486 390.006 56.1152 2.9201 53.1951 65.8613 0.840973 41.9294 65.0203 348.077 7.09203 1.61723
internal_count=3691044 2931449 90 2931359 969285 759595 618412 1962074 350873 186188 1846899 573407 118290 117775 115175 457159 116248 5508 110740 67898 2454 66772 65444 390387 515 50
cat_boundaries=0 1 2 3 4 5 6 7 8 9 10 11 12 13 14 15 16
cat_threshold=2 2 29852867 2 16834560 8928956 2098880 2 1 2 1 4 1 1 285 1
shrinkage=0.1


Tree=11
num_leaves=31
num_cat=22
split_feature=2 14 7 1 15 3 2 6 15 14 15 1 4 14 14 4 1 3 1 4 5 8 5 2 9 2 10 2 6 5
split_gain=156.168 113.173 80.6016 74.7646 57.2717 43.278 278.675 2187.09 25.296 27.5722 24.0272 18.9469 17.3058 13.4306 11.1754 9.57929 8.74809 8.73189 10.9792 23.4299 9.22296 8.25522 11.83 6.91478 6.53416 11.7246 8.96404 4.94589 4.76438 4.10084e-06
threshold=1.5000000000000002 0 1 2 3 4 312.50000000000006 5 6 7 8 9 10 11 12 13 14 15 16 17 1.0000000180025095e-35 18 6.5000000000000009 23.500000000000004 19 150.50000000000003 20 159.50000000000003 21 1.0000000180025095e-35
decision_type=2 1 1 1 1 1 2 1 1 1 1 1 1 1 1 1 1 1 1 1 2 1 2 2 1 2 1 2 1 2
left_child=1 17 14 10 -5 6 8 29 9 -2 -4 13 -10 23 16 -16 -3 18 19 -1 -20 28 -23 -7 26 -26 -13 -15 -19 -8
right_child=5 2 3 4 -6 11 7 -9 12 -11 -12 24 -14 27 15 -17 -18 21 20 -21 -22 22 -24 -25 25 -27 -28 -29 -30 -31
leaf_value=0.51122350489157553 0.066825567670374883 0.053413172956418509 0.062736971603522179 -0.0019638106370802664 -0.065189928126948446 -0.0079018289142973701 -0.10541339138471995 10.415336272295159 -0.01944020118864459 0.018645373551637184 -0.010609566745499189 0.020219954857783728 0.020204038194393738 -0.043559609386975034 0.088680916298347415 -0.00078556644873707063 0.16287370325603859 0.035261268433876468 0.060442133057850567 0.018273679828951939 0.12762068194681006 0.18955118348301681 1.7104908525354319 0.066957803961421564 0.23297554969115533 -0.11476000457560281 0.33684354038335895 -0.12994376788303016 -0.08774658278363541 -0.10574722518828045
leaf_weight=0.98095597798237566 240.84682461936609 44.288580718886806 54.499829932552586 182.68844899181551 868.72120344131713 48.80486088174807 0.72353448343346816 0.22821449495108811 136.92256423211072 277.20572270106641 140.95096694437962 39.645888778701178 562.3238810593466 145.15930528793928 13.237206462792528 124.7939747707278 8.7425250609812775 5.1624412674136684 62.805746208759956 56.424902679864317 30.294159987999592 0.69048531781299871 0.055230705096619197 16.514326523265211 3.9000600731233117 1.2904340106752705 0.91479590567178004 6.9450045270205001 8.0724786494538403 0.74877577810548235
leaf_count=411 378282 47095 94690 222087 944961 52899 23 38 179725 220459 256880 74757 696766 165487 17334 161752 5681 6695 26712 23788 32376 861 61 17346 3918 645 942 767 10403 20
internal_value=0 -0.258722 -0.347752 -0.44285 -0.548427 0.191636 0.271033 13.0635 0.253163 0.418861 0.125095 -0.176123 0.122657 -0.299205 0.254649 0.0726775 0.601214 0.509719 0.61093 0.266972 0.823016 -0.215258 3.02198 0.0956085 0.4088 1.46523 0.27361 -0.445734 -0.397659 -1.05583
internal_weight=0 1602.41 1437.92 1246.86 1051.41 1482.17 1219 1.70052 1217.3 518.053 195.451 263.175 699.246 217.423 191.062 138.031 53.0311 164.486 150.506 57.4059 93.0999 13.9806 0.745716 65.3192 45.7512 5.19049 40.5607 152.104 13.2349 1.47231
internal_count=3643861 1851787 1750480 1518618 1167048 1792074 1475313 81 1475232 598741 351570 316761 876491 236499 231862 179086 52776 101307 83287 24199 59088 18020 922 70245 80262 4563 75699 166254 17098 43
cat_boundaries=0 1 2 3 4 5 6 7 8 9 10 11 12 13 14 15 16 17 18 19 20 21 22
cat_threshold=1024 2 2 1 2 2 59 3934434 271 1 2 17482937 10747922 4 1 2 2 8 1 1 1 1
shrinkage=0.1


Tree=12
num_leaves=25
num_cat=15
split_feature=3 2 2 14 2 7 14 2 15 14 11 7 7 2 2 2 0 0 1 8 1 5 5 4
split_gain=126.653 129.812 85.9253 65.4945 45.7544 29.4845 24.0815 105.436 16.5584 16.1174 14.398 9.70045 9.40376 15.5026 7.56996 13.2298 7.00387 5.54667 10.4924 7.8914 5.2154 3.04124 2.71502 0.526191
threshold=0 324.50000000000006 1.0000000180025095e-35 1 1.5000000000000002 2 3 306.50000000000006 4 5 6 7 8 262.50000000000006 154.50000000000003 84.500000000000014 9 10 11 12 13 1.0000000180025095e-35 10.500000000000002 14
decision_type=1 2 2 1 2 1 1 2 1 1 1 1 1 2 2 2 1 1 1 1 1 2 2 1
left_child=1 2 3 8 11 -5 7 -4 -1 14 -8 17 16 -14 15 -6 -11 19 -19 -2 22 -22 -13 -16
right_child=4 -3 6 5 9 -7 10 -9 -10 12 -12 20 13 -15 23 -17 -18 18 -20 -21 21 -23 -24 -25
leaf_value=0.031380552743326552 0.06192973241481086 -1.6458421161685841 -0.012711610610286415 0.018543054404804096 0.022255409349848911 -0.051892888575980491 -0.015045790929335249 -2.5730212541829407 -0.015858850272462692 0.075427382410767851 0.025440808353912443 -0.043258235371583319 0.028660970654939312 -0.12998128356265526 -0.049858858820194252 0.20381715801926795 -0.050640648354001595 0.76788463991469391 0.054040904028281392 -0.058069311209888598 -0.041400481634474247 -0.087370026768560233 0.2789592256850662 -0.11495906414421593
leaf_weight=207.39090317846058 6.7897977042593993 0.47635222086500922 199.08977571094874 68.264598799891246 65.350963712669909 459.20742609795707 93.875982844372629 0.16097413544775818 107.53742910808432 4.5594858899057744 1365.5904758122524 29.941584451938983 41.133909701806289 7.2446746221954461 1.9852398124057806 4.2759171982615944 131.64044971098048 0.23030819452833384 1.9433812700008268 28.413557636893529 15.354869104179498 229.41713239130331 0.2638063715712623 3.3145511593454682
leaf_count=189274 13432 22 273792 74254 80416 572874 121121 37 87825 6265 1556449 38440 63908 306 1963 4093 156766 233 3414 66250 19136 299695 483 768
internal_value=0 0.0479471 0.0510908 -0.208997 -0.473689 -0.419813 0.18318 -0.140737 0.152583 -0.16336 0.226812 -0.731512 -0.312737 0.0490435 0.217352 0.334055 -0.464203 -0.253523 1.29675 -0.349247 -0.796484 -0.844863 -0.404441 -0.905733
internal_weight=0 2501.59 2501.12 842.4 571.86 527.472 1658.72 199.251 314.928 259.505 1459.47 312.354 184.579 48.3786 74.9267 69.6269 136.2 37.377 2.17369 35.2034 274.977 244.772 30.2054 5.29979
internal_count=3631216 2875648 2875626 924227 755568 647128 1951399 273829 277099 314485 1677570 441083 227245 64214 87240 84509 163031 83329 3647 79682 357754 318831 38923 2731
cat_boundaries=0 1 2 3 4 5 6 7 8 9 10 11 12 13 14 15
cat_threshold=2 29820097 2 16836616 451 546336 2 2 1 2 1 2 2 2 1
shrinkage=0.1


Tree=13
num_leaves=25
num_cat=13
split_feature=3 2 2 14 2 7 14 2 2 1 2 7 7 6 5 1 15 14 5 5 5 4 0 5
split_gain=108.103 159.353 69.5355 59.2099 42.9954 26.7583 21.067 54.768 34.267 15.7401 14.3513 17.3976 13.844 12.3655 11.523 8.81118 5.96348 4.5163 7.62087 3.86767 3.28002 0.0877684 0.152484 0.0262959
threshold=0 324.50000000000006 1.0000000180025095e-35 1 3.5000000000000004 2 3 306.50000000000006 312.50000000000006 4 262.50000000000006 5 6 7 1.0000000180025095e-35 8 9 10 1.0000000180025095e-35 3.5000000000000004 1.0000000180025095e-35 11 12 1.0000000180025095e-35
decision_type=1 2 2 1 2 1 1 2 2 1 2 1 1 1 2 1 1 1 2 2 2 1 1 2
left_child=1 2 3 9 12 -5 7 -4 -8 -1 11 13 17 -6 -13 16 -14 18 -2 -19 -17 22 -12 -23
right_child=4 -3 6 5 10 -7 8 -9 -10 -11 21 14 15 -15 -16 20 -18 19 -20 -21 -22 23 -24 -25
leaf_value=0.049728282181158712 0.25051897693977671 -2.2071611179759962 0.025542880197592172 0.017632386396305228 0.11413177049961101 -0.053988913961318032 0.0042422631817037705 0.95468507184249418 -0.48467677787850016 -0.00022322132132719322 -0.11796688081978426 0.094651465936921073 0.026124600028905404 0.013989858750716922 -0.028627731614556142 -0.037965310909209481 -0.044505814880337689 -0.068643506994607459 0.010770914537475276 0.00011740294649873252 -0.080633997958311804 -0.12091972313726007 -0.15883705152167982 -0.10613249420174808
leaf_weight=79.997401061562414 1.4259877087606607 0.32581530562310845 948.666862686081 60.298044927592855 19.593453126755776 386.71493697554979 738.79373580019092 0.63482303594355372 1.4363034481357306 298.3505242233914 2.0603895823587663 8.2175438770731244 12.193607759225413 33.26399643150944 98.040702915444854 19.339767882796536 27.829466919589322 22.285301858690218 18.880591816850938 12.924370308663127 263.20883822280302 3.7379108546883781 1.6390899117104711 1.7730049431847872
leaf_count=80439 1735 26 941931 64808 20682 514384 1011090 61 53 269996 59 10908 22258 35445 122685 23958 32798 64228 21540 28749 361614 107 27 443
internal_value=0 0.0423543 0.0452193 -0.192686 -0.44838 -0.433579 0.16144 0.258915 0.0324969 0.100722 -0.0279727 0.0422783 -0.635547 0.511109 -0.190939 -0.714931 -0.275799 -0.174296 0.184976 -0.33803 -0.777134 -1.2416 -1.36075 -1.16162
internal_weight=0 2515.22 2514.89 825.361 546.414 447.013 1689.53 949.302 740.23 378.348 168.326 159.116 378.088 52.8574 106.258 322.572 40.0231 55.5163 20.3066 35.2097 282.549 9.2104 3.69948 5.51092
internal_count=3630024 2882788 2882762 929627 747236 579192 1953135 941992 1011143 350435 190356 189720 556880 56127 133593 440628 55056 116252 23275 92977 385572 636 86 550
cat_boundaries=0 1 2 3 4 5 6 7 8 9 10 11 12 13
cat_threshold=2 29820099 2 7870150 2 2 2 2 2 285 345778 2 1
shrinkage=0.1


Tree=14
num_leaves=23
num_cat=15
split_feature=2 3 6 7 3 14 1 2 15 14 15 14 4 5 5 13 15 2 1 4 5 5
split_gain=103.41 117.822 97.784 92.2887 86.1808 56.0734 41.3116 23.1617 21.4109 10.5401 8.91021 9.60387 9.4449 8.28695 8.20033 7.61308 6.76934 5.55581 5.20833 0.0566344 0.0167046 0.000903289
threshold=312.50000000000006 0 1 2 3 4 5 1.5000000000000002 6 7 8 9 10 7.5000000000000009 1.0000000180025095e-35 11 12 80.500000000000014 13 14 1.0000000180025095e-35 1.0000000180025095e-35
decision_type=2 1 1 1 1 1 1 2 1 1 1 1 1 2 2 1 1 2 1 1 2 2
left_child=3 2 21 10 7 6 -6 18 -7 -9 12 14 17 -14 -12 -4 -13 -1 -5 -3 -21 -2
right_child=1 19 15 4 5 8 -8 9 -10 -11 11 16 13 -15 -16 -17 -18 -19 -20 20 -22 -23
leaf_value=-0.065764127264851618 -0.10511993871625785 -0.13269543673739062 -1.1767050827802727 -0.035787614471666326 0.019383999889645565 0.028615750361571182 -0.045395385956634254 -0.042638760686121505 -0.00091509928948153591 0.010582670771657999 0.059586236968438726 0.021783459441061897 0.080174087568846142 -0.10132951069593424 0.024304015128268654 -1.6091695812592808 -0.0051810204613691726 0.063163007973199778 -0.081719309433455262 -0.11957843675713341 -0.10645303259306003 -0.11114680145686864
leaf_weight=8.5460465132491645 0.4472756990762719 3.3805555619765073 0.99131772910336302 28.016291762425681 126.42029726938927 328.13747007136442 444.89360156629846 115.4873525903601 902.08026841548428 53.281048385331815 84.394346202345332 171.12250234672319 73.357360617694212 2.6048203624086446 300.19389569942723 0.69066620275535229 188.9551806804958 5.4892966256011286 207.76342419010979 3.2668483182205303 1.3789259736076926 0.56008531004772522
leaf_count=1922 24 31 26 34123 242669 294439 733850 149534 1262193 74982 41051 127958 14768 553 182923 20 169795 860 316499 26 42 22
internal_value=0 -3.14789 -8.87635 -0.0359273 -0.143087 -0.0494256 -0.305267 -0.560177 0.0712892 -0.277359 0.247303 0.201935 0.540225 0.739501 0.312342 -13.5429 0.0787587 -0.1534 -0.762615 -1.22848 -1.15683 -1.08471
internal_weight=0 10.7157 2.68934 3040.74 2206.08 1801.53 571.314 404.548 1230.22 168.768 834.663 744.666 89.9975 75.9622 384.588 1.68198 360.078 14.0353 235.78 8.02633 4.64577 1.00736
internal_count=3648310 191 92 3648119 3108289 2533151 976519 575138 1556632 224516 539830 521727 18103 15321 223974 46 297753 2782 350622 99 68 46
cat_boundaries=0 1 2 3 4 5 6 7 8 9 10 11 12 13 14 15
cat_threshold=2 2 2 1 325928 2 3 13707726 12 4458394 8 2 306 2 2
shrinkage=0.1


Tree=15
num_leaves=28
num_cat=19
split_feature=3 2 2 14 2 7 6 5 14 1 5 11 14 7 14 4 1 11 8 11 0 9 5 5 10 11 5
split_gain=76.0221 110.96 54.1812 46.3406 38.1838 21.7614 21.6672 14.8011 14.4501 13.871 11.486 10.3181 9.80462 8.04018 6.45397 5.45189 5.139 4.37578 4.23761 7.91288 7.6274 3.54318 3.52446 3.47553 3.34219 2.47632 0.000678195
threshold=0 312.50000000000006 1.0000000180025095e-35 1 1.5000000000000002 2 3 1.5000000000000002 4 5 1.0000000180025095e-35 6 7 8 9 10 11 12 13 14 15 16 1.5000000000000002 1.0000000180025095e-35 17 18 1.0000000180025095e-35
decision_type=1 2 2 1 2 1 1 2 1 1 2 1 1 1 1 1 1 1 1 1 1 1 2 2 1 1 2
left_child=4 2 3 7 13 -5 21 -2 10 14 -4 -10 22 18 24 -14 25 -16 19 -1 -20 -3 -11 -18 -6 -15 -8
right_child=1 6 8 5 9 -7 26 -9 11 12 -12 -13 15 16 17 -17 23 -19 20 -21 -22 -23 -24 -25 -26 -27 -28
leaf_value=0.012291116425739598 0.020005333282321531 -0.56858153886707941 0.010082451584015432 0.013336539702075573 0.28185490304341865 -0.050555303768335759 -0.10461862762287644 -0.023261114908432572 -0.01547228904348176 -0.068171502241683779 -0.075978080120245428 0.017441333932104713 -0.070927468849084949 0.087073076696351545 0.086753272052457531 0.005491536860601302 -0.029807282692474863 -0.040907245082915857 0.14553583302648518 0.38532742237193213 -0.055453323790887056 -0.78967223254833785 -0.027698877179905407 -0.083717646326028516 0.072422066808760677 -0.041121434224449624 -0.11008814312632148
leaf_weight=7.1185228822869249 277.08143051421212 1.6855699226405614 29.061047338167555 62.578234226904897 0.7844620663090609 359.87564991448016 0.4072181926458146 110.63743266302481 101.42743295394757 51.08341523429101 33.253470872037724 1562.8729562623994 10.277795108238934 1.6016071863705292 3.2002770100662019 101.84091600095417 12.819691700475287 16.675425054879572 2.0314584703373839 0.61800004640826944 26.760595838584781 1.2717582995921557 37.174204149014258 178.01530849644769 26.584454177136653 25.466730361949889 0.51141079652006738
leaf_count=13245 243639 26 37562 64809 535 515226 28 107737 127700 52421 39590 1791678 12018 2159 2832 118206 17880 23979 3014 823 49842 21 47846 297252 49479 30397 26
internal_value=0 0.0275703 0.0357391 -0.17761 -0.398276 -0.401408 -5.31884 0.0746647 0.135848 -0.118727 -0.308863 0.153433 -0.233652 -0.67034 0.368697 -0.0138975 -0.743124 -0.135398 -0.236168 0.420896 -0.412723 -6.63659 -0.459213 -0.800961 0.574383 -0.335363 -1.07664
internal_weight=0 2540.66 2536.79 810.173 502.053 422.454 3.87596 387.719 1726.61 247.621 62.3145 1664.3 200.376 254.432 47.2446 112.119 217.903 19.8757 36.5286 7.73652 28.7921 2.95733 88.2576 190.835 27.3689 27.0683 0.918629
internal_count=3649970 2928042 2927941 931411 721928 580035 101 351376 1996530 307316 77152 1919378 230491 414612 76825 130224 347688 26811 66924 14068 52856 47 100267 315132 50014 32556 54
cat_boundaries=0 1 2 3 4 5 6 7 8 9 10 11 12 13 14 15 16 17 18 19
cat_threshold=1 29852867 2 1 16834560 2 2 8717122 2 11295328 4 2 2 2 1 2 2 2 2
shrinkage=0.1


Tree=16
num_leaves=31
num_cat=17
split_feature=3 2 14 2 2 1 7 13 5 5 15 12 14 2 2 2 7 15 5 14 14 5 9 1 14 5 5 4 0 5
split_gain=66.2096 41.5931 39.3016 35.013 28.2674 23.5522 23.064 22.229 24.2384 13.0825 15.2655 12.778 12.2576 11.5567 11.6954 21.9152 11.0659 10.2705 10.2419 10.1311 7.851 12.6531 7.18535 5.314 3.3583 5.13955 5.08398 0.0462899 0.0748505 0.0126369
threshold=0 1.0000000180025095e-35 1 3.5000000000000004 312.50000000000006 2 3 4 1.0000000180025095e-35 1.5000000000000002 5 6 7 262.50000000000006 125.50000000000001 129.50000000000003 8 9 1.0000000180025095e-35 10 11 10.500000000000002 12 13 14 1.0000000180025095e-35 3.5000000000000004 15 16 1.0000000180025095e-35
decision_type=1 2 1 2 2 1 1 1 2 2 1 1 1 2 2 2 1 1 2 1 1 2 1 1 1 2 2 1 1 2
left_child=1 2 9 16 12 11 -7 8 -6 10 -1 -4 18 14 19 -16 24 -14 -3 -5 21 -18 -11 -22 25 -2 -26 28 -15 -29
right_child=3 4 5 13 7 6 -8 -9 -10 22 -12 -13 17 27 15 -17 20 -19 -20 -21 23 -23 -24 -25 26 -27 -28 29 -30 -31
leaf_value=0.037025137788451505 0.18939981611240803 0.0078161588172795792 0.0054406700083892805 0.021131592412951497 0.29952974458664361 0.011078364199804971 -0.05683474291042493 -0.53221008510145917 -0.32507966607499045 -0.031482341078712353 -0.01629329781712939 0.26718868191054279 0.03471661348744888 -0.14464946163264825 0.78725230979941607 0.075542347726342912 0.033618112526770071 0.010572875857525661 -0.074310673544341066 -0.02856969104797082 -0.033677784230189099 1.4284800987071693 0.089041836506037211 -0.075813724297416618 -0.067840044011399439 0.0085328681608206943 0.01021328653476683 -0.11599349445651717 -0.11391738773652582 -0.10475384179890482
leaf_weight=174.33451976872948 1.726732538605577 29.671709383095731 87.196977463638177 79.930686550022074 1.0734560905023731 59.36178775650842 317.3076351425043 1.6601879864102476 1.474903307786992 77.246677677780099 72.334664645575685 1.9058401512156697 197.77023526591077 1.4709096697624773 0.4506934463424831 10.808371977094792 11.219448560710587 1492.0694411843688 31.101406812020286 65.47366415269255 34.667428077751538 0.065412188756455047 5.2849422947328994 219.05719554965719 21.727906304688076 17.432619748375146 13.54830954976387 3.1512389657588402 1.71837993254303 1.465517412406905
leaf_count=180174 1528 37920 181362 98647 35 66506 396272 33 28 71887 57382 3607 224116 27 401 9718 18863 1691747 33429 78324 47764 57 3924 370222 39744 18897 22199 113 56 451
internal_value=0 0.0278566 -0.161901 -0.375613 0.113821 -0.344552 -0.461319 -2.47472 -0.619728 0.103838 0.222302 0.110393 0.120044 -0.000738304 0.0584322 1.04032 -0.568621 0.135861 -0.293791 -0.0175979 -0.652975 0.221104 -0.237645 -0.674001 -0.157959 0.16317 -0.295 -1.18826 -1.28091 -1.12426
internal_weight=0 2549.79 794.973 483.915 1754.82 465.772 376.669 4.20855 2.54836 329.201 246.669 89.1028 1750.61 164.469 156.663 11.2591 319.445 1689.84 60.7731 145.404 265.009 11.2849 82.5316 253.725 54.4356 19.1594 35.2762 7.80605 3.18929 4.61676
internal_count=3655433 2948422 961114 707011 1987308 647747 462778 96 63 313367 237556 184969 1987212 187737 187090 10119 519274 1915863 71349 176971 436906 18920 75811 417986 82368 20425 61943 647 83 564
cat_boundaries=0 1 2 3 4 5 6 7 8 9 10 11 12 13 14 15 16 17
cat_threshold=2 29820097 2 2 2 227 1 16834560 2 3 8927932 263168 1 2 280098 2 2
shrinkage=0.1


Tree=17
num_leaves=32
num_cat=21
split_feature=1 14 2 2 2 15 5 15 7 3 2 5 7 14 3 15 3 0 4 2 8 4 15 2 4 5 3 5 8 4 4
split_gain=59.6017 60.7887 74.5177 68.4638 60.2166 57.6076 44.4134 25.7005 24.9133 22.7089 21.8806 22.3697 21.2675 20.7838 20.1243 15.9443 13.3236 11.4869 13.5654 13.0969 8.68875 8.55743 5.55977 10.2403 8.99217 5.15323 4.36267 3.6281 3.34473 5.23142 3.63919
threshold=0 1 8.5000000000000018 2.5000000000000004 312.50000000000006 2 1.5000000000000002 3 4 5 1.5000000000000002 1.0000000180025095e-35 6 7 8 9 10 11 12 15.500000000000002 13 14 15 11.500000000000002 16 5.5000000000000009 17 1.0000000180025095e-35 18 19 20
decision_type=1 1 2 2 2 1 2 1 1 1 2 2 1 1 1 1 1 1 1 2 1 1 1 2 1 2 1 2 1 1 1
left_child=1 2 10 5 7 14 12 -5 -7 -6 16 -12 -4 15 -3 17 -1 18 -2 -19 21 -17 23 24 -15 -8 -25 -22 30 -30 -24
right_child=13 3 6 4 9 8 25 -9 -10 -11 11 -13 -14 22 -16 20 -18 19 -20 -21 27 -23 28 26 -26 -27 -28 -29 29 -31 -32
leaf_value=0.045740584896707126 0.38978490975098767 -0.0043134753727489426 0.031993921159977255 0.070334981540621996 -0.43761669877228321 0.014991803957879352 0.12765749070424234 0.0027336497663145425 -0.063947176176702022 -0.11806492769890503 0.15805587967635462 0.05679171432512925 -0.070965229433697846 0.17849193695459473 -0.051213842599763741 0.2025198260571861 -0.057000297032676922 0.13727342837666809 -0.046713628341156208 0.38913272607436056 0.038490540635995496 0.055366959959094977 -0.050808935616976282 -0.072796790906348871 -0.0010747914542411062 -0.023435815520485282 0.069099847459912697 0.012567658403162919 -0.021098600520823518 0.017982165895778057 0.049036795133127302
leaf_weight=135.58056439012216 0.81607909806189116 529.52176473956206 24.756941071012989 51.629177912152983 3.7671612683334388 43.379845601142733 17.52217514412769 675.930039263553 510.18923503017118 5.4285931377830803 37.143908430211013 52.858522097027162 105.80425695804297 2.8638332866248675 110.59745636883645 4.2948150823067408 13.917941315135975 25.67638553163852 5.5813460519566434 2.2452181481930884 87.259538113721646 49.495150450282381 4.0159406973252771 28.174066678213421 106.39860308184871 2.5911001180065787 2.3472621933906366 141.60505068059138 43.648948029345775 159.11428781901486 40.109280673685134
leaf_count=107118 715 564786 3222 108351 77 37034 6979 1047831 734529 79 27322 56597 14486 2679 202341 4605 19982 26324 4628 905 126103 56318 4245 3919 112982 1133 1928 184814 31195 114516 43980
internal_value=0 -0.113168 0.243411 -0.185539 0.0532101 -0.334451 -0.301328 0.0853508 -0.567363 -2.48973 0.596279 0.985833 -0.514422 0.219078 -0.122258 0.403832 0.361757 1.00538 0.0896773 1.57526 0.298936 0.671163 0.0557413 -0.0996083 0.0363176 1.08193 -0.618841 0.224513 0.144151 0.0956923 0.399496
internal_weight=0 2320.62 390.175 1930.44 736.755 1193.69 150.674 727.559 553.569 9.19575 239.501 90.0024 130.561 703.646 640.119 316.974 149.499 34.319 6.39743 27.9216 282.655 53.79 386.672 139.784 109.262 20.1133 30.5213 228.865 246.888 202.763 44.1252
internal_count=3651723 2931867 236839 2695028 1156338 1538690 25820 1156182 771563 156 211019 83919 17708 719856 767127 404412 127100 32572 5343 27229 371840 60923 315444 121508 115661 8112 5847 310917 193936 145711 48225
cat_boundaries=0 1 2 3 4 5 6 7 8 9 10 11 12 13 14 15 16 17 18 19 20 21
cat_threshold=1 1153 961 3 2 2 2 12339802 2 15 2 2 2 2 4 658 8 2 2 2 4
shrinkage=0.1


Tree=18
num_leaves=28
num_cat=15
split_feature=3 2 5 14 2 2 14 5 6 14 15 7 15 2 7 9 10 5 5 2 1 2 5 14 8 0 5
split_gain=51.0826 62.0879 48.367 32.0991 29.6691 21.7048 20.8644 14.1192 12.8434 9.72724 9.72646 8.2009 7.50493 12.0161 7.49018 7.31395 5.65132 11.0122 5.26173 4.84663 4.46489 4.06287 3.84411 3.83605 3.44102 6.02318 4.13059
threshold=0 312.50000000000006 1.0000000180025095e-35 1 1.5000000000000002 1.0000000180025095e-35 2 1.0000000180025095e-35 3 4 5 6 7 12.500000000000002 8 9 10 4.5000000000000009 10.500000000000002 262.50000000000006 11 4.5000000000000009 1.0000000180025095e-35 12 13 14 3.5000000000000004
decision_type=1 2 2 1 2 2 1 2 1 1 1 1 1 2 1 1 1 2 2 2 1 2 2 1 1 1 2
left_child=1 3 15 7 14 6 -5 11 -4 16 -7 -1 13 -11 24 -3 19 -18 -14 -6 23 -9 -22 -16 26 -26 -2
right_child=4 2 8 5 9 10 -8 21 -10 12 -12 -13 18 -15 20 -17 17 -19 -20 -21 22 -23 -24 -25 25 -27 -28
leaf_value=-0.014866960764881559 -0.017290392753269903 -0.24593558889244016 -0.10703946370667319 0.0094201292961146356 0.012758957400163244 0.01992175233674752 -0.024456451747479482 -0.085966948384542594 -0.86082790271028709 -0.023709567251342146 0.0046469975735679587 0.26032223084124612 -0.053210249230766053 0.091036279597581773 0.023772638932175346 0.12243661478238158 -0.1005418123876364 0.35426642852873669 0.1642239028861896 -0.11126476499846034 -0.018813410521270474 0.013270182111241072 -0.079922593878780798 -0.043316019589141358 0.120667802902373 -0.050166048246488987 0.1318331279439687
leaf_weight=45.79977496171341 4.8313403594365809 1.0954632512293756 0.26224841855582781 326.65746817061154 108.03984586887964 746.8412198868175 392.2119402967146 64.068027959983738 1.6370430896058676 34.053729622795828 974.63348588099666 1.1091512905841217 82.138773765536982 12.467411930659877 7.7667925629939418 1.061035298742353 0.89303824707167168 1.3182227750585296 1.1282313167394011 3.2455225898445397 11.084167324661648 4.4095218966831444 144.39191884519096 18.220539107613153 2.2585458478715736 23.941355747992933 3.017617397592403
leaf_count=76474 9240 21 22 275600 125211 818066 566092 94561 21 52680 1092690 730 112802 13722 11449 20 1141 1132 472 411 17988 3677 297674 19747 3013 35103 4828
internal_value=0 0.0217585 -3.88774 0.0279626 -0.340589 0.0530043 -0.0927195 -0.46587 -7.56747 -0.101247 0.114165 -0.0836017 -0.275972 0.0579584 -0.610776 -0.6469 0.112924 1.70588 -0.448748 0.0914193 -0.69153 -0.795767 -0.75566 -0.307857 -0.180395 -0.354394 0.400418
internal_weight=0 2559.79 4.05579 2555.73 458.797 2440.34 718.869 115.386 1.89929 243.285 1721.47 46.9089 129.788 46.5211 215.512 2.1565 113.497 2.21126 83.267 111.285 181.463 68.4775 155.476 25.9873 34.0489 26.1999 7.84896
internal_count=3634587 2927974 84 2927890 706613 2752448 841692 175442 43 307571 1910756 77204 179676 66402 399042 41 127895 2273 113274 125622 346858 98238 315662 31196 52184 38116 14068
cat_boundaries=0 1 2 3 4 5 6 7 8 9 10 11 12 13 14 15
cat_threshold=2 61440 4654273 2 17325608 59 1 81 2 2 1 2 1068 2 2
shrinkage=0.1


Tree=19
num_leaves=32
num_cat=24
split_feature=1 7 2 14 2 3 3 14 5 15 7 0 8 14 15 5 2 14 3 9 14 0 15 13 2 9 8 6 2 13 4
split_gain=45.1748 45.6474 50.2248 47.07 28.8905 25.1219 19.4119 17.0073 19.8782 15.3048 13.9419 19.3987 11.0025 10.3339 12.2076 8.66465 22.0309 15.1072 12.4564 11.1738 11.1698 8.27567 8.21705 7.94441 6.54226 6.44729 6.6456 4.31586 3.61262 1.78796 0.0242797
threshold=0 1 312.50000000000006 2 5.5000000000000009 3 4 5 1.0000000180025095e-35 6 7 8 9 10 11 1.0000000180025095e-35 8.5000000000000018 12 13 14 15 16 17 18 48.500000000000007 19 20 21 9.5000000000000018 22 23
decision_type=1 1 2 1 2 1 1 1 2 1 1 1 1 1 1 2 2 1 1 1 1 1 1 1 2 1 1 1 2 1 1
left_child=1 2 13 4 21 9 27 15 25 -5 11 -10 -7 14 -1 16 18 19 -2 -17 -18 -3 -6 -12 -15 26 -9 -4 -19 -27 -8
right_child=7 3 6 5 22 12 30 8 10 -11 23 -13 -14 24 -16 17 20 28 -20 -21 -22 -23 -24 -25 -26 29 -28 -29 -30 -31 -32
leaf_value=-0.018593530351543729 0.0094937210408782002 0.0071239020134466818 -0.47959233283124764 0.015935654386881683 0.044432549523221836 -0.05378448128268562 -0.1247325317184026 0.12420166913349809 -0.0084927105256804095 -0.010430467074872822 0.085076714617481494 0.13330941180324182 0.14459682674867325 0.012767692257452702 0.054601457186474647 -0.031565852188767757 0.047686294046433646 -0.025635807777558129 0.24382561791594048 0.059914751277368783 -0.067508901556845066 -0.056480109856938659 -0.015584469168722782 0.020100422963229836 -0.018184870348397265 -0.1016176129572674 0.059299693293018374 -0.10317224285571319 0.032078180660917159 0.014642167764086146 -0.11036213992696108
leaf_weight=27.926575707999291 94.567031367914751 21.468113044080383 2.6825448479748055 326.21327953103963 31.536663974526171 121.14084678334234 1.897157046943903 18.276427208984387 156.15110968939558 628.24401884432132 37.109918089452549 10.282616207608923 2.8617325199302277 458.27947246876829 104.03805060946615 15.916955587425036 5.5123106220853515 69.808038061622938 2.3242062313800025 82.850722495320952 58.069755189761054 434.18056836476177 44.47870346947655 38.173366531758774 80.243177700598608 2.6859552746730335 115.3533062132046 0.3436103790008932 12.840791943810471 2.6065023470728192 3.0918362365225418
leaf_count=11262 87899 34524 24 351350 81079 203550 20 22147 246833 951640 19606 14442 4501 353349 34443 3722 3629 102625 2256 36087 1784 727830 124722 15556 30191 1062 155912 32 7651 875 49
internal_value=0 -0.0994509 0.118107 -0.191129 -0.431505 -0.0679961 -2.37031 0.187363 0.328813 -0.0136141 0.164205 0.00268115 -0.492062 0.147854 0.388932 0.0196873 -0.149003 0.169988 0.151148 0.410191 -0.606396 -0.534834 0.1311 0.521296 0.0800689 0.63889 0.681763 -4.36851 -0.148699 -0.443604 -1.15827
internal_weight=0 2288.63 678.502 1610.12 531.664 1078.46 8.01515 722.529 380.639 954.457 241.717 166.434 124.003 670.487 131.965 341.89 160.473 181.417 96.8912 98.7677 63.5821 455.649 76.0154 75.2833 538.523 138.922 133.63 3.02616 82.6488 5.29246 4.98899
internal_count=3630652 2908566 429370 2479196 968155 1511041 125 722086 476433 1302990 296437 261275 208051 429245 45705 245653 95568 150085 90155 39809 5413 762354 205801 35162 383540 179996 178059 56 110276 1937 69
cat_boundaries=0 1 2 3 4 5 6 7 8 9 10 11 12 13 14 15 16 17 18 19 20 21 22 23 24
cat_threshold=1 2 8419628 2 2 16979109 3 1 1 1 1066120 576 1024 2 2 32 2 85 2 1 2 1 2 2
shrinkage=0.1


Tree=20
num_leaves=30
num_cat=19
split_feature=2 14 15 1 3 14 2 4 6 7 15 14 2 2 14 7 3 5 7 15 5 1 5 14 15 5 9 5 5
split_gain=39.7692 42.6654 40.4629 31.5661 21.3369 18.1106 16.1158 34.9627 27.2229 15.3721 13.8917 23.8187 28.8817 16.3911 27.3569 15.4969 9.4908 7.18795 7.10817 6.76151 12.6255 11.0736 6.30116 5.85375 4.62095 4.96598 3.60564 1.47383 0.00506872
threshold=1.5000000000000002 0 1 2 3 4 312.50000000000006 5 6 7 8 9 6.5000000000000009 6.5000000000000009 10 11 12 1.0000000180025095e-35 13 14 7.5000000000000009 15 3.5000000000000004 16 17 1.5000000000000002 18 4.5000000000000009 1.0000000180025095e-35
decision_type=2 1 1 1 1 1 2 1 1 1 1 1 2 2 1 1 1 2 1 1 2 1 2 1 1 2 1 2 2
left_child=1 18 4 17 5 -3 10 8 -8 -5 13 12 -12 14 -2 -13 26 -4 24 20 -20 -21 -6 -15 25 -1 -9 -26 -18
right_child=6 2 3 9 22 -7 7 16 -10 -11 11 15 -14 23 -16 -17 28 -19 19 21 -22 -23 -24 -25 27 -27 -28 -29 -30
leaf_value=0.089782361798617524 0.073108566900892819 0.023814147296363455 0.052711987534805473 0.010669737048617305 -0.064160423385622431 -0.011900612562314415 -0.11278130310685418 -0.25742842287286677 0.54919504919669082 -0.05907885327511242 0.010869875802200567 0.024194203937344075 0.059716928532371344 -0.048018446232965112 -0.0035659196324442943 -0.010407990992554359 -0.11289193553673221 -0.012505703058997045 0.012169206531738886 0.017860127413121183 1.3797170832404859 0.099059633816678261 -0.0064749334369870919 -0.0092822180222078103 -0.023765444324770565 -0.007969823083826006 -0.45445322174974745 -0.081896878075710597 -0.1040151336449453
leaf_weight=9.9917863957816753 44.801970630557726 214.38002907283226 33.376079486231902 34.250848864219734 72.514386613831448 376.82222233673383 1.3162761943531223 2.1062595221828815 1.1764681492641103 407.99222332541467 279.33559200242769 196.89291659142327 213.60691092335765 76.536624000436859 308.03240025807094 377.75081665938353 2.3272686234798963 34.232870167579676 75.282560107021709 27.095466530983686 0.067569891965830631 44.179623845200695 25.628396815987799 103.3192943731483 23.478122164146047 10.829924896301234 1.6615774748788683 5.3564183802227481 0.88897054384106622
leaf_count=3197 26600 225759 54138 29276 135598 518305 26 47 29 647752 490741 62516 248017 53925 427652 389444 26 50167 21541 17610 45 41941 44471 125947 7526 4498 23 2074 36
internal_value=0 -0.149065 -0.219034 -0.431028 -0.0583188 0.0125168 0.0815944 -1.21861 1.99643 -0.53677 0.0892942 0.154274 0.313998 -0.0430226 0.0814097 0.0142316 -2.36612 0.196899 0.275538 0.40032 0.118261 0.598012 -0.490968 -0.289521 -0.037431 0.263053 -3.44314 -0.256638 -1.10438
internal_weight=0 1395.48 1199.2 509.852 689.345 591.202 1609.75 9.47682 2.49274 442.243 1600.28 1067.59 492.943 532.69 352.834 574.644 6.98408 67.6089 196.281 146.625 75.3501 71.2751 98.1428 179.856 49.6563 20.8217 3.76784 28.8345 3.21624
internal_count=3628927 1803898 1705466 781333 924133 744064 1825029 187 55 677028 1824842 1190718 738758 634124 454252 451960 132 104305 98432 81137 21586 59551 180069 179872 17295 7695 70 9600 62
cat_boundaries=0 1 2 3 4 5 6 7 8 9 10 11 12 13 14 15 16 17 18 19
cat_threshold=1024 961 2 2 1049288 2 2 2 896 2888180 263168 2 2 2 517 2 2886916 898 2
shrinkage=0.1


Tree=21
num_leaves=23
num_cat=12
split_feature=2 5 2 15 14 14 3 12 7 5 2 2 2 4 15 5 3 12 9 5 4 5
split_gain=74.0693 60.784 35.3007 28.8577 33.9603 15.3812 12.8425 12.5045 12.148 10.3323 9.71294 10.5421 10.3423 8.75835 8.48485 7.67449 6.6669 4.4334 3.68952 0.148637 0.0617199 0.00227612
threshold=312.50000000000006 1.5000000000000002 1.0000000180025095e-35 0 1 2 3 4 5 1.0000000180025095e-35 48.500000000000007 45.500000000000007 56.500000000000007 6 7 1.0000000180025095e-35 8 9 10 1.0000000180025095e-35 11 1.0000000180025095e-35
decision_type=2 2 2 1 1 1 1 1 1 2 2 2 2 1 1 2 1 1 1 2 1 2
left_child=2 16 3 5 7 15 8 -5 14 -10 11 -8 -12 -6 -4 -1 20 -7 19 -18 -2 -22
right_child=1 -3 6 4 13 17 10 -9 9 -11 12 -13 -14 -15 -16 -17 18 -19 -20 -21 21 -23
leaf_value=0.034041576299464103 -0.13238834287055273 -1.0037005443304918 0.042036924665080799 -0.061916363017791701 -0.018700132701917699 -0.025780439437686688 0.0098865310610297494 0.22333016253726365 0.044176955229977305 -0.035136807061059726 -0.094734541322035237 0.17203333286768716 -0.0076258791561169539 0.022865779947228642 -0.013097072857374041 -0.0031598766558218029 -0.23061377568758301 0.13741547012256025 -0.41091469879454379 -0.17061983181968493 -0.11152826017556594 -0.10364124480172535
leaf_weight=137.69372602619114 2.4340520856203511 1.0427223374426837 44.105560985510238 267.62248947350236 160.95520611211032 141.38369935535957 1669.2605081451984 1.5457083279907227 18.025691811407398 184.93071617905298 15.30716786040284 4.0193489323428357 124.39757577702403 73.999049544199806 53.080330529050116 92.845374426913622 0.78565917225205339 1.684464009667862 1.6327260163289354 0.8705453302100068 2.130823217920756 0.44176731389597979
leaf_count=102007 26 38 47273 454747 195104 230730 1951980 2203 26229 303170 6699 2639 48641 86122 57900 114507 21 2503 26 20 26 20
internal_value=0 -2.84086 -0.0201272 -0.188696 -0.341219 0.0255592 0.049891 -0.581191 -0.141709 -0.280925 0.0816107 0.10276 -0.171702 -0.0537993 0.14902 0.18267 -1.93633 -0.223003 -3.04241 -1.99079 -1.20974 -1.10174
internal_weight=0 9.3383 2990.86 877.73 504.122 373.607 2113.13 269.168 300.142 202.956 1812.98 1673.28 139.705 234.954 97.1859 230.539 8.29557 143.068 3.28893 1.6562 5.00664 2.57259
internal_count=3632631 177 3632454 1187923 738176 449747 2444531 456950 434572 329399 2009959 1954619 55340 281226 105173 216514 139 233233 67 41 72 46
cat_boundaries=0 1 2 3 4 5 6 7 8 9 10 11 12
cat_threshold=385 8417644 1742 1 1 2 1 100 1 1 2 2
shrinkage=0.1


Tree=22
num_leaves=32
num_cat=18
split_feature=1 14 2 15 2 5 2 14 4 14 15 2 7 14 15 14 5 2 5 7 14 5 2 2 2 14 3 14 2 3 14
split_gain=32.1889 32.8092 35.2729 47.1885 32.0003 30.4224 29.6812 25.9988 22.3017 17.7095 16.939 16.3989 15.6577 13.5267 13.0971 12.7729 12.195 9.91493 7.2294 13.7664 8.83969 7.16775 18.343 11.0785 19.172 9.96022 7.38191 6.59387 5.82539 5.63015 4.04715
threshold=0 1 2.5000000000000004 2 8.5000000000000018 1.5000000000000002 312.50000000000006 3 4 5 6 1.0000000180025095e-35 7 8 9 10 1.5000000000000002 12.500000000000002 1.0000000180025095e-35 11 12 1.0000000180025095e-35 8.5000000000000018 9.5000000000000018 11.500000000000002 13 14 15 109.50000000000001 16 17
decision_type=1 1 2 1 2 2 2 1 1 1 1 2 1 1 1 1 2 2 2 1 1 2 2 2 2 1 1 1 2 1 1
left_child=13 4 3 12 7 9 10 11 -9 -6 -4 -2 -3 21 16 -5 17 -15 20 -20 -16 22 26 27 -25 -24 -1 -23 -7 -8 -18
right_child=1 2 6 15 5 28 29 8 -10 -11 -12 -13 -14 14 18 -17 30 -19 19 -21 -22 23 25 24 -26 -27 -28 -29 -30 -31 -32
leaf_value=0.0069167220705248795 0.019036067275159937 0.0046605590258701948 0.053139392120134299 0.0089488328262661149 0.050689356779059516 0.092898853714265886 -0.30045519016818295 0.20505236934647236 -0.011752646170726236 -0.052008695097589534 -0.00079745133903945495 0.075864491509049919 -0.059002253488265578 0.15572386216565162 0.075521617213577627 -0.020467524713579592 0.049707846927674104 0.4461072378602623 -0.0059053180315531044 0.045495367038857114 0.016972343307373707 0.019460105692772102 0.043134866613231466 0.22970087705158881 0.032449936801366812 -0.065080021175275407 0.1662069589558621 -0.020618240015548156 -0.023988907019510283 -0.11874058860955897 -0.030667069456964416
leaf_weight=96.815738230681745 82.910388855292695 42.878378413992323 53.974896449333734 254.16157783925519 13.165185446502113 23.237715931943971 3.2567702753159224 4.9148207960606669 136.99566540651716 123.38369683673955 651.93785921658684 131.02820570858603 390.16447790337048 14.449616094818397 39.538926531924517 331.80713643864533 4.014268823506427 1.2799939099350002 153.99707146600124 78.750920807069406 99.196809683708096 80.092495123302797 5.9986352273263037 5.7491613221354774 34.479315013682935 54.7147486351314 2.9994460125307674 65.480105347800418 5.2218139320029868 3.5786342744104536 4.4080824204429501
leaf_count=87899 46416 36970 114302 283180 14976 11307 67 7144 218032 12626 1002962 61016 660198 9144 51101 440603 2755 536 249069 34978 122210 39231 3630 2315 9872 1783 2566 97764 1511 83 4412
internal_value=0 -0.0834472 -0.149185 -0.269406 0.135385 -0.226012 0.0206003 0.306771 -0.0396461 -0.422038 0.040681 0.514368 -0.515091 0.156705 0.279658 -0.0777223 0.90066 1.79354 0.216732 0.114862 0.403255 0.00794264 -0.146601 0.141893 0.606396 -0.580027 0.117034 0.0135288 0.71452 -2.0532 0.302487
internal_weight=0 2252.62 1731.76 1019.01 520.857 165.008 712.748 355.849 141.91 136.549 705.913 213.939 433.043 741.965 395.636 585.969 24.152 15.7296 371.484 232.748 138.736 346.33 160.529 185.801 40.2285 60.7134 99.8152 145.573 28.4595 6.8354 8.42235
internal_count=3630658 2911393 2538365 1420951 373028 40420 1117414 332608 225176 27602 1117264 107432 697168 719265 474205 723783 16847 9680 457358 284047 173311 245060 95878 149182 12187 5413 90465 136995 12818 150 7167
cat_boundaries=0 1 2 3 4 5 6 7 8 9 10 11 12 13 14 15 16 17 18
cat_threshold=2 2098305 62 1024 8 2097280 3 2 16979109 7 787016 1 8389378 32 2 5120 2 2637890
shrinkage=0.1


Tree=23
num_leaves=27
num_cat=18
split_feature=3 2 2 14 5 1 14 14 14 8 11 1 4 0 5 9 10 5 14 5 7 7 2 1 5 6
split_gain=30.4901 24.8569 20.9532 16.6047 13.9159 9.7714 14.3713 12.7997 7.80079 6.71887 7.2816 10.502 5.33923 9.95531 5.01686 11.6161 10.8588 4.76753 4.74153 4.49742 4.43425 4.00058 3.52341 3.40257 0.914929 0.138105
threshold=0 312.50000000000006 1.5000000000000002 1 1.0000000180025095e-35 2 3 4 5 6 7 8 9 10 1.5000000000000002 11 12 1.0000000180025095e-35 13 3.5000000000000004 14 15 4.5000000000000009 16 1.0000000180025095e-35 17
decision_type=1 2 2 1 2 1 1 1 1 1 1 1 1 1 2 1 1 2 1 2 1 1 2 1 2 1
left_child=1 3 9 4 21 7 -7 -5 14 10 11 -2 13 -10 16 -16 -4 18 -11 -12 -14 -1 -6 -19 -3 -26
right_child=2 24 8 5 22 6 -8 -9 12 17 19 -13 20 -15 15 -17 -18 23 -20 -21 -22 -23 -24 -25 25 -27
leaf_value=-0.003167287769414539 0.52285254387291324 -0.30442240314624092 -0.066001830298830264 0.0018388093619070877 -0.081779746171326995 0.016498160657503747 -0.0047133570828834966 0.029886906026241895 0.012835470798241787 0.042179011219214475 -0.051685693874413789 0.0022292817610390808 0.010494029406486666 0.18394684872060005 -0.025817046476560263 0.20888203574412018 1.0554515489206489 -0.027987529148472204 -0.035303126437024643 0.06509609640811985 -0.043173956548695179 0.16183741950679273 0.010455022589480239 -0.070420052849584233 -0.10572039718641771 -0.21136255641940901
leaf_weight=40.265575669247482 0.6419846786884591 2.0921028668535651 36.878132654623187 382.38674398213334 49.357950847872416 402.37096688695965 1406.9307734120666 282.89046587291523 101.78263248632902 4.7666102505536401 10.339889440147088 0.9772676994325592 28.551188900673878 3.5176523107656967 30.944666032977693 2.2630216326942891 0.086544121368205107 22.163115663439385 7.0007094152383598 4.8419757147858045 33.41146300156106 1.5250170197687101 4.5210215126135145 128.26332607799122 0.13633918747655116 1.3397998390719292
leaf_count=68963 852 38 48202 291181 94569 220096 1952402 309608 129601 8641 18530 1444 23627 3726 50546 2424 111 25791 12749 8141 48062 730 4526 303665 21 22
internal_value=0 0.0186321 -0.273025 0.0222937 -0.36623 0.0386382 0.00069011 0.142424 -0.0782645 -0.531374 0.0705973 2.08641 0.0457287 0.185516 -0.332892 -0.0982289 -0.633762 -0.59373 0.0192591 -0.144403 -0.184448 0.0285404 -0.740403 -0.641682 -2.61888 -2.01605
internal_weight=0 2573.82 416.43 2570.25 95.6696 2474.58 1809.3 665.277 237.435 178.995 16.8011 1.61925 167.263 105.3 70.1724 33.2077 36.9647 162.194 11.7673 15.1819 61.9627 41.7906 53.879 150.426 3.56824 1.47614
internal_count=3628268 2942156 686112 2942075 168788 2773287 2172498 600789 306299 379813 28967 2296 205016 133327 101283 52970 48313 350846 21390 26671 71689 69693 99095 329456 81 43
cat_boundaries=0 1 2 3 4 5 6 7 8 9 10 11 12 13 14 15 16 17 18
cat_threshold=2 61440 2 66693 16846245 1384770 2 2 2 1 1 1 1 26146 2 1 2 2
shrinkage=0.1


Tree=24
num_leaves=28
num_cat=15
split_feature=3 2 8 2 13 5 14 5 2 14 2 14 8 15 14 11 2 2 5 2 12 1 5 1 7 2 1
split_gain=25.4676 20.728 309.341 18.7193 17.664 36.491 13.9583 12.5504 9.35653 10.6557 8.16117 6.58351 5.95129 4.64918 5.05928 4.50039 4.48407 6.24897 4.41303 10.1412 3.9376 3.85835 3.71861 3.70181 3.47562 3.30213 0.0103174
threshold=0 312.50000000000006 1 1.5000000000000002 2 1.0000000180025095e-35 3 1.0000000180025095e-35 1.0000000180025095e-35 4 133.50000000000003 5 6 7 8 9 262.50000000000006 10.500000000000002 1.5000000000000002 4.5000000000000009 10 11 3.5000000000000004 12 13 4.5000000000000009 14
decision_type=1 2 1 2 1 2 1 2 2 1 2 1 1 1 1 1 2 2 2 2 1 1 2 1 1 2 1
left_child=1 6 -3 12 5 -4 7 23 9 -8 -10 18 15 14 -14 21 17 -13 20 -20 -5 -2 -17 -1 -15 -9 -18
right_child=3 2 4 11 -6 -7 8 25 10 -11 -12 16 13 24 -16 22 26 -19 19 -21 -22 -23 -24 -25 -26 -27 -28
leaf_value=-0.0067114494811978832 0.27700459606678718 -3.6866954437819452 0.73465604438987187 0.10039759277016036 -0.21866227403327998 -0.21438050114873641 0.0044191260069306086 -0.080147223807287976 0.0085896599082239261 -0.020313116409566637 -0.028000880051650575 -0.0069796755953136867 0.029577051060924842 -0.029769952112966742 -0.03599037774334584 -0.049426929950971005 -0.10688290542552509 0.034730002148036794 -0.047551617053764331 0.061614719326181989 -0.065993184889104786 0.001822799528439974 0.055431611349522403 0.1009884838892121 -0.075393251593928221 0.0089068889361713036 -0.11882731726129379
leaf_weight=38.576927771267947 1.0599638140120078 0.24255748163704996 0.79182384358136915 1.4841163082948201 1.6083257162652829 0.82967530183000893 399.14639163591346 45.304413924863184 1724.6012508326239 297.29926564690686 63.189147285185754 104.07983816621709 13.918149031542269 19.833453648650902 13.424478844816283 9.8788974353446992 2.1954033397108228 54.849436487391358 24.711032170802355 12.979350525740299 34.112777027421053 0.98116500977994303 5.1425034927160587 3.4792495478177434 105.6150385918336 4.5851647394301827 1.0784035956336295
leaf_count=66021 1416 21 21 1662 20 22 373391 94039 1886625 489567 26473 143427 28370 27351 24786 17979 446 54091 40301 19070 47732 1454 8113 3941 268031 4591 68
internal_value=0 0.0165544 -2.42503 -0.253079 0.161531 2.49061 0.0198454 -0.343097 0.0345206 -0.0636681 0.0729637 -0.0705701 -0.506115 -0.568667 -0.0363198 0.0540231 0.0473675 0.0741511 -0.297469 -0.0995826 -0.59056 1.44725 -0.135291 0.0219842 -0.631465 -0.719626 -1.10817
internal_weight=0 2579.65 3.47238 405.344 3.22982 1.6215 2576.18 91.9458 2484.24 696.446 1787.79 235.49 169.854 152.791 27.3426 17.0625 162.203 158.929 73.2873 37.6904 35.5969 2.04113 15.0214 42.0562 125.448 49.8896 3.27381
internal_count=3629029 2944732 84 684297 63 43 2944648 168592 2776056 862958 1913098 306797 377500 348538 53156 28962 198032 197518 108765 59371 49394 2870 26092 69962 295382 98630 514
cat_boundaries=0 1 2 3 4 5 6 7 8 9 10 11 12 13 14 15
cat_threshold=2 2 2 61440 29820099 1384898 2 769 1566 2 2 2 1 2 1
shrinkage=0.1


Tree=25
num_leaves=25
num_cat=16
split_feature=1 2 7 14 2 2 15 2 14 8 14 15 12 15 5 9 5 2 15 14 4 3 5 4
split_gain=22.7131 28.232 25.6694 28.0124 31.724 21.3201 18.8986 34.4962 22.8429 15.2757 9.43043 11.2308 25.0828 8.49835 7.09739 5.86754 9.92071 5.64937 9.96254 6.61684 2.96496 2.54285 0.314777 0.034489
threshold=0 312.50000000000006 1 2 5.5000000000000009 312.50000000000006 3 62.500000000000007 4 5 6 7 8 9 1.0000000180025095e-35 10 1.0000000180025095e-35 4.5000000000000009 11 12 13 14 1.0000000180025095e-35 15
decision_type=1 2 1 1 2 2 1 2 1 1 1 1 1 1 2 1 2 2 1 1 1 1 2 1
left_child=2 10 3 6 13 17 7 -1 -8 -6 15 12 -12 -5 -13 20 -17 19 -19 -4 -2 22 -7 -23
right_child=1 -3 5 4 9 21 8 -9 -10 -11 11 14 -14 -15 -16 16 -18 18 -20 -21 -22 23 -24 -25
leaf_value=0.018782910707797459 -0.015174255898045611 0.46839986562194114 -0.015355140983026542 -0.015369063898763559 0.0064528755148901655 -0.26826259066744357 -0.036370818639018677 0.81676555013627239 0.0062689031195447597 0.13669941809658437 0.19909745463363365 0.035568376738278534 1.0784084009858212 -0.045305980346920127 0.0084243202106227162 -0.013450220971594063 0.022246623690792604 0.035942132732148024 -0.0063791308653035894 0.024492342341017045 -0.072817444681957805 -0.1063393373127548 -0.19880880714829796 -0.12715460179691257
leaf_weight=281.82207966920373 23.43441860468738 1.3606589373008535 44.256431413001337 166.02720326406779 123.02940973528894 1.9084471526439304 213.06225111049844 0.54277501092292268 286.50205398003891 9.7158235030583437 7.3443004309957196 156.90902691241348 0.33939873594499648 434.2026566684533 249.49141155606776 154.17488566040981 157.27341236177017 58.555656311335042 285.68748742628668 305.96510667195616 14.41036310358322 1.8065683180466294 0.99159794760635123 1.4230144508182994
leaf_count=241131 8784 27 48546 296023 331393 25 426903 684 335395 29805 4977 178249 322 824503 289492 94657 134698 7224 117171 253371 4823 46 21 24
internal_value=0 0.132968 -0.066913 -0.140113 -0.278722 0.091369 -0.00653411 0.196219 -0.122737 0.159858 0.124856 0.224272 1.03386 -0.380361 0.184505 0.00056195 0.0457577 0.107758 0.0167849 0.197178 -0.371234 -1.76545 -2.44515 -1.15511
internal_weight=0 764.738 2215.5 1514.9 732.975 700.594 781.929 282.365 499.564 132.745 763.377 414.084 7.6837 600.23 406.4 349.293 311.448 694.465 344.243 350.222 37.8448 6.12963 2.90005 3.22958
internal_count=3628294 716029 2912265 2485837 1481724 426428 1004113 241815 762298 361198 716002 473040 5299 1120526 467741 242962 229355 426312 124395 301917 13607 116 46 70
cat_boundaries=0 1 2 3 4 5 6 7 8 9 10 11 12 13 14 15 16
cat_threshold=1 1 19531457 3 17301568 1 16979109 3 1 129 2 12 17375877 1 2 8
shrinkage=0.1


Tree=26
num_leaves=27
num_cat=15
split_feature=3 2 2 2 14 15 14 2 7 15 2 2 5 14 8 15 14 5 11 5 5 9 5 4 0 1
split_gain=20.7468 16.0044 15.4579 10.7172 18.3945 13.7758 18.8844 16.8808 12.8019 9.96458 5.98121 6.43014 9.40102 6.6102 5.16863 4.82487 4.71564 3.56779 2.99783 2.87272 2.7538 0.744371 0.157248 0.0429756 0.0261195 0.00760642
threshold=0 1.5000000000000002 312.50000000000006 1.5000000000000002 1 2 3 10.500000000000002 4 5 262.50000000000006 125.50000000000001 8.5000000000000018 6 7 8 9 1.0000000180025095e-35 10 3.5000000000000004 7.5000000000000009 11 1.0000000180025095e-35 12 13 14
decision_type=1 2 2 2 1 1 1 2 1 1 2 2 2 1 1 1 1 2 1 2 2 1 2 1 1 1
left_child=2 14 3 4 9 7 -7 -5 -6 -1 11 13 -13 -3 18 16 -16 -17 20 -20 -2 -4 -23 24 -12 -25
right_child=1 10 21 5 8 6 -8 -9 -10 -11 23 12 -14 -15 15 17 -18 -19 19 -21 -22 22 -24 25 -26 -27
leaf_value=-0.018335984368444431 0.16279071963905067 0.0089431348882269297 -0.25459170584386054 0.00588390693721038 0.010852506415308294 0.034436465091427483 0.0021878920767683615 -0.031507907284047211 -0.029891721208706548 0.010719086007371498 -0.13566116379065682 0.049625829738604771 0.64850236547681983 -0.024941794048991037 0.03006240822083707 -0.001808643952328215 -0.033708880262177957 -0.070445189266579167 -0.046453699758343327 0.044501194777265482 -0.10061929482984609 -0.11408235082596932 -0.18280909887157881 -0.11886403906081384 -0.1144293152440697 -0.10486341331561572
leaf_weight=139.14991892880062 1.9008347853960006 109.11766941015132 1.8687083696424689 523.04473505460555 98.188096055295318 331.31267312925775 404.25641673596692 156.97140607767506 359.32481604088025 568.77324048573018 1.3571227013599128 14.003970825258872 0.26711994144716378 105.79809962820049 13.828515245555534 8.1443862588312168 12.619091984954311 108.01567715361307 9.3309119804580423 5.5307505233467955 0.5016262394201475 0.4974106839947231 1.006696674258875 0.48495205615742282 1.0110940296435729 1.9419739316220177
leaf_count=141397 2484 128651 25 649745 88940 484952 290647 116141 653808 518722 26 11715 210 168091 28321 16160 24158 280783 17044 8350 395 21 28 68 56 476
internal_value=0 -0.231412 0.0149705 0.0177663 -0.0532517 0.0762346 0.169803 -0.0270761 -0.206952 0.0483215 -0.0647842 -0.0416577 0.608353 -0.0848205 -0.475281 -0.537842 -0.0126542 -0.604305 0.0414933 -0.126049 1.07792 -2.12445 -1.60081 -1.17013 -1.26596 -1.07661
internal_weight=0 393.854 2584.39 2581.02 1165.44 1415.59 735.569 680.016 457.513 707.923 233.982 229.187 14.2711 214.916 159.872 142.608 26.4476 116.16 17.2641 14.8617 2.40246 3.37282 1.50411 4.79514 2.36822 2.42693
internal_count=3631414 686988 2944426 2944352 1402867 1541485 775599 765886 742748 660119 309293 308667 11925 296742 377695 349422 52479 296943 28273 25394 2879 74 49 626 82 544
cat_boundaries=0 1 2 3 4 5 6 7 8 9 10 11 12 13 14 15
cat_threshold=2 30607059 960 2889954 2 28 17751600 2 257 1566 2 1 2 2 2
shrinkage=0.1


Tree=27
num_leaves=27
num_cat=18
split_feature=3 2 2 2 15 14 14 0 11 14 5 15 2 8 5 14 2 15 5 11 13 9 6 4 6 1
split_gain=17.2783 13.8627 13.1662 9.3776 12.5082 20.3246 9.21254 7.43309 6.9784 8.40663 6.18874 6.17923 6.08747 6.17784 8.69635 5.93101 5.9275 5.83373 5.37353 2.72079 2.35677 0.545287 0.0455618 0.0314315 0.0195184 0.00554032
threshold=0 3.5000000000000004 312.50000000000006 1.0000000180025095e-35 1 2 3 4 5 6 5.5000000000000009 7 262.50000000000006 8 4.5000000000000009 9 48.500000000000007 10 4.5000000000000009 11 12 13 14 15 16 17
decision_type=1 2 2 2 1 1 1 1 1 1 2 1 2 1 2 1 2 1 2 1 1 1 1 1 1 1
left_child=2 6 3 4 15 -6 10 11 9 -5 19 -8 13 14 -3 -1 -10 -15 -9 -2 -12 22 -4 24 -14 -25
right_child=1 12 21 8 5 -7 7 18 16 -11 20 -13 23 17 -16 -17 -18 -19 -20 -21 -22 -23 -24 25 -26 -27
leaf_value=0.012865132275776424 -0.069614204570417393 0.026667824135958248 -0.10628468995046797 0.024196697272519427 0.012994405453063599 -0.041197548998109366 0.02404668801453352 0.13891073524255523 0.0085111019315171309 -0.033621114041731001 0.0769030462542242 -0.030216379889673847 -0.11273619342033947 -0.028111890027230968 0.20325399080460305 -0.010697981541271178 -0.013717909887267773 0.011599499654907898 -0.10111433878101635 0.023426794241399387 -0.025133518774433802 -0.23709289010005091 -0.1608920042669516 -0.11685219037038293 -0.13185148400622435 -0.10438086306335029
leaf_weight=249.92199992507085 105.2634889502842 18.1276426076729 0.17436079174512997 28.61633813737717 101.37865132252773 200.765680774879 21.41629844249826 5.0206396778157787 1623.1476900984417 79.986114777209878 3.9444684801273979 75.832532647284097 0.92425497154181357 49.686559987500615 3.2958972238993729 172.43608042561027 129.53167311791913 88.455415732103504 1.1455187794781521 3.2397428065305851 5.3121457638244447 1.8097720932856136 1.2351203219454463 0.44596896515988083 1.2656697016063847 1.7699019605497701
leaf_count=224428 256996 19757 24 45180 98801 341892 39128 8560 1828707 84007 6221 159023 38 60199 3463 272873 51488 109176 1239 6943 11403 27 21 66 35 474
internal_value=0 -0.213661 0.0133526 0.0158688 -0.0806553 -0.231807 -0.377014 -0.110788 0.0534407 -0.192541 -0.55433 -0.189009 0.00667963 0.0386964 0.538347 0.0322009 0.0686827 -0.0387911 0.943201 -0.668361 0.183467 -2.00772 -1.54137 -1.15288 -1.23784 -1.06891
internal_weight=0 385.146 2589 2585.78 724.502 302.144 221.175 103.415 1861.28 108.602 117.76 97.2488 163.971 159.566 21.4235 422.358 1752.68 138.142 6.16616 108.503 9.25661 3.21925 1.40948 4.4058 2.18992 2.21587
internal_count=3630169 682721 2947448 2947376 937994 440693 489513 207950 2009382 129187 281563 198151 193208 192595 23220 497301 1880195 169375 9799 263939 17624 72 45 613 73 540
cat_boundaries=0 1 2 3 4 5 6 7 8 9 10 11 12 13 14 15 16 17 18
cat_threshold=2 449 30477443 8397254 1 2 9978370 257 2 4458188 904 1 2 2 2 2 2 2
shrinkage=0.1


end of trees

feature importances:
adm_past_year=162
an100mdc_ra=111
count_proc=108
agegroup_rm=64
flag_emergency=62
cc_diabetes=55
cc_diabetes_complications=46
pat_remoteness=43
indstat_flag=18
gender=18
cc_ischaemic_heart_disease=17
cc_renal_disease=17
malnutrition=14
flag_admtransfer=13
cc_hypertension=8
low_los_flag=7

parameters:
[boosting: goss]
[objective: cross_entropy]
[metric: cross_entropy]
[tree_learner: serial]
[device_type: cpu]
[data: ]
[valid: ]
[num_iterations: 100]
[learning_rate: 0.1]
[num_leaves: 32]
[num_threads: 4]
[max_depth: 5]
[min_data_in_leaf: 20]
[min_sum_hessian_in_leaf: 0.001]
[bagging_fraction: 1]
[pos_bagging_fraction: 1]
[neg_bagging_fraction: 1]
[bagging_freq: 0]
[bagging_seed: 3]
[feature_fraction: 1]
[feature_fraction_bynode: 1]
[feature_fraction_seed: 2]
[early_stopping_round: 0]
[first_metric_only: 0]
[max_delta_step: 0]
[lambda_l1: 0]
[lambda_l2: 0]
[min_gain_to_split: 0]
[drop_rate: 0.1]
[max_drop: 50]
[skip_drop: 0.5]
[xgboost_dart_mode: 0]
[uniform_drop: 0]
[drop_seed: 4]
[top_rate: 0.2]
[other_rate: 0.1]
[min_data_per_group: 100]
[max_cat_threshold: 32]
[cat_l2: 10]
[cat_smooth: 10]
[max_cat_to_onehot: 4]
[top_k: 20]
[monotone_constraints: ]
[feature_contri: ]
[forcedsplits_filename: ]
[forcedbins_filename: ]
[refit_decay_rate: 0.9]
[cegb_tradeoff: 1]
[cegb_penalty_split: 0]
[cegb_penalty_feature_lazy: ]
[cegb_penalty_feature_coupled: ]
[verbosity: 1]
[max_bin: 255]
[max_bin_by_feature: ]
[min_data_in_bin: 3]
[bin_construct_sample_cnt: 200000]
[histogram_pool_size: -1]
[data_random_seed: 1]
[output_model: LightGBM_model.txt]
[snapshot_freq: -1]
[input_model: ]
[output_result: LightGBM_predict_result.txt]
[initscore_filename: ]
[valid_data_initscores: ]
[pre_partition: 0]
[enable_bundle: 1]
[max_conflict_rate: 0]
[is_enable_sparse: 1]
[sparse_threshold: 0.8]
[use_missing: 1]
[zero_as_missing: 0]
[two_round: 0]
[save_binary: 0]
[header: 0]
[label_column: ]
[weight_column: ]
[group_column: ]
[ignore_column: ]
[categorical_feature: ]
[predict_raw_score: 0]
[predict_leaf_index: 0]
[predict_contrib: 0]
[num_iteration_predict: -1]
[pred_early_stop: 0]
[pred_early_stop_freq: 10]
[pred_early_stop_margin: 10]
[convert_model_language: ]
[convert_model: gbdt_prediction.cpp]
[num_class: 1]
[is_unbalance: 0]
[scale_pos_weight: 1]
[sigmoid: 1]
[boost_from_average: 1]
[reg_sqrt: 0]
[alpha: 0.9]
[fair_c: 1]
[poisson_max_delta_step: 0.7]
[tweedie_variance_power: 1.5]
[max_position: 20]
[lambdamart_norm: 1]
[label_gain: ]
[metric_freq: 1]
[is_provide_training_metric: 0]
[eval_at: ]
[multi_error_top_k: 1]
[num_machines: 1]
[local_listen_port: 12400]
[time_out: 120]
[machine_list_filename: ]
[machines: ]
[gpu_platform_id: -1]
[gpu_device_id: -1]
[gpu_use_dp: 0]

end of parameters

pandas_categorical:[[0, 1], [0, 1], [0, 1], [0, 1, 2, 3], [1, 2], [0, 1], [0, 1], [0, 1], [0, 1], [0, 1], [0, 1], [0, 1], [0, 1, 2, 3, 4, 5, 6, 7, 8, 9, 10, 11, 12, 13, 14, 15, 16, 17, 18, 19, 20, 21, 22, 23, 99], [0, 1, 2, 3, 4, 5, 6, 7, 8, 9]]
