tree
version=v3
num_class=1
num_tree_per_iteration=1
label_index=0
max_feature_idx=15
objective=cross_entropy
feature_names=indstat_flag cc_Diabetes adm_past_year flag_emergency pat_remoteness count_proc gender cc_Diabetes_complications cc_Ischaemic_heart_disease cc_Renal_disease malnutrition flag_AdmTransfer low_los_flag cc_Hypertension an100mdc_ra agegroup_rm
feature_infos=1:0 1:0 [0:338] 1:0 1:0:2:3 [0:50] 1:0 1:0 1:0 1:0 1:0 1:0 1:0 1:0 6:5:8:14:1:4:11:3:21:9:23:19:2:13:7:10:18:20:12:16:22:15:0:24:17 3:7:6:2:5:4:8:0:1:9
tree_sizes=3365 3094 3374 3114 3291 2983 2773 2938 2781 2588 1985 2000 1974 1877 1985 2574 2483 3206 2381 2356 2368 3207 2487 3399 3092 3174 2456 2357 3368

Tree=0
num_leaves=32
num_cat=15
split_feature=7 14 3 2 3 2 4 1 2 3 2 2 5 3 2 2 1 5 10 15 3 13 2 2 1 5 2 1 5 5 2
split_gain=6296 2610.42 2435.67 1658.3 979.037 901.963 1820.46 778.513 602.655 599.556 570.562 478.172 417.073 235.58 215.71 164.17 161.625 143.69 151.388 120.642 93.5153 86.5327 68.6127 37.7586 36.9427 29.1085 25.5622 19.3127 20.1518 18.161 4.00653
threshold=0 1 2 4.5000000000000009 3 311.50000000000006 4 5 5.5000000000000009 6 46.500000000000007 10.500000000000002 1.0000000180025095e-35 7 6.5000000000000009 3.5000000000000004 8 1.0000000180025095e-35 9 10 11 12 1.0000000180025095e-35 3.5000000000000004 13 12.500000000000002 3.5000000000000004 14 6.5000000000000009 1.0000000180025095e-35 1.5000000000000002
decision_type=1 1 1 2 1 2 1 1 2 1 2 2 2 1 2 2 1 2 1 1 1 1 2 2 1 2 2 1 2 2 2
left_child=3 2 8 9 5 11 -7 13 12 16 -10 -5 -2 14 -3 19 21 18 -6 -9 -17 -1 -18 25 -19 -11 -15 28 -4 -25 -29
right_child=1 7 27 4 17 6 -8 15 10 23 -12 -13 -14 26 -16 20 22 24 -20 -21 -22 -23 -24 29 -26 -27 -28 30 -30 -31 -32
leaf_value=-7.6130520365423404 -6.6255123786315604 -8.1337283019767117 -8.0721457198341717 -7.1717465074086268 -6.5519745438557617 33.599773027422685 -8.4286692652230002 -8.3249685526643962 -5.0843273096886481 -8.2888622802107044 -8.165550586441281 -6.3136071481125136 -7.486827144670654 -8.3748081433111814 -7.6238941221890348 -8.2822240408285097 -7.9266530408743936 -8.036888325180751 10.402256177583382 -8.4068053323369352 -8.3878218957340529 -7.0303090126801244 -7.6976546878984191 -6.5709098044973668 -7.5705511437784976 -6.6988974082634263 -8.1936650645598235 -8.4051056166710243 -5.7031405827111197 -7.9057860647410898 -8.3143534926673102
leaf_weight=5.639900380774634 9.8715756889432722 114.59920327743748 1.682918273261748 14.47980758149061 0.63942204616614517 0.016655387385981157 0.027034831698982908 206.00855551779387 2.8705198086099695 27.895601429685492 0.76011325910803851 11.772703675203955 13.059513387590412 46.41566805561888 8.9465982329566014 204.85474752206937 20.517264817695832 8.9335635819588788 0.0053104133694432667 1993.3102450287261 141.99200511400704 4.6483013752440456 36.114190266176593 0.10765656194416752 2.097613280930088 0.11562218199833196 9.3615346230508276 12.731474670814356 0.036690128734335407 1.9124729602772277 7.8729292026255271
leaf_count=23365 40896 474762 6972 59987 2649 69 112 853453 11892 115566 3149 48772 54103 192291 37064 848673 84999 37010 22 8257893 588245 19257 149614 446 8690 479 38783 52744 152 7923 32616
internal_value=0 -0.324413 6.26811 6.67079 12.2727 15.6562 159.219 -0.463956 14.0214 4.47675 25.9923 15.4172 12.126 1.54823 2.31837 -0.607494 6.14265 4.65242 19.1632 -0.708333 0.0319146 9.78882 5.48026 0.764581 3.80432 0.463457 -0.157603 -0.14914 3.07045 4.93997 -0.417842
internal_weight=0 2774.37 48.8857 134.923 37.9721 26.2962 0.0436902 2725.49 26.5617 96.951 3.63063 26.2525 22.9311 179.323 123.546 2546.17 66.9197 11.6759 0.644732 2199.32 346.847 10.2882 56.6315 30.0314 11.0312 28.0112 55.7772 22.324 1.71961 2.02013 20.6044
internal_count=12052648 11493688 202524 558960 157311 108940 181 11291164 110040 401649 15041 108759 94999 742900 511826 10548264 277235 48371 2671 9111346 1436918 42622 234613 124414 45700 116045 231074 92484 7124 8369 85360
cat_boundaries=0 1 2 3 4 5 6 7 8 9 10 11 12 13 14 15
cat_threshold=2 1024 2 2 2 2 2 2 2 1 1 2 2 1 2
shrinkage=1


Tree=1
num_leaves=29
num_cat=16
split_feature=2 4 3 2 6 10 7 1 14 14 2 15 3 14 10 2 2 2 5 2 5 5 3 5 1 7 7 2
split_gain=28685.4 62989.4 131760 73853.5 227314 19853.5 1856.28 708.805 422.23 380.624 155.398 138.755 130.188 83.7867 403.004 77.9247 96.5582 59.8743 34.3282 21.7508 21.1128 2.03003e-08 1.62917e-08 7.55721e-09 1.99694e-10 2.77196e-11 4.98461e-12 1.14621e-12
threshold=311.50000000000006 0 1 321.50000000000006 2 3 4 5 6 7 5.5000000000000009 8 9 10 11 39.500000000000007 15.500000000000002 91.500000000000014 1.0000000180025095e-35 2.5000000000000004 3.5000000000000004 1.0000000180025095e-35 12 1.0000000180025095e-35 13 14 15 321.50000000000006
decision_type=2 1 1 2 1 1 1 1 1 1 2 1 1 1 1 2 2 2 2 2 2 2 1 2 1 1 1 2
left_child=6 2 3 4 -2 23 8 12 15 11 -11 -9 18 14 -10 16 -1 -15 -8 -14 -17 22 26 -4 -23 -26 -3 -24
right_child=1 21 5 -5 -6 -7 7 9 13 10 -12 -13 19 17 -16 20 -18 -19 -20 -21 -22 24 27 -25 25 -27 -28 -29
leaf_value=0.53358759275059298 -1483.2161291841842 -0.10002185286293225 -0.10012730803018802 -127.67990519817081 -290.13161894797321 -207.57852822336841 0.20762319923310707 0.28816840363652679 -5.7321728871620108 -0.066422503428777466 0.021749120404857228 0.046227254683849833 -0.043392921034409192 0.19630852754106054 -0.023456010242833659 0.35147905623275788 1.0060648775060248 0.057180324613177638 0.1243263872949318 0.095586665470370646 -0.0034302163159481529 -0.10004162667577066 -0.10013666558701924 -0.10003313424317435 -0.10002835028056994 -0.10002374581789804 -0.10002543469500612 -0.10013763416364392
leaf_weight=44.503575474140234 0.0020227681380564637 0.010702413783292286 0.02123220264911652 0.0078382265346883528 0.007585380517486584 0.0053014325803815146 94.892738152353559 26.048994737269823 0.1242803689729044 2178.561928369294 220.08108792323037 110.81797883915715 42.37864004360739 192.31648455214781 24.810208402923141 8.8564035834660881 4.7910635719308621 36.860812469461962 103.37372064427473 15.335988488470319 2.0674205044924738 0.0099429364927345887 0.022486027882948068 0.014233666035579516 0.027608534001046792 0.024836435535689816 0.006099576916312798 0.026755714527098465
leaf_count=83527 38 49 25 42 58 24 255530 31358 208 9635034 912993 135221 180973 351765 84651 5965 3989 27023 285111 57225 1491 28 20 47 101 105 24 23
internal_value=0 -392.113 -1254.99 -3554.75 -5413.07 -270.809 -0.0693071 -0.32873 2.23457 -0.488839 -0.580904 1.0876 1.25716 1.46024 -0.370506 4.51056 5.79509 1.66659 1.64193 -0.0646313 2.8431 -1.0007 -1.00108 -1.0009 -1.00029 -1.00026 -1.00023 -1.00137
internal_weight=0 0.186645 0.0582137 0.0174464 0.00960815 0.0407673 3105.82 2791.49 314.33 2535.51 2398.64 136.867 255.981 254.112 24.9345 60.2185 49.2946 229.177 198.266 57.7146 10.9238 0.128432 0.0660437 0.0354659 0.0623879 0.052445 0.016802 0.0492417
internal_count=12052648 584 234 138 96 96 12052064 11493445 558619 10714606 10548027 166579 778839 463647 84859 94972 87516 378788 540641 238198 7456 350 116 72 234 206 73 43
cat_boundaries=0 1 2 3 4 5 6 7 8 9 10 11 12 13 14 15 16
cat_threshold=2 2 2 1 2 2 2098240 1024 3 2 12293 2 2 2 2 2
shrinkage=0.1


Tree=2
num_leaves=32
num_cat=19
split_feature=7 1 2 3 4 4 14 15 2 15 2 15 3 3 2 9 14 12 5 2 2 5 3 2 5 2 1 5 1 4 6
split_gain=1209.3 544.096 407.238 1771.53 5534.22 27670.9 317.672 164.082 147.228 117.759 99.0248 93.8282 93.7965 82.0517 76.1627 118.857 74.5794 71.9576 65.1107 62.657 60.8858 57.9201 54.957 27.7567 27.5028 17.5849 11.8748 1.77195e-08 1.81049e-10 6.93889e-17 3.46945e-18
threshold=0 1 311.50000000000006 2 3 4 5 6 2.5000000000000004 7 5.5000000000000009 8 9 10 3.5000000000000004 11 12 13 1.0000000180025095e-35 16.500000000000004 10.500000000000002 1.0000000180025095e-35 14 1.0000000180025095e-35 14.500000000000002 2.5000000000000004 15 1.0000000180025095e-35 16 17 18
decision_type=1 1 2 1 1 1 1 1 2 1 2 1 1 1 2 1 1 1 2 2 2 2 1 2 2 2 1 2 1 1 1
left_child=1 6 7 4 30 -6 10 14 9 -8 12 17 -1 -10 26 -16 18 19 -9 -3 -18 -19 23 -13 -12 -24 -2 29 -29 -5 -4
right_child=2 11 3 27 5 -7 8 16 13 -11 24 22 -14 -15 15 -17 20 21 -20 -21 -22 -23 25 -25 -26 -27 -28 28 -30 -31 -32
leaf_value=0.21477266159624736 0.054689819545843767 1.0419827327698095 -0.10001976977736655 -0.10012913477351104 -0.10001976985110964 505.88308046343565 0.0080839837665443153 0.56586716469320475 0.027372424873686952 -0.077130039253890448 -0.00033699678910290064 0.050008028182287792 -0.046913044696272263 -0.060414759901545226 0.37440584526124532 0.92783817892386811 0.13369814031855354 0.48750926147281365 0.25394846787510095 4.2071878514956138 0.040492974716414117 0.18845493470476077 -0.051737167616481131 0.12501153049935351 2.8479429705916508 0.071796679681907338 0.3683209642464742 -0.10004663154595513 -0.10002925649869084 -0.10012912700706809 -0.10001976977023275
leaf_weight=71.453063291133731 1.9376205268899866 0.61291810747934505 0.0086959161562845111 0.016743696178309619 0.0049408430204493925 0.0013834454148309297 186.10471559941647 8.2577651866013166 287.29238113328756 1619.4805193644424 63.818556504236767 79.973023963451851 16.945327155408393 169.15934399061371 6.7421029765368985 9.1431102398937565 236.56274858142609 11.908112730976432 35.299153755331645 0.069647891534259543 99.59337895948795 14.198093560902633 39.348066397506045 128.81556361322873 0.033918961242305978 16.29503183599445 3.2025601319959973 0.0083863436593674106 0.021050377283245325 0.042502810014410808 0.0071148430579341939
leaf_count=75413 1505 1534 44 24 25 76 820898 7220 1210139 7752349 29834 217414 68405 757724 4019 5968 435679 11174 32624 116 65024 20249 175696 297362 86 55295 6580 22 81 33 36
internal_value=0 -0.307434 1.5537 62.1657 315.24 1105.84 -0.463185 1.53694 -0.55656 -0.687293 0.901462 0.983776 1.64609 -0.0516119 3.96229 6.92947 1.26498 2.55858 2.54626 13.6495 1.0302 3.24866 0.700972 0.962827 0.0117603 -0.155604 2.50096 -1.00098 -1.00034 -1.00129 -1.0002
internal_weight=0 2705.51 400.849 0.110818 0.022135 0.00632429 2414.29 400.738 2262.04 1805.59 152.251 291.22 88.3984 456.452 21.0254 15.8852 379.713 26.7888 43.5569 0.682566 336.156 26.1062 264.432 208.789 63.8525 55.6431 5.14018 0.0886832 0.0294367 0.0592465 0.0158108
internal_count=12052648 11493688 558960 341 181 101 10714848 558619 10541110 8573247 173738 778840 143818 1967863 18072 9987 540547 33073 39844 1650 500703 31423 745767 514776 29920 230991 8085 160 103 57 80
cat_boundaries=0 1 2 3 4 5 6 7 8 9 10 11 12 13 14 15 16 17 18 19
cat_threshold=1 1 2 8 1 1025 12 1 7 2 2 2 1024 2 2 2 2 2 2
shrinkage=0.1


Tree=3
num_leaves=29
num_cat=17
split_feature=2 3 4 7 2 7 1 14 15 2 14 10 3 15 3 2 2 5 5 5 5 7 1 7 13 5 8 2
split_gain=11294.9 35194.6 64550.7 229244 94702.9 828.408 415.649 258.944 501.09 78.8233 69.9254 633.772 124.451 50.3261 49.3114 45.0339 44.5191 15.3363 13.2447 5.73679 1.75753e-08 3.74961e-09 2.31702e-10 4.61988e-11 3.59365e-12 1.00258e-12 1.69847e-14 3.46945e-17
threshold=311.50000000000006 0 1 2 313.50000000000006 3 4 5 6 3.5000000000000004 7 8 9 10 11 85.500000000000014 10.500000000000002 1.0000000180025095e-35 1.5000000000000002 1.5000000000000002 1.0000000180025095e-35 12 13 14 15 1.0000000180025095e-35 16 321.50000000000006
decision_type=2 1 1 1 2 1 1 1 1 2 1 1 1 1 1 2 2 2 2 2 2 1 1 1 1 2 1 2
left_child=5 2 24 4 -4 10 7 8 -7 -9 11 12 -1 15 18 -12 -15 -16 -8 -13 21 27 -22 -24 25 -2 -5 -3
right_child=1 20 3 26 -6 6 14 9 -10 -11 13 19 -14 16 17 -17 -18 -19 -20 -21 22 -23 23 -25 -26 -27 -28 -29
leaf_value=-0.10018065878733934 -0.10001990900619991 -0.10011682722268077 -430.24717300699405 -0.10002352332754574 -1351.4806386094226 0.22965991518864054 0.11012166537533463 -0.076924698878945361 -0.024263950505035214 -0.014067703954573338 0.22592155079678686 0.071020330594205969 -11.011985972673662 0.11665665834918032 0.22127298263749645 0.082107309051958011 0.028142127049251425 -0.018598822450785233 0.062859710128014654 -0.050055360365618508 -0.10004219339665121 -0.10001938484128554 -0.10002646892817875 -0.10001942798205093 -0.10002189619441766 -0.10001810966549052 -0.10002380648235108 -0.10011682127791462
leaf_weight=0.012530769508998674 0.0062512037839042014 0.027972926152870056 0.0023247858043760061 0.0032919050863711163 0.0021459535200847317 77.633912133838976 180.61480897344882 1320.6250047881911 677.16593735388597 235.00314794374572 105.76533900565846 4.6755625304649646 0.063010410324011445 236.68480573629495 2.8005072787632335 27.418487624807312 74.773376028197163 55.24615577692748 88.275822159746895 24.007453030324541 0.007588597422000019 0.004263291906680843 0.019047672511078417 0.018245487997774035 0.006673511801636777 0.006136505733593367 0.0059440001205075532 0.025641783606261011
leaf_count=180 32 24 29 30 72 240853 345420 6683435 2801330 988988 89171 9898 38 325799 10834 14112 43955 227364 195221 75466 22 22 81 94 33 34 78 33
internal_value=0 -288.765 -1191.19 -2846.34 -8724.39 -0.0710916 -0.289726 -0.439062 0.0451443 -0.669984 1.14694 -0.403722 -92.0194 1.22868 0.765613 1.82604 0.924386 -0.0702602 0.946057 -0.30319 -1.00073 -1.0011 -1.00026 -1.00023 -1.0002 -1.00019 -1.00024 -1.00117
internal_weight=0 0.135528 0.0327679 0.0137066 0.00447074 3110.77 2637.37 2310.43 754.8 1555.63 473.401 28.7586 0.0755412 444.642 326.937 133.184 311.458 58.0467 268.891 28.683 0.10276 0.057878 0.0448818 0.0372932 0.0190612 0.0123877 0.00923591 0.0536147
internal_count=12052648 584 308 209 101 12052064 11493445 10714606 3042183 7672423 558619 85582 218 473037 778839 103283 369754 238198 540641 85364 276 79 197 175 99 66 108 57
cat_boundaries=0 1 2 3 4 5 6 7 8 9 10 11 12 13 14 15 16 17
cat_threshold=2 8 2 2 1 20874433 1 16986117 2 2 60 2 2 2 2 2 2
shrinkage=0.1


Tree=4
num_leaves=31
num_cat=19
split_feature=7 2 3 6 2 1 14 2 15 3 2 3 14 3 15 14 5 4 2 15 2 2 14 10 2 9 2 5 1 4
split_gain=638.518 546.003 3212.54 4626.35 6714.5 334.714 238.114 136.284 104.102 72.3495 62.4022 51.7485 44.9446 33.6989 21.2274 19.3657 18.0782 21.9293 14.9185 14.0467 23.191 17.524 13.8751 24.1392 18.0918 7.39291 6.31255 9.71935e-09 9.93612e-11 6.93889e-18
threshold=0 311.50000000000006 1 2 321.50000000000006 3 4 2.5000000000000004 5 6 5.5000000000000009 7 8 9 10 11 1.0000000180025095e-35 12 128.50000000000003 13 1.5000000000000002 1.0000000180025095e-35 14 15 61.500000000000007 16 5.5000000000000009 1.0000000180025095e-35 17 18
decision_type=1 2 1 1 2 1 1 2 1 1 2 1 1 1 1 1 2 1 2 1 2 2 1 1 2 1 2 2 1 1
left_child=1 12 3 -3 -5 13 10 8 -8 -9 11 -7 16 19 -12 26 17 -1 -18 20 -2 -21 23 -15 -24 -17 -14 29 -29 -4
right_child=5 2 27 4 -6 6 7 9 -10 -11 14 -13 15 22 -16 25 18 -19 -20 21 -22 -23 24 -25 -26 -27 -28 28 -30 -31
leaf_value=0.053893236329682362 0.32603036579186662 -0.10001618731508344 -0.10010569360267108 247.09607486155497 29.328165452620677 0.15096794925728721 0.0064818119975926366 0.027605961948778852 -0.073745641041812082 -0.056987951544907378 0.05875220065514844 -0.043975572827021726 -0.055082274042009188 1.4475248065379642 -0.04345272788735316 0.08264259563437279 0.11865693040652166 0.19828882057560479 0.0076802924742900656 0.030438497993308552 0.13221287133646911 0.083509220856140653 -0.04641343341887174 0.07544572034678175 1.8171823325513903 0.047299140184123706 0.084506869839164112 -0.10003817608051957 -0.1000239511316816 -0.10010569464518393
leaf_weight=12.971785151996301 10.324019375984792 0.0071198446385096759 0.013711625128053129 0.0024272228474728763 0.0033981032611336559 89.595273886807263 189.05331549074617 288.33256730770518 1409.739709174406 155.69441645444022 23.904139920530724 16.057412437934545 22.246944202777019 0.12922532635275277 40.826554455663427 138.97222536448541 183.20695261715446 55.592017486642362 12.970888214011209 97.322374407114694 15.356184149248291 172.49998646578752 41.017679729877273 16.522554376162592 0.05215899704489757 103.08171963908322 3.7918597209582385 0.0068667086306959391 0.01723545829008799 0.034806089708580568
leaf_count=8952 10665 90 24 58 33 69475 821256 1211220 7757818 757970 11932 67672 75637 293 17505 161088 165918 37456 6412 221844 5857 302276 172997 64747 161 96018 7138 22 81 33
internal_value=0 0.932747 80.8084 539.742 1200.65 -0.270144 -0.414418 -0.508191 -0.646797 -0.020562 0.698694 1.2134 0.91992 0.633834 -0.0334632 0.555776 1.22154 1.7097 1.11319 0.770346 1.51239 0.620668 -0.0650321 0.537905 -0.354219 0.649095 -0.251111 -1.0008 -1.00028 -1.00106
internal_weight=0 532.92 0.0855651 0.0129452 0.00582533 2566.43 2213.2 2042.82 1598.79 444.027 170.383 105.653 532.834 353.224 64.7307 268.093 264.742 68.5638 196.178 295.503 25.6802 269.822 57.7216 16.6518 41.0698 242.054 26.0388 0.0726199 0.0241022 0.0485177
internal_count=12052648 558960 341 181 91 11493688 10714848 10548264 8579074 1969190 166584 137147 558619 778840 29437 339881 218738 46408 172330 540642 16522 524120 238198 65040 173158 257106 82775 160 103 57
cat_boundaries=0 1 2 3 4 5 6 7 8 9 10 11 12 13 14 15 16 17 18 19
cat_threshold=2 2 2 2 1024 1 2 2 2099146 2 531 8197 2 5 808488 2 1 2 2
shrinkage=0.1


Tree=5
num_leaves=28
num_cat=19
split_feature=2 3 7 13 2 7 1 14 15 2 15 3 14 2 4 6 2 14 5 13 5 7 1 7 9 13 2
split_gain=15394.1 66878 166156 182156 52470.1 475.194 271.091 231.961 330.18 71.7147 31.0192 24.2604 23.4785 24.5216 15.2306 15.4067 11.0539 10.4005 9.84116 5.30782 9.64427e-09 2.10311e-09 1.22703e-10 1.97646e-11 3.46654e-12 1.82441e-14 2.08167e-17
threshold=311.50000000000006 0 1 2 321.50000000000006 3 4 5 6 3.5000000000000004 7 8 9 14.500000000000002 10 11 2.5000000000000004 12 5.5000000000000009 13 1.0000000180025095e-35 14 15 16 17 18 321.50000000000006
decision_type=2 1 1 1 2 1 1 1 1 2 1 1 1 2 1 1 2 1 2 1 2 1 1 1 1 1 2
left_child=5 2 24 4 -4 10 11 8 -8 -9 14 18 13 -12 19 -16 -13 -14 -7 -1 21 26 -22 -24 25 -2 -3
right_child=1 20 3 -5 -6 6 7 9 -10 -11 12 16 17 -15 15 -17 -18 -19 -20 -21 22 -23 23 -25 -26 -27 -28
leaf_value=0.01913849497713372 -0.10002217690643972 -0.10009563103581001 -177.16762711616423 -1669.5826745313982 -939.18392319374857 0.066891585092971537 0.16933507214298371 -0.073557956475107239 -0.02030681830266674 -0.012507721118646656 0.10928705266588534 -0.037685595628544122 0.038605569097746387 0.0006136096483743131 0.16281196240198745 0.099196302762257438 0.054978844072595782 -0.027929598353268539 -0.032353003640965508 0.10006813220591367 -0.10003454255701277 -0.10001656923828695 -0.10002167276053638 -0.10001664008800562 -0.10002569686282231 -0.10002189920556162 -0.10009562629004537
leaf_weight=18.418852529688138 0.0046488634106935925 0.022906898113433272 0.003953292136429809 0.0013177734946530064 0.001171354325880225 309.17111547273817 96.857224944658242 1156.4862891089579 643.0640255426697 230.81482284958474 128.45016296877293 38.497619800866289 224.25727026091045 24.767135814967332 73.30968675793774 79.197612615191147 19.340751597483177 21.900432579338087 10.3252292246907 14.471113807334531 0.0062134690233506254 0.0036440313995643727 0.015595624965499155 0.015618477511452513 0.0035582926939241601 0.0048157290293602273 0.02099793637171388
leaf_count=9132 54 24 92 58 31 520104 223285 6700638 2801330 989353 128632 180973 229767 10963 43817 56875 57225 72128 20537 7305 22 22 81 94 44 29 33
internal_value=0 -383.989 -2055.94 -6209.85 -3513.44 -0.0626838 -0.252193 -0.390757 0.0644471 -0.629469 0.748979 0.528958 0.542432 0.861008 1.10505 1.29776 -0.0669925 0.318268 0.636843 0.547464 -1.0006 -1.0009 -1.00022 -1.00019 -1.00023 -1.00022 -1.00096
internal_weight=0 0.104442 0.0194653 0.00644242 0.00512465 3089.33 2504.56 2127.22 739.921 1387.3 584.772 377.335 399.375 153.217 185.397 152.507 57.8384 246.158 319.496 32.89 0.0849764 0.0475489 0.0374276 0.0312141 0.0130229 0.00946459 0.0439048
internal_count=12052648 584 308 181 123 12052064 11493445 10714606 3024615 7689991 558619 778839 441490 139595 117129 100692 238198 301895 540641 16437 276 79 197 175 127 83 57
cat_boundaries=0 1 2 3 4 5 6 7 8 9 10 11 12 13 14 15 16 17 18 19
cat_threshold=2 1 2 2 2 20841665 1 60 2 263960 8 2 15206626 2 2 2 2 2 2
shrinkage=0.1


Tree=6
num_leaves=26
num_cat=17
split_feature=7 1 14 15 2 9 2 4 6 5 2 2 3 3 14 15 3 12 2 14 6 14 2 12 5
split_gain=364.023 222.105 205.73 229.937 130.274 504.248 183.02 4270.97 3262.48 1705.69 107.787 69.6282 64.3504 26.5975 23.6624 19.0675 16.2588 14.9756 28.4826 14.7392 12.9567 12.8967 11.4921 10.4734 10.0445
threshold=0 1 2 3 334.50000000000006 4 311.50000000000006 5 6 3.5000000000000004 86.500000000000014 2.5000000000000004 7 8 9 10 11 12 1.5000000000000002 13 14 15 2.5000000000000004 16 1.5000000000000002
decision_type=1 1 1 1 2 1 2 1 1 2 2 2 1 1 1 1 1 1 2 1 1 1 2 1 2
left_child=4 15 3 10 6 -6 14 8 -8 -9 -3 23 -5 -13 20 17 19 18 -2 -17 -1 -16 -18 -4 -19
right_child=1 2 11 12 5 -7 7 9 -10 -11 -12 13 -14 -15 21 16 22 24 -20 -21 -22 -23 -24 -25 -26
leaf_value=0.11656308893464014 0.55002576506183931 0.10748921748941685 -0.0030548417715941792 -0.006187139490150745 -0.10006961645941762 63.673696878432786 -0.10007150855612677 -20.946502042286671 89.933208436979982 -127.65285297314736 3.8987026807335727 0.0037127271453199426 -0.082951233146754941 -0.058951006282117052 -0.023565662687525708 0.072102172366890913 -0.047506257146143947 0.20301908793684609 -0.10753753546472032 0.02316023074998666 0.069798838169220251 0.048150813867824813 0.047498949277070129 -0.075056658721404268 0.072731914932154834
leaf_weight=111.98188459875473 0.76896597375161935 172.86230848901323 20.626812685499317 429.09943727630889 0.0059231731866020709 0.0015680431388308538 0.010162024715100417 0.033578882925211384 0.0066642035089898846 0.0015679777134209865 0.075023822631918757 191.83169884390372 146.4817023978103 104.70446910345345 25.309274775680485 114.87952750056866 36.176927767533925 22.065085288457343 4.5948244534665719 191.71267391418223 125.80983048121561 367.57015987901332 19.646819710207637 981.59486263335566 8.0856675191462255
leaf_count=63975 505 486072 130025 1743642 27 24 53 153 60 24 313 812827 816638 556321 82775 228115 177890 11136 633 296005 79053 332816 56144 6169010 8412
internal_value=0 -0.234107 -0.36698 0.0536255 0.61796 132.489 0.616393 -58.7228 355.585 -257.069 1.03168 -0.605142 -0.252838 -0.184133 0.621284 0.449499 0.346128 1.09779 -0.132677 0.446058 0.881157 0.430606 -0.140698 -0.735748 1.68079
internal_weight=0 2445.21 2047.28 748.518 630.731 0.00749122 630.723 0.0519731 0.0168262 0.0351469 172.937 1298.76 575.581 296.536 630.671 397.93 362.416 35.5145 5.36379 306.592 237.792 392.879 55.8237 1002.22 30.1508
internal_count=12052648 11493688 10714848 3046665 558960 51 558909 290 113 177 486385 7668183 2560280 1369148 558619 778840 758154 20686 1138 524120 143028 415591 234034 6299035 19548
cat_boundaries=0 1 2 3 4 5 6 7 8 9 10 11 12 13 14 15 16 17
cat_threshold=2 2 25035969 3 2 2 2 2 2 1480 5 2 2 8913618 2 8197 2
shrinkage=0.1


Tree=7
num_leaves=27
num_cat=14
split_feature=2 7 6 5 5 7 3 14 15 2 1 15 2 2 3 14 2 5 10 5 3 2 9 4 2 2
split_gain=11361.9 21931.7 128224 95995.1 491.929 288.577 204.884 219.644 227.647 156.762 27.2354 17.728 15.8131 15.5941 19.2387 10.9114 10.8686 9.97327 7.00997 6.19958 3.15383e-11 2.16933e-11 2.91682e-12 1.43184e-14 1.28439e-14 9.93997e-16
threshold=311.50000000000006 0 1 1.0000000180025095e-35 1.5000000000000002 2 3 4 5 6.5000000000000009 6 7 1.5000000000000002 11.500000000000002 8 9 133.50000000000003 6.5000000000000009 10 1.5000000000000002 11 321.50000000000006 12 13 334.50000000000006 321.50000000000006
decision_type=2 1 1 2 2 1 1 1 1 2 1 1 2 2 1 1 2 2 1 2 1 2 1 1 2 2
left_child=5 20 4 -4 21 11 7 8 -7 -9 15 16 -12 14 -13 -8 17 -1 -18 -15 22 -3 23 -2 25 -22
right_child=1 2 3 -5 -6 6 10 9 -10 -11 12 13 -14 19 -16 -17 18 -19 -20 -21 24 -23 -24 -25 -26 -27
leaf_value=0.092709360519404108 -0.10002005445806157 -0.1000782868582254 -255.99211862741319 -1453.9290466237585 -57.751118237053277 0.19191860557696228 0.045891873865550464 -0.038282920487654214 0.018547912709294866 0.081638218281119779 -0.089990547118981357 0.057197599690900408 -0.054919125992283852 -0.027624270384571593 -0.0083510833515458467 -0.032473014942652027 -0.54048913983646374 -0.0010019652200526361 0.018003099962708477 0.026259866287660916 -0.10001407730225859 -0.10006897912873616 -0.10002348061085493 -0.10001978664812397 -0.10001433454820297 -0.10001413194002491
leaf_weight=189.44932817150183 0.0054073200008133418 0.005471100280107148 0.0015631592114265227 0.0011693259449376148 0.0017345724205229127 84.426524750801036 18.090696449129609 1146.7321691566467 420.71368769231776 120.45566391595639 369.06446550470628 310.17069824621103 197.28352789413475 41.259623489380829 52.330673734761604 38.838776982069248 0.22715734372863461 12.080931453579209 21.124597288784575 44.253635908567162 0.0076006972959322544 0.0046172641486712154 0.0032326350192306568 0.0031646032584831127 0.0028585998952621585 0.0059350895026000217
leaf_count=101248 27 80 73 119 43 100761 65040 6163080 1106275 366029 2398810 280560 1120292 19380 118136 173158 97 7133 8651 23414 54 26 44 56 20 42
internal_value=0 -515.568 -1512.46 -7686.31 -85.582 -0.0559716 -0.218313 -0.0448869 0.506873 -0.26673 -0.711461 0.523709 -0.777737 0.378292 0.47735 -0.052136 0.764729 0.870917 0.120614 0.00261101 -1.00017 -1.00074 -1.00021 -1.0002 -1.00014 -1.00014
internal_weight=0 0.0427544 0.0145554 0.00273249 0.0118229 3066.5 2395.61 1772.33 505.14 1267.19 623.277 670.897 566.348 448.015 362.501 56.9295 222.882 201.53 21.3518 85.5133 0.0281989 0.0100884 0.0118046 0.00857192 0.0163944 0.0135358
internal_count=12052648 584 341 192 149 12052064 11493445 7736145 1207036 6529109 3757300 558619 3519102 441490 398696 238198 117129 108381 8748 42794 243 106 127 83 116 96
cat_boundaries=0 1 2 3 4 5 6 7 8 9 10 11 12 13 14
cat_threshold=1 2 2 2 1216 1 2 60 2 808488 2 2 2 1
shrinkage=0.1


Tree=8
num_leaves=26
num_cat=19
split_feature=2 3 4 13 2 14 15 7 3 1 3 14 7 5 1 9 15 1 3 5 7 7 2 13 5
split_gain=485.092 4089.12 7155.67 7019.31 228.804 139.932 136.257 97.3204 77.2385 68.6039 65.751 53.6461 35.3792 30.9245 25.1786 18.0927 18.0622 16.8639 10.1778 6.99816e-05 2.24375e-05 1.42461e-09 1.60439e-11 1.01603e-14 1.93075e-15
threshold=311.50000000000006 0 1 2 1.5000000000000002 3 4 5 6 7 8 9 10 1.5000000000000002 11 12 13 14 15 1.5000000000000002 16 17 321.50000000000006 18 1.0000000180025095e-35
decision_type=2 1 1 1 2 1 1 1 1 1 1 1 1 2 1 1 1 1 1 2 1 1 2 1 2
left_child=4 2 23 -4 5 6 13 18 11 -9 -8 16 15 -1 -13 -10 -6 -14 -7 21 -21 22 -3 -2 -23
right_child=1 19 3 -5 8 7 10 9 12 -11 -12 14 17 -15 -16 -17 -18 -19 -20 20 -22 24 -24 -25 -26
leaf_value=0.13921120076715807 -0.10001822966477165 -0.1000708277721238 305.05288575643675 45.22182712468144 0.025304834167537805 0.044386872823253216 0.0043980937812977605 -0.073295488415158302 0.012873507097896178 0.0050183017355925228 -0.085565565722819634 0.055085922320694161 0.031780148621361942 0.015257437821639158 0.0084411297478276578 0.1368721075349896 0.078654411598126431 -0.052372205262903551 -0.027138338335564158 -0.10732087647354874 -0.10001288181104495 -0.10001269412981902 -0.10006241311265468 -0.10001797946449971 -0.10001279152224817
leaf_weight=88.967983448077575 0.0030939553107600655 0.0049508064458383752 0.0019662273989524831 0.0022064412914914872 121.37967263090832 102.43094537088291 374.20811935894017 823.37353061477165 47.781509182380418 129.44512191317358 103.76729290599178 148.07491952988232 27.2940542865108 26.011893457005499 529.69474373785886 15.611807189057584 303.32474579139671 186.74736170364508 24.68995279120827 0.063561618328094482 0.0044985981949139378 0.0027915925455388041 0.0041781335636174094 0.0034147838741773735 0.0075442530651343986
leaf_count=167697 30 43 178 69 156748 112254 1299260 5708269 68987 334375 657252 180487 87826 70862 1609899 20501 383113 1120292 74242 63 35 22 54 31 59
internal_value=0 70.231 654.344 1676.58 -0.0518814 -0.300523 0.0920319 -0.51217 0.249552 -0.626562 -0.148227 0.368235 -0.222071 1.02274 0.183609 0.434105 0.643401 -0.416413 0.304949 -1.05326 -1.06838 -1.00038 -1.00067 -1.00018 -1.00013
internal_weight=0 0.0982064 0.0106814 0.00417267 3052.8 1672.89 592.955 1079.94 1379.91 952.819 477.975 1102.47 277.435 114.98 677.77 63.3933 424.704 214.041 127.121 0.087525 0.0680602 0.0194648 0.00912894 0.00650874 0.0103358
internal_count=12052648 584 308 247 12052064 8424211 2195071 6229140 3627853 6042644 1956512 2330247 1297606 238559 1790386 89488 539861 1208118 186496 276 98 178 97 61 81
cat_boundaries=0 1 2 3 4 5 6 7 8 9 10 11 12 13 14 15 16 17 18 19
cat_threshold=2 1 2 21365954 513 2 2 1 2 3146944 2 2 1 704 2 2 2 2 2
shrinkage=0.1


Tree=9
num_leaves=24
num_cat=15
split_feature=2 4 2 3 2 0 3 14 2 15 7 7 5 7 1 2 2 10 1 14 1 2 7
split_gain=76645.7 641328 1.22535e+06 36705.1 463961 14532.9 199.366 150.447 129.761 86.754 61.0114 58.3452 47.14 44.9219 40.4715 25.7031 17.8765 41.8696 14.5892 14.0644 6.85757 5.10526e-05 8.91064e-10
threshold=311.50000000000006 0 334.50000000000006 1 321.50000000000006 2 3 4 1.0000000180025095e-35 5 6 7 1.0000000180025095e-35 8 9 1.5000000000000002 38.500000000000007 10 11 12 13 334.50000000000006 14
decision_type=2 1 2 1 2 1 1 1 2 1 1 1 2 1 1 2 2 1 1 1 1 2 1
left_child=6 2 -2 4 5 -3 7 9 11 12 16 -9 -1 -11 -10 20 19 -18 -17 -8 -12 22 -5
right_child=1 3 -4 21 -6 -7 10 8 14 13 15 -13 -14 -15 -16 18 17 -19 -20 -21 -22 -23 -24
leaf_value=0.17680987321258171 -4091.6874440713068 -61.2966250533633 -46.581878826234515 -0.10005953779807474 -1762.6425203295512 241.07812372670696 0.038169262506101712 0.041717941372681012 0.050751646695099809 0.069406874919973105 -0.037043277889740094 -0.056274303300650613 0.038349843477405103 0.012664252282164648 0.0023825177188856799 0.027660172625433934 0.14861559676481309 -1.6784290442389431 -0.049809749585342566 -0.035459813868946741 -0.088211092041593664 -0.10634516150867518 -0.10001155534055095
leaf_weight=77.913093068636954 0.0011486984153317391 0.037475078469234153 0.0021513787360165626 0.0063407048585598647 0.0016453503922093651 0.0016599028604105106 42.790680562748094 68.399517674431763 221.91701206862899 199.4125538545195 28.580368925671785 544.05241536806125 35.927502301608911 464.54210083003272 784.55680873921278 28.173302015085937 12.46169807141996 0.12670515318801001 177.22412414778955 41.08058854861541 313.49196988004257 0.060003509293892414 0.0099337348365317896
leaf_count=74125 149 117 32 74 57 35 53440 79004 287910 72531 150372 3447657 26678 1208234 2926000 87826 15673 194 1120292 103318 2398810 34 86
internal_value=0 -798.069 -14546.1 -410.488 -1176.33 -484.715 -0.0482492 0.0844758 -0.0898188 0.44272 -0.542255 -0.453304 1.22364 0.292656 0.130474 -0.67146 0.191065 1.30226 -0.391836 0.024284 -0.83936 -1.04998 -1.0003
internal_weight=0 0.120358 0.00330008 0.117058 0.0407803 0.039135 3040.65 2396.72 1618.93 777.795 643.929 612.452 113.841 663.955 1006.47 547.47 96.4597 12.5884 205.397 83.8713 342.072 0.0762779 0.0162744
internal_count=12052648 584 181 403 209 152 12052064 8122139 6740571 1381568 3929925 3526661 100803 1280765 3213910 3757300 172625 15867 1208118 156758 2549182 194 160
cat_boundaries=0 1 2 3 4 5 6 7 8 9 10 11 12 13 14 15
cat_threshold=8 2 1 2 1049792 1 2 2 2 2 1 2 282408 2 2
shrinkage=0.1


Tree=10
num_leaves=18
num_cat=12
split_feature=2 5 3 2 14 14 7 15 7 2 1 15 2 10 14 1 1
split_gain=900.002 9230.71 169.395 124.684 84.1478 59.0192 54.6575 46.8028 43.4668 25.4041 24.2603 19.2432 12.6754 83.8463 13.5716 12.5978 6.93754
threshold=313.50000000000006 1.0000000180025095e-35 0 1.0000000180025095e-35 1 2 3 4 5 1.5000000000000002 6 7 125.50000000000001 8 9 10 11
decision_type=2 2 1 2 1 1 1 1 1 2 1 1 2 1 1 1 1
left_child=2 -2 3 4 7 11 12 -1 -6 16 -7 -5 14 -14 -4 -11 -8
right_child=1 -3 6 5 8 10 9 -9 -10 15 -12 -13 13 -15 -16 -17 -18
leaf_value=0.060751042360548936 126.72424327861319 -0.10490434981482277 0.035022730473797219 0.069570288597044214 0.030254107329650615 0.037324929656169639 -0.087083682908967661 -0.012787057439835159 -0.061111108209880742 0.024270593147864519 -0.0019098202596824734 0.031366913373048734 0.15603095421589541 -7.9813923016350969 -0.035925048175192452 -0.047153954287171916 -0.03445886203095587
leaf_weight=125.4509325146937 0.0063079452374940051 0.063565399381332099 54.374814096811861 248.42044666104994 59.069273643150154 204.29198898154937 286.18289919107326 235.14651952593704 439.50748402149475 28.940226125574554 689.5385351895211 419.52413143059312 7.4164508468820678 0.012683887375888214 36.776596622835186 168.32684470539971 27.454140727059041
leaf_count=141834 32 42 65384 214817 64847 252808 322637 202790 545250 69938 1049237 396938 8709 22 98347 155862 29951
internal_value=0 113.448 -0.0451776 0.0734501 -0.232521 0.241773 -0.516382 0.137456 -0.492978 -0.647925 0.069795 0.46392 0.165356 1.42138 0.0629864 -0.366756 -0.824772
internal_weight=0 0.0698733 3030.43 2420.95 859.174 1561.78 609.485 360.597 498.577 510.904 893.831 667.945 98.5805 7.42913 91.1514 197.267 313.637
internal_count=3619445 74 3619371 2868521 954721 1913800 750850 344624 610097 578388 1302045 611755 172462 8731 163731 225800 352588
cat_boundaries=0 1 2 3 4 5 6 7 8 9 10 11 12
cat_threshold=2 29820098 3147460 2 129 2 2 27 1 9195304 2 1
shrinkage=0.1


Tree=11
num_leaves=18
num_cat=11
split_feature=2 2 3 2 14 7 14 7 15 2 15 15 5 14 2 1 0
split_gain=9888.34 76175.4 145.605 100.616 72.8898 50.0327 45.8298 38.3481 36.4252 24.9166 23.1384 22.7317 12.6068 9.7266 17.1153 6.74904 6.33477
threshold=313.50000000000006 321.50000000000006 0 1.0000000180025095e-35 1 2 3 4 5 1.5000000000000002 6 7 1.0000000180025095e-35 8 155.50000000000003 9 10
decision_type=2 2 1 2 1 1 1 1 1 2 1 1 2 1 2 1 1
left_child=2 -2 3 4 8 9 10 -6 -1 15 -5 -8 -11 16 -15 -4 -7
right_child=1 -3 5 6 7 13 11 -9 -10 12 -12 -13 -14 14 -16 -17 -18
leaf_value=0.052206455815362929 -530.50162991547165 -14.514357855211683 -0.033456367235725579 0.076870870658540383 0.02637409023163122 0.031155514060069806 0.030293178894053537 -0.058637411869624061 -0.011706016943223143 0.060184446850910449 0.029148067860120686 -0.0081386866566602514 -0.041459653637455407 -0.039662161346068259 0.45061471990636381 -0.085923707509352631 0.14066119823710246
leaf_weight=133.03289022197714 0.0030165845528234967 0.055517993459943682 27.041031951332116 123.92987333299243 60.879905769408651 57.919611891850394 204.70279836376648 413.24506012288452 232.15073644132644 13.102831422635061 734.81292262228635 534.77799578128179 177.53886369823886 36.415686577724962 0.72623760302084051 262.64000846962136 5.8129038941697209
leaf_count=142786 37 40 27147 106772 64849 66425 269014 539243 202736 16211 778064 768402 209671 99375 775 319901 5875
internal_value=0 -411.058 -0.0412645 0.0659768 -0.214383 -0.491033 0.213208 -0.467358 0.123476 -0.625492 0.368408 0.0276225 -0.344736 0.149205 -0.236959 -0.81026 0.355632
internal_weight=0 0.0585346 3018.73 2437.53 839.309 581.197 1598.22 474.125 365.184 480.323 858.743 739.481 190.642 100.874 37.1419 289.681 63.7325
internal_count=3617323 77 3617246 2871866 949614 745380 1922252 604092 345522 572930 884836 1037416 225882 172450 100150 347048 72300
cat_boundaries=0 1 2 3 4 5 6 7 8 9 10 11
cat_threshold=2 29820098 1 3671750 2 129 3 96 9195304 2 1
shrinkage=0.1


Tree=12
num_leaves=18
num_cat=11
split_feature=2 4 7 1 14 15 2 14 5 15 14 13 4 2 2 4 2
split_gain=267634 395053 126.426 122.053 106.292 72.9852 49.7636 13.822 13.6195 13.1662 13.7742 8.14353 16.2165 12.057 7.87145 7.07917 6.15889
threshold=311.50000000000006 0 1 2 3 4 1.5000000000000002 5 1.0000000180025095e-35 6 7 8 9 35.500000000000007 12.500000000000002 10 5.5000000000000009
decision_type=2 1 1 1 1 1 2 1 2 1 1 1 1 2 2 1 2
left_child=2 -2 3 7 5 -5 -6 8 -1 11 14 12 -4 -13 -11 -12 -9
right_child=1 -3 9 4 6 -7 -8 16 -10 10 15 13 -14 -15 -16 -17 -18
leaf_value=0.090242263532023567 -0.10000950811517628 -2070.8034082056652 0.26602702135721085 0.047921263926410412 -0.064980534991940134 -0.019038683764078322 -0.01978419664569539 0.026052552936055698 0.031285720911952801 0.056505420696903064 -0.010866163918675639 0.085825718984924942 -0.013191551296296783 0.22285276838674314 0.016589386558004272 0.021036189774579366 -0.0064228898506467381
leaf_weight=70.936389381357003 0.0022816294298280406 0.0015453699094241935 2.4521336278994568 225.87169664386602 659.39741065901762 515.45464676361007 386.35576763410791 197.34511672302312 87.533653596925433 192.64947728755669 85.089805076032377 32.065977033198578 13.707141267794215 8.0292530263686768 66.442502081663918 381.01830636910472 82.940600678877672
leaf_count=117194 20 56 607 255607 785832 634041 788450 316153 160199 116278 73428 7578 3656 1380 15531 301175 44094
internal_value=0 -8362.65 -0.0377493 -0.159238 -0.275267 0.0172935 -0.478253 0.313355 0.542531 0.30829 0.259502 0.756619 0.291792 1.13266 0.445497 0.148928 0.158762
internal_weight=0 0.003827 3007.29 2225.84 1787.08 741.326 1045.75 438.756 158.47 781.455 725.2 56.2545 16.1593 40.0952 259.092 466.108 280.286
internal_count=3621279 76 3621203 3101570 2463930 889648 1574282 637640 277393 519633 506412 13221 4263 8958 131809 374603 360247
cat_boundaries=0 1 2 3 4 5 6 7 8 9 10 11
cat_threshold=1 1 2 20579521 3 2114138 8 2360712 2 2 2
shrinkage=0.1


Tree=13
num_leaves=17
num_cat=12
split_feature=2 3 2 14 2 14 7 15 14 15 6 2 7 0 0 1
split_gain=43781.5 117.74 73.2319 57.2418 43.9089 30.8793 30.2385 30.1051 19.9401 17.1191 15.3026 10.0122 8.90433 9.38672 6.69015 6.38713
threshold=311.50000000000006 0 1.0000000180025095e-35 1 1.5000000000000002 2 3 4 5 6 7 128.50000000000003 8 9 10 11
decision_type=2 1 2 1 2 1 1 1 1 1 1 2 1 1 1 1
left_child=1 4 3 7 12 10 -5 -3 14 -7 -4 -10 13 -1 -6 -14
right_child=-2 2 5 6 8 9 -8 -9 11 -11 -12 -13 15 -15 -16 -17
leaf_value=0.21563068631359644 547.36170482200521 0.030482516277346605 0.04300782001461808 0.019830803850329544 0.0089891492188632349 0.025927416714252523 -0.054439932123283463 -0.027843867232346955 -0.04730422063537814 -0.0070791157386669345 0.016930418714496451 0.13040905572668549 -0.032050385635337457 -0.034390688480810838 0.10133398679635636 -0.083913408843209594
leaf_weight=1.5838120998814702 0.0014612906202263734 244.86890442877484 472.73541677683534 64.197997176385798 112.30824712517625 212.12534438846882 375.19304682112852 127.04659379657824 132.74065395061407 528.54081855801269 429.45359329768507 3.2477897572958048 26.481705968893948 28.935368348138358 8.4345123314810717 229.86067671098181
leaf_count=3359 71 246120 474148 64848 130530 269201 539594 99893 173277 762300 424174 2663 27508 70419 8102 320471
internal_value=0 -0.034801 0.0584707 -0.187343 -0.455895 0.179863 -0.426185 0.103508 -0.15547 0.0259335 0.302592 -0.401104 -0.724765 -0.214157 0.14259 -0.785556
internal_weight=0 2997.75 2454.16 811.307 543.593 1642.86 439.391 371.915 256.731 740.666 902.189 135.988 286.862 30.5192 120.743 256.342
internal_count=3616678 3616607 2880278 950455 736329 1929823 604442 346013 314572 1031501 898322 175940 421757 73778 138632 347979
cat_boundaries=0 1 2 3 4 5 6 7 8 9 10 11 12
cat_threshold=1 29820098 3671750 2 481 17751608 96 2 2 2 1 2
shrinkage=0.1


Tree=14
num_leaves=18
num_cat=13
split_feature=2 13 3 2 15 2 14 14 14 14 7 6 7 2 1 0 1
split_gain=372832 152825 100.593 58.8776 51.5222 40.7509 35.2115 30.7651 24.5897 16.6368 13.8882 12.2079 8.59004 7.64896 6.49863 6.49013 6.32129
threshold=311.50000000000006 0 1 1.0000000180025095e-35 2 1.5000000000000002 3 4 5 6 7 8 9 128.50000000000003 10 11 12
decision_type=2 1 1 2 1 2 1 1 1 1 1 1 1 2 1 1 1
left_child=2 -2 3 4 7 12 -6 -1 11 14 -10 -5 15 -11 -7 -4 -14
right_child=1 -3 5 8 6 9 -8 -9 10 13 -12 -13 16 -15 -16 -17 -18
leaf_value=0.032061475067399564 -179.26408637045941 -1072.8315009805347 0.15644979530271461 0.035275529190646394 0.0053889821189079161 0.053820814085504522 -0.063953127078647851 -0.020285548733187202 0.017841391945933843 -0.044734183596078392 -0.013123032475574984 0.013915875291979192 -0.029979072024854017 0.10110235366215453 0.00021890487391994638 -0.032265820942509162 -0.082503676450760746
leaf_weight=219.86195344579028 0.0033451502094976604 0.0044737274292846463 1.9490991798811592 558.65835831908794 106.59731311595715 29.862776759618072 258.94176979634358 210.67677655950229 243.91824999043638 126.57621456329976 356.64094755823317 513.55947366438318 25.698843549529556 3.701588510093031 93.236882255691057 28.029165429068957 211.36062499273999
leaf_count=222735 49 31 3642 603632 97605 46000 311565 317774 149006 164162 677694 537051 27180 2694 93102 42059 320436
internal_value=0 -6905.37 -0.0321859 0.0520365 -0.171819 -0.431738 -0.441268 0.0656733 0.15857 -0.144464 -0.00537818 0.248135 -0.704316 -0.376969 0.122288 -0.199961 -0.768097
internal_weight=0 0.00781888 2989.27 2468.85 796.078 520.415 365.539 430.539 1672.78 253.377 600.559 1072.22 267.038 130.278 123.1 29.9783 237.059
internal_count=3616417 80 3616337 2917062 949679 699275 409170 540509 1967383 305958 826700 1140683 393317 166856 139102 45701 347616
cat_boundaries=0 1 2 3 4 5 6 7 8 9 10 11 12 13
cat_threshold=2 2 961 29953155 4458188 7866070 17751608 2 2 2 2 2 2
shrinkage=0.1


Tree=15
num_leaves=24
num_cat=15
split_feature=2 7 13 3 14 2 2 1 15 5 14 5 2 1 7 1 10 5 2 4 6 8 4
split_gain=525.845 7425.25 12611 84.9974 49.0683 37.6575 35.8944 39.8857 17.8899 14.5612 14.5255 12.6176 9.17127 8.65746 8.30492 6.30577 6.09958 6.0135 3.27328 1.11212e-06 1.53226e-07 5.61247e-08 1.14706e-09
threshold=307.00000000000006 0 1 2 3 1.5000000000000002 1.0000000180025095e-35 4 5 1.0000000180025095e-35 6 2.5000000000000004 144.50000000000003 7 8 9 10 5.5000000000000009 4.5000000000000009 11 12 13 14
decision_type=2 1 1 1 1 2 2 1 1 2 1 2 2 1 1 1 1 2 2 1 1 1 1
left_child=3 11 -3 4 9 14 7 -6 -8 13 12 19 -7 -1 17 -16 -12 -5 -11 20 -2 -21 -4
right_child=1 2 22 5 6 10 8 -9 -10 18 16 -13 -14 -15 15 -17 -18 -19 -20 21 -22 -23 -24
leaf_value=-0.024020378856498749 -0.10072511309144316 -128.41409380748857 -0.10007583999027821 -0.034598039190404065 0.037665330508297415 -0.046346009593849512 0.0069289421975354468 -0.022029952713596548 0.02829856243655007 -0.087092177034757398 0.18580205427515772 1.3985880099337455 0.14184813289181272 0.16014664317814731 -0.027435384800214964 -0.080980645032673909 0.0069605940641396889 0.10728986091433923 -0.0059267678764492312 -0.10022562251710239 -0.10051838018087529 -0.10035403293788031 -0.10002405083317285
leaf_weight=50.00097767108673 0.13990698440466076 0.01246942047146149 0.013623349746921032 25.974491798246163 138.60092521852766 108.02513951743094 932.10426723082037 581.60448617999009 694.89969928976916 77.391409199548434 1.93392030817419 0.066717368899844587 2.6531057718578515 2.6898201212170525 24.798453335548402 194.45111717567494 137.28190743718736 3.3751407287363007 5.3095606951410437 0.047757199266925454 0.048204758961219341 0.11847811861662194 0.0062335703987628204
leaf_count=84425 35 37 24 40644 238440 141636 1089772 622321 757286 105129 1654 32 1543 3958 26681 320034 161339 4832 17027 29 21 52 21
internal_value=0 -34.0885 -495.954 -0.0299814 0.0456829 -0.406806 0.0801081 -0.105418 0.162725 -0.518732 -0.132668 1.37025 -0.383681 -0.146188 -0.682371 -0.749244 0.08812 -0.182813 -0.818812 -1.00506 -1.00672 -1.00317 -1.0006
internal_weight=0 0.453391 0.0323263 2981.09 2482.6 498.493 2347.21 720.205 1627 135.392 249.894 0.421064 110.678 52.6908 248.599 219.25 139.216 29.3496 82.701 0.354347 0.188112 0.166235 0.0198569
internal_count=3616972 251 82 3616721 2918358 698363 2707819 860761 1847058 210539 306172 169 143179 88383 392191 346715 162993 45476 122156 137 56 81 45
cat_boundaries=0 1 2 3 4 5 6 7 8 9 10 11 12 13 14 15
cat_threshold=2 2 2 61440 2 964 11608514 1 2 2 2 8 2 2 1
shrinkage=0.1


Tree=16
num_leaves=23
num_cat=13
split_feature=7 2 3 2 4 1 1 14 2 2 14 5 14 2 15 15 3 9 2 2 5 4
split_gain=82.8968 13778.2 33535.8 451.565 1985.82 6134.07 79.478 72.8527 52.667 40.3149 10.0343 9.9994 9.52069 9.85978 8.78993 6.43607 4.82711 4.8231 7.27925 5.8957 2.43518 7.24664e-07
threshold=0 307.00000000000006 1 307.00000000000006 2 3 4 5 275.00000000000006 5.5000000000000009 6 1.0000000180025095e-35 7 91.500000000000014 8 9 10 11 1.0000000180025095e-35 14.500000000000002 2.5000000000000004 12
decision_type=1 2 1 2 1 1 1 1 2 2 1 2 1 2 1 1 1 1 2 2 2 1
left_child=3 6 -3 12 5 -5 10 8 -8 -9 11 -2 17 14 -14 -12 -15 18 -1 -19 21 -6
right_child=1 2 -4 4 20 -7 7 9 -10 -11 15 -13 13 16 -16 -17 -18 19 -20 -21 -22 -23
leaf_value=0.13392694110241882 0.072739067682363129 -0.10006292005795259 -295.6372309302331 -0.1008130926763289 -0.10060793745924135 53.714950877669381 0.00075726918661918406 -0.0502874949345056 5.3665135739358618 0.0084099943394509904 -0.015560173909273814 0.023687141097063762 0.048564346878094002 -0.037650388234824222 0.01016926462315969 0.019148757382894243 0.041025020235702113 0.035287472740189785 0.044876596482550241 -0.0040733923247604584 0.35004736802514047 -0.10025860562017248
leaf_weight=10.252343889995243 75.200932841413305 0.013204023824072377 0.005413874489022418 0.073641794500872493 0.17031363333808258 0.029731210554018617 747.32572581425484 788.32897386809782 0.018293091736267253 137.40606277728511 62.134065682097571 92.896616065612761 67.004075167802512 51.007122707287635 356.99399470131578 233.62605673314829 9.2059612542403197 207.94085980548701 87.714302747975324 46.578692759474507 0.22167856339365244 0.091171113308518112
leaf_count=8380 107246 20 32 25 58 21 936087 1167197 54 367778 104548 161096 25693 15656 282277 263747 8445 123582 35183 11194 24 53
internal_value=0 -0.13202 -860.389 0.239193 27.9763 153.772 -0.124525 -0.226071 0.00876876 -0.411308 0.241738 0.430691 0.219749 0.119968 0.17622 0.115866 -0.256217 0.343664 0.541958 0.280842 1.06222 -1.00486
internal_weight=0 2136.96 0.0186179 837.284 0.586536 0.103373 2136.94 1673.08 747.344 925.735 463.858 168.098 836.697 484.211 423.998 295.76 60.2131 352.486 97.9666 254.52 0.483163 0.261485
internal_count=3618396 3107805 52 510591 181 46 3107753 2471116 936141 1534975 636637 268342 510410 332071 307970 368295 24101 178339 43563 134776 135 111
cat_boundaries=0 1 2 3 4 5 6 7 8 9 10 11 12 13
cat_threshold=2 1 2 2 2 20579521 8405594 13895050 28 640 2 2 8
shrinkage=0.1


Tree=17
num_leaves=30
num_cat=16
split_feature=3 14 2 9 2 5 2 2 1 15 8 15 14 5 2 10 4 7 1 5 8 5 5 0 1 5 5 4 5
split_gain=69.5759 40.5592 268.516 818.551 237.681 1809.7 33.0152 27.7694 20.7556 18.9628 13.9324 16.5248 12.4052 8.72083 18.7737 11.7635 7.74402 7.34913 5.72446 6.5951 5.27567 11.3066 4.96232 4.65456 12.1848 4.86899 3.82091 3.4576 4.59931e-06
threshold=0 1 307.00000000000006 2 307.00000000000006 1.0000000180025095e-35 1.5000000000000002 2.5000000000000004 3 4 5 6 7 1.5000000000000002 4.5000000000000009 8 9 10 11 10.500000000000002 12 4.5000000000000009 1.0000000180025095e-35 13 14 7.5000000000000009 1.0000000180025095e-35 15 1.5000000000000002
decision_type=1 1 2 1 2 2 2 2 1 1 1 1 1 2 2 1 1 1 1 2 1 2 2 1 1 2 2 1 2
left_child=1 2 10 28 7 -6 17 8 -3 -9 16 -12 13 15 -15 -8 -1 23 19 -19 21 -14 -22 24 -2 -25 -20 -7 -4
right_child=6 4 3 -5 5 27 12 9 -10 -11 11 -13 20 14 -16 -17 -18 18 26 -21 22 -23 -24 25 -26 -27 -28 -29 -30
leaf_value=0.11208736024000657 0.8383099695423738 0.0095673101447580969 -0.10046220664403707 13.710477890381078 -25.47393635517075 0.78255217945841571 -0.064769924694677697 -0.016846410849833585 -0.040973755088956149 0.032256470796921531 0.028375760403726205 0.0036407162943442721 0.01996487375287806 -0.055496375454343716 0.068975704279896591 -0.75959970319227776 0.033375013561090863 -0.030875820311308096 -0.017731304222524984 0.69523935787102298 0.051338387089367235 0.20746937881593397 -0.0083335900515403259 -0.041202960176024206 0.044332238160840871 0.13276507642082358 -0.082256809393844901 -0.10130337641473441 -0.10158983998211941
leaf_weight=13.650848591256363 0.2131168894120492 104.88338410177857 0.053387042251415551 0.057922243839128806 0.031528746712864542 0.1131348857888952 53.814373209490441 141.31498635805292 360.6660594072946 156.84153956188129 339.74715711159683 1230.3871970848393 18.31877083363057 33.688395266746923 18.924020272569805 0.24476549079463336 148.15190544235884 24.586426848982232 9.7232400902648219 0.12572612270014261 16.13085983591759 3.9007452119924428 102.43111181517796 25.491886989676622 2.0772151310520717 1.7171603831084201 163.37256087936112 0.072702478617429733 0.11216337105724961
leaf_count=11471 227 192612 25 22 20 22 64641 214115 445492 193126 367043 1361044 23047 51746 26855 105 136458 26961 18140 108 11897 4514 123648 40401 3415 1846 297927 21 21
internal_value=0 0.040177 0.124514 34.7865 -0.15071 -33.2155 -0.377464 -0.143272 -0.295874 0.095004 0.12076 0.0919682 -0.12472 -0.36305 -0.107253 -0.679159 0.400158 -0.652607 -0.722045 -0.271816 0.0762382 0.528822 -0.00214964 -0.186993 1.18212 -0.302239 -0.786322 4.36774 -1.01226
internal_weight=0 2496.08 1732.16 0.223473 763.923 0.217366 474.76 763.706 465.549 298.157 1731.94 1570.13 247.453 106.672 52.6124 54.0591 161.803 227.307 197.808 24.7122 140.781 22.2195 118.562 29.4994 2.29033 27.209 173.096 0.185837 0.16555
internal_count=3616970 2921492 1876084 68 1045408 63 695478 1045345 638104 407241 1876016 1728087 306453 143347 78601 64746 147929 389025 343136 27069 163106 27561 135545 45889 3642 42247 316067 43 46
cat_boundaries=0 1 2 3 4 5 6 7 8 9 10 11 12 13 14 15 16
cat_threshold=2 16516822 2 2 900 2 3 11608514 1 4 2 2 2 2 2 1
shrinkage=0.1


Tree=18
num_leaves=22
num_cat=14
split_feature=2 7 4 9 3 14 2 2 15 5 11 1 14 14 7 1 1 0 5 2 5
split_gain=116.101 14306.3 1213.94 622.024 58.3531 33.5283 30.4829 24.0288 28.7259 14.3698 12.3807 11.4314 11.5269 8.21026 6.97563 5.59436 5.05912 4.27631 3.73882 3.05879 2.66997
threshold=307.00000000000006 0 1 2 3 4 1.5000000000000002 1.0000000180025095e-35 5 1.0000000180025095e-35 6 7 8 9 10 11 12 13 5.5000000000000009 4.5000000000000009 3.5000000000000004
decision_type=2 1 1 1 1 1 2 2 1 2 1 1 1 1 1 1 1 1 2 2 2
left_child=4 2 -2 20 5 9 14 8 -7 16 -9 13 -13 -8 18 -16 -1 -5 -6 -11 -4
right_child=1 -3 3 17 6 7 11 10 -10 19 -12 12 -14 -15 15 -17 -18 -19 -20 -21 -22
leaf_value=-0.01693943961867133 19.136213060175049 -180.17716592678016 0.35162225321420515 -9.1998395496276135 -0.031882149643190805 0.0083057112193740904 0.064008194362700277 -0.020098282986297962 -0.031911462742102943 -0.084690489351642834 0.015021454937205629 -0.05168453092661094 -0.0017324298284465967 -0.010755065794604847 -0.025131582161358326 -0.076874530177980183 0.11097631473902908 -10.779879569740556 0.071366939615252742 -0.0056552881736958386 -0.1024592334076142
leaf_weight=45.739489577732456 0.031197264528973447 0.0044425472732702014 0.22089525655627201 0.043928597631747841 24.939120818713352 406.81798185116895 21.077815022401921 107.23717691034835 302.55267640675356 65.26799126435526 1569.5122639184874 68.554004778126966 125.67545237781732 28.703990339042889 24.035180271719582 159.94758383960271 3.3160737136786329 0.028077151349862103 4.0811469516484058 5.2939365037145754 0.31293863384053111
leaf_count=73982 33 44 70 21 39279 510987 40073 129589 349253 94617 1796130 82894 140076 44534 26371 304185 3958 22 5189 14279 24
internal_value=0 -13.4789 -1.00777 -10.9137 -0.0242382 0.0356969 -0.352853 0.0622216 -0.0918003 -0.460147 0.127754 -0.111556 -0.221134 0.315973 -0.629277 -0.701149 -0.0829255 -98.1594 -0.173621 -0.787608 0.854353
internal_weight=0 0.641479 0.637037 0.60584 2962.75 2505.74 457.014 2386.12 709.371 119.617 1676.75 244.011 194.229 49.7818 213.003 183.983 49.0556 0.0720057 29.0203 70.5619 0.533834
internal_count=3655610 214 170 137 3655396 2972795 682601 2785959 860240 186836 1925719 307577 222970 84607 375024 330556 77940 43 44468 108896 94
cat_boundaries=0 1 2 3 4 5 6 7 8 9 10 11 12 13 14
cat_threshold=2 2 2 2 61440 449 2 2 2163522 2904674 2 2 1 2
shrinkage=0.1


Tree=19
num_leaves=22
num_cat=15
split_feature=2 1 0 4 7 1 14 5 15 2 15 5 15 2 14 14 14 3 5 14 9
split_gain=89.1323 849.9 217.755 17464.7 49.7108 56.6465 53.2204 49.4678 45.6289 32.5934 9.21396 15.1308 7.47301 11.6419 8.24192 7.47478 6.95508 5.08555 4.49578 1.25856 0.00447068
threshold=307.00000000000006 0 1 2 3 4 5 1.5000000000000002 6 5.5000000000000009 7 1.5000000000000002 8 10.500000000000002 9 10 11 12 7.5000000000000009 13 14
decision_type=2 1 1 1 1 1 1 2 1 2 1 2 1 2 1 1 1 1 2 1 1
left_child=4 -2 3 20 12 10 8 -4 -7 -8 11 -6 17 15 -15 -14 -12 18 -1 -19 -3
right_child=1 2 7 -5 5 6 9 -9 -10 -11 16 -13 13 14 -16 -17 -18 19 -20 -21 -22
leaf_value=0.06808334810167832 -8.4323472209188051 -0.10179567739008542 -0.11389527642214928 -220.21811863256653 0.2442135081538219 0.034202521238680339 -0.045420919797871745 1.3067882300713172 -0.017231759973636372 0.0075648285921354466 0.030053247226384267 -0.010996400700648813 0.028630038719594915 0.023627825033074968 -0.015842596754822715 0.00095997179564255531 0.0050580997792709602 0.024067980787003826 -0.10090918412885247 -0.02902649828323724 -0.12186540295590996
leaf_weight=60.730789377688779 0.1320749452556868 0.21591697842814023 0.40539456577995314 0.003634421387687103 7.5295232892385116 249.68668873707088 718.06167378417354 0.61981646908179755 503.60241618320288 138.48418874233175 194.35031811999215 3.359649672958767 428.51572100053727 66.258547216440206 164.97843560383183 137.41597842852707 276.65113719816145 0.47715046919461918 1.6161284479785525 5.4664055542088965 0.22840029884467319
leaf_count=9468 38 32 38 22 1622 255647 1141194 30 721794 368196 296265 1833 287022 14999 57813 137296 333775 369 383 2994 26
internal_value=0 -7.47605 -0.586375 -18.9793 -0.0224596 -0.105858 -0.195894 7.45014 0.000414862 -0.36429 0.194923 0.862584 0.179106 0.145273 -0.0419608 0.224342 0.157823 0.482166 0.637028 -0.331067 -1.12112
internal_weight=0 1.60524 1.47316 0.447952 2957.18 2091.73 1609.83 1.02521 753.289 856.546 481.891 10.8892 865.459 797.169 231.237 565.932 471.001 68.2905 62.3469 5.94356 0.444317
internal_count=3630856 186 148 80 3630670 3120326 2486831 68 977441 1509390 633495 3455 510344 497130 72812 424318 630040 13214 9851 3363 58
cat_boundaries=0 1 2 3 4 5 6 7 8 9 10 11 12 13 14 15
cat_threshold=2 1 1 2 2 20579521 3 1 8 14156932 10755930 10502746 2 8417280 2
shrinkage=0.1


Tree=20
num_leaves=22
num_cat=15
split_feature=2 3 4 6 5 3 2 14 2 7 15 14 15 14 14 8 11 5 5 7 4
split_gain=227.891 2939.61 14487.7 472.63 76.811 46.5025 26.763 25.7378 37.338 30.9856 23.8948 53.4266 20.7998 19.2263 9.73214 6.92127 7.78283 7.06286 6.15885 4.6205 2.67316
threshold=307.00000000000006 0 1 2 1.0000000180025095e-35 3 1.5000000000000002 4 1.5000000000000002 5 6 7 8 9 10 11 12 1.0000000180025095e-35 1.5000000000000002 13 14
decision_type=2 1 1 1 2 1 2 1 2 1 1 1 1 1 1 1 1 2 2 1 1
left_child=5 4 -3 -4 -2 7 15 10 9 -9 11 -1 -10 -12 18 16 -7 -17 -8 -16 -6
right_child=1 2 3 -5 20 6 14 8 12 -11 13 -13 -14 -15 19 17 -18 -19 -20 -21 -22
leaf_value=0.10232909517029676 1.5389457631194872 -107.41955791096343 -2.6369521716785562 -16.257875768322236 -0.22770074524267164 -0.014951125819535716 -0.069658378008228869 0.019893739547501531 -0.011800221778675308 -0.03550812507434286 -0.0064110342281145875 -0.0028637357724781648 0.023457386322807472 0.020898150181543489 -0.0080576460122917803 0.014610406940821417 0.25994690973461737 -0.070018397782218647 -0.013683781851443592 0.026722943272409757 0.060370539760876675
leaf_weight=82.385531890613493 0.36599436192794482 0.014908818997597106 0.1526500548502554 0.030577511779938504 0.7280219839885832 14.102797814681253 38.18105091500729 126.64594653548829 271.94035364018146 497.5712001871002 509.04245281045587 108.92838618230599 410.36292056815819 507.85997276497346 99.969176037848229 10.468738075756532 1.1110346792557582 170.02059850986086 40.516334005837436 61.812924872182464 0.57776941472138765
leaf_count=105216 23 26 29 27 20 23269 49970 114369 332931 805117 687799 18464 584750 284015 133845 21606 1836 329027 63409 62583 44
internal_value=0 -11.0636 -126.234 -49.1005 2.58618 -0.0204961 -0.321916 0.0317853 -0.0654354 -0.242678 0.136329 0.452683 0.0957588 0.0729837 -0.0984591 -0.596498 0.0512411 -0.651098 -0.362361 0.0492663 -1.00239
internal_weight=0 1.86992 0.198136 0.183228 1.67179 2950.92 436.183 2514.74 1306.52 624.217 1208.22 191.314 682.303 1016.9 240.479 195.703 15.2138 180.489 78.6974 161.782 1.30579
internal_count=3618375 169 82 56 87 3618206 685545 2932661 1837167 919486 1095494 123680 917681 971814 309807 375738 25105 350633 113379 196428 64
cat_boundaries=0 1 2 3 4 5 6 7 8 9 10 11 12 13 14 15
cat_threshold=2 1 2 2 13632710 2 1 8388674 896 8388674 2171330 2 1 1 8
shrinkage=0.1


Tree=21
num_leaves=30
num_cat=17
split_feature=3 14 2 2 2 1 15 5 14 2 5 1 14 4 14 8 5 5 0 5 11 6 5 1 7 6 2 5 1
split_gain=41.2886 23.0834 22.7952 17.6865 15.9604 22.5952 27.6651 13.7513 11.945 11.509 10.6593 8.63588 9.35246 7.53336 7.23459 6.36865 6.56731 6.8598 4.66941 4.66859 4.59186 9.95151 6.70681 3.33144 4.71444 4.08143 2.74427 2.59315 2.22215
threshold=0 1 1.5000000000000002 307.00000000000006 1.0000000180025095e-35 2 3 1.0000000180025095e-35 4 207.50000000000003 1.0000000180025095e-35 5 6 7 8 9 9.5000000000000018 1.0000000180025095e-35 10 13.500000000000002 11 12 3.5000000000000004 13 14 15 4.5000000000000009 3.5000000000000004 16
decision_type=1 1 2 2 2 1 1 2 1 2 2 1 1 1 1 1 2 2 1 2 1 1 2 1 1 1 2 2 1
left_child=1 7 15 11 5 8 -7 23 -3 10 -6 12 -4 -11 -13 20 17 -17 -5 -18 22 -22 -2 24 -1 -25 28 -28 -9
right_child=2 4 3 18 9 6 -8 26 -10 13 -12 14 -14 -15 -16 16 19 -19 -20 -21 21 -23 -24 25 -26 -27 27 -29 -30
leaf_value=-0.016359914956339587 -0.058832163924937869 0.05809625700359336 -0.047459001247995097 -0.45559263376103259 0.020167581854105374 0.005228056514136826 -0.039352999785311621 0.041913788636286156 0.001147418603439216 -0.46256172523082784 0.0040698065693929811 0.059344215463064801 -0.0013180868374720045 -0.0814394816424035 -0.009538549586634075 0.012824663878233271 0.24750814566556611 -0.070159076534293194 -1.3279084968089503 -0.10022809282387557 0.5624584964545648 -0.0014307181236219715 0.093183508858119379 0.14549024210447078 0.20535938143342905 -0.10009493433700623 0.044470645043917928 -0.10014799490844695 -0.085295673550139145
leaf_weight=41.839625788656122 9.7109205342894693 56.386967626953265 62.25185591200281 0.51662414145539515 690.53760486025544 278.47477153832733 270.12252320287371 1.408781596343033 94.58589672978087 0.5551809315621874 1017.336275821146 20.108631565077701 125.09913767231785 7.8782504907541 31.517024467069206 10.634390207625925 1.1506771327840386 157.43714386614374 0.069635339081286399 0.58104665360588093 0.45278659923496889 1.0135207609273482 4.1394155889029216 2.8497223605518229 0.98150765092577685 0.88746128161437743 3.4588485505955751 1.9326778068207202 54.369482885878824
leaf_count=65058 16682 104453 82337 36 796818 310239 310970 3385 133986 141 1099116 35982 141686 1453 48752 21654 1980 322804 27 675 789 1852 6382 2749 684 1209 9279 5014 90600
internal_value=0 0.0271613 -0.30986 -0.1062 0.0479405 -0.0791723 -0.173451 -0.405623 0.263414 0.100031 0.105786 -0.0927418 -0.19253 -1.06529 0.269393 -0.573416 -0.629122 -0.649084 -5.59205 1.30832 0.0441575 1.72695 -0.133996 -0.0337543 -0.112779 0.871716 -0.754976 -0.0737019 -0.820828
internal_weight=0 2523.61 424.683 239.563 2415.88 699.57 548.597 107.728 150.973 1716.31 1707.87 238.977 187.351 8.43343 51.6257 185.12 169.803 168.072 0.586259 1.73172 15.3166 1.46631 13.8503 46.5583 42.8211 3.73718 61.1698 5.39153 55.7783
internal_count=3616792 2935154 681638 308820 2757176 859648 621209 177978 238439 1897528 1895934 308757 224023 1594 84734 372818 347113 344458 63 2655 25705 2641 23064 69700 65742 3958 108278 14293 93985
cat_boundaries=0 1 2 3 4 5 6 7 8 9 10 11 12 13 14 15 16 17
cat_threshold=2 61440 2 705 264522 1 2163522 2 283234 2 2 1 2 1 1 2 2
shrinkage=0.1


Tree=22
num_leaves=23
num_cat=16
split_feature=3 2 0 2 14 2 2 7 15 1 2 15 14 14 9 14 0 14 9 1 5 14
split_gain=39.4959 138.118 289.713 22.8088 20.964 48.8184 28.8617 31.9649 30.4422 28.6378 20.8101 16.4548 21.3258 17.5828 15.8771 13.1467 13.7795 9.60761 9.5183 6.75931 6.73306 4.08711
threshold=0 307.00000000000006 1 3.5000000000000004 2 307.00000000000006 2.5000000000000004 3 4 5 307.00000000000006 6 7 8 9 10 11 12 13 14 4.5000000000000009 15
decision_type=1 2 1 2 1 2 2 1 1 1 2 1 1 1 1 1 1 1 1 1 2 1
left_child=4 3 -3 15 5 11 7 9 10 -6 -8 12 -1 -13 -10 16 -2 20 -19 -17 -5 -9
right_child=1 2 -4 17 6 -7 8 21 14 -11 -12 13 -14 -15 -16 19 -18 18 -20 -21 -22 -23
leaf_value=0.058258309115369139 0.34887862776741113 -0.32857956940133448 -4.8747338295700704 0.018119202219622415 -0.044690724280554719 0.78550002495490601 -0.019682426956913936 0.039811069164393503 -0.0086842712151897605 0.0095615210176780638 -0.96276400530819373 0.017642653506281528 0.0091045117608305002 -0.009521471654409296 0.043062636690896362 -0.015153288030668181 0.017421787920301336 -0.035582599835719951 0.093913904327331599 -0.06203234846255732 0.11870574236752336 0.0053613872214732091
leaf_weight=140.8986126930904 1.3362826113880146 0.63606738851053279 0.17980371415614271 73.954552943424247 408.5192753461522 0.8143318605143568 193.90918720763329 51.458482900634408 78.481274566795037 127.71652819449082 0.23426117995768336 450.83943846352122 244.95073810786653 484.93163193303644 242.51025364259112 36.522891514941868 20.427184613705325 70.678597473148358 6.1716410284876693 194.82641704557901 7.3128068604048471 105.66814778555022
leaf_count=155979 1789 30 31 86226 620981 25 245878 40808 39365 257229 22 252049 143442 657544 432149 57538 33662 85942 3514 396442 8211 97226
internal_value=0 -0.306511 -13.3047 -0.280722 0.0273431 0.113851 -0.0677027 -0.201467 0.111028 -0.317693 -0.198005 0.109943 0.28072 0.0361393 0.294919 -0.466863 0.258813 0.0172495 -0.222835 -0.52368 0.241934 0.195185
internal_weight=0 412.046 0.815871 411.23 2530.93 1322.43 1208.5 693.362 515.135 536.236 194.143 1321.62 385.849 935.771 320.992 253.113 21.7635 158.118 76.8502 231.349 81.2674 157.127
internal_count=3616082 673385 61 673324 2942697 1209039 1733658 1016244 717414 878210 245900 1209014 299421 909593 471514 489431 35451 183893 89456 453980 94437 138034
cat_boundaries=0 1 2 3 4 5 6 7 8 9 10 11 12 13 14 15 16
cat_threshold=2 2 13637318 1 896 1 129 8388672 5244036 2 17187840 2 8665788 1 2 2375696
shrinkage=0.1


Tree=23
num_leaves=32
num_cat=20
split_feature=3 2 14 6 15 14 2 15 5 14 7 14 5 2 10 1 2 2 4 15 5 0 4 8 2 5 1 7 6 1 2
split_gain=28.4757 19.6019 17.7456 14.2018 19.9128 39.3652 19.4082 18.9223 12.8518 11.7227 6.63646 6.04915 5.86707 10.0308 8.12824 5.22263 5.09704 8.99222 4.69736 4.12419 3.69435 3.29169 8.48251 3.04513 2.43294 2.2175 2.20501 2.90538 2.79711 2.01283 1.01526
threshold=0 1.5000000000000002 1 2 3 4 307.00000000000006 5 1.0000000180025095e-35 6 7 8 1.5000000000000002 4.5000000000000009 9 10 268.00000000000006 256.50000000000006 11 12 1.0000000180025095e-35 13 14 15 4.5000000000000009 3.5000000000000004 16 17 18 19 307.00000000000006
decision_type=1 2 1 1 1 1 2 1 2 1 1 1 2 2 1 1 2 2 1 1 2 1 1 1 2 2 1 1 1 1 2
left_child=2 10 8 4 5 -4 7 -5 26 -6 21 12 14 -14 -3 20 17 -13 -8 -17 -12 22 -2 -23 29 -26 27 -1 -28 -10 -18
right_child=1 11 3 6 9 -7 18 -9 24 -11 15 16 13 -15 -16 19 30 -19 -20 -21 -22 23 -24 -25 25 -27 28 -29 -30 -31 -32
leaf_value=-0.012919967310101244 0.4539037162321915 -0.06056395065591115 0.097834615618744 -0.029342813176650939 0.016981622041090598 0.0056547034912608641 -0.13845167129957045 0.0025765898271518858 0.03476962132614736 -0.0043887596876715602 -0.0055753357426882172 0.0048154107381873923 -0.046077499457441343 0.06126131724988091 -0.62300364225764759 0.040523415499900267 -0.10157189687341468 0.99956716946521584 -0.58805108145347362 -0.029822320415620593 -0.074067993229389353 0.048384062560252974 0.0051764369930193347 -0.037535391186686327 0.034070259094259855 -0.10013729290965599 0.10806364845011983 0.14291485135845616 -0.10008539545632285 -0.083487573445332267 -0.26071846212089222
leaf_weight=40.187030168330239 0.54145440238062292 32.907404916611718 66.781013362080557 217.92581689937651 471.47732346368684 133.535359646041 0.35120512279195171 999.39603302428873 1.4833962684788276 546.08995504854909 8.4716878283619348 161.46181243211359 24.099765147443456 13.629808293412337 0.25896965308675035 2.8088200110869508 0.89525779031100572 0.090924771240678562 0.68685010820627213 18.493389368049979 111.80797486023948 5.388073793015792 1.8978819550247865 17.596354717097732 3.7268138765939502 1.8384908983716739 3.3615177952451631 1.2331033017835569 0.79905726871220284 48.421792694478427 0.72585464315488923
leaf_count=72708 884 48310 90986 254115 454290 118225 24 1119216 3385 741156 17902 193083 42794 19232 42 3775 365 74 25 20021 284881 8414 2758 27921 10934 4122 2749 684 1209 90585 46
internal_value=0 -0.265414 0.0213283 0.0389148 0.11544 0.39576 -0.0372609 -0.0335752 -0.369908 0.0558184 -0.527138 -0.0786776 -0.300363 -0.0730135 -0.649556 -0.611611 0.0339667 0.0537527 -4.35938 -0.155234 -0.692438 -0.0567173 1.04779 -0.173939 -0.729788 -0.10265 -0.0130982 -0.0828067 0.680877 -0.799725 -1.7283
internal_weight=0 401.075 2537.29 2436.24 1217.88 200.316 1218.36 1217.32 101.051 1017.57 167.006 234.07 70.8959 37.7296 33.1664 141.582 163.174 161.553 1.03806 21.3022 120.28 25.4238 2.43934 22.9844 55.4705 5.5653 45.5807 41.4201 4.16058 49.9052 1.62111
internal_count=3634915 670502 2964413 2778037 1404657 209211 1373380 1373331 186376 1195446 366556 303946 110378 62026 48352 326579 193568 193157 49 23796 302783 39977 3642 36335 109026 15056 77350 73392 3958 93970 411
cat_boundaries=0 1 2 3 4 5 6 7 8 9 10 11 12 13 14 15 16 17 18 19 20
cat_threshold=2 61440 2 3 8913000 526 11011732 2 2171330 1 1 1 29 2 4 2 1 1 2 2
shrinkage=0.1


Tree=24
num_leaves=29
num_cat=16
split_feature=7 1 5 2 14 14 10 15 2 15 14 15 5 4 2 2 4 11 2 4 15 14 2 5 2 5 8 5
split_gain=26.894 35.4024 32.6727 50.3909 41.7682 34.2524 17.116 16.8357 14.4937 13.4945 7.57132 9.49972 12.5742 6.8015 5.57092 6.27204 63.0162 4.98055 34.6337 4.70695 4.60926 4.13676 9.67894 3.93955 3.16238 2.20831 1.13967 0.535919
threshold=0 1 1.0000000180025095e-35 8.5000000000000018 2 3 4 5 303.50000000000006 6 7 8 6.5000000000000009 9 130.50000000000003 124.50000000000001 10 11 61.500000000000007 12 13 14 156.50000000000003 1.0000000180025095e-35 154.50000000000003 2.5000000000000004 15 1.5000000000000002
decision_type=1 1 2 2 1 1 1 1 2 1 1 1 2 1 2 2 1 1 2 1 1 1 2 2 2 2 1 2
left_child=8 10 3 4 -3 9 -5 -7 14 -4 11 12 -2 -10 15 20 -17 18 -12 -19 -1 22 -16 -13 -23 27 -27 -15
right_child=1 2 5 6 -6 7 -8 -9 13 -11 17 23 -14 25 21 16 -18 19 -20 -21 -22 24 -24 -25 -26 26 -28 -29
leaf_value=0.027262473321973565 0.19302914022149301 0.0120137170960851 0.040739389668970671 0.090920558062051612 -0.039506788371009592 -0.017043780265708294 1.1106325559407328 -0.059789528447414343 -0.44481630529975247 -0.012195931755689121 -0.04596279103715626 0.04243319997013395 1.70250330905631 -0.13522403677960712 -0.012591815885409238 1.1098970376928916 0.01666935521942246 0.045137487036242555 3.475605931731145 0.0061397755792545004 0.0098878193873127972 -0.012653005210938265 0.13575583650387066 0.0060242936474643755 -0.067306166998175931 -0.10645562031550609 0.15379129569252314 -0.25474713022469209
leaf_weight=219.32926597011101 10.546530555729985 414.05376427329611 47.450466449263331 52.720885121438187 241.20605840779172 167.11185112645032 0.16512191915535268 318.05402693060034 0.83237553268270048 291.78896694843922 20.183706800962685 56.131731454923283 0.055476362831542114 1.1724013789062189 17.063811511346788 0.57833044210565276 5.9717665475909589 34.314986109195161 0.027965837041846409 315.61943095702003 606.45357598314581 25.369249439930059 5.9253451870754352 63.157218839936832 18.170168987341754 0.3009856404059974 0.38162317645037536 0.55166090099373821
leaf_count=74382 7711 488633 73310 97446 431481 303697 136 658598 37 422935 26445 69561 92 106 4956 192 1640 37674 21 387908 405291 9771 1740 104293 7930 21 29 36
internal_value=0 -0.0800814 -0.155466 0.00207471 -0.0737094 -0.290791 0.941043 -0.457076 0.127389 -0.038372 0.150965 0.349741 1.03399 -1.98415 0.134998 0.157256 1.13194 0.0698738 -0.410902 0.0996394 0.149524 -0.143461 0.178706 0.213655 -0.288378 -1.13195 0.390395 -1.73469
internal_weight=0 2032.59 1532.55 708.146 655.26 824.405 52.886 485.166 902.101 339.239 500.037 129.891 10.602 3.23905 898.862 832.333 6.5501 370.146 20.2117 349.934 825.783 66.5286 22.9892 119.289 43.5394 2.40667 0.682609 1.72406
internal_count=3616072 3109941 2476236 1017696 920114 1458540 97582 962295 506131 496245 633705 181657 7803 229 505902 481505 1832 452048 26466 425582 479673 24397 6696 173854 17701 192 50 142
cat_boundaries=0 1 2 3 4 5 6 7 8 9 10 11 12 13 14 15 16
cat_threshold=2 2 509638 23758001 1 897 6 8405570 7 2 2 2 4 44 11011098 2
shrinkage=0.1


Tree=25
num_leaves=30
num_cat=22
split_feature=2 1 15 14 7 5 2 4 2 0 9 14 6 7 14 5 14 10 15 15 4 14 5 14 5 7 8 4 6
split_gain=24.3156 25.2464 25.6694 20.7923 21.177 18.5186 176.249 3277.63 54.2566 212.741 529.926 14.1526 17.3481 17.316 13.7189 19.2761 10.7148 10.6863 10.3137 9.93985 8.49877 9.93447 9.11741 6.94011 7.92032 5.2731 5.21324 4.05901 1.01055
threshold=1.0000000180025095e-35 0 1 2 3 1.0000000180025095e-35 307.00000000000006 4 307.00000000000006 5 6 7 8 9 10 1.0000000180025095e-35 11 12 13 14 15 16 1.5000000000000002 17 1.0000000180025095e-35 18 19 20 21
decision_type=2 1 1 1 1 2 2 1 2 1 1 1 1 1 1 2 1 1 1 1 1 1 2 1 2 1 1 1 1
left_child=1 18 14 26 -5 6 16 -8 11 28 -11 13 -13 -7 15 -3 17 -2 20 -18 22 -22 -1 24 -20 -16 -4 -25 -10
right_child=5 2 3 4 -6 8 7 -9 9 10 -12 12 -14 -15 25 -17 19 -19 23 -21 21 -23 -24 27 -26 -27 -28 -29 -30
leaf_value=0.2680337838873158 0.036672224353562093 0.063583250139017916 -0.0012688353895862867 0.0050393175292498382 -0.065142543375600728 0.006060014487000164 24.583845232458184 -0.1401524971281721 -0.071339242103517803 -0.10192088452413357 -9.8257403629294586 0.019882516769566396 -0.0083909601197017618 -0.033999925493124167 0.020558816147265627 -0.035826631023898249 0.026063291686147228 -0.37192751190311013 0.09106144260191272 -0.0017012419964880388 0.078912112688357572 -0.0014323819683620754 0.00035381044229927671 0.16468425775412282 -0.0024062943185340015 -0.026077668402167593 0.12122041999897715 -0.026123678645312249 -0.24019928376581851
leaf_weight=3.5280718853318831 209.0376060442286 64.15339491746272 90.066273142423597 51.363903680600401 263.86858518021472 189.07856869479508 0.057187703167896231 0.8593721420038215 1.1837247075693016 0.17560893093468621 0.082317129006065692 424.91197282174073 443.55426555977783 251.32427811891466 29.834573828868088 28.027315188122884 182.56262975895166 0.6420425344222157 15.173143188803804 393.57058509305352 22.965594805238652 37.557000127402716 1.9902614441962212 1.1328536760120187 22.524866229970939 129.39569713714434 3.6140831862212499 70.257668408821701 0.50586496130563308
leaf_count=3751 313035 81018 89221 58009 485495 132331 22 40 26 39 26 426532 458917 486082 31391 39552 154290 277 28950 409544 39768 39171 2720 1691 39648 188980 2834 102778 26
internal_value=0 -0.15721 -0.246734 -0.396417 -0.520558 0.0445253 0.16581 14.0247 -0.0282678 -5.30255 -32.0528 -0.02042 0.0538037 -0.164279 0.0120111 0.300933 0.149645 0.338087 0.180339 0.0739123 0.457597 0.418565 1.71491 -0.0269832 0.278311 -0.163149 0.0312327 -0.202582 -1.21896
internal_weight=0 835.453 660.324 408.913 315.232 2097.55 786.729 0.91656 1310.82 1.94752 0.257926 1308.87 868.466 440.403 251.411 92.1807 785.813 209.68 175.129 576.133 66.0409 60.5226 5.51833 109.089 37.698 159.23 93.6804 71.3905 1.68959
internal_count=3616164 1234977 976500 635559 543504 2381187 877208 62 1503979 117 65 1503862 885449 618413 340941 120570 877146 313312 258477 563834 85410 78939 6471 173067 68598 220371 92055 104469 52
cat_boundaries=0 1 2 3 4 5 6 7 8 9 10 11 12 13 14 15 16 17 18 19 20 21 22
cat_threshold=2 641 23790721 2 2 2 2 1436046 2 2 584 3425158 1 285 35 4 264298 13372170 2 1 8 2
shrinkage=0.1


Tree=26
num_leaves=23
num_cat=16
split_feature=2 8 6 3 0 4 7 1 14 2 15 14 15 2 2 15 14 14 14 5 6 2
split_gain=325.623 507.009 6991.68 40.3998 3030.81 50.442 20.6609 25.6907 25.7044 15.9268 10.4136 6.082 14.7818 9.51475 5.59301 8.76028 7.56387 5.14882 3.71146 3.44345 2.94548 1.73927
threshold=307.00000000000006 0 1 2 3 4 5 6 7 8.5000000000000018 8 9 10 5.5000000000000009 10.500000000000002 11 12 13 14 2.5000000000000004 15 7.5000000000000009
decision_type=2 1 1 1 1 1 1 1 1 2 1 1 1 2 2 1 1 1 1 2 1 2
left_child=6 2 -2 5 -5 -3 14 11 10 -10 -9 12 -8 -13 17 16 -16 21 -17 -19 -7 -1
right_child=1 3 -4 4 -6 20 7 8 9 -11 -12 13 -14 -15 15 18 -18 19 -20 -21 -22 -23
leaf_value=-0.016560142399961775 -1.2737437973370513 2.4033958268286879 -47.953636164329581 -0.1666346456417995 -77.019784560277031 0.15348820686540987 0.080659936533289303 0.00080547381166737547 -0.011000721711390936 0.023212623097833451 -0.046773621877797877 0.01456805247495881 0.012179251759481743 -0.025849214146089067 0.038207971718153183 0.0015453721097724667 -0.009057239610381386 0.025020311242694465 -0.029094900438201496 0.0094430647918322952 -0.1748873431274508 -0.10024252215304073
leaf_weight=33.514346945933518 0.79480535100447003 0.08689859926198551 0.033436280229714788 0.48100431817408579 0.0051867277361237743 0.38044781028293095 29.748732118910993 64.392761521754437 1009.5151043545627 157.25781885083416 266.12131374333694 178.61701427641674 217.15066702622426 86.429716771439416 72.293519228299886 74.224937264193926 56.762654026843791 357.60461805622151 85.402733021849514 235.2746655387092 0.96861933905165631 2.6825027853155907
leaf_count=37678 30 20 27 21 26 27 28202 115741 1554856 230014 575945 245752 328752 30931 11393 23444 10255 226529 32219 162033 25 2434
internal_value=0 -10.8986 -31.5822 -1.98624 -9.86511 0.6814 -0.0127451 -0.0695274 -0.135647 -0.0633515 -0.377525 0.123853 0.23249 0.0133782 0.111567 -0.00367153 0.18263 0.164451 -0.155964 0.185263 -0.822828 -0.178346
internal_weight=0 2.7504 0.828242 1.92216 0.486191 1.43597 2926.99 2009.23 1497.29 1166.77 330.514 511.946 246.899 265.047 917.76 288.684 129.056 629.076 159.628 592.879 1.34907 36.1968
internal_count=3616354 176 57 119 47 72 3616178 3110193 2476556 1784870 691686 633637 356954 276683 505985 77311 21648 428674 55663 388562 52 40112
cat_boundaries=0 1 2 3 4 5 6 7 8 9 10 11 12 13 14 15 16
cat_threshold=2 2 2 2 2 2 2 8485128 129 14969434 15 44 3148950 532613 14234785 2
shrinkage=0.1


Tree=27
num_leaves=22
num_cat=16
split_feature=2 0 4 2 15 14 14 12 5 14 7 6 14 10 5 15 8 10 4 6 5
split_gain=43.6788 91.7056 4291.24 18.4534 19.2308 30.5553 15.0755 14.8997 11.5472 11.1158 13.3761 11.565 9.37369 47.9388 8.38088 7.63063 5.93376 5.85123 5.20298 0.998118 0.00473302
threshold=307.00000000000006 0 1 1.0000000180025095e-35 2 3 4 5 1.0000000180025095e-35 6 7 8 9 10 11.500000000000002 11 12 13 14 15 1.5000000000000002
decision_type=2 1 1 2 1 1 1 1 2 1 1 1 1 1 2 1 1 1 1 1 2
left_child=3 2 -2 4 6 7 14 -6 12 10 -10 -11 13 -5 -1 -14 -3 -7 -8 -18 -4
right_child=1 16 20 8 5 17 18 -9 9 11 -12 -13 15 -15 -16 -17 19 -19 -20 -21 -22
leaf_value=0.031141434002385799 -73.759629780604641 -0.49753799247082275 -0.12861355493868235 -0.033530141436794419 -0.054033491329947753 0.0024716629751029328 0.1134203267912197 0.10874580475268432 0.0041350557419413568 0.015575567872329072 -0.03263258301867801 -0.0069912019083635856 -0.0024394024824384393 2.4318440546284057 0.5561682548389254 0.021679700641616631 -0.016211579626079914 0.14745739928449295 -0.013453826788837917 -0.17901069170256112 -0.10221726785952615
leaf_weight=125.74219328045729 0.0081234989813765424 0.46770077625471984 0.20397927777942004 52.207379128056346 260.8982509595844 179.37439986077516 3.2764290366421847 5.746990678147994 180.11893304206805 450.1182635700348 219.55491491789499 458.33812273511506 174.55955808808358 0.078991115831057793 0.30477410808089089 570.80722652925783 0.82877224497497104 2.8274087301460886 239.74110841172205 0.6902512633241713 0.1018444964529408
leaf_count=163498 29 23 25 84097 503924 213723 4421 8981 126563 466893 428595 481770 189735 127 483 624687 28 2917 315357 24 23
internal_value=0 -4.37058 -20.2528 -0.011666 -0.139141 -0.274863 0.0324872 -0.486988 0.037847 -0.0199776 -0.156706 0.0414447 0.132678 -0.250203 0.300286 0.160737 -1.86084 0.044759 -0.112791 -0.901882 -1.19823
internal_weight=0 2.30067 0.313947 2923.69 817.912 448.847 369.065 266.645 2105.78 1308.13 399.674 908.456 797.653 52.2864 126.047 745.367 1.98672 182.202 243.018 1.51902 0.305824
internal_count=3615923 152 77 3615771 1213304 729545 483759 512905 2402467 1503821 555158 948663 898646 84224 163981 814422 75 216640 319778 52 48
cat_boundaries=0 1 2 3 4 5 6 7 8 9 10 11 12 13 14 15 16
cat_threshold=1 2 385 1078140 588 1 1435918 2 2 25767936 1 772 2 1 8 2
shrinkage=0.1


Tree=28
num_leaves=32
num_cat=24
split_feature=3 2 14 12 14 14 10 4 15 2 4 15 6 15 14 14 8 4 2 14 9 5 15 10 2 0 5 5 15 0 9
split_gain=16.8549 15.2105 11.9132 10.2701 16.6719 14.9712 12.9972 14.8585 11.4742 24.0643 10.0966 9.58662 11.8443 8.7414 14.4866 11.4818 8.04981 21.1645 8.02354 7.04635 6.59658 6.42188 6.39111 10.5634 5.45663 5.29943 7.54902 4.15382 3.95449 3.89798 1.4451
threshold=0 3.5000000000000004 1 2 3 4 5 6 7 6.5000000000000009 8 9 10 11 12 13 14 15 9.5000000000000018 16 17 1.5000000000000002 18 19 82.500000000000014 20 1.0000000180025095e-35 5.5000000000000009 21 22 23
decision_type=1 2 1 1 1 1 1 1 1 2 1 1 1 1 1 1 1 1 2 1 1 2 1 1 2 1 2 2 1 1 1
left_child=3 2 16 4 6 13 7 -1 24 -10 -8 12 -6 14 -5 -15 17 -2 -13 22 28 -22 30 -24 -7 27 -27 -4 -21 -18 -3
right_child=1 19 25 5 11 8 10 -9 9 -11 -12 18 -14 15 -16 -17 29 -19 -20 20 21 -23 23 -25 -26 26 -28 -29 -30 -31 -32
leaf_value=0.95220081993424843 2.5589988757389825 0.029491597102089141 -0.056807113224654864 0.041935825570578948 0.092067769702659147 -0.00026123028117647272 0.27130758494314294 -0.1001489053965141 -0.04024662908918844 0.040510741745797968 0.082973787099069551 -0.041114302111134746 -0.0071090468180496375 -0.013433040459040086 0.0022709049513348544 0.0090690389063382976 0.14417689937241182 0.16683174073722254 0.037351945284158659 0.0059798321488453623 -0.03629552943101793 0.15669285816599726 0.035044062028255309 0.36661635741353216 -0.036498527682519238 0.35209694650164231 0.00094679666104979668 -6.5511242883475597e-05 -0.044925500670941365 0.000988591399090023 -0.056012285441612443
leaf_weight=0.38009611745656002 0.037604086683131761 2.3137553528649732 164.3286203456905 158.92656900485599 24.78496370967332 684.05247953167509 3.229748663288774 0.207369688039762 229.13337627477085 43.981021040352061 23.991739730889904 49.132068448154314 23.420522095359047 322.35370318868809 217.77215558107855 705.2075979170254 2.0468044254666893 2.2465568818079196 17.735901173742604 25.810218471080574 3.0964747550460734 3.8908187364207549 66.361870465168622 0.9749433398788474 44.241518953524064 0.66350266070369723 7.9204257235287514 14.000862916447657 40.506252573639358 26.722680736646005 13.566192325451992
leaf_count=477 32 1981 384768 210230 28213 932008 3220 250 393966 66769 23876 71222 23763 427366 142357 586778 3131 2413 12759 35959 1071 2686 75868 691 22539 1175 16192 28019 49899 51042 15785
internal_value=0 -0.210114 -0.380897 0.0170897 0.277567 0.00161893 0.848503 5.80732 -0.0912944 -0.262796 1.05319 0.0605915 0.363436 0.068043 0.19657 0.0194854 0.193051 2.06214 -0.176609 0.0277138 -0.186979 0.711685 0.213629 0.346927 -0.0242918 -0.46187 0.280893 -0.523523 -0.30986 0.111757 -0.267248
internal_weight=0 374.488 217.967 2548.55 142.882 2405.67 27.809 0.587466 1001.41 273.114 27.2215 115.073 48.2055 1404.26 376.699 1027.56 31.0536 2.28416 66.868 156.521 73.3038 6.98729 83.2168 67.3368 728.294 186.913 8.58393 178.329 66.3165 28.7695 15.8799
internal_count=3616505 670712 486772 2945793 163780 2782013 27823 727 1415282 460735 27096 135957 51976 1366731 352587 1014144 56618 2445 83981 183940 89615 3757 94325 76559 954547 430154 17367 412787 85858 54173 17766
cat_boundaries=0 1 2 3 4 5 6 7 8 9 10 11 12 13 14 15 16 17 18 19 20 21 22 23 24
cat_threshold=2 17745409 2 864 15992006 2 1 496 4 675 2 17 9699396 262212 2 8 8665788 1 774 1 1 71 2 2
shrinkage=0.1


end of trees

feature importances:
adm_past_year=159
an100mdc_ra=99
count_proc=85
agegroup_rm=63
cc_Diabetes=56
cc_Diabetes_complications=53
flag_emergency=50
pat_remoteness=41
gender=22
indstat_flag=17
malnutrition=17
cc_Renal_disease=15
cc_Ischaemic_heart_disease=12
cc_Hypertension=10
low_los_flag=5
flag_AdmTransfer=4

parameters:
[boosting: goss]
[objective: cross_entropy]
[metric: cross_entropy]
[tree_learner: serial]
[device_type: cpu]
[data: ]
[valid: ]
[num_iterations: 100]
[learning_rate: 0.1]
[num_leaves: 32]
[num_threads: 4]
[max_depth: 5]
[min_data_in_leaf: 20]
[min_sum_hessian_in_leaf: 0.001]
[bagging_fraction: 1]
[pos_bagging_fraction: 1]
[neg_bagging_fraction: 1]
[bagging_freq: 0]
[bagging_seed: 3]
[feature_fraction: 1]
[feature_fraction_bynode: 1]
[feature_fraction_seed: 2]
[early_stopping_round: 0]
[first_metric_only: 0]
[max_delta_step: 0]
[lambda_l1: 0]
[lambda_l2: 0]
[min_gain_to_split: 0]
[drop_rate: 0.1]
[max_drop: 50]
[skip_drop: 0.5]
[xgboost_dart_mode: 0]
[uniform_drop: 0]
[drop_seed: 4]
[top_rate: 0.2]
[other_rate: 0.1]
[min_data_per_group: 100]
[max_cat_threshold: 32]
[cat_l2: 10]
[cat_smooth: 10]
[max_cat_to_onehot: 4]
[top_k: 20]
[monotone_constraints: ]
[feature_contri: ]
[forcedsplits_filename: ]
[forcedbins_filename: ]
[refit_decay_rate: 0.9]
[cegb_tradeoff: 1]
[cegb_penalty_split: 0]
[cegb_penalty_feature_lazy: ]
[cegb_penalty_feature_coupled: ]
[verbosity: 1]
[max_bin: 255]
[max_bin_by_feature: ]
[min_data_in_bin: 3]
[bin_construct_sample_cnt: 200000]
[histogram_pool_size: -1]
[data_random_seed: 1]
[output_model: LightGBM_model.txt]
[snapshot_freq: -1]
[input_model: ]
[output_result: LightGBM_predict_result.txt]
[initscore_filename: ]
[valid_data_initscores: ]
[pre_partition: 0]
[enable_bundle: 1]
[max_conflict_rate: 0]
[is_enable_sparse: 1]
[sparse_threshold: 0.8]
[use_missing: 1]
[zero_as_missing: 0]
[two_round: 0]
[save_binary: 0]
[header: 0]
[label_column: ]
[weight_column: ]
[group_column: ]
[ignore_column: ]
[categorical_feature: ]
[predict_raw_score: 0]
[predict_leaf_index: 0]
[predict_contrib: 0]
[num_iteration_predict: -1]
[pred_early_stop: 0]
[pred_early_stop_freq: 10]
[pred_early_stop_margin: 10]
[convert_model_language: ]
[convert_model: gbdt_prediction.cpp]
[num_class: 1]
[is_unbalance: 0]
[scale_pos_weight: 1]
[sigmoid: 1]
[boost_from_average: 1]
[reg_sqrt: 0]
[alpha: 0.9]
[fair_c: 1]
[poisson_max_delta_step: 0.7]
[tweedie_variance_power: 1.5]
[max_position: 20]
[lambdamart_norm: 1]
[label_gain: ]
[metric_freq: 1]
[is_provide_training_metric: 0]
[eval_at: ]
[multi_error_top_k: 1]
[num_machines: 1]
[local_listen_port: 12400]
[time_out: 120]
[machine_list_filename: ]
[machines: ]
[gpu_platform_id: -1]
[gpu_device_id: -1]
[gpu_use_dp: 0]

end of parameters

pandas_categorical:[[0.0, 1.0], [0.0, 1.0], [0.0, 1.0], [0.0, 1.0, 2.0, 3.0], ["1", "2"], [0.0, 1.0], [0.0, 1.0], [0.0, 1.0], [0.0, 1.0], [0.0, 1.0], [0.0, 1.0], [0.0, 1.0], ["00", "01", "02", "03", "04", "05", "06", "07", "08", "09", "10", "11", "12", "13", "14", "15", "16", "17", "18", "19", "20", "21", "22", "23", "99"], [0.0, 1.0, 2.0, 3.0, 4.0, 5.0, 6.0, 7.0, 8.0, 9.0]]
