tree
version=v3
num_class=1
num_tree_per_iteration=1
label_index=0
max_feature_idx=10
objective=cross_entropy
feature_names=adm_past_year agegroup_rm an110mdc_ra count_proc flag_emergency indstat_flag pacemaker pat_remoteness cc_copd cc_spina_bifida cc_tetplg_prplg_dplg_hmplg_dt
feature_infos=[0:238] 7:6:3:5:2:4:8:0:1:9 6:5:8:14:1:4:11:3:21:9:23:2:13:10:7:18:12:19:20:16:22:15:0:17:24 [0:36] 1:0 1:0 1:0 1:0:2:3 1:0 1:0 1:0
tree_sizes=3225 3212 3401 3346 3331 3296 3290 3318 3394 2986 2681 3392 2982 3281 2893 3014 2681 2857 2607 3257 3300 3273 3109 3180 3338 3097 3094 3224 3175 3346 3190 3087 3076 3015 3271 3187 2997 3326 2384 3359 2890 3248 3110 3107 3456 3115

Tree=0
num_leaves=30
num_cat=9
split_feature=10 7 0 3 0 2 9 3 0 3 0 0 5 0 3 3 3 4 3 8 0 3 9 0 0 0 3 0 1
split_gain=1401.82 806.737 1281.78 2823.77 535.378 471.757 1248.38 2015.32 3161.2 815.577 627.064 461.546 811.875 780.376 476.02 429.945 375.063 310.077 159.961 175.852 112.513 96.2939 61.2339 99.6292 451.866 50.3617 42.7095 23.6071 18.4652
threshold=0 1 4.5000000000000009 4.5000000000000009 5.5000000000000009 2 3 1.0000000180025095e-35 1.5000000000000002 6.5000000000000009 1.5000000000000002 3.5000000000000004 4 6.5000000000000009 1.0000000180025095e-35 9.5000000000000018 4.5000000000000009 5 3.5000000000000004 6 1.0000000180025095e-35 17.500000000000004 7 9.5000000000000018 10.500000000000002 2.5000000000000004 5.5000000000000009 1.5000000000000002 8
decision_type=1 1 2 2 2 1 1 2 2 2 2 2 1 2 2 2 2 1 2 1 2 2 1 2 2 2 2 2 1
left_child=5 2 15 4 -4 6 10 8 -8 -9 16 18 13 -13 -14 20 -1 -12 19 -3 -2 -20 25 27 -25 28 -27 -24 -7
right_child=1 11 3 -5 -6 22 7 9 -10 -11 17 12 14 -15 -16 -17 -18 -19 21 -21 -22 -23 23 24 -26 26 -28 -29 -30
leaf_value=-10.308258094706831 -10.615577346389289 -2.1696632583651763 60.321979921726083 147.47383599401076 -10.615577346389271 -10.504406432018367 -10.615577346389294 -10.615577346389284 202.19709445795652 81.603247102140941 -7.8696661262033576 -3.8596195113263549 1.8765711033503614 30.279688484478886 -8.2914654207705212 46.134468468111052 -7.4061054978296106 -10.222166313866495 -9.9074444108301343 -8.4005728169078981 -0.43502634930239381 0.46175892371356042 -7.9299180977947472 47.936057224125875 -10.615577346389278 -10.49817965128269 -10.0620493753704 -10.615577346389292 -10.593829105374077
leaf_weight=9.436440949531967 0.017187380057293922 0.047360178170492873 0.001409690477885305 0.0018976602586917577 0.0043375091627240172 30.478456962009659 0.0013825810456172824 0.0082954862737096829 0.0014096904778853061 0.0010843772906810054 2.1122314150852617 0.014801750017795712 0.056035196495940798 0.012226353952428326 0.2581631234788801 0.0017621130973566317 0.46736661228351367 0.76256122023915052 1.1297313708637373 1.0383725841238631 0.029467952874256294 0.0090274409449192516 0.074469610437516973 0.0017078942328225813 0.0057743090728763491 51.108328275731765 2.3485714455891857 0.058393717103172094 224.50296799885109
leaf_count=348087 634 1747 52 70 160 1124275 51 306 52 40 77915 546 2067 451 9523 65 17240 28129 41673 38303 1087 333 2747 63 213 1885260 86633 2154 8281360
internal_value=0 23.0294 141.698 522.227 172.998 -0.187878 4.2214 327.619 1073.39 105.611 7.21684 20.4365 54.6815 220.991 40.3751 81.6148 3.44271 20.2189 15.1834 23.868 63.3013 6.90331 -0.491518 20.3758 132.65 -0.516948 0.365559 14.053 -0.701966
internal_weight=0 2.62178 0.0560623 0.00764486 0.0057472 321.369 12.7908 0.0121721 0.00279227 0.00937986 12.7786 2.56572 0.341226 0.0270281 0.314198 0.0484174 9.90381 2.87479 2.22449 1.08573 0.0466553 1.13876 308.579 0.140346 0.0074822 308.438 53.4569 0.132863 254.981
internal_count=11951236 96711 2068 282 212 11854525 471820 449 103 346 471371 94643 12587 997 11590 1786 365327 106044 82056 40050 1721 42006 11382705 5177 276 11377528 1971893 4901 9405635
cat_boundaries=0 1 2 3 4 5 6 7 8 9
cat_threshold=1 8 512 1 2 2 2 1 768
shrinkage=1


Tree=1
num_leaves=30
num_cat=12
split_feature=0 9 10 0 0 3 10 5 0 9 3 0 0 3 3 0 3 7 6 3 5 7 2 4 3 3 10 3 3
split_gain=8868.92 3368.33 288489 506540 2.28062e+06 59135.9 3661.32 3845.07 9.45919e+07 1402.81 18856 60605.5 1362.43 4053.92 570.616 560.167 388.679 41559.5 10132.5 314.288 234.9 144.036 124.793 42.2316 46.62 22.2339 20.9349 18.6048 0.965
threshold=3.5000000000000004 0 1 9.5000000000000018 11.500000000000002 1.0000000180025095e-35 2 3 6.5000000000000009 4 6.5000000000000009 1.5000000000000002 2.5000000000000004 1.0000000180025095e-35 8.5000000000000018 1.5000000000000002 9.5000000000000018 5 6 10.500000000000002 7 8 9 10 10.500000000000002 5.5000000000000009 11 17.500000000000004 1.0000000180025095e-35
decision_type=2 1 1 2 2 2 1 1 2 1 2 2 2 2 2 2 2 1 1 2 1 1 1 1 2 2 1 2 2
left_child=9 6 3 5 -5 -3 7 19 -9 16 12 14 15 -14 -12 -11 21 18 -18 -2 -4 26 -23 25 -25 -8 -1 -19 -22
right_child=1 2 20 4 -6 -7 23 8 -10 10 11 -13 13 -15 -16 -17 17 27 -20 -21 28 22 -24 24 -26 -27 -28 -29 -30
leaf_value=-0.16341311356119478 -0.72849094455502661 -362.47267589575353 -3.1720523687421953 -4552.406712538087 -61.557679482600463 -15.779589286043592 0.10884333216147045 -0.31457306083356135 -20700.638682446053 0.12091285209329083 -31.876651567236799 -602.26464050604943 -110.12491483425809 -0.10000823681319736 -53.255684601458611 -4.3296837635706753 -61.497102615134878 0.018708617112590333 -282.27773607546851 -9.1720175840421945 -0.75310718868942805 0.076334795659947205 -0.079777414017655313 -0.076155026611376742 2.2900844809814211 0.45333601335891943 0.0053839885707112813 -0.25693672271539475 -0.10002507015111173
leaf_weight=229.4865001289927 249.98734803654781 0.0066230159609119692 0.46089962869981754 0.0014717813246534195 0.0048814080601005116 0.019133157220494468 32.558009184587206 27.512929730584887 0.0022076720179339247 1.3388197901367664 0.031469681864109478 0.0019928104793507364 0.0045444256684276088 0.012728842018987052 0.020693943588412367 0.35853512629364548 0.092838292848682585 2.526750523451482 0.0021263196140353094 0.044091747142373523 2.9939477741718328 52.398874791426351 403.61357140536711 16.773022916936046 0.083678900882658946 1.9879000794971931 7.5905635387789507 79.208539472941993 0.022797437442932167
leaf_count=1595 11445 294 27 130 202 783 813084 673 552 2965 107 85 125 375 72 781 2300 63789 48 180 26 622650 9542980 594794 1969 37506 244805 6803 91
internal_value=0 -7.42756 -38.2427 -3021.93 -11019.1 -1049.29 -7.09878 -8.53453 -19.7546 -1.2554 -29.3852 -610.346 -11.0356 -290.465 -403.58 -8.19194 -1.19119 -3.25232 -664.405 -7.2998 -10.6941 -0.947844 -0.619146 0.653506 -0.644087 1.28667 -1.58009 -2.48415 -7.48172
internal_weight=0 332.459 3.50975 0.0321094 0.00635319 0.0257562 328.949 277.547 27.5151 776.689 1.76878 0.0541564 1.71463 0.0172733 0.0521636 1.69735 774.92 81.8303 0.0949646 250.031 3.47764 693.09 456.012 51.4026 16.8567 34.5459 237.077 81.7353 3.01675
internal_count=11951236 1461756 1553 1409 332 1077 1460203 12850 1225 10489480 4510 264 4246 500 179 3746 10484970 72940 2348 11625 144 10412030 10165630 1447353 596763 850590 246400 70592 117
cat_boundaries=0 1 2 3 4 5 6 7 8 9 10 11 12
cat_threshold=1 1 2 1 1 8 1 2 8 1536 2 2
shrinkage=0.1


Tree=2
num_leaves=32
num_cat=14
split_feature=0 10 9 0 3 10 3 7 3 5 3 10 7 0 3 3 2 3 7 4 7 0 0 3 6 3 3 7 0 3 5
split_gain=1784.63 1040.51 946.459 17641.3 106390 105286 12082.2 870.024 194.326 1358.96 8516.4 186.187 114.088 68.5975 735.58 143.069 62.8129 61.8207 38.4069 31.3894 20.0229 17.8205 47.8933 11.6805 4.46004 17.1145 3.68052 2.05133 1.39022 0.0530567 2.77764e-07
threshold=3.5000000000000004 0 1 1.5000000000000002 1.5000000000000002 2 5.5000000000000009 3 9.5000000000000018 4 10.500000000000002 5 6 4.5000000000000009 4.5000000000000009 1.0000000180025095e-35 7 17.500000000000004 8 9 10 18.500000000000004 8.5000000000000018 5.5000000000000009 11 10.500000000000002 2.5000000000000004 12 21.500000000000004 18.500000000000004 13
decision_type=2 1 1 2 2 1 2 1 2 1 2 1 1 2 2 2 1 2 1 1 1 2 2 2 1 2 2 1 2 2 1
left_child=2 8 11 6 5 -5 26 -8 13 12 -11 17 -10 15 -15 -2 20 18 -1 21 -13 22 -3 -18 25 -21 -4 -26 -23 -19 -6
right_child=1 19 3 4 30 -7 7 -9 9 10 -12 16 -14 14 -16 -17 23 29 -20 24 -22 28 -24 -25 27 -27 -28 -29 -30 -31 -32
leaf_value=-0.15314708323967385 -0.39936467016493093 0.056523276779519661 0.22325580249852173 -0.10001973228834188 -0.1008030689034051 -1150.358125442531 -70.479718666991118 -38.155157509377219 -0.10153875635992526 -0.10001237046183763 -251.45310111375599 0.21136307084297432 -4.5248118634223884 -0.43002754916945857 -2.8933687724296298 -0.12728730868046031 -0.073575798671079551 -0.21621117345026872 -0.08891394561044233 -0.10000276645430127 0.029866669924973201 -0.27040375607271294 0.34038214313385873 0.029827799517121219 -0.10000429452018765 2.1112614293592635 -0.10481548059921589 -0.023981873368644616 -0.10001661806889468 -0.22273068706878085 -0.10002874965429816
leaf_weight=220.20358698518476 119.59035192430161 28.746606978302093 0.91990303188870481 0.0014672750860427186 0.0088995328450209854 0.0017387401657059645 0.022733834949426119 0.013138837058317566 0.16417241096496582 0.0088135780315771184 0.0015913869143275867 6.7439943061199301 0.090430482407100499 267.88603901356964 1.217728324207086 23.05219594117807 200.55577503070049 15.338565592240455 161.25577816778974 0.15486170972508262 61.590266495187109 0.58689082753698985 7.4932368156761582 11.553539734204604 10.907297067905819 0.045222197659313679 0.54428783874936926 5.2615530547988536 2.6014640762368799 67.044375970858482 0.0096626831954722547
leaf_count=1651 704 609162 1923 30 71 506 194 93 20 72 187 132378 23 6666 1859 3463 8513556 63 81432 5738 1286142 13890 171646 469470 401686 108 934 189721 56811 278 759
internal_value=0 -3.58316 -1.09163 -26.0045 -919.774 -6239.27 -13.0345 -586.404 -4.132 -31.2025 -385.432 -1.04069 -16.7261 -4.11458 -4.41174 -3.55395 -0.39746 -1.42959 -1.25994 0.469479 0.416794 0.952752 1.15216 -0.648844 -0.69459 3.99779 1.01301 -0.752656 -1.3138 -2.21517 -1.004
internal_weight=0 467.808 745.808 1.52183 0.0217682 0.00320602 1.50006 0.0358727 412.011 0.265008 0.010405 744.286 0.254603 411.746 269.104 142.643 280.444 463.842 381.459 55.7971 68.3343 39.4282 36.2398 212.109 16.3689 0.200084 1.46419 16.1689 3.18835 82.3829 0.0185622
internal_count=11951236 1461756 10489480 4510 1366 536 3144 287 12994 302 259 10484970 43 12692 8525 4167 10401546 83424 83083 1448762 1418520 851509 780808 8983026 597253 5846 2857 591407 70701 341 830
cat_boundaries=0 1 2 3 4 5 6 7 8 9 10 11 12 13 14
cat_threshold=2 1 2 1 2 2 1 17174017 8 2 4 2 1 2
shrinkage=0.1


Tree=3
num_leaves=31
num_cat=11
split_feature=10 0 3 0 0 2 7 0 3 3 3 5 3 7 4 9 9 3 3 0 0 3 0 9 2 4 3 3 0 0
split_gain=1017.73 739.781 125.994 947.589 238.168 81.2203 76.5069 48.5953 43.9945 39.7637 39.574 292.216 38.8557 30.6466 26.5612 40.775 16.4078 215.284 11.0091 7.77975 7.28705 6.71184 5.74036 5.64688 5.04189 3.68431 3.32695 0.0425691 0.0566978 5.68434e-14
threshold=0 3.5000000000000004 8.5000000000000018 9.5000000000000018 4.5000000000000009 1 2 1.0000000180025095e-35 4.5000000000000009 17.500000000000004 9.5000000000000018 3 1.0000000180025095e-35 4 5 6 7 4.5000000000000009 5.5000000000000009 1.5000000000000002 1.0000000180025095e-35 1.0000000180025095e-35 4.5000000000000009 8 9 10 11.500000000000002 18.500000000000004 1.0000000180025095e-35 2.5000000000000004
decision_type=1 2 2 2 2 1 1 2 2 2 2 1 2 1 1 1 1 2 2 2 2 2 2 1 1 1 2 2 2 2
left_child=1 9 6 4 -4 7 8 16 -3 10 13 -12 -8 -1 15 -9 24 -18 19 23 26 -16 -22 -7 -2 -21 -20 28 -11 -29
right_child=5 2 3 -5 -6 18 12 14 -10 27 11 -13 -14 -15 21 -17 17 -19 20 25 22 -23 -24 -25 -26 -27 -28 29 -30 -31
leaf_value=-0.14572565632495954 0.015745685723008364 -0.41959408762666411 -0.45024369482244309 -98.507557628935473 -6.0396835151875194 -0.087417534054605853 -0.30636657782460475 -1.6732792033285202 -0.76099790869431461 -0.1867459536743164 0.89864180249849734 31.997023251075763 -0.013736741374247666 -0.086538211368013471 0.24262073243350138 0.11942845901511619 -0.10004750204863065 -11.543673752378719 -0.10000243995165743 -0.023479102120822135 0.15706378085546191 -0.041956127817298149 -0.048122037083250455 0.20847851919164773 -0.044982701451440878 -0.078130423684550365 0.25802898204706065 -0.19822509205410943 -0.1988675561380136 -0.19822509012479061
leaf_weight=209.51466376336248 17.641880493691112 17.917992837147725 0.31053270751271966 0.0010161822128793563 0.1010376724507296 127.13909368133727 455.20834108799215 0.12712566098276681 4.7818396687507621 8.2497324943542605 0.10013553847656352 0.0031155532763875722 4.5831975961152684 150.1982271531424 0.87559647787968831 64.249380677818039 0.27696671999729039 0.017476630618914246 3.6675844788133083 37.896694524172766 4.6678860341159849 15.502480758328625 1.9260602810474656 0.64824481983663318 37.2562820592156 18.288308537966863 0.27930498325804354 62.994950422571463 7.2497650907530433 4.7496193711834414
leaf_count=1597 272374 309 156 69 229 5843315 2288 1214 79 33 2185 98 9864 79496 33593 1043743 686 134 151149 1371193 149530 549939 23367 1413 1610059 791374 11442 258 30 20
internal_value=0 -2.28175 -3.13791 -20.6054 -18.2241 -0.237528 -3.12297 0.349618 -4.91513 -1.3486 -1.2045 18.3702 -3.0345 -1.21012 0.86961 1.15888 -0.34786 -7.79282 -0.633305 -0.722809 0.32803 -0.267422 0.9713 -0.859165 -0.307929 -0.412682 -0.74666 -1.97143 -1.92416 -1.98225
internal_weight=0 925.964 482.904 0.412587 0.41157 330.46 482.491 135.947 22.6998 443.06 359.816 0.103251 459.792 359.713 80.7546 64.3765 55.1926 0.294443 194.513 183.972 10.5408 16.3781 6.59395 127.787 54.8982 56.185 3.94689 83.2441 15.4995 67.7446
internal_count=11951236 96711 12994 454 385 11854525 12540 3511742 388 83717 83376 2283 12152 81093 1628489 1044957 1883253 820 8342783 8007295 335488 583532 172897 5844728 1882433 2162567 162591 341 63 278
cat_boundaries=0 1 2 3 4 5 6 7 8 9 10 11
cat_threshold=2 19336961 8 1 8 2 2 1 1 512 2
shrinkage=0.1


Tree=4
num_leaves=31
num_cat=14
split_feature=10 0 3 7 7 3 3 7 3 2 0 9 0 9 7 8 8 0 3 3 4 2 7 3 3 9 3 3 3 3
split_gain=877.93 288.889 413.595 11512.6 220.531 207.208 35673.2 22587.4 139.055 68.9275 35.168 40.2705 3924.42 26.5811 24.9224 107.031 24.6175 11.0322 11.1471 4.50856 4.25662 5.3742 2.9757 2.62387 5.87088 1.85986 0.951321 0.0379983 0.0153927 8.79868e-08
threshold=0 3.5000000000000004 9.5000000000000018 1 2 9.5000000000000018 17.500000000000004 3 6.5000000000000009 4 1.0000000180025095e-35 5 2.5000000000000004 6 7 8 9 1.0000000180025095e-35 5.5000000000000009 6.5000000000000009 10 11 12 11.500000000000002 12.500000000000002 13 1.0000000180025095e-35 18.500000000000004 4.5000000000000009 10.500000000000002
decision_type=1 2 2 1 1 2 2 1 2 1 2 1 2 1 1 1 1 2 2 2 1 1 1 2 2 1 2 2 2 2
left_child=1 5 4 29 8 14 7 -7 -3 10 20 12 -12 -6 28 -16 -13 23 22 -20 21 -2 -19 25 -25 -11 -22 -8 -1 -4
right_child=9 2 3 -5 13 6 27 -9 -10 17 11 16 -14 -15 15 -17 -18 18 19 -21 26 -23 -24 24 -26 -27 -28 -29 -30 -31
leaf_value=-0.13873470020440723 0.029591136597492934 -0.55898153512829873 -0.10000674384385311 -298.57777245578166 -0.45436561495812688 -18.614548376015446 -0.17504505581804639 -84.925762661985019 -2.1026547808619287 -0.091951058752952314 0.74181006830729557 0.06048246159735008 -131.73461563124815 -0.24726272610480926 0.26705776594234582 -0.10590272798449468 0.29242665419821418 0.055515288714976289 0.17474023316132042 0.014173352208815618 0.034613132672894724 -0.033705274683872376 -0.053676454122348186 0.76854150954264877 -0.10000328337392278 0.10287210062042185 -0.081373388811646519 -0.18056276265089902 -0.14076430865108414 -0.10088202205263648
leaf_weight=147.93598104912797 12.948535257533477 16.707854927633438 0.0011874565074084789 0.0013401333263800544 6.276051887770727 0.17283716056326881 15.340018815279761 0.073091007524147211 0.60466410219669242 86.946295575277958 0.11879832671425852 83.483509168554519 0.0022790358173325883 493.6601419233719 8.1727630576265824 131.50424692419261 4.8412638735098872 2.5720492836489113 2.9117925281902517 4.3781223659013282 0.74285350945502149 26.200997423703342 84.185738609596584 0.11513509375436017 0.24015991941996617 0.49278131790930402 14.713432427278853 66.964907432160729 49.995708399326759 0.034993824046978261
leaf_count=1189 209317 373 46 122 133 1551 63 732 21 4351858 1056 1557252 1087 12165 75983 3513 71179 102175 76041 96652 29490 1182634 3686137 3477 7759 927 477484 278 408 134
internal_value=0 -2.12745 -2.62775 -107.614 -2.62014 -1.51149 -2.93167 -383.226 -6.12896 -0.219904 0.296648 0.706975 -17.5179 -2.49863 -1.16423 -0.840801 0.731958 -0.609084 -0.404597 0.783082 -0.313641 -0.138211 -0.504393 -0.897511 1.81453 -0.908531 -0.757989 -1.79534 -1.39247 -1.00853
internal_weight=0 937.446 517.286 0.0375214 517.249 420.16 82.5509 0.245928 17.3125 324.894 143.052 88.4459 0.121077 499.936 337.609 139.677 88.3248 181.842 94.0477 7.28991 54.6058 39.1495 86.7578 87.7944 0.355295 87.4391 15.4563 82.3049 197.932 0.0361813
internal_count=11951236 96711 12994 302 12692 83717 2624 2283 394 11854525 3529499 1630574 2143 12298 81093 79496 1628431 8325026 3961005 172693 1898925 1391951 3788312 4364021 11236 4352785 506974 341 1597 180
cat_boundaries=0 1 2 3 4 5 6 7 8 9 10 11 12 13 14
cat_threshold=2 1 8 1 19369729 2 2 8 1 1 2 512 8 1
shrinkage=0.1


Tree=5
num_leaves=31
num_cat=14
split_feature=10 0 7 3 3 1 3 3 3 3 2 0 5 2 8 0 7 8 9 1 4 5 0 3 3 0 3 7 3 3
split_gain=671.331 228.313 463.681 1293.42 90.8193 68.1156 50.9835 766.534 44.521 84.1777 34.0039 31.4183 43.4972 25.4018 35.5327 44.5422 21.1171 80.0588 20.5256 15.6711 15.33 11.2447 34.8732 10.3894 9.42522 6.60344 4.52888 1.6143 0.0364393 0.0152911
threshold=0 3.5000000000000004 1 6.5000000000000009 4.5000000000000009 2 9.5000000000000018 17.500000000000004 11.500000000000002 13.500000000000002 3 8.5000000000000018 4 5 6 10.500000000000002 7 8 9 10 11 12 3.5000000000000004 10.500000000000002 5.5000000000000009 1.0000000180025095e-35 4.5000000000000009 13 18.500000000000004 4.5000000000000009
decision_type=1 2 1 2 2 1 2 2 2 2 1 2 1 1 1 2 1 1 1 1 1 1 2 2 2 2 2 1 2 2
left_child=1 6 3 4 -3 10 16 23 18 -10 11 20 -13 14 19 -16 29 -18 -4 -7 -2 24 -23 -8 -12 27 -27 -15 -9 -1
right_child=5 2 8 -5 -6 13 7 28 9 -11 21 12 -14 25 15 -17 17 -19 -20 -21 -22 22 -24 -25 -26 26 -28 -29 -30 -31
leaf_value=-0.13332423031781959 0.12696400975260519 -0.64583370354154557 -0.3934571565581334 -12.2621773680749 -1.4513730300412646 -0.050274647725434655 -2.396630876082678 -0.16178061704989022 12.53383319132476 -0.10079964452533129 -0.042567976836784996 3.0258546197025984 0.38739407026057604 -0.0074850597585848474 0.30691700169130454 2.2385482045521816 0.18104789912996036 -0.10472002319694329 -0.21467575821238938 0.03799936591945946 -0.019590322604208062 -0.10000209383156167 1.5760194139831141 -3.1109029313855285 0.12903014038707761 -0.06145366236436222 0.010687480923085899 -0.09504882683626209 -0.16725382800415142 -0.13541184979643212
leaf_weight=139.00539816627133 39.648815526984805 9.5771809802345143 6.5035118577044306 0.098684949800372901 1.6391450464725483 27.665604355676127 0.28000535490579148 14.956748663148941 0.0079147540909606517 0.015799569426235394 38.304702124340601 0.063981753883126657 2.6670463136215399 2.1617610019057101 1.7200230523674509 0.12828110465125053 10.673585459343911 120.26553266524573 510.6299434422956 33.298317996858074 8.7044295595261101 0.40514003166208473 0.17899506279354682 0.74668094611053371 3.4927207815053398 70.040717315452767 9.9366773635364449 80.751141121717126 65.152960342082054 46.932297952653244
leaf_count=1189 773022 309 137 34 64 439899 755 63 60 84 1860394 837 43528 108211 13257 797 75983 3513 12306 495880 338888 19999 5483 1528 94588 3062684 287880 4309178 278 408
internal_value=0 -1.875 -2.30581 -8.63841 -7.63555 -0.193341 -1.30298 -2.01028 -2.16725 41.1606 0.497937 0.997024 4.49207 -0.480385 0.0778374 4.40981 -1.12188 -0.814255 -2.16924 -0.0407317 1.00582 -0.179128 4.13577 -29.161 -0.282287 -0.687693 -0.524906 -0.927658 -1.66232 -1.33851
internal_weight=0 926.485 528.472 11.315 11.2163 319.168 398.013 81.1364 517.157 0.0237143 93.4658 51.0843 2.73103 225.703 62.8122 1.8483 316.877 130.939 517.133 60.9639 48.3532 42.3816 0.584135 1.02669 41.7974 162.89 79.9774 82.9129 80.1097 185.938
internal_count=11951236 96711 12994 407 373 11854525 83717 2624 12587 144 3136739 1156275 44365 8717786 949833 14054 81093 79496 12443 935779 1111910 1980464 25482 2283 1954982 7767953 3350564 4417389 341 1597
cat_boundaries=0 1 2 3 4 5 6 7 8 9 10 11 12 13 14
cat_threshold=2 8 896 11345664 2 264704 1 8 1 2 23 2 1 8
shrinkage=0.1


Tree=6
num_leaves=31
num_cat=15
split_feature=10 0 7 3 5 1 3 2 4 3 3 0 3 7 8 0 9 9 8 0 9 8 3 3 0 9 7 0 3 3
split_gain=552.662 174.549 1033.67 1903.24 355.538 55.1625 49.0848 43.7498 35.1935 25.8714 156.829 45.2505 19.9745 18.3525 64.9692 17.6403 651.651 16.793 13.936 7.27053 5.78439 4.96498 4.95113 4.10934 1.52302 601.844 0.790468 0.68902 0.0366368 0.0155955
threshold=0 3.5000000000000004 1 4.5000000000000009 2 3 1.0000000180025095e-35 4 5 12.500000000000002 10.500000000000002 4.5000000000000009 9.5000000000000018 6 7 9.5000000000000018 8 9 10 1.5000000000000002 11 12 17.500000000000004 3.5000000000000004 1.5000000000000002 13 14 1.0000000180025095e-35 18.500000000000004 4.5000000000000009
decision_type=1 2 1 2 1 1 2 1 1 2 2 2 2 1 1 2 1 1 1 2 1 1 2 2 2 1 1 2 2 2
left_child=1 12 3 6 -5 15 -3 8 17 10 -4 -11 13 29 -15 24 18 -7 -17 20 -9 -10 27 -21 26 -26 -2 -14 -24 -1
right_child=5 2 9 4 -6 7 -8 19 21 11 -12 -13 22 14 -16 16 -18 -19 -20 23 -22 -23 28 -25 25 -27 -28 -29 -30 -31
leaf_value=-0.12874630896575942 -0.034803174100761079 -1.5991973264254824 -0.19421191951510119 -5.0444107831098508 -10.737743861051587 1.951298102234869 -0.86399812806858489 0.54758199173788225 0.15172785507123479 -6.8841221856038635 15.394735175502866 -0.93082918407158266 -0.27149114423423282 0.134516292947091 -0.10360763764847761 0.03613859005025321 65.221252648135859 0.094709296043642144 0.64061761914479587 -0.022053147236572219 -0.065439861821534731 -0.058127392937940059 -0.15130504981121501 0.063936509714177081 -0.063489001309978962 60.160027241969864 -0.086458393718052196 -0.21136534149490205 -0.15689571986865272 -0.13092724660648944
leaf_weight=130.01619527705591 3.067268769346077 1.1380894647043076 519.60952485754478 0.222590639191246 0.21624624820720573 0.048748719845649657 4.4938333294629729 0.15440697903977277 1.1916810609609865 0.014728577254571884 0.0064535388373759819 0.095895469437891706 3.6707827151311694 12.790994570909419 109.92984656872432 6.610077236824508 0.001535599003545828 79.584925928085781 0.4047500153810687 23.091832716101194 49.187004993118649 20.900206415485361 14.420277993899573 7.318940247296001 38.323212806972144 0.0016594748072183965 86.715926583747631 3.9642712921267647 62.636385207698439 43.844666715207495
leaf_count=1189 128615 88 12379 53 45 444 221 298 34022 32 99 77 1255 75983 3513 184465 212 1384014 1307 993009 2748249 791868 63 210083 1050903 1767 4325269 1028 278 408
internal_value=0 -1.72143 -2.09497 -15.0682 -78.4992 -0.186861 -10.1257 0.178765 0.590598 -1.94344 -1.94018 -17.2346 -1.20628 -1.08397 -0.787884 -0.643518 0.852753 0.958458 0.710166 -0.353812 -0.635215 -0.468074 -1.6346 -0.0135807 -0.7757 -0.608813 -0.846937 -2.40273 -1.55849 -1.29296
internal_weight=0 907.071 525.797 6.07076 0.438837 316.602 5.63192 181.478 101.726 519.727 519.616 0.110624 381.273 296.582 122.721 135.124 7.01636 79.6337 7.01483 79.7522 49.3414 22.0919 84.6917 30.4108 128.108 38.3249 89.7832 7.63505 77.0567 173.861
internal_count=11951236 96711 12994 407 98 11854525 309 6161987 2210348 12587 12478 109 83717 81093 79496 5692538 185984 1384458 185772 3951639 2748547 825890 2624 1203092 5506554 1052670 4453884 2283 341 1597
cat_boundaries=0 1 2 3 4 5 6 7 8 9 10 11 12 13 14 15
cat_threshold=2 8 2 31 10817280 2 8 1 1 2 1 2 2 1 8
shrinkage=0.1


Tree=7
num_leaves=31
num_cat=14
split_feature=9 3 0 0 5 0 5 0 10 4 0 0 7 3 1 3 2 4 3 7 3 10 0 2 3 0 7 0 3 7
split_gain=51365.5 182143 9.5083e+06 1.13072e+07 5.67946e+07 3.96429e+06 1703.65 6112.64 466.014 183.56 192.572 121.803 2998.64 761186 49.7339 32.9506 25.7611 25.2989 14.5277 15.7805 13.2329 27.6322 10.5436 7.23907 5.33049 3.78662 2.88772 2.87747 2.5578 9.90699e-09
threshold=0 1.0000000180025095e-35 1.5000000000000002 2.5000000000000004 1 9.5000000000000018 2 6.5000000000000009 3 4 1.0000000180025095e-35 3.5000000000000004 5 4.5000000000000009 6 10.500000000000002 7 8 9.5000000000000018 9 2.5000000000000004 10 1.5000000000000002 11 5.5000000000000009 1.0000000180025095e-35 12 3.5000000000000004 17.500000000000004 13
decision_type=1 2 2 2 1 2 1 2 1 1 2 2 1 2 1 2 1 1 2 1 2 1 2 1 2 2 1 2 2 1
left_child=1 6 20 4 -4 -5 9 29 11 27 -11 18 13 -13 16 -14 17 -10 19 -2 21 -3 26 -24 -18 -22 -16 -1 -20 -8
right_child=8 2 3 5 -6 -7 7 -9 14 10 -12 12 15 -15 22 -17 24 -19 28 -21 25 -23 23 -25 -26 -27 -28 -29 -30 -31
leaf_value=0.056393588863332358 -0.12540766948162321 3.3329145355401195 -695.82922444011331 -2063.1244363343721 -26112.590933739342 -0.10009997777900914 -0.10016770835660567 -97.958111496836551 0.083370575470923969 -0.10006270731124832 18.642952088455026 -2.3175152408493238 -0.1752585813274499 -2244.7884879070239 0.011380868387367286 -1.0651592519212294 -0.04719912492679329 -0.049112968510541463 -0.20726884034025994 -0.076927194903166962 -0.15477494132854563 0.18883229774485633 0.012422611326114989 -0.051079225735995305 0.06229285442863354 -0.66099250790196662 -0.079898144250437078 -0.16901076753392094 -0.14754046375326407 -0.10004929558779052
leaf_weight=0.62687129270761843 161.93655567019962 0.02912932587787509 0.004455759316726926 0.016238295951783555 0.0010952612738320258 0.021844802153008654 0.017060852853319264 0.0081751113392716217 77.961491829662918 0.011272670875774328 0.010670630463664564 2.302894922955034 506.06106996804618 0.0015146868010841299 3.5910143511937065 0.41642630494334198 45.451979852752743 17.683058318892108 7.9454277456474633 114.6944560864778 0.8636663875700632 0.69220020992997855 31.786635061405207 28.835928614578734 4.9284672748472067 0.17826737983018082 99.462209450333802 5.8662864735815674 73.441868967013249 0.01206004191590182
leaf_count=959 1595 56 53 1281 561 223 41 40 1417482 21 96 308 12244 97 154137 201 2451270 741979 2280 79208 720 1102 401699 1233044 117488 501 5331800 338 341 71
internal_value=0 -79.8992 -360.995 -14943.4 -57107.6 -8797.55 -2.38393 -215.501 -1.23301 -1.16393 90.1433 -1.60921 -1.92366 -37.9149 -0.180098 -1.7599 0.243098 0.533035 -1.16233 -1.05307 -0.134478 3.15799 -0.539545 -0.241595 -0.30445 -2.41385 -0.767174 -1.47249 -1.53371 -1.00119
internal_weight=0 8.35929 1.8069 0.0436341 0.00555102 0.0380831 6.5524 0.037296 1176.5 6.5151 0.0219433 866.8 508.782 2.30441 309.701 506.477 146.025 95.6446 358.018 276.631 1.76326 0.72133 163.676 60.6226 50.3804 1.04193 103.053 6.49316 81.3873 0.0291209
internal_count=11951236 6063 4497 2118 614 1504 1566 152 11945173 1414 117 96274 12850 405 11848899 12445 4728219 2159461 83424 80803 2379 1158 7120680 1634743 2568758 1221 5485937 1297 2621 112
cat_boundaries=0 1 2 3 4 5 6 7 8 9 10 11 12 13 14
cat_threshold=2 2 1 2 2 8 960 11345666 2 8 2 21409537 8 1
shrinkage=0.1


Tree=8
num_leaves=32
num_cat=15
split_feature=10 0 7 3 3 5 9 0 0 3 3 4 0 1 2 3 0 4 0 3 7 8 5 0 3 5 3 5 7 8 3
split_gain=366.325 71.7531 9578.87 6344.32 290.099 209.682 68.9146 592.099 2634.78 5142.52 356.675 19803.1 90.3659 42.7249 28.7143 20.7423 442.906 19.4521 12.8091 10.6261 12.9937 45.0117 9.56673 8.43758 7.2744 4.10059 2.04104 1.57289 1.78639 0.554837 0.0179325
threshold=0 3.5000000000000004 1 1.0000000180025095e-35 1.5000000000000002 2 3 1.5000000000000002 12.500000000000002 1.0000000180025095e-35 1.0000000180025095e-35 4 20.500000000000004 5 6 1.0000000180025095e-35 6.5000000000000009 7 9.5000000000000018 9.5000000000000018 8 9 10 1.0000000180025095e-35 6.5000000000000009 11 3.5000000000000004 12 13 14 4.5000000000000009
decision_type=1 2 1 2 2 1 1 2 2 2 2 1 2 1 1 2 2 1 2 2 1 1 1 2 2 1 2 1 1 1 2
left_child=1 19 3 5 -5 -3 7 10 9 -9 11 -2 -10 14 17 25 -17 -8 26 20 30 -22 -20 -16 -12 -4 -15 29 -29 -21 -1
right_child=6 2 15 4 -6 -7 13 8 12 -11 24 -13 -14 18 23 16 -18 -19 22 27 21 -23 -24 -25 -26 -27 -28 28 -30 -31 -32
leaf_value=-0.12141824688459135 -0.10015026733091584 -74.534890162860023 0.16576032903506988 -20.601067546135447 -12.339830781715857 -55.498485795618834 0.066840101771935362 202.61068995459232 -0.10009938256036988 16.544513947711128 0.079118182660837505 -135.15952581560617 -13.80621123078032 -0.081172214897468425 -0.079241645685406537 -0.11367611683518503 7.4891801027895957 -0.041045834520577411 0.0019213077516558952 -0.14063279855375119 0.088605706628442291 -0.10179117697317903 0.27893417033208645 -0.0097994682055880314 -0.3819841050526383 -0.16468425881256671 -0.046167169015503634 -0.19511111576901841 -0.088920791009458711 -0.082220755860354461 -0.12393416716981505
leaf_weight=112.47820392462393 0.48350770346769423 0.016121498955900648 0.37581860978389159 0.058534446058061455 0.15523477791526119 0.0090255308328437422 93.468742622340869 0.0019732546173262251 0.014119533239863811 0.00600794842466712 1.1159137762080109 0.011105689542092788 0.0072959978133440018 90.255243759193462 28.901793578203183 2.48568107178022 0.07905988926250973 20.351125679317178 5.8825467409151306 63.855805628522276 14.309599255192268 93.86470317349449 1.5819773010134666 44.342523370715796 0.49342209409603865 494.84869807958609 20.426486227037458 10.133361175656317 1.8777466662568247 1.6686446368710637 37.867820045631561
leaf_count=1189 687 56 221 60 259 32 1396766 681 56 1821 2066 38 113 4703835 1851049 6821 3478 860316 164345 2430 75983 3513 21427 2052512 164 2067 798649 43 77 74 408
internal_value=0 -1.48479 -1.72572 -201.91 -146.019 -677.025 -0.207647 -5.87151 135.069 625.471 -7.84075 -31.3268 -47.696 -0.168058 0.13637 -1.62964 1.20687 0.437097 -0.609981 -1.12774 -1.03035 -0.766049 0.606294 -0.327321 -0.622557 -1.64433 -0.74712 -1.45243 -1.7851 -1.39145 -1.22052
internal_weight=0 834.084 498.028 0.238916 0.213769 0.025147 307.344 2.13335 0.0293967 0.0079812 2.10395 0.494613 0.0214155 305.21 187.064 497.789 2.56474 113.82 118.146 336.056 258.52 108.174 7.46452 73.2443 1.60934 495.225 110.682 77.5356 12.0111 65.5245 150.346
internal_count=11951236 96711 12994 407 319 88 11854525 5626 2671 2502 2955 725 169 11848899 6160643 12587 10299 2257082 5688256 83717 81093 79496 185772 3903561 2230 2288 5502484 2624 120 2504 1597
cat_boundaries=0 1 2 3 4 5 6 7 8 9 10 11 12 13 14 15
cat_threshold=2 8 2 2 2 992 10821376 2 8 1 1 2 1 1 1
shrinkage=0.1


Tree=9
num_leaves=28
num_cat=15
split_feature=10 9 0 7 3 1 0 7 3 0 3 2 3 2 3 7 8 1 0 7 3 5 7 5 7 3 3
split_gain=297.214 100.016 1610.27 19504.4 3757.46 37.2011 31.5502 1649.84 28.4052 25.6844 72.5578 18.9381 18.6234 11.3579 8.31672 11.7269 40.4244 7.2712 7.01227 5.99548 4.90557 3.46829 1.12256 0.721452 1.76975 0.722831 0.0170563
threshold=0 1 11.500000000000002 2 1.0000000180025095e-35 3 3.5000000000000004 4 1.0000000180025095e-35 1.0000000180025095e-35 1.0000000180025095e-35 5 10.500000000000002 6 7.5000000000000009 7 8 9 1.0000000180025095e-35 10 11.500000000000002 11 12 13 14 17.500000000000004 4.5000000000000009
decision_type=1 1 2 1 2 1 2 1 2 2 2 1 2 1 2 1 1 1 2 1 2 1 1 1 1 2 2
left_child=6 5 9 4 -4 13 14 -8 21 22 -11 17 -10 19 15 26 -17 -7 -13 -2 -15 -9 -3 25 -25 -16 -1
right_child=1 2 3 -5 -6 11 7 8 12 10 -12 18 -14 20 23 16 -18 -19 -20 -21 -22 -23 -24 24 -26 -27 -28
leaf_value=-0.11845228792014802 0.15727486182184094 0.042544358356740801 -3.0137111601729138 -257.65062413300251 -83.151936224234106 0.023526970040927866 -5.4978271805108641 0.12532065054363603 -0.098784058186255727 2.6865823335692567 0.11481473930991733 -0.091852795341286819 -0.67108916971925825 -0.010551923200314456 -0.081926377396054989 -0.10080095384072869 0.075122856882069988 -0.043102945175081585 -0.045133156884625464 0.056118543632954758 0.30698288803063245 -0.1545971143430914 -0.1312464225472402 -0.074874422576563293 -0.17335296461734462 -0.13509802914809044 -0.1211443710316778
leaf_weight=104.19114901159261 6.605485279331333 0.70085064241164108 0.20875305093817609 0.0031061385033479541 0.0060195092651335038 49.87287896124235 0.57593955633318172 0.44305655699281488 127.80103043273186 0.14353960409576316 0.46538432860030093 61.359942894774576 0.57113644373839534 50.306074725192673 2.6672464343610107 85.722075159719736 15.409501510509271 12.842576942645783 67.431201659857436 51.860047571201903 0.49127849188607697 475.41027273237705 0.79130506867776063 2.1612025325102593 11.725467084164846 61.675664504067377 30.401760691936943
leaf_count=1189 79193 1184 64 41 97 660152 407 221 10091 954 2708 4416211 208 2318354 5399 3409 72801 287637 3348357 733139 5856 2067 578 52 189 319 359
internal_value=0 -0.206249 -6.74841 -88.5793 -52.5977 -0.155809 -1.34823 -1.48174 -1.43075 1.73732 7.21049 -0.409685 -1.0133 0.29927 -1.09103 -0.997264 -0.739953 0.0583157 -0.625362 0.576814 -0.0625047 -1.54336 -0.496186 -1.37355 -1.58027 -1.32894 -1.1906
internal_weight=0 303.088 2.31896 0.217879 0.214773 300.769 918.756 604.801 604.225 2.10108 0.608924 191.507 128.372 109.263 313.954 235.724 101.132 62.7155 128.791 58.4655 50.7974 475.853 1.49216 78.2296 13.8867 64.3429 134.593
internal_count=11951236 11854525 5626 202 161 11848899 96711 12994 12587 5424 3662 8712357 10299 3136542 83717 77758 76210 947789 7764568 812332 2324210 2288 1762 5959 241 5718 1548
cat_boundaries=0 1 2 3 4 5 6 7 8 9 10 11 12 13 14 15
cat_threshold=2 1 1 896 8 264704 10553088 8 2 120 4 2 1 1 8
shrinkage=0.1


Tree=10
num_leaves=25
num_cat=12
split_feature=10 9 0 1 0 7 3 3 2 4 0 3 7 8 0 0 3 4 3 3 5 8 7 3
split_gain=265.173 85.1865 13261.6 33.3469 23.9599 183836 23.8835 20.6708 18.9152 15.1865 11.6151 7.79269 10.9278 36.089 5.62703 5.25186 4.27002 2.29027 2.10385 1.69542 0.756743 0.538983 0.491567 0.018247
threshold=0 1 11.500000000000002 2 3.5000000000000004 3 10.500000000000002 1.0000000180025095e-35 4 5 7.5000000000000009 7.5000000000000009 6 7 18.500000000000004 1.0000000180025095e-35 6.5000000000000009 8 1.0000000180025095e-35 3.5000000000000004 9 10 11 4.5000000000000009
decision_type=1 1 2 1 2 1 2 2 1 1 2 2 1 1 2 2 2 1 2 2 1 1 1 2
left_child=4 3 16 8 11 -6 7 -7 9 -2 19 12 23 -14 -12 -10 18 -18 -3 -5 22 -22 -13 -1
right_child=1 2 -4 10 5 6 -8 -9 15 -11 14 20 13 -15 -16 -17 17 -19 -20 -21 21 -23 -24 -25
leaf_value=-0.11583353438336333 -0.04174694450501646 -0.1013353918927604 -83.340326760576986 -0.079256573856879411 -766.16063729582049 -0.1464460744520521 -0.78713438487192666 -0.099296682170645606 -0.077382075031583744 0.048621543740396164 0.081098339883969098 -0.16814562549378143 -0.099833172984336971 0.062462328673872462 -0.10014293961166279 -0.015256848090821274 -0.60564294106232575 -0.14762832251711813 0.059086348433675377 -0.04540738091987024 -0.075733921566176796 -0.13148197293785435 -0.12533777906663765 -0.11873228437918258
leaf_weight=96.297101509750064 22.312676775869505 2.3407882835244003 0.019221968904717168 77.106556179978696 0.0031329219784768437 453.19320338356198 0.56522059557028015 116.98596908537678 22.104986324993718 111.64445685773893 7.7242353833389625 9.5899875838076696 78.275796598281843 16.608443932821743 2.2011973764765571 35.397720400999788 0.21816853973665573 0.2185374647379289 1.2562314703904647 18.311293894493247 1.787279316203783 58.466817618063139 3.7241907624107276 28.038207575802517
leaf_count=768 274645 767 29 863335 49 2198 34 8852 207999 1332330 101379 98 1969 72694 29232 503173 23 24 2112 180252 26 3645 81 221
internal_value=0 -0.206736 -4.76033 -0.144555 -1.29691 -1.41621 -1.37416 -1.36772 0.111499 0.312374 -0.566715 -1.06434 -0.969831 -0.714251 0.409038 -0.333407 -0.81159 -3.76442 -0.453093 -0.727607 -1.34596 -1.29828 -1.56172 -1.16487
internal_weight=0 300.856 4.05295 296.803 863.535 570.748 570.744 570.179 191.46 133.957 105.343 292.788 219.22 94.8842 9.92543 57.5027 4.03373 0.436706 3.59702 95.4179 73.5683 60.2541 13.3142 124.335
internal_count=3585935 3495300 2955 3492345 90635 11133 11084 11050 2318147 1606975 1174198 79502 75652 74663 130611 711172 2926 47 2879 1043587 3850 3671 179 989
cat_boundaries=0 1 2 3 4 5 6 7 8 9 10 11 12
cat_threshold=2 1 992 8 11345666 1 8 2 2 2 2 1
shrinkage=0.1


Tree=11
num_leaves=32
num_cat=15
split_feature=10 2 9 3 7 3 1 9 3 0 0 8 1 3 5 0 3 0 9 4 7 0 7 0 7 3 0 0 3 0 7
split_gain=249.79 37.4651 25.8451 42.6621 24.8852 17.2387 16.6696 175.801 5275.84 13.1743 11.2346 24.2423 10.7744 10.6469 8.48066 639.086 8.13854 18.6114 7.3351 6.81862 5.82949 4.83529 4.82487 6.12283 3.70309 2.65142 2.3943 1.53383 0.700229 0.0215696 7.41199e-07
threshold=0 1 2 1.0000000180025095e-35 3 1.0000000180025095e-35 4 5 3.5000000000000004 1.0000000180025095e-35 1.0000000180025095e-35 6 7 3.5000000000000004 8 5.5000000000000009 8.5000000000000018 3.5000000000000004 9 10 11 1.5000000000000002 12 6.5000000000000009 13 1.0000000180025095e-35 3.5000000000000004 5.5000000000000009 17.500000000000004 2.5000000000000004 14
decision_type=1 1 1 2 1 2 1 1 2 2 2 1 1 2 1 2 2 2 1 1 1 2 1 2 1 2 2 2 2 2 1
left_child=5 6 12 4 -4 10 7 9 -9 -2 11 30 20 25 15 -12 22 28 -15 -5 -3 -14 29 -24 -13 -8 -16 -19 -18 -7 -1
right_child=1 2 3 19 -6 16 13 8 -10 -11 14 24 21 18 26 -17 17 27 -20 -21 -22 -23 23 -25 -26 -27 -28 -29 -30 -31 -32
leaf_value=-0.10442245955953491 -0.027884623600236188 -0.074814037475662357 -1.1203384013509508 -0.10008399026629639 -0.10073061839896708 -0.1154823046240474 -0.0034611512581171726 -0.1006494523427427 68.351980869370223 0.080408373906048353 -0.11610774699627283 -0.10003671911514112 -0.085810597694559634 0.053144428972917358 -0.10435912007878888 7.9128083179122903 -0.15561163262163491 -0.58744486304970678 -0.36680734611570992 0.54730516308195942 0.062299709036513197 -0.04024990845176081 -0.063993719981658842 -0.10199947584409107 0.37876832100784119 -0.038224064267366381 -0.13986702084567706 -0.93461449584978551 -0.12633328005188157 -0.11176668573390364 -0.10452261984284013
leaf_weight=0.85171579197049141 15.249590987252303 3.9692851560921554 0.78463746805209555 0.34368915934464894 0.34445895257522352 75.045372874257737 37.2541986445557 0.30762655692706081 0.0116870401216147 42.659235618364619 14.206766345829235 0.18159111583372575 63.421875069272744 27.414241083836714 19.871788476455549 0.099835886372603322 9.5356871423853118 0.38017435305978503 0.4223248794935896 0.30892945962841606 14.170954249088028 36.815800327471152 70.847240341468932 105.52821771148592 1.4619727194220766 53.37536918396836 428.02019564807415 0.19129590679371236 56.976953297899769 19.731373779475689 5.5743184645980364
leaf_count=21 279533 48860 267 570 119 663 466824 297 35 383099 430 497 695787 231959 5406 43 1464 54 174 499 184732 550609 72238 3039 4008 660605 2069 31 334 204 137
internal_value=0 -0.141876 -0.546812 -4.37262 -8.09282 -1.21445 0.155636 0.552968 24.0475 0.518907 -1.33828 -0.168531 -0.535422 -0.0675013 -1.35871 -0.600795 -1.04227 -1.35413 0.467731 2.0637 0.208203 -0.628107 -0.965116 -0.867332 3.25867 -0.239344 -1.38292 -7.03658 -1.30531 -1.14709 -1.04509
internal_weight=0 296.854 120.16 1.78172 1.1291 808.504 176.694 58.2281 0.319314 57.9088 470.268 8.0696 118.378 118.466 462.199 14.3066 338.236 67.0841 27.8366 0.652619 18.1402 100.238 271.152 176.375 1.64356 90.6296 447.892 0.57147 66.5126 94.7767 6.42603
internal_count=3594607 3503969 1481443 1455 386 90638 2022526 662964 332 662632 12611 4663 1479988 1359562 7948 473 78027 1883 232133 1069 233592 1246396 76144 75277 4505 1127429 7475 85 1798 867 158
cat_boundaries=0 1 2 3 4 5 6 7 8 9 10 11 12 13 14 15
cat_threshold=2 31952641 1 1 648 1 2 768 2 1 1 2 8 4 4
shrinkage=0.1


Tree=12
num_leaves=28
num_cat=12
split_feature=10 9 0 3 7 1 0 5 0 3 4 0 3 0 2 3 3 7 8 0 3 3 3 8 5 8 3
split_gain=224.104 131.676 56392.9 1516.6 3668.44 27.1601 18.3513 192.718 84.1628 87.9043 14.2706 10.3765 10.1895 60.1046 10.0291 8.73063 5.63434 9.77298 32.7303 5.18254 4.47737 2.1904 1.67685 0.421065 0.324073 0.212558 0.0217443
threshold=0 1 1.5000000000000002 3.5000000000000004 2 3 3.5000000000000004 4 5.5000000000000009 3.5000000000000004 5 8.5000000000000018 1.0000000180025095e-35 6.5000000000000009 6 7.5000000000000009 7.5000000000000009 7 8 18.500000000000004 10.500000000000002 3.5000000000000004 1.0000000180025095e-35 9 10 11 4.5000000000000009
decision_type=1 1 2 2 1 1 2 1 2 2 1 2 2 2 1 2 2 1 1 2 2 2 2 1 1 1 2
left_child=6 2 3 22 -5 11 16 8 15 -10 14 21 25 -14 -7 -8 17 26 -19 -13 -12 -3 -2 -18 -25 -9 -1
right_child=1 5 -4 4 -6 10 7 12 9 -11 20 19 13 -15 -16 -17 23 18 -20 -21 -22 -23 -24 24 -26 -27 -28
leaf_value=-0.1113920777926235 -0.10126395257068506 -0.076915785164455658 703.47288586555669 -22.358534157095974 -1.2631207727004885 0.036301202211919611 -0.01805954497441362 -0.12631287602662752 -0.84764746067993058 -2.4382881386441326 -0.049693436447276175 0.083547540735827333 1.9041001845639318 -0.10125374800131084 -0.021001327931862095 -0.58501965910706222 -0.08391904415516338 0.056267032629098268 -0.098174681482881498 -0.10013217287442569 0.14446867160119842 -0.037373839299603043 0.05263514715937654 -0.12434443551152913 -0.14311753807704627 -0.13500598449723242 -0.11483017725486216
leaf_weight=81.794687944071484 1.5419287000840998 69.290425304561651 0.0011370572163728046 0.10782449326620767 0.35006615770257232 119.06328528858275 1.2150632701232096 30.428354501724243 3.0274314424023037 0.39246849089618496 37.764537494620612 7.0752503594740102 0.14969290603647678 96.153979711481952 35.569315255541269 0.34979826948642762 2.2711211174909849 17.26662413216232 66.844875389477266 1.9620905363626659 1.2262280100676424 17.559093111035509 1.3090301821448518 50.516214981998566 11.241703075505937 371.93393974006176 23.732804298280826
leaf_count=777 683 846835 327 254 128 1378335 392 156 145 66 443530 95084 5399 3022 530754 21 40 72699 1961 24677 6538 166698 1508 3634 177 1913 234
internal_value=0 -0.194755 -6.46627 -8.88591 -62.3069 -0.123052 -1.22492 -1.3354 -7.52238 -10.3019 0.099627 -0.528028 -1.27355 -0.981367 0.241096 -1.44794 -1.00558 -0.918981 -0.664705 0.43669 -0.435872 -0.689213 -0.306005 -1.26207 -1.27762 -1.34349 -1.12165
internal_weight=0 292.82 3.30999 3.30885 0.457891 289.51 757.319 503.651 4.98476 3.4199 193.623 95.8869 498.666 96.3037 154.633 1.56486 253.668 189.639 84.1115 9.03734 38.9908 86.8495 2.85096 64.029 61.7579 402.362 105.527
internal_count=3585987 3495351 2900 2573 382 3492451 90636 11114 624 211 2359157 1133294 10490 8421 1909089 413 79522 75671 74660 119761 450068 1013533 2191 3851 3811 2069 1011
cat_boundaries=0 1 2 3 4 5 6 7 8 9 10 11 12
cat_threshold=2 2 1 31 2 2 11345666 8 1 2 1 2
shrinkage=0.1


Tree=13
num_leaves=31
num_cat=14
split_feature=9 10 0 3 7 5 3 3 10 2 3 7 0 1 0 3 5 0 0 2 4 7 2 3 7 3 3 3 0 0
split_gain=42855.2 87510.5 67059.3 478540 1.12412e+06 41447 2890.33 24552.8 217.733 36.7264 116.931 174.295 56.6387 23.3335 13.4239 12.0249 11.4212 9.51931 9.27287 7.60277 6.82508 25.7282 4.11001 3.29734 1.7994 0.909051 0.231706 0.0251673 0.00331993 0.000355267
threshold=0 1 1.0000000180025095e-35 3.5000000000000004 2 3 3.5000000000000004 5.5000000000000009 4 5 3.5000000000000004 6 1.0000000180025095e-35 7 1.0000000180025095e-35 1.0000000180025095e-35 8 16.500000000000004 6.5000000000000009 9 10 11 12 8.5000000000000018 13 1.5000000000000002 2.5000000000000004 1.0000000180025095e-35 3.5000000000000004 2.5000000000000004
decision_type=1 1 2 2 1 1 2 2 1 1 2 1 2 1 2 2 1 2 2 1 1 1 1 2 1 2 2 2 2 2
left_child=8 20 6 5 -5 -4 25 -8 9 10 12 -12 -1 18 19 16 -11 -16 24 -15 27 26 -20 -17 -10 -3 -22 28 -2 -29
right_child=1 2 3 4 -6 -7 7 -9 13 15 11 -13 -14 14 17 23 -18 -19 22 -21 21 -23 -24 -25 -26 -27 -28 29 -30 -31
leaf_value=0.57934095417295639 -0.10556229320970256 -0.10018952096520538 -27.03632465771976 -238.32217353417059 -3836.3856629685397 -99.651240682025616 -172.793869767557 -3.5805252052270862 -0.078972764079883018 -0.21515061250518974 3.1366466454791571 0.37088870384453265 -0.095247959803898469 0.028320053767412996 0.031242599560977632 -0.098858239668164732 -0.12798986106939692 -0.1001892284642167 0.04512552501761477 -0.046762704827281003 -1.0479678346066819 0.46066399816694176 -0.031527272651668464 -0.12590388478165274 -0.046937893741353917 0.09322323697443119 -0.10002330441945868 -0.10211360628192881 -0.12071115324973397 -0.10552364236147878
leaf_weight=1.3179817280870398 0.14993498047988385 0.45839039027486217 1.7189344125734345 0.0041972287881046899 0.0010948031356038379 0.082370050286598592 0.0092649816612451197 0.11513466191195219 52.29253595566874 15.654197163676145 0.24605332418650505 3.080666948576837 22.358577361577773 13.373973271589421 134.04267177923879 222.72345170498735 379.33758858604392 5.7469367736412087 7.2138784456547 42.593094774487298 0.31674392369313853 0.17779283390700584 4.6040774637731356 56.517413663069675 26.379212271098368 0.51717857408584689 0.0025996936965384512 0.57385342671477679 4.117170661687851 0.6533700437285006
leaf_count=517 42 651 1073 57 99 79 90 21 632241 580 76 522 1011 161325 1492128 74451 11390 55652 66106 701287 22 30 79749 1877 310661 668 22 70 30 24
internal_value=0 -70.5593 -212.943 -331.465 -9826.81 -303.569 -18.2813 -161.831 -0.848033 -1.14804 0.148181 5.75452 -0.576962 -0.113081 0.0881924 -1.18459 -1.31444 0.258393 -0.50269 -0.321161 -1.48654 -5.03473 0.267693 -1.04332 -0.682312 0.0234442 -10.4025 -1.16549 -1.20179 -1.03929
internal_weight=0 8.89803 2.90657 1.8066 0.00529203 1.8013 1.09997 0.1244 987.482 701.236 27.0033 3.32672 23.6766 286.246 195.757 674.233 394.992 139.79 90.4897 55.9671 5.99147 0.497136 11.818 279.241 78.6717 0.975569 0.319344 5.49433 4.26711 1.22722
internal_count=3592551 2978 2738 1308 156 1152 1430 111 3589573 90424 2126 598 1528 3499149 2410392 88298 11970 1547780 1088757 862612 240 74 145855 76328 942902 1319 44 166 72 94
cat_boundaries=0 1 2 3 4 5 6 7 8 9 10 11 12 13 14
cat_threshold=1 2 2 1 2 512 4 31 2 266752 2 1 273186 1
shrinkage=0.1


Tree=14
num_leaves=27
num_cat=11
split_feature=9 10 0 3 10 2 3 5 0 0 1 4 7 1 3 3 0 7 0 7 0 3 3 3 0 0
split_gain=23799.2 102532 499840 1117.33 203.196 21.9141 17.2694 13.1128 37.487 10.2034 9.14099 8.82615 68.1499 8.79825 9.09941 7.19993 6.5324 5.20097 4.66187 4.64 1.81808 1.07595 0.744284 0.0178887 0.00233723 0.000259918
threshold=0 1 1.5000000000000002 5.5000000000000009 2 3 1.0000000180025095e-35 4 5.5000000000000009 3.5000000000000004 5 6 7 8 3.5000000000000004 7.5000000000000009 1.0000000180025095e-35 9 1.5000000000000002 10 3.5000000000000004 6.5000000000000009 1.5000000000000002 1.0000000180025095e-35 3.5000000000000004 3.5000000000000004
decision_type=1 1 2 2 1 1 2 1 2 2 1 1 1 1 2 2 2 1 2 1 2 2 2 2 2 2
left_child=1 11 3 22 6 13 7 8 -2 -9 19 23 -13 16 -15 17 -6 -8 -12 -7 -17 -5 -3 24 -1 -25
right_child=4 2 -4 21 5 10 15 9 -10 -11 18 12 -14 14 -16 20 -18 -19 -20 -21 -22 -23 -24 25 -26 -27
leaf_value=-0.10502318769744312 -0.11033110208897907 -0.10017163391328957 -159.30725032369702 -28.903548751283797 -0.017183333930312208 -0.072457050488090521 -0.046472702272526041 -0.056132942658863885 -0.45305757032728344 -0.12588692252978387 -0.083091819273603151 -2.5961677127840943 0.25932688044115454 -0.019044678960023112 0.043008273345383555 -0.12159508968652294 0.070277600876143639 -0.090403138892610965 -0.035800625225376033 0.053567877231010953 -0.25760281925165557 -26.921976997999913 0.07610906301294533 -0.10190960169380475 -0.1183570346827989 -0.10497078372681057
leaf_weight=0.13617540349878288 10.203749255611909 0.41449388234726114 0.24704331747582764 0.010343437315896152 10.864552742976157 3.6295017637403362 31.73311896611996 22.314909632711647 4.6438996493816385 348.03538875281811 53.225207892490204 0.11986139537839324 0.27612042940018 95.048833375433261 31.450722377115198 55.41977577470103 39.908869240201966 178.78274595788753 34.263810044698403 14.976591977674618 1.0005909329522982 0.003727660048753024 0.56735747463312847 0.52023058798658872 3.7956398725509644 0.59414842585101724
leaf_count=40 558 693 301 21 222627 50807 17370 9893 45 2042 681425 42 28 1183734 269874 3853 329872 56393 540763 232401 288 25 770 72 31 21
internal_value=0 -60.6897 -319.827 -3.99286 -0.811101 -0.104087 -1.11832 -1.25378 -2.17526 -1.21684 -0.440153 -1.504 -6.05015 0.115365 -0.033519 -0.922834 0.430782 -0.837811 -0.579475 0.18852 -1.24007 -283.786 0.0169121 -1.14725 -1.17895 -1.03542
internal_weight=0 6.68514 1.24297 0.995922 935.502 283.368 652.134 385.198 14.8476 370.35 106.095 5.44218 0.395982 177.273 126.5 266.936 50.7734 210.516 87.489 18.6061 56.4204 0.0140711 0.981851 5.04619 3.93182 1.11438
internal_count=3603989 2044 1810 1509 3601945 3511503 90442 12538 603 11935 1505396 234 70 2006107 1453608 77904 552499 73763 1222188 283208 4141 46 1463 164 71 93
cat_boundaries=0 1 2 3 4 5 6 7 8 9 10 11
cat_threshold=2 2 2 27758337 2 768 2 1 640 2 2
shrinkage=0.1


Tree=15
num_leaves=28
num_cat=12
split_feature=9 10 0 0 10 0 2 0 8 3 1 3 2 4 7 2 3 3 5 3 3 3 4 3 0 0 3
split_gain=32816.1 91307.1 154458 14515.2 192.765 18.6007 16.9882 28.3414 57.2185 26.009 11.0828 22.3102 9.43547 7.58998 129.637 7.57821 9.52365 7.15533 6.24004 2.77585 2.35619 0.621447 1.58454 0.0127728 0.00165687 0.000190394 5.08894e-08
threshold=0 1 3.5000000000000004 13.500000000000002 2 1.0000000180025095e-35 3 1.0000000180025095e-35 4 4.5000000000000009 5 11.500000000000002 6 7 8 9 1.0000000180025095e-35 1.0000000180025095e-35 10 5.5000000000000009 5.5000000000000009 1.5000000000000002 11 1.0000000180025095e-35 3.5000000000000004 3.5000000000000004 1.0000000180025095e-35
decision_type=1 1 2 2 1 2 1 2 1 2 1 2 1 1 1 1 2 2 1 2 2 2 1 2 2 2 2
left_child=1 13 21 -4 6 15 7 8 -2 -9 11 -7 -12 23 -15 16 -6 18 -8 -17 -19 26 -23 24 -1 -25 -3
right_child=4 2 3 -5 5 10 17 9 -10 -11 12 -13 -14 14 -16 19 -18 20 -20 -21 -22 22 -24 25 -26 -27 -28
leaf_value=-0.10453354255582113 0.91575427045844959 -0.10010838918475883 -70.101501164409854 -42.610738407431086 0.15213669856804901 0.12594613904195986 -0.18806665968270309 -0.078875290805531087 -0.047968755287157522 0.24223405963416714 0.014600658167746364 2.5706724208544101 -0.031388798634560081 -4.7915901757197092 0.18033621871128869 -0.072135466918991323 -0.016555664075680581 -0.095377390793935743 -0.12096332741051111 0.0080380845900598127 -0.11818384526391759 -0.1000893330783454 0.22173290678632404 -0.10172553275693366 -0.11630875846647647 -0.10447569844914567 -0.10018405911364284
leaf_weight=0.12372976815095205 0.96988741658103717 0.14422527847793548 0.48016288876533514 0.32010859251022333 4.3626338720678204 12.38889575889152 14.468619987164857 21.117825134462695 1.6887934522274011 2.8645867199265913 123.40974179178008 0.037441568614668408 57.038441714079397 0.061619846632311126 0.35210243095934857 64.594770223340305 14.370850168834293 176.8504191756729 328.33504619426299 4.6279034112112631 60.898728969939924 0.30150547916536508 0.31059951484362969 0.47153248509857776 3.4918010979890823 0.54002532013691962 0.23158199276667496
leaf_count=39 668 480 163 23 91440 117816 581 1158 34 287 1177169 182 865976 28 26 1035688 126225 60873 11390 78483 15469 562 356 75 30 23 300
internal_value=0 -70.3681 -264.509 -591.052 -0.781097 -0.0960144 -1.09795 -0.0449236 3.03598 -0.405203 0.077781 0.738678 -0.00821148 -1.49819 -5.60183 -0.477121 0.148189 -1.1261 -1.23796 -0.583466 -1.01219 0.0106656 0.632124 -1.13127 -1.15906 -1.03194 -1.00155
internal_weight=0 6.82899 1.78818 0.800271 888.025 280.831 607.194 26.6411 2.65868 23.9824 192.875 12.4263 180.448 5.04081 0.413722 87.9562 18.7335 580.553 342.804 69.2227 237.749 0.987912 0.612105 4.62709 3.61553 1.01156 0.375807
internal_count=3585544 2105 1884 186 3583439 3492979 90460 2147 702 1445 2161143 117998 2043145 221 54 1331836 217665 88313 11971 1114171 76342 1698 918 167 69 98 780
cat_boundaries=0 1 2 3 4 5 6 7 8 9 10 11 12
cat_threshold=2 2 2 512 1 512 8720130 2 1 4608 2 1
shrinkage=0.1


Tree=16
num_leaves=25
num_cat=11
split_feature=9 10 0 10 1 2 0 7 4 0 0 3 3 3 7 4 3 0 7 3 3 4 3 3
split_gain=43021.6 146683 454989 174.725 17.0657 14.7135 53.8791 29.4497 9.99338 8.40484 5.56703 4.48485 4.35389 2.94401 2.88308 5.89769 2.07805 2.01077 1.62112 1.41496 0.514827 1.06534 0.0082774 3.78503e-08
threshold=0 1 3.5000000000000004 2 3 4 2.5000000000000004 5 6 7.5000000000000009 16.500000000000004 1.0000000180025095e-35 2.5000000000000004 5.5000000000000009 7 8 5.5000000000000009 11.500000000000002 9 7.5000000000000009 1.5000000000000002 10 1.0000000180025095e-35 1.0000000180025095e-35
decision_type=1 1 2 1 1 1 2 1 1 2 2 2 2 2 1 1 2 2 1 2 2 1 2 2
left_child=1 14 20 4 8 6 7 -5 10 18 -2 17 -11 -10 -1 22 -13 -7 -6 -8 23 -22 -16 -3
right_child=3 2 -4 5 9 11 19 -9 13 12 -12 16 -14 -15 15 -17 -18 -19 -20 -21 21 -23 -24 -25
leaf_value=0.11230947493001781 0.021308863051243149 -0.10009796551399795 -124.07450155324992 -0.078169266445398414 -0.073902716324608278 -0.1207981659499 -0.099568443429270168 0.3242728594480816 -0.051518036461279032 0.0034795819723194262 -0.10024817696162414 -0.093979851567996875 0.17329960927984711 0.028170340531152749 -0.11427113817322838 -0.48815924620390866 -0.116331016215282 -0.092534099932725808 -0.041873662498577512 -0.2883462015979969 0.15790152789404269 -0.10008083235272376 -0.10281305340231844 -0.10016654135290853
leaf_weight=0.45634515435813222 158.19196979359646 0.13067004644192931 0.41948821395637015 2.6338065453055606 45.966985064460175 289.30145962521181 18.392606145282119 5.8728534593301571 30.93692726083458 8.6831091456479026 3.8595071953768629 162.27179327828708 1.8274754323501827 5.453253835283248 3.1572784337768103 0.46600300749983592 55.934522418486836 27.569235667586327 24.081158746047549 0.40580671016505121 0.38732318386630155 0.27281537800371802 0.78779216826660547 0.20957883787576079
leaf_count=21 1929824 466 188 25 598571 11759 558 1589 427863 118628 31469 60892 17871 67177 64 30 15436 194 303307 25 349 554 84 275
internal_value=0 -83.7658 -366.567 -0.737119 -0.0901341 -1.05809 -0.0669645 1.9967 0.0740635 -0.448166 0.184138 -1.0871 0.330062 -0.395763 -1.26969 -1.51724 -0.997093 -1.18339 -0.628918 -1.03644 -0.00217177 0.512852 -1.11983 -1.0014
internal_weight=0 6.28729 1.41988 841.382 279 562.382 27.3051 8.50666 198.442 80.5587 162.051 535.077 10.5106 36.3902 4.86742 4.41107 218.206 316.871 70.0481 18.7984 1.00039 0.660139 3.94507 0.340249
internal_count=3587219 2031 1832 3585188 3494710 90478 2197 1614 2456333 1038377 1961293 88281 136499 495040 199 178 76328 11953 901878 583 1644 903 148 741
cat_boundaries=0 1 2 3 4 5 6 7 8 9 10 11
cat_threshold=2 2 1 992 66048 8 2 4 2 1 2
shrinkage=0.1


Tree=17
num_leaves=27
num_cat=15
split_feature=9 10 0 4 5 3 10 2 2 6 3 1 0 0 1 3 5 0 7 3 3 0 4 7 3 4
split_gain=15602.1 48752.7 205066 410710 3811.9 1364.18 168.651 16.1501 14.6087 20.2302 11.5258 7.31642 5.28568 7.80152 4.96923 4.83628 4.83967 4.46719 3.79207 1.86977 1.82336 9.00618 2.04824 0.43811 0.624292 1.32578e-07
threshold=0 1 3.5000000000000004 2 3 3.5000000000000004 4 5 6 7 2.5000000000000004 8 2.5000000000000004 18.500000000000004 9 1.0000000180025095e-35 10 1.5000000000000002 11 5.5000000000000009 1.0000000180025095e-35 1.5000000000000002 12 13 1.5000000000000002 14
decision_type=1 1 2 1 1 2 1 1 1 1 2 1 2 2 1 2 1 2 1 2 2 2 1 1 2 1
left_child=1 5 23 4 -4 20 7 12 9 -8 -11 18 14 -14 -2 16 -10 -13 -9 -17 21 -1 -22 24 -3 -25
right_child=6 2 3 -5 -6 -7 8 11 15 10 -12 17 13 -15 -16 19 -18 -19 -20 -21 22 -23 -24 25 -26 -27
leaf_value=-0.71408175315686417 -0.038859528990776659 -0.10013515704162622 -404.99676435639316 -24.397053281342671 -278.85235630503342 -17.374410486853133 2.0989809400428578 -0.071149117613047125 -0.11562814522392356 -0.051343669746490087 0.09584524702107268 -0.080078970568819074 0.040751497910635252 -0.10018612668835986 0.0078584113509681513 -0.092553339002995227 -0.17828253723079382 -0.03124040253043044 0.044559008135828929 -0.11468896262908733 -0.10265311145086464 -0.11299190351080218 0.18929530500442182 -0.10021059967695484 0.10533646373978885 -0.10006536470897215
leaf_weight=0.27158489680732634 19.436578176369057 0.2124632007516736 0.0024685457319719721 0.23518608465894317 0.081015179159063241 0.046322406519392241 0.045439040499331895 3.445831502510373 280.13704058520932 20.304173615244512 7.209009048197518 45.176219275654034 64.588392390962326 4.1818782070622538 91.948754873936124 148.97909287518269 12.896121062512973 31.991509423986827 15.909116271923269 51.299529016805593 0.8134853285009741 3.0330542752235488 0.34105830887267508 0.22085965261862783 0.48639636752743975 0.087856296460853314
leaf_count=39 248839 512 20 57 92 43 21 48120 11382 1246 914 680977 444589 42803 1218529 60896 572 529415 279952 15446 66 32 25 317 611 221
internal_value=0 -52.6261 -221.149 -920.353 -2825.82 -3.01945 -0.713462 -0.0825144 -1.04861 -0.0682043 -0.127772 -0.389904 0.09836 0.321812 -0.0307703 -1.0801 -1.18386 -0.529679 0.157972 -0.982232 -1.24595 -1.62391 -0.1641 -0.00956368 0.428702 -1.00169
internal_weight=0 5.83175 1.32625 0.31867 0.0834837 4.50551 797.549 276.678 520.87 27.5586 27.5132 96.5227 180.156 68.7703 111.385 493.312 293.033 77.1677 19.3549 200.279 4.45918 3.30464 1.15454 1.00758 0.69886 0.308716
internal_count=3585736 2035 1830 169 112 205 3583701 3493224 90477 2181 2160 1538464 1954760 487392 1467368 88296 11954 1210392 328072 76342 162 71 91 1661 1123 538
cat_boundaries=0 1 2 3 4 5 6 7 8 9 10 11 12 13 14 15
cat_threshold=2 2 2 2 1 27725568 66048 2 768 15 1 2 2 1 2
shrinkage=0.1


Tree=18
num_leaves=24
num_cat=10
split_feature=9 0 10 0 10 2 0 3 3 0 3 4 2 3 7 3 7 3 5 3 3 3 4
split_gain=2632.21 28634.2 6642.07 1.24767e+06 157.561 13.8631 13.676 10.4201 30.6447 20.6204 8.16644 7.56158 7.12229 5.97858 8.6284 5.3823 4.91573 4.05602 3.93939 3.15995 1.75856 1.71464 0.398918
threshold=0 25.500000000000004 1 3.5000000000000004 2 3 1.0000000180025095e-35 2.5000000000000004 7.5000000000000009 3.5000000000000004 4.5000000000000009 4 5 2.5000000000000004 6 1.5000000000000002 7 1.0000000180025095e-35 8 5.5000000000000009 1.0000000180025095e-35 5.5000000000000009 9
decision_type=1 2 1 2 1 1 2 2 2 2 2 1 1 2 1 2 1 2 1 2 2 2 1
left_child=4 2 13 22 5 7 12 9 -9 -1 11 -8 15 20 -15 -6 -12 18 -7 -14 -2 -19 -4
right_child=1 -3 3 -5 6 17 10 8 -10 -11 16 -13 19 14 -16 -17 -18 21 -20 -21 -22 -23 -24
leaf_value=0.11998314704119638 -0.15527999236409876 -128.74472750038123 0.03858598702978993 -1350.7894881718853 0.08118178844575491 -0.17179849414663043 0.0071244679562739929 0.23075745299579511 -0.18551672352857501 -0.11063977706612714 -0.023677549746367252 -0.05113319192492214 -0.072011263793869421 -0.10301926270160483 -1.6164685841696391 -0.020717698815442095 0.073831796709050199 -0.091088726770152298 -0.11338826309988569 0.017529416624557648 -0.0022383567637304868 -0.11322953267687484 -0.10007373123243446
leaf_weight=5.3169548680762118 3.1086943315203825 0.017850947915576287 0.72013722142435854 0.0068844940649933619 8.2787696527946668 12.086976582682837 137.12161490060259 5.1612790890867499 2.690262845659408 14.315205430480999 6.5372588698737673 26.601829890295562 53.590338638602589 0.087635328337284935 0.066070001504158427 13.864137474296511 24.720565866728069 136.85952141043705 258.22847310269469 4.2541727544121377 0.98991383787506482 46.985284852918966 0.29145654197826742
leaf_count=1045 72 25 1012 206 178201 574 1483847 838 112 211 68753 364814 967448 25 22 111034 243568 60862 11385 82224 63 15426 674
internal_value=0 -23.068 -18.7859 -91.3214 -0.680793 -1.02559 -0.0768314 -0.0677551 0.881247 -0.481804 0.0660094 -0.0234125 -0.425027 -1.41279 -7.53573 0.119732 0.534387 -1.05875 -1.16 -0.557825 -1.18317 -0.967473 -0.0136412
internal_weight=0 5.28864 5.27079 1.01848 756.613 481.644 274.969 27.4837 7.85154 19.6322 194.981 163.723 79.9874 4.25231 0.153705 22.1429 31.2578 454.16 270.315 57.8445 4.09861 183.845 1.01159
internal_count=3592441 2099 2074 1892 3590342 90453 3499889 2206 950 1256 2160982 1848661 1338907 182 47 289235 312321 88247 11959 1049672 135 76288 1686
cat_boundaries=0 1 2 3 4 5 6 7 8 9 10
cat_threshold=1 2 2 66048 2 17175169 1 2 2 2
shrinkage=0.1


Tree=19
num_leaves=31
num_cat=16
split_feature=10 9 3 4 7 1 0 5 0 4 4 3 7 8 0 0 3 7 3 0 3 3 0 7 3 8 8 4 3 7
split_gain=163.186 48.9938 240.852 95.4262 109.805 12.7223 7.86184 8.78042 7.1654 6.59543 6.3764 4.73238 11.6604 44.9948 4.4978 4.19419 2.71004 9.81236 6.35161 2.28381 2.09918 1.82149 13.9763 1.71066 1.29683 0.810959 0.351682 0.140262 0.0728287 1.40643e-10
threshold=0 1 2.5000000000000004 2 3 4 3.5000000000000004 5 9.5000000000000018 6 7 7.5000000000000009 8 9 16.500000000000004 18.500000000000004 3.5000000000000004 10 1.5000000000000002 1.0000000180025095e-35 3.5000000000000004 1.0000000180025095e-35 6.5000000000000009 11 1.5000000000000002 12 13 14 4.5000000000000009 15
decision_type=1 1 2 1 1 1 2 1 2 1 1 2 1 1 2 2 2 1 2 2 2 2 2 1 2 1 1 1 2 1
left_child=6 2 10 4 -4 9 11 21 20 19 24 12 28 -14 -11 -10 18 -18 -9 -3 -7 26 -23 -12 -2 -13 -8 -27 -1 -5
right_child=1 5 3 29 -6 8 7 16 15 14 23 25 13 -15 -16 -17 17 -19 -20 -21 -22 22 -24 -25 -26 27 -28 -29 -30 -31
leaf_value=-0.10107851958217849 -0.10012940165599662 -0.071899188586067753 6.2658863237813875 -0.10004317276047164 -0.10017524492917251 -0.06622578812803602 -0.099191421063104884 -0.2124178271740802 0.076087870340209696 0.017345643553206249 -0.73942318247635119 -0.037383345152051592 0.12475848372573838 -0.092302351654532919 -0.10022213761754198 -0.10012828106324252 -1.5133446397058055 -0.27954134501757189 0.30138006494943503 -0.01574613679721551 -0.022726961893755213 0.3759630189661638 -0.097731963007906764 -0.10005925268922858 0.19940726305592688 -0.13297716969597531 -0.11364245159535476 -0.11460286734040444 -0.10929564841803577 -0.10003154541712578
leaf_weight=45.811740647272018 0.25508890384504601 10.672827651699164 0.12566509308098528 0.035584071769375947 0.034541911205479614 50.323642253117328 18.229464687407017 7.115828040870829 6.8024099852682394 163.52292340091401 0.15638795730430413 1.3250635571605909 12.743587539900702 38.106632570819798 3.3201142220877946 1.6853336125550411 0.070763738951427513 0.72344130757739555 0.24902206350816403 22.537819256522198 14.231596056927627 0.63023124442008693 53.285722393176911 0.057136192610554221 0.33351585040522858 4.7880714756675227 221.00497537106276 31.395725511713337 14.107583973425788 0.014700722851564709
leaf_count=776 725 149335 152 165 84 755659 156 220 78595 2006887 297 38 72647 2015 27392 18851 52 152 168 306331 152971 5506 3014 156 174 355 1913 2444 222 98
internal_value=0 -0.0447778 6.89816 37.0044 48.9331 -0.0705216 -1.02371 -1.11647 -0.398268 0.0657646 -1.00221 -0.835201 -0.731243 -0.379047 0.150061 0.410982 -2.13971 -3.89473 -1.95045 -0.337919 -0.566362 -1.08799 -0.921949 -5.68338 0.695944 -1.1422 -1.12541 -1.17034 -1.03013 -1.0004
internal_weight=0 274.109 1.01262 0.210492 0.160207 273.097 449.588 301.309 73.043 200.054 0.802129 148.278 110.77 50.8502 166.843 8.48774 8.15906 0.794205 7.36485 33.2106 64.5552 293.15 53.916 0.213524 0.588605 37.5089 239.234 36.1838 59.9193 0.0502848
internal_count=3587550 3497872 1851 499 236 3496021 89678 11181 1006076 2489945 1352 78497 75660 74662 2034279 97446 592 204 388 455666 908630 10589 8520 453 899 2837 2069 2799 998 263
cat_boundaries=0 1 2 3 4 5 6 7 8 9 10 11 12 13 14 15 16
cat_threshold=2 2 2 1 992 1 1 2 8 1 2 1 2 2 1 1
shrinkage=0.1


Tree=20
num_leaves=31
num_cat=15
split_feature=10 0 9 2 4 0 0 0 5 2 1 3 1 3 7 8 3 7 3 3 6 3 3 0 8 3 3 4 5 3
split_gain=124.857 35.1623 28.0444 9.58911 8.31127 7.58487 6.77778 165.378 6.20202 6.11768 5.92023 5.87023 5.57291 4.57545 11.3297 36.7507 4.42432 58.0567 4.86302 3.52762 2.67142 2.52831 1.5791 14.3464 0.811006 0.629939 0.365233 0.124883 0.0771667 0.0734578
threshold=0 1.0000000180025095e-35 1 2 3 3.5000000000000004 93.500000000000014 94.500000000000014 4 5 6 1.5000000000000002 7 7.5000000000000009 8 9 3.5000000000000004 10 1.5000000000000002 2.5000000000000004 11 5.5000000000000009 2.5000000000000004 6.5000000000000009 12 1.5000000000000002 1.0000000180025095e-35 13 14 4.5000000000000009
decision_type=1 2 1 1 1 2 2 2 1 1 1 2 1 2 1 1 2 1 2 2 1 2 2 2 1 2 2 1 1 2
left_child=5 2 19 4 10 13 12 -8 22 11 -3 -4 -5 14 29 -16 18 -18 -10 25 -6 -11 26 -24 -15 -2 -7 -26 -21 -1
right_child=1 3 9 6 20 8 7 -9 16 21 -12 -13 -14 24 15 -17 17 -19 -20 28 -22 -23 23 -25 27 -27 -28 -29 -30 -31
leaf_value=-0.099751767400676372 -0.10011052435485229 0.080105260041247212 0.091515515861817429 -0.037242763187627217 -0.029997266068468434 -0.1106406406206244 -17.113577408372326 -0.10006313713839454 -0.1920466718885534 -0.066464079043688104 -0.00826575208410767 -0.021041998754857575 0.0062478163535904605 -0.034672987311630127 -0.091101702119204486 0.098938211049716118 -6.4422278567349807 -0.29682701111344761 0.19722087176724487 -0.15988033350860309 0.3002530581044463 0.012053651129932594 0.40238701199018512 -0.09483130173005741 -0.11319338994521684 0.093780608848453559 -0.098549806788202243 -0.13131118767471059 -0.19073431732022866 -0.10838845679643172
leaf_weight=41.975736533358941 0.24839716574024609 30.529689126180159 7.3098994200927363 29.812652025418458 12.855743271854541 219.99747207760811 0.0058759303210526017 0.20647073066538724 7.0840770420618338 50.68985769500452 15.071249921029652 12.654954782317871 107.52041672137341 1.286709604929174 34.910931160777174 14.362389979058355 0.015764723080792464 0.61829931942338578 0.33615847321925674 0.85436943874083215 0.24969528182373224 4.462055529488679 0.59701993799660869 20.716203082717584 28.749803396889607 0.51492490954296966 28.184485921039595 4.3846640225090949 15.823443372750262 12.866479546686604
leaf_count=783 632 517268 146591 295395 207732 2070 40 1585 219 1011433 250871 87337 892781 35 2001 72645 55 145 178 23 2522 83963 3408 1648 995 410 3451 173 303 224
internal_value=0 -0.144898 -0.652979 0.0947272 0.39716 -1.0007 -0.0589449 -5.70851 -1.09609 -0.387741 0.666523 0.134385 -0.0545016 -0.809594 -0.7051 -0.357081 -1.96077 -4.4962 -1.74412 -1.79532 -0.237051 -0.508852 -1.07024 -0.809034 -1.12566 0.306853 -1.09268 -1.15591 -1.89154 -1.01778
internal_weight=0 288.81 92.5579 196.252 58.7064 416.086 137.545 0.212347 277.549 75.1168 45.6009 19.9649 137.333 138.537 104.116 49.2733 8.0543 0.634064 7.42024 17.4411 13.1054 55.1519 269.495 21.3132 34.4212 0.763322 248.182 33.1345 16.6778 54.8422
internal_count=3586916 3498886 1330692 2168194 978393 88030 1189801 1625 11174 1329324 768139 233928 1188176 76856 75653 74646 597 200 397 1368 210254 1095396 10577 5056 1203 1042 5521 1168 326 1007
cat_boundaries=0 1 2 3 4 5 6 7 8 9 10 11 12 13 14 15
cat_threshold=2 2 8654096 2 1 16913024 752 39 8 2 2 1 2 2 2
shrinkage=0.1


Tree=21
num_leaves=31
num_cat=16
split_feature=10 9 2 0 2 7 8 3 1 0 3 5 0 0 1 3 8 9 3 3 3 0 3 7 3 8 5 4 4 3
split_gain=111.312 41.2517 11.496 7.38322 16.7923 11.5864 31.6343 8.10556 6.00471 5.69792 5.04597 4.31774 15.1583 4.07491 3.7594 3.10069 2.82694 2.15771 3.44814 1.87705 1.515 9.27717 1.14912 0.569869 0.714313 0.337645 0.0530438 0.021377 0.000699182 2.14296e-07
threshold=0 1 2 3.5000000000000004 3 4 5 5.5000000000000009 6 2.5000000000000004 3.5000000000000004 7 9.5000000000000018 1.0000000180025095e-35 8 2.5000000000000004 9 10 1.0000000180025095e-35 7.5000000000000009 2.5000000000000004 6.5000000000000009 5.5000000000000009 11 1.5000000000000002 12 13 14 15 1.5000000000000002
decision_type=1 1 1 2 1 1 1 2 1 2 2 1 2 2 1 2 1 1 2 2 2 2 2 1 2 1 1 1 1 2
left_child=3 15 13 4 5 6 -1 -7 9 -4 -10 12 19 16 -15 23 -3 18 -6 -5 25 -22 -19 24 -2 -13 28 -28 -17 -25
right_child=1 2 8 11 17 7 -8 -9 10 -11 -12 20 -14 14 -16 26 -18 22 -20 -21 21 -23 -24 29 -26 -27 27 -29 -30 -31
leaf_value=-0.10559002613660742 -0.10010734615827016 0.19849876658488014 0.0064855777126412708 -0.15795549577892568 -0.47984434617599325 0.053981359087736006 0.5878188166472148 -0.1186539509364688 -0.017932517547718112 0.064831298629938847 0.024019891559761836 -0.094072502118982396 -1.9325877788445465 0.013373987114402491 -0.047869977145476417 -0.15196021756247857 -0.094604510122522828 -0.087190349073273554 -0.10389560018423763 -0.37671148848634117 0.23641378071186536 -0.093700263153068786 -0.10918680373448114 -0.10008425914209372 0.15480649673308466 -0.10877224056750168 -0.1782009659355252 -0.10003013267867129 -0.10002525295308934 -0.10028936813189709
leaf_weight=1.3447941987833474 0.15282272368850902 0.33500863659264724 39.422947119283407 7.4538205635602139 0.37713280829666446 9.3792744497701594 1.2881405326716049 3.8304281550509449 110.81232121565381 29.087424744935589 38.677021068442627 16.876640966016566 0.049066640436649205 14.696184758192951 18.773082960677865 0.80947034431665088 18.53152585382848 78.589161046132588 0.69091262172541268 0.4140305650216759 0.89133066308241637 18.959803526478026 34.03554727273513 0.072101536447648357 0.39162329668091511 210.82277692332718 15.25027023713103 0.035063472736569845 0.00260054093087092 0.17354235787776198
leaf_count=45 586 5430 520716 490 39 2876 989 371 1449875 202666 368110 374 51 287346 290446 23 371831 61039 64 20 3405 1648 11371 262 336 5150 192 257 23 166
internal_value=0 -0.155771 -0.0610507 -0.978368 -0.783893 0.258103 2.33654 0.0392216 0.0475145 0.272761 -0.0663446 -1.07698 -1.80394 -0.438552 -0.312848 -1.67205 -0.893999 -0.874845 -2.36645 -1.69467 -1.05373 -0.788779 -0.938377 0.262077 0.832537 -1.07683 -1.76699 -1.78022 -1.51794 -1.00229
internal_weight=0 287.223 270.336 385.003 129.535 15.8426 2.63293 13.2097 218 68.5104 149.489 255.467 7.91692 52.3358 33.4693 16.8875 18.8665 113.693 1.06805 7.86785 247.551 19.8511 112.625 0.79009 0.544446 227.699 16.0974 15.2853 0.812071 0.245644
internal_count=3586197 3498265 3496420 87932 76794 4281 1034 3247 2541367 723382 1817985 11138 561 955053 577792 1845 377261 72513 103 510 10577 5053 72410 1350 922 5524 495 449 46 428
cat_boundaries=0 1 2 3 4 5 6 7 8 9 10 11 12 13 14 15 16
cat_threshold=2 2 1073372 861696 2 2 640 2 864 2 2 1 2 2 2 2
shrinkage=0.1


Tree=22
num_leaves=29
num_cat=13
split_feature=10 0 2 9 0 8 9 1 0 3 7 2 0 2 3 3 7 0 3 0 0 7 3 3 0 7 3 5
split_gain=109.152 33.5881 29.8011 198.552 30.8367 20.2649 19.6663 14.1341 117.806 1019.02 19.3883 6.42434 6.14867 5.83439 3.55819 3.33897 3.12299 2.83596 2.75807 1.80067 8.16713 6.84928 1.91996 1.62753 1.59886 0.456542 0.382275 0.0372774
threshold=0 1.0000000180025095e-35 1 2 1.5000000000000002 3 4 5 9.5000000000000018 8.5000000000000018 6 7 17.500000000000004 8 5.5000000000000009 1.5000000000000002 9 3.5000000000000004 2.5000000000000004 11.500000000000002 12.500000000000002 10 1.0000000180025095e-35 5.5000000000000009 1.0000000180025095e-35 11 2.5000000000000004 12
decision_type=1 2 1 1 2 1 1 1 2 2 1 1 2 1 2 2 1 2 2 2 2 1 2 2 2 1 2 1
left_child=2 6 3 4 5 -1 18 8 10 -10 -3 16 -13 15 -15 -8 -9 -6 25 22 21 -21 24 -24 -4 -2 -22 -20
right_child=1 7 19 -5 17 -7 13 11 9 -11 -12 12 -14 14 -16 -17 -18 -19 27 20 26 -23 23 -25 -26 -27 -28 -29
leaf_value=-0.056134798489008444 0.067777384308476032 0.28895709830254818 -0.039215067829718266 2.3084218216119008 -0.0019706482977029918 0.22898577354504673 0.050188342590202488 0.13550101847555901 0.43604685713992225 13.94908502797573 -0.0005663055073485459 0.016089492826671166 -0.10013882789662416 -0.072321518325709377 0.027535634798323289 -0.020516253400377743 -0.059869582242692836 -0.094224806540521538 -0.14506316424436125 0.11555063433531439 -0.1081298381555317 -0.10808518669124066 -0.085163120326834305 -0.11146176077329301 -0.11007633955221992 -0.10020736802654154 -0.071304175352244425 -0.16767822113399722
leaf_weight=3.8807451878237771 0.59423208996668109 2.5702149419830835 3.2444394611719636 0.37293084026168694 4.053236010562741 6.9699152675613281 11.984579607682464 0.8491742967435626 2.7964291985390441 0.056941715974971774 23.111194113199556 142.02436514606373 4.7022244914147953 39.740391286546128 3.9204013035468952 15.087450026717304 22.42024580307292 18.73095141796496 0.76706301397643983 3.5856827220413861 19.441573526710275 2.2157921598991379 86.818964689788146 32.282141610133039 171.31480946612464 0.22231303931221269 3.2968947658082461 14.638531905220587
leaf_count=100 700 24849 4372 25 978 2057 245055 13172 28910 144 246623 1445230 46555 853271 73422 146858 374207 669 20 124 534 66 59044 12430 7192 334 357 277
internal_value=0 -0.0592595 -0.889179 0.105922 -0.117361 1.27012 -0.577543 0.167745 0.71189 7.05712 0.284094 0.0326117 0.115757 -0.349793 -0.515485 0.0787516 -0.368875 -0.778131 -1.57059 -0.967471 -0.757697 0.301361 -1.0208 -0.922913 -1.08759 0.220418 -1.0279 -1.66552
internal_weight=0 285.486 356.208 34.0078 33.6348 10.8507 86.955 198.531 28.5348 2.85337 25.6814 169.996 146.727 70.7328 43.6608 27.072 23.2694 22.7842 16.2221 322.2 28.5399 5.80147 293.66 119.101 174.559 0.816545 22.7385 15.4056
internal_count=3587575 3499627 87948 3829 3804 2157 1319937 2179690 300526 29054 271472 1879164 1491785 1318606 926693 391913 387379 1647 1331 84119 1081 190 83038 71474 11564 1034 891 297
cat_boundaries=0 1 2 3 4 5 6 7 8 9 10 11 12 13
cat_threshold=2 262656 1 2 2 520 4 1077420 23564929 8 1 1 2
shrinkage=0.1


Tree=23
num_leaves=30
num_cat=16
split_feature=3 0 4 0 8 6 3 0 5 7 10 7 0 9 2 9 0 10 1 3 2 2 0 3 3 7 0 7 3
split_gain=564.472 10716.3 957.335 937.927 947.354 231.485 217.661 100.501 768.68 2567.05 90.5683 61.6709 23.0851 16.5801 13.3537 21.3145 16.7687 7.22047 6.8046 6.33995 5.3137 4.58314 3.3385 3.01089 2.48587 1.95958 1.60309 0.96547 0.000130616
threshold=8.5000000000000018 9.5000000000000018 0 18.500000000000004 1 2 13.500000000000002 6.5000000000000009 3 4 5 6 1.0000000180025095e-35 7 8 9 3.5000000000000004 10 11 4.5000000000000009 12 13 3.5000000000000004 1.0000000180025095e-35 2.5000000000000004 14 1.0000000180025095e-35 15 15.500000000000002
decision_type=2 2 1 2 1 1 2 2 1 1 1 1 2 1 1 1 2 1 1 2 1 1 2 2 2 1 2 1 2
left_child=10 7 3 4 -3 -4 -7 17 9 -9 14 -5 13 24 15 16 -1 22 19 -14 -15 -20 -2 26 -12 -19 -16 -25 -10
right_child=1 2 5 11 -6 6 -8 8 28 -11 12 -13 18 20 23 -17 -18 25 21 -21 -22 -23 -24 27 -26 -27 -28 -29 -30
leaf_value=0.050312374272005689 -0.11059367233508609 -1.5139694864279301 -0.10063050894830897 -15.682451318618966 -13.794998299608435 -5.4727132141141919 -11.776610547935537 42.895011704243409 -0.10018811196983651 -0.10030557687193489 0.019031662106722087 -5.7793348169237184 0.033835994861306007 0.0078152444799311407 -0.036163915582879645 0.29894046261359447 -0.093293985164426829 -0.10014422209635002 -0.039522718635934227 0.1484788827026273 -0.050122705929095235 0.0045878637833983923 -0.43916403913788493 -0.099158889468609832 -0.15817288730766252 0.027676099559417786 -0.10880789439862126 -0.07809514558463293 -0.1037269091897598
leaf_weight=14.003212208210085 26.077874871695396 0.070688577769033145 0.073282608425870421 0.0064065212063724175 0.56371032730021398 0.64991652616481477 0.059813190579006914 0.01860674265481066 0.40093326753776537 0.054738644497774658 0.83690069015392576 0.34089650259738846 33.606150886606933 26.166122741905269 3.0926984475063639 2.0524114122090387 19.390506890751567 1.5358135211845365 18.109039534835308 5.6322813201477393 40.122063517165316 138.06945860727589 0.31295017979245798 33.424617622963524 14.639040132704219 5.475551475855311 171.1077853066854 62.356310076513608 0.14097282270813594
leaf_count=3724 824 47 22 23 768 494 114 40 1700 168 1038 322 378539 387255 4305 34 763 14899 315736 51859 891934 1408800 103 808 296 49978 7296 70024 165
internal_value=0 -4.61361 -80.5944 -101.396 -124.266 -54.5148 -60.0398 -0.671976 11.9927 108.07 -0.521657 -59.6201 -0.107779 -0.553932 -0.897258 -0.108025 -0.330746 -0.905254 0.0788954 0.400779 -0.33635 -0.0259735 -1.1449 -0.961271 -1.4859 -0.00322468 -1.07518 -0.854457 -1.01109
internal_weight=0 35.7822 1.76471 0.981702 0.634399 0.783012 0.70973 34.0174 0.615251 0.0733454 582.609 0.347303 277.181 81.7641 305.428 35.4461 33.3937 33.4022 195.417 39.2384 66.2882 156.178 26.3908 269.981 15.4759 7.01136 174.2 95.7809 0.541906
internal_count=3592078 69667 1790 1160 815 630 608 67877 2073 208 3522411 345 3435457 1280523 86954 4521 4487 65804 2154934 430398 1279189 1724536 927 82433 1334 64877 11601 70832 1865
cat_boundaries=0 1 2 3 4 5 6 7 8 9 10 11 12 13 14 15 16
cat_threshold=2 2 2 2 2 2 8 2 4551169 1 2 544 23564929 1069212 2 8
shrinkage=0.1


Tree=24
num_leaves=32
num_cat=17
split_feature=3 5 7 0 4 10 9 6 4 0 2 8 2 1 3 0 3 3 7 7 8 3 0 5 0 3 0 3 4 5 0
split_gain=137.705 454.198 2725.05 4106.11 243019 83.9289 25.569 24.0205 101.467 9.84862 14.0023 11.4112 9.08584 5.91204 5.07028 2.31757 6.61654 2.26553 1.71426 1.69976 1.64929 1.4205 9.21166 1.47445 0.924053 0.484394 1.56777 0.38228 0.0286602 0.0205882 0.00884474
threshold=8.5000000000000018 0 1 5.5000000000000009 2 3 4 5 6 3.5000000000000004 7 8 9 10 5.5000000000000009 9.5000000000000018 14.500000000000002 2.5000000000000004 11 12 13 1.0000000180025095e-35 6.5000000000000009 14 3.5000000000000004 10.500000000000002 16.500000000000004 1.5000000000000002 15 16 14.500000000000002
decision_type=2 1 1 2 1 1 1 1 1 2 1 1 1 1 2 2 2 2 1 1 1 2 2 1 2 2 2 2 1 1 2
left_child=5 15 3 28 -5 9 17 24 -9 10 11 -1 14 -14 -8 16 18 27 -2 -12 -18 23 -23 -11 -4 30 -27 -7 -3 -19 -17
right_child=1 2 7 4 -6 6 12 8 -10 21 19 -13 13 -15 -16 25 20 29 -20 -21 -22 22 -24 -25 -26 26 -28 -29 -30 -31 -32
leaf_value=-0.083591141967415808 -0.10010206570610954 -0.10533228501126163 -0.11231329665861695 -4.0383982204759832 -624.3568280788453 -0.10009587758971963 0.0019567021097050127 -0.10048237681602586 -12.826107747384643 -0.15395106393131064 -0.099187280534109398 0.11234918936890215 0.016128755473335248 -0.046496625157006387 0.059427172229523054 -0.12802355487007769 0.052271742169063641 -0.13402210202065523 0.034208117351959597 -0.067948217709777312 -0.112812511402167 0.14992363708815931 -0.095481424874860041 -0.10465003506561738 -0.21247470635620949 -0.29712191821590156 -0.12114024354527603 0.055124173122676291 -0.15059789561605752 -0.15202095219729198 -0.11948894732617921
leaf_weight=4.283480350386526 1.1627264124181238 0.31447483787633246 4.5665204118322391 0.43933687977886215 0.0064076442164417982 0.21073027398914823 165.60873529210204 0.031881668030109611 0.0077982389066164606 6.3115440960391425 37.132209488035187 9.7095554603311012 18.41621043495465 61.021603642979102 16.919566228381882 3.6454461313740634 0.62497001109849926 0.66776289620611351 5.2013481063985756 32.80637762201377 19.113873730409125 1.5994297981770262 35.0219644405297 156.07961687445641 1.1538019038681504 0.76141252933382975 1.5104791137082247 0.64221580059583183 0.25193452582243481 13.161111018175184 1.8207648684942332
leaf_count=118 12053 367 1996 20 21 818 1762074 24 46 139 977 2309 358080 1183865 125897 122 333 39 44414 72560 7392 5715 3047 2073 737 98 45 510 228 432 80
internal_value=0 -2.42846 -9.90408 -57.7574 -129.556 -0.521439 -0.129781 -1.49524 -26.0143 -0.904381 -0.617095 0.305422 -0.0578097 -0.31798 0.0690563 -0.932465 -0.78998 -1.41396 0.0966944 -0.73959 -1.07586 -1.02554 -0.847634 -1.06566 -1.32516 -1.41311 -1.8012 0.167752 -1.25466 -1.51152 -1.25181
internal_weight=0 40.6132 6.77216 1.01215 0.445745 559.592 276.648 5.76 0.0396799 282.944 83.9316 13.993 261.966 79.4378 182.528 33.841 26.1029 14.6818 6.36407 69.9386 19.7388 199.013 36.6214 162.391 5.72032 7.7381 2.27189 0.852946 0.566409 13.8289 5.46621
internal_count=3586629 67976 3439 636 41 3518653 3431715 2803 70 86938 75964 2427 3429916 1541945 1887971 64537 64192 1799 56467 73537 7725 10974 8762 2212 2733 345 143 1328 595 471 202
cat_boundaries=0 1 2 3 4 5 6 7 8 9 10 11 12 13 14 15 16 17
cat_threshold=1 2 1 2 2 1 1 1536 2 10817280 768 2 8 2 2 2 2
shrinkage=0.1


Tree=25
num_leaves=29
num_cat=13
split_feature=10 1 3 5 8 0 2 9 0 7 3 8 3 5 7 0 0 3 9 3 3 0 8 5 3 3 3 3
split_gain=80.7707 20.2991 21.8668 529.475 3054.82 7.39775 8.69844 8.3796 6.57898 4.99639 10.065 23.6999 4.66694 4.05805 5.5939 10.2756 8.32565 2.61139 3.05511 1.65299 1.34098 7.71054 1.21796 1.06696 0.247886 0.118502 0.0478315 0.00242381
threshold=0 1 11.500000000000002 2 3 1.0000000180025095e-35 4 5 3.5000000000000004 6 7.5000000000000009 7 9.5000000000000018 8 9 2.5000000000000004 16.500000000000004 8.5000000000000018 10 14.500000000000002 1.0000000180025095e-35 6.5000000000000009 11 12 10.500000000000002 4.5000000000000009 1.0000000180025095e-35 6.5000000000000009
decision_type=1 1 2 1 1 2 1 1 2 1 2 1 2 1 1 2 2 2 1 2 2 2 1 1 2 2 2 2
left_child=8 13 5 4 -4 7 -7 -3 9 25 11 -11 20 14 15 -2 -16 18 -15 -5 23 -22 -12 -10 -19 26 -1 -27
right_child=1 2 3 19 -6 6 -8 -9 12 10 22 -13 -14 17 16 -17 -18 24 -20 -21 21 -23 -24 -25 -26 27 -28 -29
leaf_value=-0.086496682672476385 -0.1000175408301868 -0.015131132665788073 -44.971204169271793 0.060701327316598601 -0.10018512723628932 0.047248941104503311 -0.0012142107390652401 -0.14411202294487585 -0.1033412536191203 -0.085723826894007871 -0.11279908343507293 0.069087137276323568 -0.57271838137792852 -0.05988764460947972 -0.073063325533089946 0.43067729178467673 0.40031737090937231 -0.12077397844903077 -0.12908785315918658 -0.10123157650393699 0.11494915487580222 -0.094529681590308681 0.010324952002178809 -0.14642492547683747 -0.15862998349731125 -0.10831634719935689 -0.096739918648073631 -0.10485205568444785
leaf_weight=5.6850818389139048 0.70766531245863007 48.30008918607615 0.017828979171579107 1.8618963597116107 0.10182604338926889 43.647960648997369 126.50902347237006 5.6234501508461099 142.92454818636179 24.532555921321542 20.500989392408517 16.566642212499335 0.20996516227569276 39.858729507487247 5.9432312614756659 0.75315677576509188 0.39630741733589842 5.423579734149528 7.5956614230230945 0.95304955830438365 1.859247979920126 31.992406703524466 0.8362011441719579 5.9889261519419952 2.5397586212324921 7.2070725377052423 23.008250360117017 2.80591526307186
leaf_count=191 10847 891866 56 11626 559 767097 1050303 501 2072 1981 1093 72654 41 682978 56256 6137 2681 4553 979 5688 5849 3053 30 136 5657 187 585 88
internal_value=0 -0.152122 0.00136555 -2.71059 -67.8611 0.0369428 0.139228 -0.28582 -0.902177 -0.697504 -0.522506 -0.233212 -1.01531 -0.607426 -0.0281973 1.73593 -0.434706 -0.798564 -0.70964 0.0587609 -1.0099 -0.830244 -1.07974 -1.05074 -1.32847 -0.97979 -0.947104 -1.07346
internal_weight=0 290.233 227.015 2.9346 0.119655 224.081 170.157 53.9235 284.118 101.143 62.4364 41.0992 182.975 63.2181 7.80036 1.46082 6.33954 55.4177 47.4544 2.81495 182.765 33.8517 21.3372 148.913 7.96334 38.7063 28.6933 10.013
internal_count=3585744 3497784 2727696 17929 615 2709767 1817400 892367 87960 76809 75758 74635 11151 770088 75921 16984 58937 694167 683957 17314 11110 8902 1123 2208 10210 1051 776 275
cat_boundaries=0 1 2 3 4 5 6 7 8 9 10 11 12 13
cat_threshold=2 15 2 2 8389906 1 8 2 2 4 1 1 1
shrinkage=0.1


Tree=26
num_leaves=29
num_cat=13
split_feature=2 3 5 7 3 10 9 3 7 0 4 1 3 5 3 3 1 3 3 7 0 0 0 3 0 3 10 4
split_gain=75.7056 56.4062 221.564 2491.86 5979.14 43.6264 28.9427 665.202 955.462 17.0397 10.9334 10.1812 54.6103 2137.56 8.66808 10.3724 8.08576 4.06104 2.34115 2.07846 1.62191 1.52341 1.4545 5.15651 0.803269 0.313167 0.183139 0.122187
threshold=0 8.5000000000000018 1 2 9.5000000000000018 3 4 1.0000000180025095e-35 5 1.5000000000000002 6 7 9.5000000000000018 8 8.5000000000000018 5.5000000000000009 9 3.5000000000000004 1.0000000180025095e-35 10 1.0000000180025095e-35 3.5000000000000004 9.5000000000000018 12.500000000000002 6.5000000000000009 10.500000000000002 11 12
decision_type=1 2 1 1 2 1 1 2 1 2 1 1 2 1 2 2 1 2 2 1 2 2 2 2 2 2 1 1
left_child=6 5 3 4 -3 9 11 8 -8 16 -11 12 17 -14 15 -13 -2 -1 20 -9 -7 -5 23 -4 -20 -24 -16 -21
right_child=1 2 22 21 -6 18 7 19 -10 10 -12 14 13 -15 26 -17 -18 -19 24 27 -22 -23 25 -25 -26 -27 -28 -29
leaf_value=0.032624712966015788 0.017458155695584357 -89.392399036579462 0.057406049733163558 -0.11010923871442041 -6.700682725839207 -0.02675242061491033 18.334453479174297 0.12530523154860035 2.4704784504436175 0.040274405095000687 -0.0624100797890665 -0.023541901998119358 27.542618882430357 0.09608651765988549 -0.14554724995786536 0.075109648639099899 -0.06599639600062028 -0.026022361913017135 -0.073433798668864111 -0.21437520949074074 -0.10498494284671832 -0.29411276020341681 -0.11636620940467353 -0.097611371677057884 -0.095274263759026423 -0.16963271175263786 -0.11261502194318369 -0.14327640789880283
leaf_weight=46.958509678030325 15.419802692193572 0.0089593781716388321 2.5331884660771395 3.4190494451715123 0.36390489253004082 2.7062094779976453 0.043392193238128395 0.30135652123770518 0.30357495524645328 47.047461072265236 13.300678617153606 102.11300682475667 0.028940616204636168 1.4532063400874538 2.536567815322182 11.899960611690515 55.384629759032009 15.773081791520829 48.043329425385195 0.26209145109351117 127.68377384749328 0.51813670513965915 2.8031753067120189 14.032857739577011 25.92787322710501 1.8205940470380291 5.0516409267195463 3.1087534872127098
leaf_count=270219 307630 84 32096 1148 277 4161 22 33 82 866218 211454 686620 89 3464 89 69590 948123 90383 65802 117 7015 486 146 9671 2806 116 15781 169
internal_value=0 -0.752256 -2.20689 -8.74275 -86.8764 -0.664121 0.0346181 2.69138 44.5445 -0.213999 0.176428 -0.0209846 0.277346 6.32011 -0.186033 -0.132453 -0.546769 0.178786 -0.952996 -1.2631 -1.03361 -1.34324 -0.877484 -0.73907 -0.810892 -1.3734 -1.23624 -1.48805
internal_weight=0 361.014 25.4999 4.31005 0.372864 335.514 189.834 4.01917 0.346967 131.153 60.3481 185.815 64.2137 1.48215 121.601 114.013 70.8044 62.7316 204.361 3.6722 130.39 3.93719 21.1898 16.566 73.9712 4.62377 7.58821 3.37084
internal_count=3593891 2457233 44024 1995 361 2413209 1136658 423 104 2333425 1077672 1136235 364155 3553 772080 756210 1255753 360602 79784 319 11176 1634 42029 41767 68608 262 15870 286
cat_boundaries=0 1 2 3 4 5 6 7 8 9 10 11 12 13
cat_threshold=21214976 2 2 1 1 2 2 644 2 768 4 2 1
shrinkage=0.1


Tree=27
num_leaves=31
num_cat=17
split_feature=3 5 10 0 7 7 10 9 7 3 2 7 5 1 0 4 5 9 3 3 3 0 0 8 3 7 0 3 4 3
split_gain=1149 6130.76 35652.3 201852 69419 21745.8 52.9338 79.2947 2081.02 11221 10.0875 13.5823 178.75 8.16917 6.02797 5.57829 3.78976 2.97527 2.5511 2.15541 1.26448 5.21895 3.14934 1.66785 8.02186 1.10818 0.913868 0.184631 0.0728277 0.00224771
threshold=9.5000000000000018 0 1 1.5000000000000002 2 3 4 5 6 1.0000000180025095e-35 7 8 9 10 4.5000000000000009 11 12 13 1.0000000180025095e-35 2.5000000000000004 14.500000000000002 6.5000000000000009 5.5000000000000009 14 18.500000000000004 15 1.5000000000000002 10.500000000000002 16 12.500000000000002
decision_type=2 1 1 2 1 1 1 1 1 2 1 1 1 1 2 1 1 1 2 2 2 2 2 1 2 1 2 2 1 2
left_child=6 2 26 4 -4 -5 10 13 9 -9 11 12 -1 16 -13 -15 -8 25 -19 -10 21 22 -3 24 -22 -12 29 -23 -25 -2
right_child=1 20 3 5 -6 -7 7 8 19 -11 17 14 -14 15 -16 -17 -18 18 -20 -21 23 27 -24 28 -26 -27 -28 -29 -30 -31
leaf_value=0.0043636540832787231 -0.11206972502000914 0.0053152756067507793 -481.99577875690875 -170.37763404501533 -161.93824851104671 -6.6577539991882988 0.022590888159479086 -78.610911998080553 0.043498344762486651 -0.10016789850221137 -0.31284959372009702 -0.0091498259038159929 2.4790582541078563 -0.034774564537582979 -0.10942459154680238 0.010333271278170339 -0.05989908146966031 -0.10150453171292384 -0.077529225064304902 -0.13776466446105148 0.86040403836587154 -0.11891570654784421 0.4204847804969572 -0.10767789146055673 -0.10774220587143496 -0.16245579765707652 -0.2328244232128498 -0.163056763296683 -0.1267133902828475 -0.10612067467405528
leaf_weight=6.9943492038879853 1.5945513769984252 3.7886673955026682 0.0078855219844891078 0.008221866853949128 0.048196275565683726 0.61175657276237372 6.4967780399728925 0.021632453000145047 0.69459373831436977 0.11487426825657146 0.66165248410415112 15.848159379524924 0.30458955036010582 32.192695519007394 9.6425233109127912 184.75134798821995 39.017171600316836 121.43446867783493 69.943876173282348 11.810280861906662 0.1034494814085043 2.232292557711534 0.19197060150509049 12.775773927106545 0.49557434719099541 1.8880005706522265 0.78034372138790764 1.6465146773093904 2.3850906046458737 1.0555111739595302
leaf_count=1103 20 33947 168 97 672 821 75562 137 1028 314 42 3152 60 542991 397 2162982 672362 11499 71207 345 213 455 702 4383 112 104 21 732 1645 28
internal_value=0 -7.079 -42.7417 -252.631 -2069.41 -88.2893 -0.46604 -0.171197 -2.6175 -125.419 -0.823804 -0.0968742 1.07634 -0.0533695 -0.470814 0.0347927 -0.394554 -0.89554 -0.927422 -1.27696 -0.878665 -0.55102 0.253373 -1.04206 0.594535 -2.01484 -1.37708 -1.37653 -1.10673 -1.097
internal_weight=0 27.7258 4.10647 0.67606 0.0560818 0.619978 501.817 275.099 12.6414 0.136507 226.718 32.7896 7.29894 262.458 25.4907 216.944 45.5139 193.928 191.378 12.5049 23.6193 7.85945 3.98064 15.7599 0.599024 2.54965 3.43041 3.87881 15.1609 2.65006
internal_count=3587301 44016 1827 1758 840 918 3543285 3455721 1824 451 87564 4712 1163 3453897 3549 2705973 747924 82852 82706 1373 42189 35836 34649 6353 325 146 69 1187 6028 48
cat_boundaries=0 1 2 3 4 5 6 7 8 9 10 11 12 13 14 15 16 17
cat_threshold=2 2 2 2 2 1 2 5599745 2 1 15 1 2 2 2 2 2
shrinkage=0.1


Tree=28
num_leaves=30
num_cat=12
split_feature=3 5 10 7 3 10 3 0 0 0 3 0 0 9 0 1 9 4 5 9 3 3 0 8 0 3 0 5 3
split_gain=77.3777 440.751 2403.18 565604 146.738 52.7528 31.2834 430.888 831.8 109.779 18.4545 99.9679 92.0294 15.7487 8.0497 6.93923 6.42397 4.62955 3.38564 3.0436 1.83632 1.7546 3.66981 1.45437 0.990371 0.55118 0.0112107 0.00605498 0.00162659
threshold=9.5000000000000018 0 1 2 11.500000000000002 3 4.5000000000000009 13.500000000000002 15.500000000000002 7.5000000000000009 10.500000000000002 1.5000000000000002 1.0000000180025095e-35 4 3.5000000000000004 5 6 7 8 9 2.5000000000000004 14.500000000000002 6.5000000000000009 10 1.5000000000000002 1.5000000000000002 9.5000000000000018 11 12.500000000000002
decision_type=2 1 1 1 2 1 2 2 2 2 2 2 2 1 2 1 1 1 1 1 2 2 2 1 2 2 2 1 2
left_child=5 2 3 4 -2 6 14 9 -9 -8 11 12 -3 20 16 18 -1 -17 -15 -16 25 22 -12 -23 28 -7 -13 -22 -4
right_child=1 10 24 -5 -6 13 7 8 -10 -11 21 26 -14 15 19 17 -18 -19 -20 -21 27 23 -24 -25 -26 -27 -28 -29 -30
leaf_value=-0.047138280237799896 -5.2329738712916161 0.18257101167609383 -0.11080895841110311 -2185.2405584543249 -1.6295173491146777 -0.10030181148484758 -0.056174189346054504 15.986654316338139 -0.1001023233558839 1.430962862631618 0.032325132531963695 -0.10004081742638005 2.5624251352421608 0.020260254733571428 -0.096777718758049497 -0.032460682884100235 -0.20706328912775274 0.0092182757726650463 -0.057410111576106815 -0.22766558689936983 -0.12309047947036783 0.041649660271243477 -0.15739641189908951 -0.10997120042879445 -0.24611612129360361 0.076870926902805559 -0.11718998455829993 -0.13406940950301924 -0.10550883582111299
leaf_weight=55.847471256937524 0.15658021865094701 0.35384056336983249 1.4583839736878883 0.0011898126953502333 0.4060815291711744 0.25502759771319161 10.136901459970776 0.049727250239811525 0.090895915668759389 0.52194140959409285 3.0142316467371661 0.47023856521879626 0.30047133091978245 6.6214518349661375 139.57054922660157 31.089997393511894 2.6300013827934654 186.63447321222696 36.818219121459002 1.799502250874524 0.52760590514299111 0.66304175410368771 1.5406849578079138 13.798070193870174 0.66974489297783524 0.56371756361361336 2.0130944985219847 10.487226894814059 0.96032165769670275
leaf_count=53798 103 3741 20 486 103 792 23621 33 105 419 22289 5391 3696 76879 9074 524130 118 2204291 659033 54 38 346 735 5539 23 504 77 462 26
internal_value=0 -2.167 -12.3453 -72.3794 -26.323 -0.389798 -0.765775 0.892007 55.8851 0.166478 -0.488975 1.75794 12.7544 -0.0996912 -0.855359 -0.0485649 -0.543308 0.0312327 -0.370434 -0.984438 -1.22804 -0.859716 -0.318475 -1.03019 -1.38503 0.216841 -1.13943 -1.33544 -1.08705
internal_weight=0 25.806 3.6523 0.563852 0.562662 483.645 210.647 10.7995 0.140623 10.6588 22.1537 3.13764 0.654312 272.998 199.848 261.164 58.4775 217.724 43.4397 141.37 11.8336 19.016 4.55492 14.4611 3.08845 0.818745 2.48333 11.0148 2.41871
internal_count=3595926 42575 761 692 206 3553351 87222 24178 138 24040 41814 12905 7437 3466129 63044 3464333 53916 2728421 735912 9128 1796 28909 23024 5885 69 1296 5468 500 46
cat_boundaries=0 1 2 3 4 5 6 7 8 9 10 11 12
cat_threshold=2 1 8 2 2 15 1 1 2 1 2 2
shrinkage=0.1


Tree=29
num_leaves=31
num_cat=10
split_feature=10 0 3 0 3 5 3 3 0 0 3 0 9 9 2 7 3 7 3 2 0 3 0 0 3 3 3 7 3 7
split_gain=86.1712 100.085 11760.3 237845 37.6936 1126.58 2248.81 310.082 77.0702 13.8526 9.41863 13.4355 7.88481 7.7787 12.6101 22.6218 9.48229 39.521 6.82217 4.87686 2.18556 1.71285 1.61365 1.21437 1.16453 0.81916 0.591449 4.53712 0.00389832 5.65372e-09
threshold=0 13.500000000000002 4.5000000000000009 15.500000000000002 9.5000000000000018 1 11.500000000000002 12.500000000000002 4.5000000000000009 1.0000000180025095e-35 1.0000000180025095e-35 8.5000000000000018 2 3 4 5 1.0000000180025095e-35 6 1.5000000000000002 7 1.0000000180025095e-35 2.5000000000000004 3.5000000000000004 6.5000000000000009 12.500000000000002 1.5000000000000002 2.5000000000000004 8 1.0000000180025095e-35 9
decision_type=1 2 2 2 2 1 2 2 2 2 2 2 1 1 1 1 2 1 2 1 2 2 2 2 2 2 2 1 2 1
left_child=1 13 26 -4 9 20 8 -8 -7 12 11 -11 19 16 15 -15 17 -1 -12 -2 24 -14 -16 -22 -6 -18 28 -28 -3 -5
right_child=4 2 3 29 5 6 7 -9 -10 10 18 -13 21 14 22 -17 25 -19 -20 -21 23 -23 -24 -25 -26 -27 27 -29 -30 -31
leaf_value=-0.22982849073866368 0.010661598600300862 -0.10543483947105384 -780.60372397189269 -0.10013283682014314 0.11283162325429348 -46.816794435843555 -1.0594038844106266 -10.858753060774793 -34.301285989621327 0.025618959789884089 -0.037841600553512364 0.16930252795378345 0.018775047027538051 0.15669365126017765 -0.077403767143953722 -0.0481444292575006 -0.0070793929475809403 -1.8458340209228146 0.010459380183420575 -0.044266945535317306 -0.058196074102373388 -0.12989024581143349 -0.097933891109070331 -0.12785706256224116 -0.10003982654903505 -0.13620288303168313 0.41581122935852949 -0.10179485401965355 -0.10090690400033915 -0.10007550866244093
leaf_weight=1.2557709299026103 25.235206837874102 6.3520262241363472 0.004098865991637334 0.024500823696143925 0.93952366454139435 0.0085256873885532786 0.10571916033569552 0.046491554274126656 0.011634932719199936 53.315791030067274 41.78538704503616 7.4127204146582093 0.83850691773113506 6.9403310404068179 59.728207814469243 24.158516952437619 0.68301785551011596 0.17207297484247863 97.415743276568847 34.855963489590891 7.0676723815431606 10.232374553877889 106.63812071451181 3.8742608989894256 0.35375286386442895 1.7504813297005055 0.19346562493592501 1.3585071852430708 2.7137499740347266 0.057752797147259123
leaf_count=47 366618 135 33 26 10926 266 107 271 36 597685 493676 68769 978 1524 71236 4789 24 24 1037197 889055 26719 299 9476 1387 4009 72 20 138 314 81
internal_value=0 -0.952739 -3.93235 -371.48 -0.109907 -1.81431 -82.0947 -40.5254 -395.939 -0.0318986 0.102965 0.431574 -0.410797 -0.794319 -0.766832 -0.0183928 -2.19998 -4.24577 -0.0403961 -0.267922 -0.68331 -1.1863 -0.854283 -0.828613 0.546044 -0.999614 -0.943142 -0.372712 -1.04079 -1.00093
internal_weight=0 212.031 10.7041 0.0863525 283.499 12.4076 0.172371 0.152211 0.0201606 271.092 199.93 60.7285 71.1621 201.327 197.465 31.0988 3.86134 1.42784 139.201 60.0912 12.2352 11.0709 166.366 10.9419 1.29328 2.4335 10.6177 1.55197 9.06578 0.0822536
internal_count=3585937 87939 747 140 3497998 43721 680 378 302 3454277 2197327 666454 1256950 87192 87025 6313 167 71 1530873 1255673 43041 1277 80712 28106 14935 96 607 158 449 107
cat_boundaries=0 1 2 3 4 5 6 7 8 9 10
cat_threshold=2 1 1 2 66304 2 1 2364032 2 2
shrinkage=0.1


Tree=30
num_leaves=30
num_cat=13
split_feature=10 3 5 7 4 1 5 3 7 9 0 3 2 7 3 0 0 9 0 0 0 5 0 3 0 3 3 3 5
split_gain=40.1817 21.955 98.0659 8307.09 38224.2 15.4344 69.8522 89.6507 51.7687 12.2187 6.60896 6.37052 6.3372 5.80438 7.64629 3.97567 3.84737 3.21239 3.04188 3.01037 2.80173 2.34076 2.16288 1.60812 0.473452 0.442078 0.20435 0.0678523 0.00343159
threshold=0 8.5000000000000018 1 2 3 4 5 6.5000000000000009 6 7 3.5000000000000004 10.500000000000002 8 9 7.5000000000000009 18.500000000000004 1.0000000180025095e-35 10 6.5000000000000009 1.0000000180025095e-35 5.5000000000000009 11 3.5000000000000004 2.5000000000000004 1.5000000000000002 1.5000000000000002 1.0000000180025095e-35 10.500000000000002 12
decision_type=1 2 1 1 1 1 1 2 1 1 2 2 1 1 2 2 2 1 2 2 2 1 2 2 2 2 2 2 1
left_child=5 9 3 4 -3 6 7 8 -1 12 13 21 15 26 -15 -2 -14 19 22 -8 -5 -12 -4 25 -19 -11 -7 -20 -25
right_child=1 2 18 20 -6 10 17 -9 -10 23 11 -13 16 14 -16 -17 -18 24 27 -21 -22 -23 -24 28 -26 -27 -28 -29 -30
leaf_value=0.88169680354751989 0.0085346458690397677 -0.10004903467339812 -0.050840412198087041 -0.12054211438449176 -582.89482202000079 -0.074201751773359997 0.13100974509718405 1.8538975319406579 -0.051762884969611955 -0.10027877946429159 -0.1724735197792355 -0.83526736433916859 -0.06893915534133864 -0.010442807955577692 -0.10211850588661815 -0.10020266343875113 -0.016791798655471878 -0.17337119207102497 -0.11367462600570384 -0.066092838765984444 -0.44773241623835114 -0.094555787462845681 0.072104404502944808 -0.11812675693485959 -0.30503195293744179 0.060837110293812363 -0.10025649019498861 -0.13707259390245474 -0.12711573107812704
leaf_weight=0.89470437123964075 181.32431902510416 0.0062468151263601612 8.0634759913191676 0.45498162408957993 0.0013727004240618014 3.480387919969874 0.85877640643439324 0.40787124036978634 1.7684479416629988 0.23486500804319096 3.9953982186546 0.1170918206917112 19.316538482881995 31.383105599978038 12.812155547275678 3.4259602601537145 52.877523522567387 1.1623890129680692 3.7465971663744355 7.9319961200467288 0.61611045541327281 110.13323510230188 1.7396157078710519 0.44564131361039472 0.35701374179370748 0.61953223308147187 22.284468437560463 1.8520614772712995 9.0345578621671674
leaf_count=141 1798540 141 54489 1176 82 170 1321 20 189 769 454 29 521962 71663 1076 32258 1078895 27 1178 1999 145 9980 7059 28 20 503 792 968 443
internal_value=0 -0.151466 -1.27165 -10.489 -1050.94 -0.738805 0.312774 4.73285 2.61839 -0.0823957 -0.789324 -0.980399 -0.0395154 -0.590122 -0.370195 0.0618355 -0.270041 -0.70044 -0.626082 -0.468378 -3.08748 -0.972835 -0.290231 -1.14851 -2.04307 0.16548 -0.967369 -1.21415 -1.26693
internal_weight=0 283.759 16.4805 1.07871 0.00761952 197.587 13.3812 3.07102 2.66315 267.279 184.206 114.246 256.944 69.9601 44.1953 184.75 72.1941 10.3102 15.4018 8.79077 1.07109 114.129 9.80309 10.3346 1.5194 0.854397 25.7649 5.59866 9.4802
internal_count=3586517 3498636 65238 1544 223 87881 3717 350 330 3433398 84164 10463 3431655 73701 72739 1830798 1600857 3367 63694 3320 1321 10434 61548 1743 47 1272 962 2146 471
cat_boundaries=0 1 2 3 4 5 6 7 8 9 10 11 12 13
cat_threshold=2 2 2 2 8 2 1 1 10821376 8 1 2 2
shrinkage=0.1


Tree=31
num_leaves=29
num_cat=14
split_feature=10 2 1 9 3 7 0 7 3 8 1 0 0 3 9 0 9 0 7 5 3 3 3 8 9 3 3 3
split_gain=57.8919 7.84688 7.43815 211.196 63.1776 11.1171 6.84362 5.17864 9.13184 20.4382 4.46135 4.59227 26.5499 4.3629 3.79589 3.18399 3.05043 7.01507 2.7653 5.17751 2.76397 2.42249 1.62786 1.49114 0.887898 0.163282 0.0799545 0.000847418
threshold=0 1 2 3 2.5000000000000004 4 3.5000000000000004 5 7.5000000000000009 6 7 5.5000000000000009 7.5000000000000009 7.5000000000000009 8 17.500000000000004 9 6.5000000000000009 10 11 10.500000000000002 2.5000000000000004 2.5000000000000004 12 13 4.5000000000000009 2.5000000000000004 6.5000000000000009
decision_type=1 1 1 1 2 1 2 1 2 1 1 2 2 2 1 2 1 2 1 1 2 2 2 1 1 2 2 2
left_child=1 10 3 5 -5 -3 7 25 9 -9 11 13 -13 -1 21 -16 20 -18 19 -12 22 -4 -8 -10 -20 26 -2 -27
right_child=6 2 14 4 -6 -7 16 8 23 -11 18 12 -14 -15 15 -17 17 -19 24 -21 -22 -23 -24 -25 -26 27 -28 -29
leaf_value=-0.015062587833665375 -0.093592175433528879 0.17571772612132558 0.10907403414838944 -0.10015106174903998 3.6024430119701236 0.0043817494467812326 -0.097338080740116378 0.07776641244512883 0.039960813766001975 -0.080004481753813972 -0.10000534315204908 0.69987652038956338 -0.10000365615328673 0.27996922986135736 -0.0043760309459579287 -0.10014702776542234 -0.69935887092746962 -0.12596275294525611 -0.072386218540581457 0.34144149739754437 -0.47280545114794426 -0.13057580869320287 -0.056405838359449581 -0.11261032911943039 -0.11783160565041362 -0.10648162456357568 -0.080530547616274151 -0.10401274935413206
