tree
version=v3
num_class=1
num_tree_per_iteration=1
label_index=0
max_feature_idx=10
objective=cross_entropy
feature_names=adm_past_year agegroup_rm an110mdc_ra count_proc drg11_type_m flag_emergency gender indstat_flag pat_remoteness cc_hypertension cc_osteoporosis
feature_infos=[0:238] 7:6:3:5:2:4:8:0:1:9 6:5:8:14:1:4:11:3:21:9:23:2:13:10:7:18:12:19:20:16:22:15:0:17:24 [0:36] 1:0 1:0 1:0 1:0 1:0:2:3 1:0 1:0
tree_sizes=3226 3079 3045 2428 2995 3291 3349 2709 2830 2223 2000 1885 1922 3307 2868 3397 3401 3395 3448 3394

Tree=0
num_leaves=30
num_cat=12
split_feature=2 5 9 3 0 8 3 1 3 0 0 0 2 4 0 2 0 3 0 1 0 8 0 3 5 3 0 6 3
split_gain=2139.42 942.791 438.191 460.586 450.047 199.857 189.659 50.4322 44.7579 452.998 1172.23 71.1987 27.6467 17.7623 14.9443 17.0375 28.1879 14.6411 11.7924 10.7374 8.09469 7.40317 110.479 11.034 5.14837 2.40151 2.01398 1.36548 1.00118
threshold=0 1 2 24.500000000000004 152.50000000000003 3 1.5000000000000002 4 1.0000000180025095e-35 21.500000000000004 27.500000000000004 8.5000000000000018 5 6 1.5000000000000002 7 26.500000000000004 4.5000000000000009 9.5000000000000018 8 1.5000000000000002 9 29.500000000000004 4.5000000000000009 10 1.0000000180025095e-35 4.5000000000000009 11 14.500000000000002
decision_type=1 1 1 2 2 1 2 1 2 2 2 2 1 1 2 1 2 2 2 1 2 1 2 2 1 2 2 1 2
left_child=1 2 4 5 6 -4 -1 12 9 11 -11 -3 21 19 25 16 -16 20 -19 -14 -10 22 -2 -23 -15 27 -17 -9 -27
right_child=7 8 3 -5 -6 -7 -8 14 17 10 -12 -13 13 24 15 26 -18 18 -20 -21 -22 23 -24 -25 -26 28 -28 -29 -30
leaf_value=-7.9984493420784037 -9.0147653532602856 -8.864094404926206 -8.8728682059375199 37.816690480032527 37.816690480032527 -8.538566589689264 -8.669120036138839 -9.281376613208602 -9.1931599658297483 73.15385802141455 -9.2995329085170848 -4.81227353817913 -9.19291736273947 -9.2297247642851552 -9.1606928793358584 -9.2709497246074353 -8.3208576452534597 -8.952421632895442 -7.4638358933788336 -9.2341726928464514 -9.1128889049736639 -9.1680108174417931 2.3409458110057297 -8.9760613478206075 -9.2772421359188701 -9.2886982833156448 -9.2443795237993491 -9.264138901338546 -9.1784263367717482
leaf_weight=11.990006033593096 3.1604723660711902 1.6075748602452211 57.187762564208242 0.0021224111696928048 0.0021224111696928048 26.019548134063371 6.5036742271331596 104.64689766253287 47.004433772017364 0.0024256127653642374 0.0059629647148540244 0.0445706345635698 98.803091174777364 30.082449516048655 18.006334229285134 76.968331464158837 0.40871575096389173 2.3047363958903584 0.054475220022140891 169.00952171949029 17.144938495985116 25.090841646524503 0.008590711877331958 3.4006080298422594 94.209384865971515 286.11972310645797 45.328133216753486 81.934773601242341 0.8257190122094461
leaf_count=118634 31271 15906 565839 21 21 257448 64350 1035419 465081 24 59 441 977598 297648 178162 761556 4044 22804 539 1672249 169639 248259 85 33647 932146 2830985 448495 810696 8170
internal_value=0 3.18616 5.30243 4.32381 9.70503 4.31193 9.65219 -0.546857 0.496178 5.62427 237.419 4.44736 -0.264677 -0.341066 -0.734176 -0.459989 0.372447 0.368143 2.81473 -0.204769 0.278166 0.53615 2.15541 0.544222 -0.662187 -0.831156 -0.569243 -0.742841 -0.888582
internal_weight=0 169.874 101.705 83.2094 18.4958 83.2073 18.4937 1038 68.1691 1.66053 0.00838858 1.65215 423.765 392.104 614.239 140.712 18.415 66.5086 2.35921 267.813 64.1494 31.6605 3.16906 28.4914 124.292 473.527 122.296 186.582 286.945
internal_count=11951236 1680806 1006313 823308 183005 823287 182984 10270430 674493 16430 83 16347 4192903 3879641 6077527 1392257 182206 658063 23343 2649847 634720 313262 31356 281906 1229794 4685270 1210051 1846115 2839155
cat_boundaries=0 1 2 3 4 5 6 7 8 9 10 11 12
cat_threshold=64 2 2 1 960 3211392 2 3477632 768 4 2 2
shrinkage=1


Tree=1
num_leaves=29
num_cat=17
split_feature=0 5 9 8 3 3 3 2 0 9 5 0 5 9 5 0 8 5 1 3 8 0 6 5 3 0 9 4
split_gain=3873.68 3682.08 6060.76 3105.2 5884.83 2495.5 2127.57 1119.98 1041.38 1348.61 2086.67 420.079 1463.87 409.07 349.309 332.615 352.078 330.948 48.0986 1.07709e-12 5.74263e-13 1.04297e-12 3.03566e-13 2.50223e-13 1.57169e-13 1.29414e-13 3.25949e-13 4.10366e-14
threshold=178.00000000000003 0 1 2 2.5000000000000004 1.0000000180025095e-35 24.500000000000004 3 2.5000000000000004 4 5 152.50000000000003 6 7 8 29.500000000000004 9 10 11 1.0000000180025095e-35 12 237.50000000000003 13 14 1.5000000000000002 237.50000000000003 15 16
decision_type=2 1 1 1 2 2 2 1 2 1 1 2 1 1 1 2 1 1 1 2 1 2 1 1 2 2 1 1
left_child=6 2 3 4 -2 -5 7 11 13 22 -11 17 -13 23 -15 18 -17 -1 -9 -4 21 -3 -10 -8 -21 27 -27 -22
right_child=1 20 19 5 -6 -7 8 15 9 10 -12 12 -14 14 -16 16 -18 -19 -20 24 25 -23 -24 -25 -26 26 -28 -29
leaf_value=0.2539651515737083 -223.5797401058685 -0.10001247533443086 -0.10001238305019221 -115.38321945301021 -35.426431829606244 -0.10001322033605241 -0.10001070495593481 -0.025062828621150807 -0.10001141158654279 -79.584773483073135 -0.10002044564718814 -30.928235290273854 -0.10001138198487108 -13.664352277584939 -0.1000102497896319 -1.0032020742059595 0.013530075297285725 0.0040022894200596902 -0.07205833930392086 -0.10000977122185031 -0.10000984265665454 -0.10000965471922717 -0.10001017840197944 -0.1000099800101879 -0.1000106489425584 -0.10000971713601486 -0.10001113486990154 -0.10000946927323023
leaf_weight=180.51600479599438 0.0040272108744829884 0.0026388126352685504 0.0026136464002775041 0.0034697161172516644 0.0028307424945523958 0.004092319417395629 0.043297733369399793 410.29806925684534 0.003013077337527648 0.0088067192846210673 0.005284822116664146 0.019462689408101141 0.07384467542578832 0.095839518719003522 0.023674890304390735 7.6097248674486764 6.1651608539832505 74.963332610634097 566.01033769904461 0.0058609929401427516 0.008064670939347705 0.002605177549412474 0.0059146095154574141 0.0053495001993724136 0.0031294507207348943 0.004370754882984329 0.002578274026745929 0.004635148405212842
leaf_count=1006140 50 24 23 35 29 36 412 4165022 28 97 43 110 666 940 232 7214 59739 673804 6036161 60 82 27 59 54 30 45 25 49
internal_value=0 -275.958 -538.963 -971.875 -1459.16 -529.958 -0.129025 -0.112835 -105.613 -305.094 -497.752 1.71461 -65.3037 -78.3067 -109.774 -0.595859 -5.48148 1.8062 -0.53303 -1.00011 -1.0001 -1.00011 -1.00011 -1.00011 -1.0001 -1.0001 -1.0001 -1.0001
internal_weight=0 0.0509169 0.0260241 0.01442 0.00685795 0.00756204 1245.85 1245.66 0.191181 0.0230192 0.0140915 255.573 0.0933074 0.168162 0.119514 990.083 13.7749 255.479 976.308 0.0116041 0.0248928 0.00524399 0.00892769 0.0486472 0.00899044 0.0196488 0.00694903 0.0126998
internal_count=11951236 515 263 150 79 71 11950721 11948856 1865 227 140 1680720 776 1638 1172 10268136 66953 1679944 10201183 113 252 51 87 466 90 201 70 131
cat_boundaries=0 1 2 3 4 5 6 7 8 9 10 11 12 13 14 15 16 17
cat_threshold=2 2 1 64 2 2 2 2 2 4 2 960 8 2 2 2 2
shrinkage=0.1


Tree=2
num_leaves=28
num_cat=13
split_feature=3 9 0 3 0 3 2 8 0 3 5 1 0 5 0 8 1 6 2 0 7 3 5 0 0 0 6
split_gain=1860.46 3656.23 3409.37 6921.21 1128.74 969.489 793.692 492.708 317.464 674.187 89077.1 216.904 140.996 131.345 105.241 96.6501 45.8668 45.6104 25.6735 14.0605 8.60229 0.597757 3.35926e-13 1.27766e-13 1.59948e-13 2.33077e-14 1.20745e-14
threshold=24.500000000000004 0 1.0000000180025095e-35 34.500000000000007 8.5000000000000018 27.500000000000004 1 2 21.500000000000004 1.0000000180025095e-35 3 4 29.500000000000004 5 152.50000000000003 6 7 8 9 1.5000000000000002 10 1.0000000180025095e-35 11 5.5000000000000009 2.5000000000000004 1.0000000180025095e-35 12
decision_type=2 1 2 2 2 2 1 1 2 2 1 1 2 1 2 1 1 1 1 2 1 2 1 2 2 2 1
left_child=6 22 3 5 7 -3 8 -4 11 10 -10 13 16 -1 -11 21 18 -13 -8 -18 -17 -14 23 24 -2 -24 -27
right_child=1 2 4 -5 -6 -7 12 -9 9 14 -12 17 15 -15 -16 20 19 -19 -20 -21 -22 -23 25 -25 -26 26 -28
leaf_value=0.37440092371389833 -0.10000968455273151 -85.112006470760505 -39.193129250875216 -301.16514171486006 72.128752154957667 -22.952119224185356 -0.056577428706006919 -0.10000919419092827 -0.099288137630031789 0.11799647907309391 -408.95190842428741 0.039497105633808649 -0.4004767820523556 0.035779999178996519 -2.1714107278544215 0.35176602394403189 -0.080274626717134312 0.12908696710332709 -0.0038851475733872524 -0.041464435905612121 -0.028829037491353238 -0.46631042250377697 -0.10000928707612662 -0.10000887889874072 -0.10001036120345171 -0.10000867256689779 -0.10000898446448381
leaf_weight=63.233457490903675 0.039177788807137411 0.0058815228080529658 0.0076739845708077474 0.0013286161607943697 0.0013844894201611175 0.004375963550800179 139.66118608696706 0.0055596531611308043 0.55051004175038543 1.8347054954938355 0.0053809215605714602 121.83979117339914 1.5465659745968885 13.988863246930121 0.2254634409910076 0.66404236088419566 405.39112608266521 106.49512611647515 260.48341253286344 121.2751414693704 5.6193871757568568 12.745026400672939 0.0018419687330606385 0.0017739804679877116 0.0038355151482392098 0.0019051997223868968 0.0035619899135781448
leaf_count=230243 412 302 279 210 21 312 1472019 188 2244 10139 83 689263 1304 125743 788 6099 4684161 622248 2693003 1352000 54120 5914 20 20 39 22 40
internal_value=0 -154.255 -458.941 -864.103 -137.817 -585.939 -0.106519 -227.695 1.26366 -9.66447 -40.5691 1.39858 -0.559654 2.77167 -1.32555 -3.15476 -0.508081 0.778713 -0.232072 -0.700085 0.113928 -4.59186 -1.0001 -1.0001 -1.0001 -1.00009 -1.00009
internal_weight=0 0.0783007 0.0262042 0.0115861 0.0146181 0.0102575 1255.56 0.0132336 308.173 2.61606 0.555891 305.557 947.386 77.2223 2.06017 20.575 926.811 228.335 400.145 526.666 6.28343 14.2916 0.0520964 0.0447873 0.0430133 0.00730916 0.00546719
internal_count=11951236 1865 1312 824 488 614 11949371 467 1680751 13254 2327 1667497 10268620 355986 10927 67437 10201183 1311511 4165022 6036161 60219 7218 553 471 451 82 62
cat_boundaries=0 1 2 3 4 5 6 7 8 9 10 11 12 13
cat_threshold=2 64 1 2 896 2 4 960 2 270 2 2 2
shrinkage=0.1


Tree=3
num_leaves=22
num_cat=10
split_feature=3 0 2 3 0 0 1 0 9 9 5 8 0 1 0 0 0 0 8 6 6
split_gain=1443.97 12195.7 632.831 142.188 2961.45 84.8405 82.8746 389.85 87.6851 64.4634 61.8265 53.2561 46.46 43.1782 27.3694 9.39145e-14 3.64604e-14 1.02943e-14 1.52222e-15 6.60496e-16 8.67362e-18
threshold=34.500000000000007 3.5000000000000004 0 25.500000000000004 5.5000000000000009 29.500000000000004 1 153.50000000000003 2 3 4 5 3.5000000000000004 6 146.50000000000003 1.0000000180025095e-35 1.0000000180025095e-35 1.5000000000000002 7 8 9
decision_type=2 2 1 2 2 2 1 2 1 1 1 1 2 1 2 2 2 2 1 1 1
left_child=2 16 6 5 15 13 9 12 -9 14 -11 -7 -8 -4 -1 -5 18 19 -2 -18 -20
right_child=1 -3 3 4 -6 11 7 8 -10 10 -12 -13 -14 -15 -16 -17 17 -19 20 -21 -22
leaf_value=0.13316451150632766 -0.10000858977749499 -340.90986834369045 -0.021545232002176506 -0.10000856050802959 -155.1884915535374 -0.32694783121202775 0.051042830793809113 -15.882490875845276 -0.10000168708428059 0.33965918421439339 0.046187348641141844 0.0093012941515548501 0.17763383523954426 -0.067838943975851163 -0.59469949479334228 -0.10000818892515809 -0.10000836803278444 -0.10000807649959674 -0.10000871013779651 -0.1000084761173895 -0.10000871846514781
leaf_weight=61.316091900298488 0.001197895900986623 0.0011736749646891209 391.45818522153013 0.013857496546347638 0.0012895864059565543 17.812638655344927 216.07193001096175 0.018770546612358885 0.0043328491947239858 37.299017794487781 8.8895360841934217 6.4036213414415242 33.484518356312947 490.48125062813142 0.52100151720696797 0.013358954405978528 0.0010833900058464241 0.0013621306707092972 0.0021389807370724161 0.0011809961950198238 0.0029998583049477686
leaf_count=159938 68 29 4165109 628 37 7218 1151431 22 371 125146 76216 60221 167631 6036415 36 383 31 42 71 48 145
internal_value=0 -360.166 -0.0866881 -0.53012 -71.1607 -0.533748 1.02319 0.642514 -129.226 1.77375 2.83177 -2.38032 0.680283 -0.483045 1.27032 -1.00008 -1.00009 -1.00008 -1.00009 -1.00008 -1.00009
internal_weight=0 0.0111369 1263.79 906.184 0.028506 906.156 357.605 249.58 0.0231034 108.026 46.1886 24.2163 249.556 881.939 61.8371 0.0272165 0.00996325 0.00362652 0.00633673 0.00226439 0.00513884
internal_count=11951236 434 11950802 10270011 1048 10268963 1680791 1319455 393 361336 201362 67439 1319062 10201524 159974 1011 405 121 284 79 216
cat_boundaries=0 1 2 3 4 5 6 7 8 9 10
cat_threshold=64 896 2 2 2 4 960 2 2 2
shrinkage=0.1


Tree=4
num_leaves=28
num_cat=15
split_feature=2 3 0 6 0 0 2 8 1 0 3 0 8 1 9 0 1 4 1 0 5 0 6 0 9 7 3
split_gain=489.465 66.0792 292.927 117.983 64.4669 57.4288 43.5518 35.7071 26.1005 63.8855 24.4164 43.3227 28.9395 23.364 16.1709 15.2527 14.7009 12.8297 11.1282 6.43757 6.18044 9.2805 5.62845 1.75021 0.22216 0.473932 0.320371
threshold=0 1.0000000180025095e-35 150.50000000000003 1 1.5000000000000002 29.500000000000004 2 3 4 152.50000000000003 3.5000000000000004 152.50000000000003 5 6 7 8.5000000000000018 8 9 10 5.5000000000000009 11 44.500000000000007 12 32.500000000000007 13 14 1.0000000180025095e-35
decision_type=1 2 2 1 2 2 1 1 1 2 2 2 1 1 1 2 1 1 1 2 1 2 1 2 1 1 2
left_child=1 2 3 16 -5 6 18 24 9 14 11 -10 -12 17 -3 -15 -1 -8 19 -2 21 -9 -20 -22 25 -7 -26
right_child=5 8 -4 4 -6 7 13 20 10 -11 12 -13 -14 15 -16 -17 -18 -19 22 -21 23 -23 -24 -25 26 -27 -28
leaf_value=-0.010501199212476867 -0.026870078316951169 0.095350795773171626 -29.0547538253435 0.16679399046142671 0.37074416166514279 -0.18755914138606863 0.037462458259829474 0.34255290750586864 0.012178018730919013 -6.1725325626572127 0.85219466578050618 -4.3471746153634081 0.10198428343416786 -0.043153793080824919 0.23826814166640606 0.084933642894225517 0.076755834241078208 -0.036412762338894018 -0.058920306760030086 0.10571131317559633 0.10135118642134765 -0.034961002470804345 -0.082151373583953358 -0.10001063539968379 -0.2273655045736879 -0.2709261757611392 -0.27141552137136304
leaf_weight=29.089980376360472 62.893816679161958 17.912003518955316 0.003439612642977318 60.712337378441646 20.811043127803714 1.1671480685636197 93.109816764554125 1.1297710522355084 153.29579670700329 0.015946531849293843 0.52508654553093947 0.022800061290665918 24.782968815724818 207.54781822935195 14.188312962200142 9.7327588809000058 78.231030086230021 31.448268967806484 175.23474560056681 3.8887712985597309 0.49661813920833298 1.5372259090487821 257.60911534453726 3.299831590258691 1.8524433471375292 1.6402054778973252 15.187000197722226
leaf_count=123151 683151 48073 22 195835 50599 543 969634 9275 868431 107 2163 674 113652 2573519 46156 112820 231943 341382 2193160 42392 4903 13299 3286928 32749 1126 831 4718
internal_value=0 0.826108 1.27636 1.28168 2.18858 -0.497923 -0.458172 -1.95851 0.461832 1.18484 0.251432 0.115297 1.1755 -0.164474 1.5852 -0.3577 0.592778 0.174126 -0.642955 -0.166558 0.0828938 1.24958 -0.711037 -0.736703 -2.62332 -2.36267 -2.66627
internal_weight=0 399.591 188.848 188.844 81.5234 867.775 841.465 26.3102 210.743 32.1163 178.627 153.319 25.3081 341.839 32.1003 217.281 107.321 124.558 499.626 66.7826 6.46345 2.667 432.844 3.79645 19.8468 2.80735 17.0394
internal_count=11951236 1680806 601550 601528 246434 10270430 10202986 67444 1079256 94336 984920 869105 115815 3997355 94229 2686339 355094 1311016 6205631 725543 60226 22574 5480088 37652 7218 1374 5844
cat_boundaries=0 1 2 3 4 5 6 7 8 9 10 11 12 13 14 15
cat_threshold=64 2 553758 4 768 8 896 2 26 2 768 2 1 2 2
shrinkage=0.1


Tree=5
num_leaves=31
num_cat=18
split_feature=2 0 1 3 0 4 8 1 0 0 2 4 8 0 6 0 2 8 0 6 0 0 0 5 3 1 8 8 5 5
split_gain=390.303 50.2665 45.0328 849.524 78.4367 42.1703 31.508 30.2146 19.4658 16.6386 14.5769 12.7715 11.7997 48.3373 46.841 9.72607 9.50696 9.36689 7.80798 7.64053 7.0217 3.36495 16.4867 3.05553 2.52961 1.89392 0.745496 0.559111 0.00176793 3.99428e-11
threshold=0 29.500000000000004 1 24.500000000000004 28.500000000000004 2 3 4 29.500000000000004 3.5000000000000004 5 6 7 32.500000000000007 8 29.500000000000004 9 10 2.5000000000000004 11 59.500000000000007 66.500000000000014 76.500000000000014 12 7.5000000000000009 13 14 15 16 17
decision_type=1 2 1 2 2 1 1 1 2 2 1 1 1 2 1 2 1 1 2 1 2 2 2 1 2 1 1 1 1 1
left_child=1 2 3 4 -1 6 -4 8 11 -7 18 16 13 14 -3 19 -2 -17 25 -12 -20 26 -23 -13 -15 -9 -14 28 -10 -29
right_child=7 12 5 -5 -6 9 -8 10 27 -11 15 23 21 24 -16 17 -18 -19 20 -21 -22 22 -24 -25 -26 -27 -28 29 -30 -31
leaf_value=0.023545181020100728 0.057951212365194626 -0.10003186815251058 0.089996860181749641 -84.803391937517034 4.0664230911686969 0.020613435182972269 0.16921004829534284 -0.01848597026441446 -0.23131843825027124 0.19780265247854434 -0.076655421881036634 -0.087515511661583639 -0.22946823059837246 -0.12636269099910211 3.2705243690521111 -0.20989368192465607 -0.0040405319887873532 -0.035872148363988263 0.033936211060289934 -0.052213536285151033 -0.20220355635392298 1.5748488753733083 -0.12532873372760284 -0.011557917051202644 0.21017727917847662 -0.057951639372674182 -0.10003760969549497 -0.10001155627010477 -0.10000125304989266 -0.10000940425665164
leaf_weight=165.87229960647528 28.617696092507686 0.076813954408862628 141.00649006002627 0.0011805904869096598 0.048002494659157402 74.081894395358148 77.98578700606592 73.413454941302518 3.6832171814030517 5.7079294226608388 291.19571379262152 16.009022983787901 7.1430621859435632 1.5060046457675254 0.089006139132847953 9.1321093877822932 72.319271442807803 4.6772745108668206 26.130107907358255 228.06100645746869 1.3229815687263897 0.059705489351471797 1.2753753082087436 7.913977959548677 0.26223755456157949 30.424418400114916 0.47457774246868112 0.14690328831784427 0.001025517769449257 0.20888623757491487
leaf_count=896123 284938 298 426922 30 197 471867 213858 861164 189 28546 3965242 189436 1499 4353 359 5011 764250 44555 299885 2969475 4050 197 3169 88196 38 422113 1612 1338 82 2244
internal_value=0 0.637135 0.700292 0.227407 0.247148 0.924349 1.18206 -0.49865 -0.0341871 0.33289 -0.586923 0.0330628 -1.4735 0.7664 17.0916 -0.668688 0.188764 -1.50952 -0.231111 -0.659204 0.225565 -1.95739 -0.492959 -0.623879 -0.764524 -0.374106 -2.21405 -2.19721 -2.31282 -1.0001
internal_weight=0 475.59 464.704 165.921 165.92 298.782 218.992 793.257 128.9 79.7898 664.357 124.86 10.8868 1.93406 0.16582 533.066 100.937 13.8094 131.291 519.257 27.4531 8.95272 1.33508 23.923 1.76824 103.838 7.61764 4.04003 3.68424 0.35579
internal_count=11951236 2049068 2037543 896350 896320 1141193 640780 9902168 1330673 500413 8571495 1326820 11525 5048 657 6984283 1049188 49566 1587212 6934717 303935 6477 3366 277632 4391 1283277 3111 3853 271 3582
cat_boundaries=0 1 2 3 4 5 6 7 8 9 10 11 12 13 14 15 16 17 18
cat_threshold=1048768 30 2 1 768 29589537 2 1 2 10824192 4 2 1 224 4 4 2 2
shrinkage=0.1


Tree=6
num_leaves=31
num_cat=13
split_feature=2 0 1 0 5 1 0 3 6 3 0 2 4 0 8 3 0 0 0 0 5 0 5 1 3 0 8 0 0 4
split_gain=306.189 43.4475 31.4064 31.0471 85.4756 27.9563 24.9766 181.055 20.351 19.2495 16.0759 13.5209 11.1239 10.5215 9.37632 8.75052 10.9286 8.64401 6.71731 5.79714 2.94127 2.26552 6.3864 1.88411 1.05485 2.13338 1.04295 0.896773 0.103452 4.2129e-11
threshold=0 27.500000000000004 1 26.500000000000004 2 3 7.5000000000000009 17.500000000000004 4 1.0000000180025095e-35 13.500000000000002 5 6 10.500000000000002 7 1.0000000180025095e-35 7.5000000000000009 29.500000000000004 2.5000000000000004 59.500000000000007 8 66.500000000000014 9 10 8.5000000000000018 32.500000000000007 11 29.500000000000004 29.500000000000004 12
decision_type=1 2 1 2 1 1 2 2 1 2 2 1 1 2 1 2 2 2 2 2 1 2 1 1 2 2 1 2 2 1
left_child=1 2 3 8 -5 10 9 -8 -1 -4 12 18 13 -2 24 16 -13 -17 23 -20 -14 27 -23 -7 25 -3 28 -16 -12 -28
right_child=5 14 6 4 -6 11 7 -9 -10 -11 26 15 20 -15 21 17 -18 -19 19 -21 -22 22 -24 -25 -26 -27 29 -29 -30 -31
leaf_value=0.065914522556648633 0.015373151570152342 0.018328883461962511 0.055790171835587522 -0.10004641103121928 11.93718528161588 -0.017150357886746834 0.14090963362881512 18.489130021106348 0.13516373724566982 0.0057838251328130074 -0.10001030801673177 -0.051087375972185739 -0.010044831030839006 0.36755904189894434 -0.1015476845965734 -0.071561472052524208 0.09743475849255076 -0.15609937792760592 0.029467374287769289 -0.18822041908210818 -0.086237155394309886 0.56718641243929724 -0.12233028785913934 -0.056090589952472729 0.18586621716989293 -0.12460435955858983 -0.10000873118062761 -0.19809291414629002 -0.20418780103069017 -0.10001019903188686
leaf_weight=92.180351552906188 100.5347804046396 4.1887227353145216 150.8112350772723 0.020348320897028319 0.008307578566017491 72.069030168095395 19.890328285640837 0.0053794692067005148 78.644549609525711 157.23660327963793 0.097806626174133604 155.35671054754448 7.7808838966995504 0.85548798389936465 1.1003551692556355 326.93946130040308 5.1175118920336891 12.55983362739107 27.031916669484421 1.2813214777734163 14.523703363011009 0.14987360087353063 1.295039938067134 28.711622259575535 0.26781161077087734 1.3910257104583461 0.23616539822250979 7.65735370125185 3.7510908380709225 1.1363764669949885
leaf_count=225405 1031651 1231 573871 50 53 861164 67506 20 198841 970847 955 2227179 87760 8265 371 4656710 55073 45321 299885 4050 187773 1125 2241 422113 23 4373 2736 3111 271 11262
internal_value=0 0.519764 0.581969 0.929097 33.8965 -0.471392 0.361759 1.45871 0.977955 0.302655 -0.0276165 -0.56048 0.0427939 0.183447 -1.08958 -0.643073 -0.46351 -0.74689 -0.21737 0.196159 -0.596577 -1.66822 -0.508102 -0.355115 -0.0799926 -0.173042 -1.74852 -1.85963 -2.0154 -1.0001
internal_weight=0 514.847 498.797 170.854 0.0286559 757.984 327.944 19.8957 170.825 308.048 128.916 629.067 123.695 101.39 16.0502 499.974 160.474 339.499 129.094 28.3132 22.3046 10.2026 1.44491 100.781 5.84756 5.57975 5.22144 8.75771 3.8489 1.37254
internal_count=11951236 2049068 2036593 424349 103 9902168 1612244 67526 424246 1544718 1330673 8571495 1315449 1039916 12475 6984283 2282252 4702031 1587212 303935 275533 6848 3366 1283277 5627 5604 15224 3482 1226 13998
cat_boundaries=0 1 2 3 4 5 6 7 8 9 10 11 12 13
cat_threshold=1048768 896 2 768 2 29589537 2 1 2 1 224 4 1
shrinkage=0.1


Tree=7
num_leaves=25
num_cat=11
split_feature=3 0 3 0 6 3 2 0 0 5 0 1 5 6 0 2 0 8 0 8 3 0 9 5
split_gain=282.093 9081.7 11030.3 208.965 13074 1652.38 200.343 258.13 808.336 114.594 29.2333 40.2826 27.6275 36.2058 22.6799 19.8984 13.3997 8.40791 9.75437 2.62653 1.77889 0.398428 0.149798 3.9207e-10
threshold=17.500000000000004 14.500000000000002 21.500000000000004 7.5000000000000009 0 19.500000000000004 1 26.500000000000004 27.500000000000004 2 22.500000000000004 3 4 5 25.500000000000004 6 1.5000000000000002 7 27.500000000000004 8 32.500000000000007 30.500000000000004 9 10
decision_type=2 2 2 2 1 2 1 2 2 1 2 1 1 1 2 1 2 1 2 1 2 2 1 1
left_child=6 3 -3 20 5 -5 7 12 9 -9 11 15 13 -1 -14 -8 -13 21 -19 -10 23 -12 -22 -2
right_child=1 2 -4 4 -6 -7 10 8 19 -11 17 16 14 -15 -16 -17 -18 18 -20 -21 22 -23 -24 -25
leaf_value=0.031380981374281601 -0.10001430762394786 -279.42241266785896 71.876173660088341 -84.943891950996786 -266.52023818148609 -0.82435170638750899 -0.046259569422796222 0.84174338447262798 -0.012424762753965111 -2.5421540211182663 -0.14455016996360681 -0.073628676239675644 0.00092817713759325556 0.09141902159173193 2.3666589330057168 0.0033856236795434093 -0.029241807176499143 -0.20687950611206574 0.0011896297829306608 -0.11727867721320813 -0.10000720789258838 -0.18428565474279826 -0.49580511493082319 -0.10000816820466785
leaf_weight=206.19578039435387 0.36483232595163967 0.0025058109749807041 0.0013893484851941196 0.0023569808181491672 0.0018766324753975985 0.25212936750904191 112.79636735544773 0.10618152291863224 5.0091069525948342 1.7402954379067281 2.9711001567529847 288.12366588732255 99.942954364896423 195.84793362525423 0.040540200629037737 238.56255511618076 89.026796757090779 3.3432544930328749 6.9099191962559416 4.5672046818192129 0.010164940831600688 16.747837550313307 0.16126500882233352 0.14550250071287041
leaf_count=587676 4827 30 28 29 37 38 1485856 301 4999 168 5437 4633219 682089 492915 198 2641546 1288910 40245 67096 6349 163 6568 388 2124
internal_value=0 -17.4151 -1541.19 -11.0883 -35.4269 -16.0344 -0.103974 0.37503 -4.3182 -23.4756 -0.427541 -0.393357 0.489287 0.606274 0.0188741 -0.13391 -0.615199 -1.40107 -0.666555 -0.624325 -1.93633 -1.78299 -4.72336 -1.00013
internal_weight=0 0.942023 0.00389516 0.938128 0.256363 0.254486 1271.93 513.45 11.4228 1.84648 758.481 728.509 502.027 402.044 99.9835 351.359 377.15 29.9721 10.2532 9.57631 0.681765 19.7189 0.17143 0.510335
internal_count=11951236 7664 58 7606 104 67 11943572 1774695 11817 469 10168877 10049531 1762878 1080591 682287 4127402 5922129 119346 107341 11348 7502 12005 551 6951
cat_boundaries=0 1 2 3 4 5 6 7 8 9 10 11
cat_threshold=1 1048640 2 960 2 2 524558 4 1 2 2
shrinkage=0.1


Tree=8
num_leaves=26
num_cat=13
split_feature=3 3 0 4 9 0 2 0 0 1 1 8 3 3 2 0 9 2 3 8 0 8 0 9 5
split_gain=647.008 1413.03 100605 504.114 257.79 5892.49 173.659 125.16 28.5196 24.4818 23.4448 15.122 13.1346 12.3254 12.3034 11.7386 10.4438 9.79753 8.73997 6.97181 5.75777 0.432402 1.17221e-11 1.45945e-11 5.81941e-12
threshold=21.500000000000004 24.500000000000004 6.5000000000000009 0 1 3.5000000000000004 2 26.500000000000004 27.500000000000004 3 4 5 25.500000000000004 1.0000000180025095e-35 6 13.500000000000002 7 8 1.0000000180025095e-35 9 2.5000000000000004 10 1.5000000000000002 11 12
decision_type=2 2 2 1 1 2 1 2 2 1 1 1 2 2 1 2 1 1 2 1 2 1 2 1 1
left_child=6 2 22 4 5 -3 7 10 13 15 16 -12 -6 -9 20 17 -1 -8 -16 -10 -11 -17 24 -24 -2
right_child=1 3 -4 -5 12 -7 9 8 19 14 11 -13 -14 -15 18 21 -18 -19 -20 -21 -22 -23 23 -25 -26
leaf_value=0.065825929453751361 -0.10000882425959279 -0.10000689763800559 -732.81320458221899 -52.353151538674808 -1.0326495961791986 -206.15920388440577 0.04273279160045701 0.65242082130444234 -0.0064001150621099678 -0.031727965669125273 0.13931064778530339 0.02793111129810362 0.06788109877717792 -0.31655442656436616 -0.040752746945118178 -0.16926109955322982 0.13233716726860056 -0.0136025844602779 -0.070602400196873763 -0.14573911726024003 0.019392419081085993 -0.10000865220755867 -0.10001406747353039 -0.10000877698257893 -0.10000679091778795
leaf_weight=53.640787179399922 0.05731585729517974 0.02965546091581928 0.0019106567488051944 0.0019137603947920736 0.17237723618540618 0.0014558923212462096 35.537025636171165 0.13288837057189518 5.7570155681085922 95.196663433376841 12.532887102446693 445.33171608998867 0.29240050429383041 10.802813488145146 145.41385567846936 3.7268532672937909 42.167001573259711 87.215897213882243 301.41939291243455 9.5435808879081083 28.667489001808917 1.1893323645090266 0.0089075629293802194 0.0125760663067922 0.018657040920535217
leaf_count=88024 789 471 37 108 229 51 344793 189 5627 1282393 45425 1816944 1006 361 2282252 1226 85530 970556 4700008 6848 303809 13998 102 174 286
internal_value=0 -33.0117 -141.888 -11.2788 -9.30184 -97.4279 -0.0881073 0.314203 -1.81455 -0.420653 0.42075 0.303177 -3.40285 -3.0478 -0.510962 -0.00916822 0.86111 0.0507961 -0.595555 -0.933113 -0.184102 -1.52507 -1.00009 -1.00011 -1.00008
internal_weight=0 0.59717 0.0993672 0.497803 0.495889 0.0311114 1278.28 579.909 26.2363 698.367 553.672 457.865 0.464778 10.9357 570.697 127.669 95.8078 122.753 446.833 15.3006 123.864 4.91619 0.0974565 0.0214836 0.0759729
internal_count=11951236 3253 1388 1865 1757 522 11947983 2048948 13025 9899035 2035923 1862369 1235 550 8568462 1330573 173554 1315349 6982260 12475 1586202 15224 1351 276 1075
cat_boundaries=0 1 2 3 4 5 6 7 8 9 10 11 12 13
cat_threshold=1 2 1048768 768 768 8 29589537 2 10824192 1 4 2 2
shrinkage=0.1


Tree=9
num_leaves=20
num_cat=8
split_feature=3 8 2 0 3 6 0 1 0 1 0 0 6 0 3 8 0 0 6
split_gain=159.405 543.672 143.106 97.9409 43.507 38.4247 771.104 22.8218 22.585 20.9474 17.3203 12.9065 12.1655 10.7464 7.63121 6.2143 1.11744 1.82389e-14 1.01742e-15
threshold=34.500000000000007 0 1 26.500000000000004 24.500000000000004 2 2.5000000000000004 3 19.500000000000004 4 27.500000000000004 2.5000000000000004 5 20.500000000000004 1.0000000180025095e-35 6 4.5000000000000009 1.0000000180025095e-35 7
decision_type=2 1 1 2 2 1 2 1 2 1 2 2 1 2 2 1 2 2 1
left_child=2 -2 3 9 7 16 -7 8 -4 13 14 -9 -11 -1 -5 -12 -6 18 -3
right_child=1 17 4 10 5 6 -8 11 -10 12 15 -13 -14 -15 -16 -17 -18 -19 -20
leaf_value=-0.0010825611576990666 70.390564566238893 -0.10000599177306069 -0.018556394477241035 0.29237373988809046 -0.100005472590599 -0.10000553690041214 -84.102129783000436 -0.074804216885931307 -0.128224050062023 0.063698988344295812 -0.00579427210664473 -0.013353245910900639 0.030337900670983898 0.43941797896201779 -0.26085539310718719 -0.13896038561170151 -1.4669907291252606 -0.10000549991022489 -0.10000587950524156
leaf_weight=140.42877399334975 0.0014186294765347017 0.0013651437329826877 387.96060041476051 0.25474630021193689 0.0066014345118409756 0.0133197952238166 0.0011904460882727905 222.2111444585081 19.733796581329443 221.44501566013122 5.7248454939283437 40.390720686184977 215.85741529704643 0.55601276932429655 11.737718247657538 9.0347267925085877 0.063520051538944244 0.0014425151971732136 0.0019758731105027241
leaf_count=671342 112 71 5114889 189 429 820 112 4074814 86791 651095 5627 623876 711843 1746 361 6848 20 106 145
internal_value=0 160.234 -0.0832329 0.2678 -0.398107 -23.0758 -69.9169 -0.401183 -0.232933 0.358763 -1.59839 -0.629551 0.461757 0.00611315 -2.49104 -0.873088 -13.383 -1.00006 -1.00006
internal_weight=0 0.00620216 1275.42 605.039 670.381 0.0846317 0.0145102 670.296 407.694 578.287 26.752 262.602 437.302 140.985 11.9925 14.7596 0.0701215 0.00478353 0.00334102
internal_count=11951236 434 11950802 2049051 9901751 1381 932 9900370 5201680 2036026 13025 4698690 1362938 673088 550 12475 449 322 216
cat_boundaries=0 1 2 3 4 5 6 7 8
cat_threshold=2 1048768 2 992 26 1 1 2
shrinkage=0.1


Tree=10
num_leaves=18
num_cat=8
split_feature=3 6 2 0 1 5 0 0 3 6 8 8 3 0 5 3 3
split_gain=4841.13 28410.3 116.843 74.9155 23.2156 16.9565 21.3875 15.0177 10.0572 9.56142 7.7413 7.49889 6.8003 6.75173 5.59977 4.31285 3.7016
threshold=34.500000000000007 0 1 26.500000000000004 2 3 8.5000000000000018 27.500000000000004 1.0000000180025095e-35 4 5 6 1.0000000180025095e-35 13.500000000000002 7 1.5000000000000002 7.5000000000000009
decision_type=2 1 1 2 1 1 2 2 2 1 1 1 2 2 1 2 2
left_child=2 -2 3 5 8 6 -1 14 11 16 -9 -4 -11 -10 -5 -7 -6
right_child=1 -3 4 7 9 15 -8 10 13 12 -12 -13 -14 -15 -16 -17 -18
leaf_value=0.028782000771171629 102.84210019469481 -138.98283385517962 0.26420939495536411 0.1318394712144246 -0.069480522534359698 -0.038688223309117087 0.14193931827044534 -0.14248943395358879 -0.0083719989651999879 -0.010711102670630296 -0.003917134973755238 0.043351018919988243 -0.050679633538017736 -0.14093866024442864 -0.23498422492004245 0.002966241582059975 0.039174328312449457
leaf_weight=556.1221300680661 0.0077713661157758898 0.012959897584322699 1.6473576316639083 0.43097524126642384 231.85955787600508 32.395888968094596 17.220219742790505 8.4675170415139291 68.749380303175712 61.920012862519798 7.6951802678635852 23.018825430590372 136.21165281718618 4.0693069311782883 12.102108889295828 106.80657860564679 3.1783686562409619
leaf_count=1458472 22 38 9034 384 530391 128352 49714 1150 277329 130035 12210 126261 289311 1640 128 650546 6993
internal_value=0 -483.318 -0.0768712 0.179574 -0.430359 0.245795 0.321807 -1.40218 0.0264265 -0.531435 -0.765141 0.581013 -0.381887 -0.157802 -2.2237 -0.0672779 -0.680112
internal_weight=0 0.0207313 1271.9 741.241 530.654 712.545 573.342 28.6958 97.4849 433.17 16.1627 24.6662 198.132 72.8187 12.5331 139.202 235.038
internal_count=3672010 60 3671950 2300956 1370994 2287084 1508186 13872 414264 956730 13360 135295 419346 278969 512 778898 537384
cat_boundaries=0 1 2 3 4 5 6 7 8
cat_threshold=2 18022625 768 2 2 4 4 2
shrinkage=0.1


Tree=11
num_leaves=17
num_cat=9
split_feature=3 2 0 1 0 4 1 0 2 3 4 0 8 5 8 3
split_gain=42719.2 99.8302 66.7924 20.2117 19.677 16.2128 15.7821 12.9481 14.9724 10.2359 10.1919 9.77081 4.94116 4.72129 3.54489 3.08044
threshold=34.500000000000007 0 26.500000000000004 1 19.500000000000004 2 3 2.5000000000000004 4 3.5000000000000004 5 27.500000000000004 6 7 8 7.5000000000000009
decision_type=2 1 2 1 2 1 1 2 1 2 1 2 1 1 1 2
left_child=1 2 6 4 5 -3 9 15 -9 -1 -8 13 -13 -4 -6 -5
right_child=-2 3 11 7 14 -7 10 8 -10 -11 -12 12 -14 -15 -16 -17
leaf_value=-0.0098797309353387611 -47.619932723929821 -0.0025292489611049443 0.11361926874511907 -0.073069779060259132 -0.034497855424246805 -0.048797064974799138 0.045209614124711799 0.054259312452421007 -0.048868386954948342 0.093403310637724779 0.01091484626151573 -0.0049797650938044032 -0.12642662534603272 -0.21017893612438301 -0.14436100245536154 0.026399089789399539
leaf_weight=134.17664364187658 0.18846861260908451 268.77589683419501 0.46761859268008266 193.05686217903303 3.6832060121232644 105.44899946600361 355.8089456018721 14.633179300628397 23.244764140414645 10.334563613912904 114.55571987733845 5.6830231554761763 8.1607950089352226 12.165823566581764 14.495899366163941 3.1644539687876536
leaf_count=527849 74 947853 347 500952 9282 209997 733334 35609 51203 38018 556363 4961 5125 75 4980 8001
internal_value=0 -0.0705454 0.205911 -0.351235 -0.199926 -0.155666 0.276088 -0.586283 -0.0760439 -0.0233217 0.3609 -1.34603 -0.765715 -1.98194 -1.22102 -0.714656
internal_weight=0 1267.86 641.353 626.503 392.404 374.225 614.876 234.099 37.8779 144.511 470.365 26.4773 13.8438 12.6334 18.1791 196.221
internal_count=3634023 3633949 1866072 1767877 1172112 1157850 1855564 595765 86812 565867 1289697 10508 10086 422 14262 508953
cat_boundaries=0 1 2 3 4 5 6 7 8 9
cat_threshold=17957056 992 2 26 2374436 2 1 2 1
shrinkage=0.1


Tree=12
num_leaves=17
num_cat=6
split_feature=3 2 0 3 5 1 2 1 3 0 0 0 0 0 0 8
split_gain=210961 87.4231 30.9407 25.4479 1590.51 17.0489 14.2999 13.7192 9.87491 10.6475 7.90606 6.89383 6.49135 7.52395 4.14223 0.0843876
threshold=34.500000000000007 0 26.500000000000004 1.0000000180025095e-35 1 2 3 4 1.0000000180025095e-35 7.5000000000000009 7.5000000000000009 27.500000000000004 13.500000000000002 5.5000000000000009 30.500000000000004 5
decision_type=2 1 2 2 1 1 1 1 2 2 2 2 2 2 2 1
left_child=1 2 6 4 -4 12 7 -1 9 -7 -8 -5 13 -3 -10 -14
right_child=-2 5 3 11 -6 8 10 -9 14 -11 -12 -13 15 -15 -16 -17
leaf_value=0.054048987725535395 -301.43464904472359 -0.0013874275849426209 -0.048195357320009513 -0.18298586458649399 20.062102882326855 -0.03472216642820896 -0.015541720608850507 0.01610540027911829 -0.061364979989032301 0.1177472588383679 0.086182960577039211 -0.075362063808808083 -0.13888480305636638 0.1269117219160727 -0.13070381548737506 -0.10000631387443325
leaf_weight=118.45168260416538 0.023218790098325282 80.103949959113379 4.4569166542460152 12.117905114111638 0.039677775850566088 111.82036407916536 147.9881620138076 516.00317109240166 231.06898335373472 4.775803485470532 8.0561649215160269 11.696497117672846 2.8960289806236688 4.8474685109104021 8.9491766241089845 0.69161853152763741
leaf_count=175429 70 312680 3606 377 87 266359 516644 1696554 574952 8759 38139 11984 175 27020 6968 1425
internal_value=0 -0.058119 0.136229 -0.889287 1.29257 -0.409463 0.174681 0.239182 -0.509242 -0.28477 -0.0967023 -1.30126 0.0033166 0.0593353 -0.639503 -1.3139
internal_weight=0 1263.96 818.81 28.311 4.49659 445.153 790.499 634.455 356.614 116.596 156.044 23.8144 88.5391 84.9514 240.018 3.58765
internal_count=3641228 3641158 2442820 16054 3693 1198338 2426766 1871983 857038 275118 554783 12361 341300 339700 581920 1600
cat_boundaries=0 1 2 3 4 5 6
cat_threshold=26706145 2 768 1114304 768 4
shrinkage=0.1


Tree=13
num_leaves=31
num_cat=11
split_feature=0 3 5 0 0 0 0 3 5 0 2 0 3 0 1 0 0 1 8 0 0 5 9 0 0 3 3 8 8 8
split_gain=7431.06 39460.4 980326 152809 273661 94487.5 516.862 1547.14 341506 47543 78.507 235.344 1772.37 42.5174 23.3411 16.1474 130.197 14.6897 11.9824 12.9957 8.87891 3.73041 2.01433 17.6279 85.0978 1.81612 1.15889 0.214231 0.0984163 0.0748493
threshold=40.500000000000007 1.0000000180025095e-35 0 72.500000000000014 60.500000000000007 111.50000000000001 27.500000000000004 1.0000000180025095e-35 1 28.500000000000004 2 26.500000000000004 1.0000000180025095e-35 26.500000000000004 3 59.500000000000007 58.500000000000007 4 5 39.500000000000007 37.500000000000007 6 7 44.500000000000007 43.500000000000007 8.5000000000000018 9.5000000000000018 8 9 10
decision_type=2 2 1 2 2 2 2 2 1 2 1 2 2 2 1 2 2 1 1 2 2 1 1 2 2 2 2 1 1 1
left_child=6 2 15 4 -4 -5 10 8 9 -8 13 14 -13 17 -12 16 -2 -1 19 -9 -10 -15 23 24 -3 -25 27 -24 -20 -17
right_child=1 22 3 5 -6 -7 7 18 20 -11 11 12 -14 21 -16 29 -18 -19 28 -21 -22 -23 26 25 -26 -27 -28 -29 -30 -31
leaf_value=0.035130262519005188 0.34759131474228777 -0.10001659695242887 -403.90457287638264 -196.96132282757938 -1195.4250290440161 -548.78858500271588 -863.88145752161984 0.045307848077665885 -0.037842807666883999 -348.84118123316273 -0.011103558772911783 -25.062558689649769 -0.10000450854578641 0.098728831061913214 -0.054004808375352133 -0.15980221442665121 14.208204472567733 0.0054154340587591653 -0.14073573385559018 1.5006928932907759 0.93250368540194373 -0.1795388848895931 -0.13952224988972392 -0.090951288008066719 10.283700559878723 0.18856646385671735 -0.36477543282322433 -0.1000128020814318 -0.10016067089858521 -0.10002866900443588
leaf_weight=342.08718941914958 0.22340943294693727 0.04373291811498381 0.018819354927110621 0.034030599122615968 0.0056883559664129271 0.0098407093114474264 0.0019680076548125305 3.4276634220295796 3.5799818429586603 0.020071173521486685 284.69967853884128 0.032045997628300849 0.25298192027548794 0.50258607848081738 248.6968295707083 0.92435257474789956 0.0069889889491605564 341.73468498888133 11.631933260890946 0.062472539822920121 0.096849881119851364 11.626327350637435 3.1405228806943342 2.2868777605600505 0.0096304672269980074 0.25874893584841618 0.2042536954540991 2.4376372211643504 0.63017620798927865 0.27088605028257029
leaf_count=797610 1206 196 112 308 79 78 23 5072 2968 158 945676 71 741 426 685212 73 45 1222428 850 266 528 113 618 1526 48 25 22 8861 1908 986
internal_value=0 -27.668 -177.389 -3876.1 -5876.2 -2758.79 -0.128363 -5.24291 -23.6476 -3948.32 -0.047458 -0.332392 -29.0657 0.173326 -0.32327 0.0150543 7.68044 0.208734 -0.921199 0.713589 -0.122833 -1.68008 -0.979567 -0.248328 17.7393 -0.625398 -1.30823 -1.22257 -1.3865 -1.46255
internal_weight=0 9.87542 1.49402 0.068379 0.0245077 0.0438713 1249.08 19.4511 3.69887 0.0220392 1229.63 533.682 0.285028 695.951 533.397 1.42564 0.230398 683.822 15.7522 3.49014 3.67683 12.1289 8.3814 2.59899 0.0533634 2.54563 5.78241 5.57816 12.2621 1.19524
internal_count=3678233 14183 2887 577 191 386 3664050 11773 3677 181 3652277 1631700 812 2020577 1630888 2310 1251 2020038 8096 5338 3496 539 11296 1795 244 1551 9501 9479 2758 1059
cat_boundaries=0 1 2 3 4 5 6 7 8 9 10 11
cat_threshold=2 1 3211456 960 928 1 2 2 4 4 4
shrinkage=0.1


Tree=14
num_leaves=27
num_cat=13
split_feature=0 0 8 8 3 0 2 5 0 8 1 8 3 3 1 0 0 9 5 3 3 3 7 8 3 5
split_gain=634.238 3005.36 1833.51 2509.07 431.791 225.896 63.7242 30.9196 20.3334 14.004 12.9201 9.56356 10.2922 8.27595 12.4141 5.13895 1.02431 1.01379 2.3557 29.4154 2.10364 0.546593 0.463084 0.137958 4.4657e-10 8.53789e-13
threshold=58.500000000000007 59.500000000000007 0 1 1.0000000180025095e-35 43.500000000000007 2 3 26.500000000000004 4 5 6 1.0000000180025095e-35 1.0000000180025095e-35 7 13.500000000000002 44.500000000000007 8 9 1.5000000000000002 7.5000000000000009 6.5000000000000009 10 11 1.0000000180025095e-35 12
decision_type=2 2 1 1 2 2 1 1 2 1 1 1 2 2 1 2 2 1 1 2 2 2 1 1 2 1
left_child=5 2 4 -4 -2 6 13 10 -9 16 -8 22 -13 14 -1 -15 -7 18 19 -3 -20 23 -11 -19 -18 -6
right_child=1 17 3 -5 25 9 7 8 -10 11 -12 12 -14 15 -16 -17 24 21 20 -21 -22 -23 -24 -25 -26 -27
leaf_value=0.029670386760541047 -17.401830799835441 3.126348781282239 -18.311500322981104 -1.9980391328969558 -0.10000704613343868 -0.46293534034830053 0.03354119368572183 -0.017208225191897793 -0.14362859599727448 -0.13416421361178174 0.0061388508909446058 0.52605437247939668 -0.27934800686608474 -0.050217475494333447 -0.039545534300913079 -0.11490974605144336 -0.10002385179233238 -0.1427169059095886 -0.13457370863570001 -0.12808461127637988 0.17559069680689468 -0.28551632384638836 -0.064015825007040159 -0.10001747595098093 -0.10000875690884077 -0.10000558195267717
leaf_weight=30.87103199898413 0.14855051576171163 0.030994717972134826 0.10865389481477904 0.71268230622445117 0.00841200836293865 3.7162883566634268 310.17213788278428 188.21271253875975 13.644987517141571 2.2014048760229343 406.32303356127699 0.15972437952587881 23.925471675836889 212.90259668168636 71.968306257258661 13.030723647114426 0.044254509251913883 2.0925666002567596 1.6125114129336 0.26719899627642008 0.25297459322609928 0.23386508306066375 1.6437681607621928 1.1852458193967557 0.035177880570699926 0.0075633060332620508
leaf_count=86416 27 122 29 32 24 50 787191 894603 3129 348 1096689 844 3247 592283 201429 13602 210 251 966 203 24 27 88 5112 99 20
internal_value=0 -9.89924 -60.8628 -41.5613 -157.218 -0.116119 -0.0490851 0.0872091 -0.257539 -2.75118 0.185552 -2.50626 -2.74007 -0.41968 -0.197281 -0.539486 -4.55341 -1.0464 -0.507956 2.10186 -0.92513 -1.37815 -1.04177 -1.27277 -1.00017 -1.00006
internal_weight=0 6.66122 0.985862 0.821336 0.164526 1278.85 1247.13 918.353 201.858 31.7261 716.495 27.9304 24.0852 328.773 102.839 225.933 3.79572 5.67536 2.16368 0.298194 1.86549 3.51168 3.84517 3.27781 0.0794324 0.0159753
internal_count=3687065 6837 132 61 71 3680228 3675342 2781612 897732 4886 1883880 4527 4091 893730 287845 605885 359 6705 1315 325 990 5390 436 5363 309 44
cat_boundaries=0 1 2 3 4 5 6 7 8 9 10 11 12 13
cat_threshold=1 8 6844702 2 8 896 4 416 2 1 1 4 2
shrinkage=0.1


Tree=15
num_leaves=32
num_cat=16
split_feature=0 2 0 0 1 4 1 3 6 0 4 3 3 0 0 8 0 5 0 8 7 7 5 8 0 8 9 3 3 3 8
split_gain=197.574 63.2167 27.4077 13.7787 18.9334 14.3968 11.4892 11.3484 21.4009 11.0149 7.47896 6.77756 6.47554 5.90538 5.89135 7.23461 4.42179 4.43466 4.38186 12.4679 4.12415 3.39478 2.87352 6.99018 1.93016 1.76705 0.811268 1.31483 0.337931 0.317274 0.135462
threshold=26.500000000000004 0 43.500000000000007 1.5000000000000002 1 2 3 1.0000000180025095e-35 4 59.500000000000007 5 7.5000000000000009 3.5000000000000004 2.5000000000000004 58.500000000000007 6 1.0000000180025095e-35 7 27.500000000000004 8 9 10 11 12 3.5000000000000004 13 14 8.5000000000000018 1.0000000180025095e-35 8.5000000000000018 15
decision_type=2 1 2 2 1 1 1 2 1 2 1 2 2 2 2 1 2 1 2 1 1 1 1 1 2 1 1 2 2 2 1
left_child=1 6 18 4 12 -6 10 8 -5 14 13 -9 -3 -1 15 -4 25 -18 22 21 -16 -20 23 -2 -12 -8 27 -11 -21 -28 -24
right_child=2 3 9 7 5 -7 16 11 -10 26 24 -13 -14 -15 20 -17 17 -19 19 28 -22 -23 30 -25 -26 -27 29 -29 -30 -31 -32
leaf_value=-0.0016517385905781173 0.75781257056108142 -0.025175952530908454 -0.1000697898471743 0.0077078163695659414 -0.015392444304028908 0.02777299882190622 -0.10000440440571312 0.0087754417320734801 0.092212104673320999 -0.081170486699721947 -0.089791831834272598 0.13254109133976821 0.043724967222676658 0.078592464324284628 -0.27669536937536304 -0.24992353215623556 -0.022470593006222731 -0.062405697115572048 0.29692506951640524 -0.081261148505308217 -0.53044601596419372 0.025543024492534629 -0.16843389726598584 -0.10024687805276114 0.031166084813700326 -0.060741569439215187 -0.12410092088525077 0.15923980838289364 -0.13078317861944946 -0.24202272687677917 -0.14399536740071003
leaf_weight=41.684785664059746 0.11654666246623135 205.74572896477528 3.6116232597341877 55.641037424898968 104.50278470961439 296.46646099238893 12.67653210865687 151.63312774779115 64.954837436889648 2.5289199809212772 9.7900170710418006 4.557580684356707 14.608893114650895 11.757948299680718 1.4308812940731819 29.83747815163224 72.226007871373398 45.214016244488434 0.50269557671708975 1.5606617011253643 1.1595455761598699 5.5499426820024276 7.5615547415547084 0.51213388369100565 1.5247029893507704 119.70607495265376 3.0372705192271598 0.24997755355434481 11.769327851201522 0.24669563841780465 3.2399619304876577
leaf_count=124455 134 726571 383 143723 427922 714166 37453 528403 126931 1822 19620 10550 48677 50649 22 4118 190654 124962 621 1125 55 8368 402 569 2817 353974 4682 28 2766 22 196
internal_value=0 -0.0207999 -1.71566 0.114935 0.0335435 0.161209 -0.399277 0.301792 0.532232 -2.24016 0.00316881 0.123869 -0.197134 0.160028 -2.44995 -2.33743 -0.499703 -0.378455 -0.999002 -0.709412 -3.90281 0.480824 -1.49007 0.588227 -0.734923 -0.645013 -0.993097 -0.595442 -1.24985 -1.32959 -1.61103
internal_weight=0 1212.69 72.9152 898.11 621.324 400.969 314.58 276.787 120.596 42.1024 64.7575 156.191 220.355 53.4427 36.0395 33.4491 249.823 117.44 30.8128 19.3826 2.59043 6.05264 11.4302 0.628681 11.3147 132.383 6.06286 2.7789 13.33 3.28397 10.8015
internal_count=3656840 3631527 25313 2726943 1917336 1142088 904584 809607 270654 11132 197541 538953 775248 175104 4578 4501 707043 315616 14181 12880 77 8989 1301 703 22437 391427 6554 1850 3891 4704 598
cat_boundaries=0 1 2 3 4 5 6 7 8 9 10 11 12 13 14 15 16
cat_threshold=4749598 31 1 768 2 2 4 2 1 2 2 2 4 4 2 1
shrinkage=0.1


Tree=16
num_leaves=32
num_cat=17
split_feature=0 2 0 2 6 3 8 8 5 0 10 3 0 1 0 6 0 0 8 5 8 6 5 3 9 3 3 8 3 3 8
split_gain=162.095 55.0277 19.6666 16.7737 12.1417 22.2479 19.4831 17.6623 10.1765 21.0464 15.719 9.59632 18.2118 9.3951 7.14194 4.52073 8.53048 3.90796 10.9765 3.23436 4.51146 2.62567 2.52484 3.89552 0.742251 1.11979 0.713185 0.535074 0.344595 0.188693 0.112526
threshold=26.500000000000004 0 43.500000000000007 1 2 1.0000000180025095e-35 3 4 5 5.5000000000000009 6 8.5000000000000018 1.5000000000000002 7 59.500000000000007 8 1.5000000000000002 27.500000000000004 9 10 11 12 13 1.0000000180025095e-35 14 8.5000000000000018 1.5000000000000002 15 1.0000000180025095e-35 7.5000000000000009 16
decision_type=2 1 2 1 1 2 1 1 1 2 1 2 2 1 2 1 2 2 1 1 1 1 1 2 1 2 2 1 2 2 1
left_child=1 4 17 15 11 6 -6 -7 9 -5 -10 13 -13 -1 19 26 -17 22 21 20 -4 -19 23 -2 25 -16 -3 -21 -20 -26 -24
right_child=2 3 14 8 5 7 -8 -9 10 -11 -12 12 -14 -15 24 16 -18 18 28 27 -22 -23 30 -25 29 -27 -28 -29 -30 -31 -32
leaf_value=0.025988877998861459 -0.10039548089213346 -0.067681560005353233 -0.38736947694763429 -0.014798805036450863 0.027317831419905264 0.18438501977607602 0.093827879360017796 -0.0011534026165375322 -0.052505818198499823 0.096175631803954248 0.30853837559198583 -0.0087403752548985778 0.55000069558009235 -0.0092821275399799247 -0.077605454077460889 -0.064193624457279927 0.043001823014806678 -0.0056915512232413937 -0.076053068024442172 -0.20314883736990882 -0.22887114978856993 0.12970816531293367 -0.16100735335888358 0.43082970798554909 -0.12177322088199355 0.14775790647535431 -0.087234359295125199 -0.16972375439449122 -0.12716055705324544 -0.2118820463704541 -0.13807775206464326
leaf_weight=94.704211944517411 0.51670844858801201 30.937567073688108 2.0336420804960653 248.8020012105398 118.47662562577182 5.2733923266750935 70.105477278932085 189.6616189929789 82.106024523207338 18.350042287042015 1.2238536401346198 1.585293480584425 0.92299408559483676 261.01653698573131 2.3896344708702491 30.716809890167497 9.7896982716556504 4.2130042101634864 1.5003870921536897 10.537039876115159 15.357727035698924 2.1698376916247106 7.1467780874114144 0.18836315494263545 2.8072063536899843 0.24289089069497996 46.985579406487609 8.7798583254134428 10.930289102394452 0.25336727941248671 3.0551298167265628
leaf_count=209034 290 92164 280 816743 221098 15130 103362 668968 234373 81565 3358 3864 2364 870492 1788 88575 25488 4844 1015 1359 1939 4211 440 458 4428 35 150022 562 2369 21 222
internal_value=0 -0.0192194 -1.5624 -0.283854 0.149881 0.275554 0.52043 0.0386579 -0.162299 -0.0717623 -0.472032 0.0195218 1.96864 0.00577799 -1.99959 -0.602938 -0.382864 -0.938677 -0.662579 -2.16122 -2.47405 0.403374 -1.41492 0.415238 -0.957451 -0.568122 -0.794714 -1.87957 -1.20992 -1.29233 -1.54141
internal_weight=0 1210.66 72.1219 468.912 741.746 383.517 188.582 194.935 350.482 267.152 83.3299 358.229 2.50829 355.721 42.4014 118.43 40.5065 29.7205 18.8135 36.7083 17.3914 6.38284 10.907 0.705072 5.6931 2.63253 77.9231 19.3169 12.4307 3.06057 10.2019
internal_count=3610861 3586600 24261 1492288 2094312 1008558 324460 684098 1136039 898308 237731 1085754 6228 1079526 10412 356249 114063 13849 12439 4140 2219 9055 1410 748 6272 1823 242186 1921 3384 4449 662
cat_boundaries=0 1 2 3 4 5 6 7 8 9 10 11 12 13 14 15 16 17
cat_threshold=28508352 540932 2 1 8 2 1 769 2 1 2 2 1 2 2 1 1
shrinkage=0.1


Tree=17
num_leaves=32
num_cat=14
split_feature=0 2 0 8 3 1 0 1 5 6 3 3 0 10 2 0 4 5 8 0 0 0 0 3 0 0 6 9 3 3 8
split_gain=136.263 47.8473 25.4463 59.131 253.619 15.2258 15 10.2097 10.0774 7.86865 6.95424 6.50789 12.7152 5.72218 5.36217 4.97682 4.7396 3.56237 6.45057 3.25904 3.21813 2.59396 1.97934 7.01433 1.79494 6.06359 0.787232 0.684329 0.947403 0.116 0.0940702
threshold=26.500000000000004 0 18.500000000000004 1 1.0000000180025095e-35 2 43.500000000000007 3 4 5 5.5000000000000009 1.0000000180025095e-35 7.5000000000000009 6 7 59.500000000000007 8 9 10 37.500000000000007 2.5000000000000004 27.500000000000004 58.500000000000007 1.0000000180025095e-35 27.500000000000004 28.500000000000004 11 12 8.5000000000000018 7.5000000000000009 13
decision_type=2 1 2 1 2 1 2 1 1 1 2 2 2 1 1 2 1 1 1 2 2 2 2 2 2 2 1 1 2 2 1
left_child=1 2 7 4 -4 8 17 10 14 -9 -1 12 -7 -10 -3 22 -5 18 19 -2 -13 -20 23 -8 30 -26 -24 28 -17 -29 -19
right_child=6 5 3 16 -6 11 15 9 13 -11 -12 20 -14 -15 -16 27 -18 24 21 -21 -22 -23 26 -25 25 -27 -28 29 -30 -31 -32
leaf_value=-0.021465881396613762 0.010199947829007801 0.032044237511331758 3.8522289090875823 0.41598515390953861 -0.10011422251731519 -0.036709674880680297 0.4044344533872864 0.027764129252464943 -0.050982888676102601 0.0059030421881215191 0.15149289879915073 -0.073323710673066408 0.15873117431937503 0.10549747914512841 -0.006933081550749883 -0.074124498999952951 0.046836245470022554 -0.15495176848934161 0.14115086739267038 0.2701306988632361 -0.030488461005504709 -0.1150997928218466 -0.21943907862141565 -0.19218322262393991 0.53759308800163608 -0.094297638762805946 -0.32132684681335533 -0.11959811696261685 0.13635628718919773 -0.19033633480324688 -0.1332745767444424
leaf_weight=100.5067623439536 4.5003353141512719 35.436845055941376 0.22768960349640113 0.3874359795809133 0.56583357423369307 77.415605961450922 0.19823279274714775 345.34849496654857 59.156030346824963 314.67022745812773 2.3797298189674612 93.703713472076686 3.4783934477527501 2.4330221261261604 149.01228880219062 2.2657147781714504 3.4003826030893838 6.7010429785367922 0.41412632895687806 0.54027164882427292 21.577599931439181 8.5681696262272435 1.444862108487639 33.247204483245696 0.15683795216318763 4.7855579952101834 1.5959710672237515 2.5986643009508863 0.23613817842851847 0.2545239950859467 2.8547698959155241
leaf_count=372775 4802 176696 312 696 1051 228806 1043 864450 150003 911944 6543 338724 11796 8789 465555 1771 6747 396 470 1463 62302 2063 29 2748 496 4091 33 4191 47 26 196
internal_value=0 -0.0118568 0.138777 2.4903 10.3395 -0.270316 -1.44337 0.126475 -0.0939596 0.170828 -0.159182 -0.476213 -0.283058 -0.448013 0.0191676 -1.82457 0.845945 -0.884135 -0.524779 0.380603 -0.653061 -1.03285 -1.9567 -1.88647 -1.23171 -0.742457 -2.72915 -0.924338 -0.542582 -1.25908 -1.48476
internal_weight=0 1209.7 767.487 4.58134 0.793523 442.213 70.3624 762.905 246.038 660.019 102.886 196.175 80.894 61.5891 184.449 41.8413 3.78782 28.5211 14.0229 5.04061 115.281 8.9823 36.4863 33.4454 14.4982 4.9424 3.04083 5.35504 2.50185 2.85319 9.55581
internal_count=3631054 3607189 2164518 8806 1363 1442671 23865 2155712 801043 1776394 379318 641628 240602 158792 642251 9888 7443 13977 8798 6265 401026 2533 3853 3791 5179 4587 62 6035 1818 4217 592
cat_boundaries=0 1 2 3 4 5 6 7 8 9 10 11 12 13 14
cat_threshold=28770496 2 960 18 2 1 1 11776 1 2 1 2 2 1
shrinkage=0.1


Tree=18
num_leaves=32
num_cat=13
split_feature=0 2 0 5 0 1 1 3 10 0 0 6 3 0 10 5 8 3 8 0 3 0 0 8 0 0 8 3 0 0 9
split_gain=113.21 38.6863 14.1752 13.1875 10.7254 18.1629 9.14178 5.72159 11.3238 10.7114 4.07999 3.95337 3.96365 3.60471 2.56634 2.34539 6.67032 4.76872 1.12543 3.46801 1.71842 1.03428 3.35431 1.59537 0.666496 28.1755 0.63862 0.629248 0.627084 0.551502 1.52917e-10
threshold=22.500000000000004 0 43.500000000000007 1 3.5000000000000004 2 3 1.5000000000000002 4 1.5000000000000002 1.0000000180025095e-35 5 1.0000000180025095e-35 60.500000000000007 6 7 8 1.5000000000000002 9 58.500000000000007 1.5000000000000002 27.500000000000004 28.500000000000004 10 76.500000000000014 75.500000000000014 11 1.0000000180025095e-35 30.500000000000004 178.00000000000003 12
decision_type=2 1 2 1 2 1 1 2 1 2 2 1 2 2 1 1 1 2 1 2 2 2 2 1 2 2 1 2 2 2 1
left_child=1 10 15 4 5 -3 -6 8 -5 -9 26 14 -13 18 -12 16 17 -2 20 -20 -4 23 -23 -17 25 -15 30 -28 -18 -26 -1
right_child=2 3 13 7 6 -7 -8 9 -10 -11 11 12 -14 24 -16 21 28 -19 19 -21 -22 22 -24 -25 29 -27 27 -29 -30 -31 -32
leaf_value=-0.10000484129745538 -0.019293506816001962 0.018498051123970977 -0.17101432056290289 -0.048962685885737572 0.069100835922797421 -0.012767011973042372 0.010342951104503648 -0.023230054032995631 0.28339310655806438 0.038197799768344427 -0.061293451610373799 0.074472957342350252 -0.025331432305608904 -0.11372872016543455 0.057969106308903673 0.018627614252205934 -0.077694749682443165 0.19185075201481919 -0.18218481523134847 -0.43605603665219156 -0.044819142438622631 0.2723681188770547 -0.091569289758995032 -0.13730485386580193 -0.12060628034705952 2.7917137910424099 -0.052478256827273417 -0.074112760961071222 -0.12316666475721552 -0.0056952699123065074 -0.10000356938265614
leaf_weight=1.1338222701524501 4.9162393698937343 429.41665153526264 4.107577722186079 61.341690240904427 42.904270443308633 313.67808649090068 80.469682912582357 109.40213933369535 1.0425714546727238 38.333004413743765 36.165556276790198 5.1582086156668074 17.409133206116397 0.96115738977368803 1.8990280013313157 0.70225044079416377 6.1018003937771592 1.3671006787699296 30.095787481564916 0.54788410606177851 1.4635245646466044 0.26854189569712522 4.4474130822527513 9.9900268862474348 3.125698633816008 0.034577755257487297 18.93692603772071 46.348203793841165 6.0296972568321507 0.48207714361342358 5.6827900246353238
leaf_count=3519 7397 983419 294 202678 107615 907079 210654 607672 4294 163688 117305 12978 50553 985 4412 361 2610 1915 3653 94 64 825 3953 4412 4120 65 58317 168484 1388 140 21901
internal_value=0 -0.0204388 -1.28943 0.0441954 0.0991081 0.0537744 0.372157 -0.180144 -0.434083 -0.072913 -0.509616 -0.356822 -0.0251918 -1.68612 -0.553435 -0.810692 -0.569816 0.266463 -1.79207 -1.86724 -1.37863 -1.09857 -0.708455 -1.27063 -0.85262 -0.128347 -0.708784 -0.678374 -1.00296 -1.05252 -1.00004
internal_weight=0 1209.32 74.6414 1076.59 866.469 743.095 123.374 210.119 62.3843 147.735 132.734 60.6319 22.5673 40.8183 38.0646 33.8231 18.4148 6.28334 36.2148 30.6437 5.5711 15.4082 4.71595 10.6923 4.60351 0.995735 72.1017 65.2851 12.1315 3.60778 6.81661
internal_count=3656844 3624568 32276 3187099 2208767 1890498 318269 978332 206972 771360 437469 185248 63531 9415 121717 22861 13310 9312 4105 3747 358 9551 4778 4773 5310 1050 252221 226801 3998 4260 25420
cat_boundaries=0 1 2 3 4 5 6 7 8 9 10 11 12 13
cat_threshold=540940 2 960 557 1 2 1 2 1 4 4 4 2
shrinkage=0.1


Tree=19
num_leaves=32
num_cat=17
split_feature=0 2 0 5 6 3 1 0 8 3 6 3 10 9 4 0 8 5 8 3 0 0 8 8 3 5 0 9 7 3 3
split_gain=96.5976 33.58 11.2077 10.8802 8.67009 12.0384 11.7611 6.62923 6.41131 7.50064 6.03783 3.9498 4.20852 3.46444 3.14856 2.85532 2.45523 2.18791 5.94064 3.00511 0.973021 2.37532 1.50585 0.817434 1.50069 1.24715 0.587802 0.583119 1.2084 0.441242 0.0633407
threshold=22.500000000000004 0 43.500000000000007 1 2 1.0000000180025095e-35 3 1.0000000180025095e-35 4 1.5000000000000002 5 2.5000000000000004 6 7 8 60.500000000000007 9 10 11 1.5000000000000002 27.500000000000004 28.500000000000004 12 13 1.5000000000000002 14 30.500000000000004 15 16 3.5000000000000004 7.5000000000000009
decision_type=2 1 2 1 1 2 1 2 1 2 1 2 1 1 1 2 1 1 1 2 2 2 1 1 2 1 2 1 1 2 2
left_child=1 7 17 4 6 -6 -3 11 9 -5 13 12 -1 -9 -12 23 -10 18 19 -2 22 -22 -19 24 -4 -25 -20 28 -17 -13 -29
right_child=2 3 15 8 5 -7 -8 10 16 -11 14 29 -14 -15 -16 27 -18 20 26 -21 21 -23 -24 25 -26 -27 -28 30 -30 -31 -32
leaf_value=-0.044816397356638935 -0.017547905331186473 0.025054062763176118 -0.16206006562199407 -0.040087094736173987 0.035858119746946492 0.0012488318247775834 -0.011474232212923529 0.00028507428527912716 0.034215415106691065 0.016449763173471511 0.019065896198751667 -0.093424101094104928 0.10363070117787253 -0.055018698119509761 -0.037992165978242454 0.091103826241750063 -0.042190808575120656 0.016935127245198883 -0.074968877751650495 0.13797603788692023 0.17990450730139418 -0.088847605139326616 -0.13437289665389859 -0.1539719837116531 -0.041830494936268593 -0.19501691070377425 -0.12059326257973671 -0.11259912367915953 -0.08512691291106618 -0.071786038515388201 -0.16627386040433903
leaf_weight=68.855581342651931 4.8136180204603622 121.07391258993087 3.9115538074851202 33.233877298989839 241.18315238501148 172.30532284077455 259.149381745136 14.956380184441514 4.4678802268790605 79.837166561646924 38.63197926281282 15.197732816628564 1.9642724563709624 46.681326101808736 12.900697662899814 0.49381860664288973 71.660867398128204 0.70830406187633344 5.7266063687749611 1.674645031293039 0.35724263233714643 4.1401972693156495 9.2144249337626078 16.239532872182284 1.4132709868108575 13.604599678944977 5.5708240083222336 2.1375646291937467 1.8345930038767622 24.806823014149053 0.24506431278769003
leaf_count=226877 7135 376776 288 117113 489195 461613 668523 38199 19126 422029 103773 54548 4231 153822 39667 412 351513 355 2469 2422 2092 3837 4247 1843 58 1805 1256 3321 1371 86537 21
internal_value=0 -0.0184842 -1.21015 0.0621375 0.114137 0.21436 0.0051457 -0.359007 -0.152723 -0.00167568 -0.204793 -0.548879 -0.40699 -0.415992 0.0478197 -1.56449 -0.377066 -0.771375 -0.536684 0.225934 -1.06084 -0.675 -1.23572 -1.66243 -1.3015 -1.72683 -0.974665 -0.833404 -0.477512 -0.800063 -1.1812
internal_weight=0 1206.91 72.0859 982.912 793.712 413.488 380.223 223.995 189.2 113.071 113.17 110.824 70.8199 61.6377 51.5327 39.88 76.1287 32.2059 17.7857 6.48826 14.4202 4.49744 9.92273 35.169 5.32482 29.8441 11.2974 4.71104 2.32841 40.0046 2.38263
internal_count=3646474 3613542 32932 2905888 1996107 950808 1045299 707654 909781 539142 335461 372193 231108 192021 143440 9119 370639 23813 13282 9557 10531 5929 4602 3994 346 3648 3725 5125 1783 141085 3342
cat_boundaries=0 1 2 3 4 5 6 7 8 9 10 11 12 13 14 15 16 17
cat_threshold=4739358 2 2 769 1 2 1 2 2 8 2 1 4 4 1 2 2
shrinkage=0.1


end of trees

feature importances:
adm_past_year=172
count_proc=94
pat_remoteness=62
flag_emergency=45
agegroup_rm=39
an110mdc_ra=34
gender=27
cc_hypertension=22
drg11_type_m=14
indstat_flag=6
cc_osteoporosis=5

parameters:
[boosting: goss]
[objective: cross_entropy]
[metric: cross_entropy]
[tree_learner: serial]
[device_type: cpu]
[data: ]
[valid: ]
[num_iterations: 100]
[learning_rate: 0.1]
[num_leaves: 32]
[num_threads: 4]
[max_depth: 5]
[min_data_in_leaf: 20]
[min_sum_hessian_in_leaf: 0.001]
[bagging_fraction: 1]
[pos_bagging_fraction: 1]
[neg_bagging_fraction: 1]
[bagging_freq: 0]
[bagging_seed: 3]
[feature_fraction: 1]
[feature_fraction_bynode: 1]
[feature_fraction_seed: 2]
[early_stopping_round: 0]
[first_metric_only: 0]
[max_delta_step: 0]
[lambda_l1: 0]
[lambda_l2: 0]
[min_gain_to_split: 0]
[drop_rate: 0.1]
[max_drop: 50]
[skip_drop: 0.5]
[xgboost_dart_mode: 0]
[uniform_drop: 0]
[drop_seed: 4]
[top_rate: 0.2]
[other_rate: 0.1]
[min_data_per_group: 100]
[max_cat_threshold: 32]
[cat_l2: 10]
[cat_smooth: 10]
[max_cat_to_onehot: 4]
[top_k: 20]
[monotone_constraints: ]
[feature_contri: ]
[forcedsplits_filename: ]
[forcedbins_filename: ]
[refit_decay_rate: 0.9]
[cegb_tradeoff: 1]
[cegb_penalty_split: 0]
[cegb_penalty_feature_lazy: ]
[cegb_penalty_feature_coupled: ]
[verbosity: 1]
[max_bin: 255]
[max_bin_by_feature: ]
[min_data_in_bin: 3]
[bin_construct_sample_cnt: 200000]
[histogram_pool_size: -1]
[data_random_seed: 1]
[output_model: LightGBM_model.txt]
[snapshot_freq: -1]
[input_model: ]
[output_result: LightGBM_predict_result.txt]
[initscore_filename: ]
[valid_data_initscores: ]
[pre_partition: 0]
[enable_bundle: 1]
[max_conflict_rate: 0]
[is_enable_sparse: 1]
[sparse_threshold: 0.8]
[use_missing: 1]
[zero_as_missing: 0]
[two_round: 0]
[save_binary: 0]
[header: 0]
[label_column: ]
[weight_column: ]
[group_column: ]
[ignore_column: ]
[categorical_feature: ]
[predict_raw_score: 0]
[predict_leaf_index: 0]
[predict_contrib: 0]
[num_iteration_predict: -1]
[pred_early_stop: 0]
[pred_early_stop_freq: 10]
[pred_early_stop_margin: 10]
[convert_model_language: ]
[convert_model: gbdt_prediction.cpp]
[num_class: 1]
[is_unbalance: 0]
[scale_pos_weight: 1]
[sigmoid: 1]
[boost_from_average: 1]
[reg_sqrt: 0]
[alpha: 0.9]
[fair_c: 1]
[poisson_max_delta_step: 0.7]
[tweedie_variance_power: 1.5]
[max_position: 20]
[lambdamart_norm: 1]
[label_gain: ]
[metric_freq: 1]
[is_provide_training_metric: 0]
[eval_at: ]
[multi_error_top_k: 1]
[num_machines: 1]
[local_listen_port: 12400]
[time_out: 120]
[machine_list_filename: ]
[machines: ]
[gpu_platform_id: -1]
[gpu_device_id: -1]
[gpu_use_dp: 0]

end of parameters

pandas_categorical:[[0, 1, 2, 3, 4, 5, 6, 7, 8, 9], [0, 1, 2, 3, 4, 5, 6, 7, 8, 9, 10, 11, 12, 13, 14, 15, 16, 17, 18, 19, 20, 21, 22, 23, 99], [0, 1], [0, 1], [1, 2], [0, 1], [0, 1, 2, 3], [0, 1], [0, 1]]
